Inputs_node_num= 784
hidden_layer_num= 2
hidden_node_num= 50
output_node_num= 10
0.113019 0.364653 -0.308573 -0.407121 -0.345456 0.338873 -0.126365 0.426129 -0.415606 -0.0754393 -0.101903 0.0150847 -0.0590948 0.0958456 0.177769 0.362815 -0.189106 -0.0703659 0.3494 -0.0486893 -0.135289 -0.349087 -0.441441 -0.0363768 -0.0720019 -0.304155 -0.262598 -0.0709066 0.12262 -0.356964 0.391588 -0.064311 -0.390714 -0.0711176 0.107766 0.466578 0.489375 -0.0455157 -0.0848578 -0.263221 0.154197 -0.380137 -0.384247 0.190276 -0.101189 0.271904 -0.239764 0.0242051 -0.463351 0.402354 -0.229251 0.341034 0.175337 -0.157224 -0.408192 0.429103 0.0418588 -0.461234 -0.258026 0.420158 0.1527 0.324812 -0.0334316 0.066869 -0.433752 -0.0865479 -0.291462 -0.46362 0.305962 0.280206 -0.0634358 -0.284753 -0.0212798 0.0232404 -0.392446 -0.0963467 -0.132831 -0.445823 0.238907 -0.129252 -0.427565 0.47289 0.17027 -0.337262 0.05342 0.155656 0.315726 -0.228851 -0.17153 0.181733 0.160267 0.0703569 -0.204093 -0.446255 0.0119166 0.264398 -0.321066 0.308209 0.191996 -0.367347 -0.187541 0.413865 -0.473637 0.447195 0.436301 -0.228256 0.406013 -0.42958 0.282863 0.0869552 0.430133 -0.299636 -0.144064 0.184887 -0.165194 0.0910121 0.0370573 0.412676 -0.143688 0.146595 -0.398718 -0.152929 0.141679 0.372956 0.4515 0.247394 0.354294 0.168272 -0.162181 0.270586 -0.309806 0.18167 -0.382027 -0.348435 -0.466976 0.12207 0.335589 -0.100383 -0.402745 0.419716 -0.508561 0.34384 0.25206 0.293147 -0.330928 -0.205972 0.504021 0.460765 0.014502 0.436107 -0.323269 0.321041 0.381655 0.188807 -0.45373 -0.214639 -0.310544 -0.261842 -0.0311558 0.409774 -0.174889 -0.475826 -0.0284017 -0.0385029 -0.30383 -0.0283385 -0.063616 -0.345329 0.273097 -0.247192 0.128014 0.192877 -0.50558 -0.465238 0.0262474 -0.367091 -0.0100914 -0.35293 -0.323865 0.0541886 -0.402772 0.296951 -0.386965 0.398897 0.142185 -0.431854 -0.154257 -0.19558 -0.0921451 0.160065 0.0414689 -0.370564 -0.381481 0.0796894 0.0782289 0.332601 0.182235 -0.525273 -0.312212 -0.268148 0.1108 0.230074 -0.315549 -0.384858 0.135535 0.0706516 -0.0424985 0.185146 -0.144155 0.181005 -0.431586 0.283168 0.200446 -0.216432 -0.16485 0.432717 0.157324 -0.48675 0.145907 0.439196 0.397055 -0.438567 -0.428913 -0.388704 0.384936 -0.356882 -0.0420119 -0.437596 0.37009 0.213833 0.121329 -0.339355 -0.302927 0.283766 0.14259 0.250833 0.259542 -0.473737 -0.299504 -0.304438 -0.457797 -0.0583309 -0.291037 -0.174368 -0.102683 -0.228821 -0.507607 0.00963486 0.297219 -0.294544 0.0806371 -0.013817 -0.201817 -0.0367156 0.414252 -0.247708 0.0514951 -0.292516 0.252468 -0.475581 -0.32098 -0.0841056 0.225492 0.114464 0.440579 -0.000323989 0.434156 -0.305449 0.0426625 -0.158403 -0.231212 0.246951 0.221438 -0.089244 0.462948 -0.355835 0.283444 -0.0842162 -0.139793 -0.00271149 0.0724904 -0.0174742 -0.0624947 0.119266 -0.260568 0.0913543 0.189188 0.284049 -0.373162 0.399655 0.433326 -0.145398 -0.210155 -0.243345 -0.402192 -0.376173 -0.361588 0.414657 0.239282 -0.0717458 -0.323768 -0.500005 -0.484708 0.478425 0.118485 -0.246854 -0.103965 -0.296647 -0.121873 0.15267 -0.299153 0.47504 -0.364167 0.0900632 0.466933 0.151425 -0.239646 0.340317 0.344574 0.114441 -0.159109 -0.0204815 -0.24398 0.0926759 -0.340277 -0.3764 0.20955 0.266881 0.259194 -0.24917 -0.421614 -0.0423082 -0.456282 -0.461807 -0.209587 -0.303582 0.39114 -0.0733152 0.120836 -0.0409245 0.371562 -0.0392531 -0.307794 0.176859 -0.133611 0.278492 0.308227 -0.217231 0.155641 -0.140073 -0.182496 -0.182994 -0.223535 0.270498 0.445982 0.233512 0.288811 -0.427475 0.0664802 -0.198095 0.0474258 -0.247633 -0.306024 -0.172712 0.153035 -0.317638 -0.237263 0.430763 -0.25718 -0.291803 -0.0122816 0.0259898 0.300344 -0.43849 -0.0809294 -0.065223 0.13076 -0.00843691 0.305987 0.383584 0.0135761 -0.316451 0.193248 0.245608 -0.443469 -0.101767 -0.0966168 0.276889 -0.091705 0.258575 0.366455 -0.342274 -0.154621 -0.414613 0.0394509 -0.460796 0.490639 0.306843 -0.48009 0.0408165 -0.039604 0.425054 0.306613 0.12683 -0.294207 -0.197413 -0.108353 0.191772 0.277242 -0.292862 -0.493043 0.355168 0.471491 0.100395 0.292599 -0.430462 -0.293674 -0.0210011 0.391391 -0.0649057 -0.412881 -0.413113 0.157364 0.410116 0.209542 0.26387 -0.446132 -0.172026 0.345142 0.423639 -0.386682 -0.514029 0.0495968 0.374824 0.0703227 0.0139275 0.112841 -0.0304293 0.129119 -0.266062 0.0963055 -0.0592156 0.246814 0.00477604 0.423246 0.161945 -0.210108 0.0770969 0.108931 -0.117567 -0.513475 0.153186 -0.0502749 0.41329 -0.10825 0.028101 0.438269 -0.40028 0.365706 -0.00168202 0.305719 -0.176509 -0.323473 -0.461079 -0.116239 0.269558 0.137635 0.191016 -0.266927 -0.0301744 -0.398426 0.44672 0.334122 -0.0416286 0.372163 0.487631 0.294611 0.423055 -0.347553 0.017346 0.286977 0.0810327 -0.292789 -0.346667 -0.373869 -0.0203854 0.100479 0.417087 0.250442 -0.0766777 0.0580776 -0.462085 0.0380788 0.0793426 -0.248715 0.294752 -0.404237 -0.208684 -0.493929 0.135966 -0.296515 0.0109277 -0.120815 -0.184409 0.498583 0.00836515 0.24986 -0.489103 -0.478339 0.0890583 -0.206749 -0.236883 -0.142289 0.140596 0.251178 0.370919 0.0322199 0.41446 -0.316474 0.0957675 -0.284245 0.491421 0.252222 0.279344 -0.39836 0.319929 -0.136753 -0.0567565 0.30532 0.363966 -0.109624 -0.0598449 0.085582 -0.22276 0.420296 0.241792 0.0365715 -0.0111882 0.0908392 -0.0572636 0.0365933 0.00364686 -0.446957 -0.354559 0.237099 0.296931 -0.1608 -0.503201 0.267801 0.347043 0.522462 0.324343 0.366196 0.376867 -0.0710848 -0.354889 0.502315 -0.460253 0.386807 0.176568 0.222849 0.00633563 0.269526 0.0233256 0.0643838 -0.288628 0.476562 0.0886236 -0.125726 -0.0707748 -0.00985487 0.0148715 -0.123678 0.327621 -0.238648 0.265568 0.279823 -0.265769 0.183346 -0.143396 -0.0625709 0.163844 0.10402 0.192047 0.146225 0.120438 -0.20102 -0.100782 0.19365 0.413141 -0.351695 -0.443052 -0.353853 -0.121409 0.283578 -0.13022 0.281355 -0.366425 -0.089476 0.319798 0.457529 -0.0246977 0.213353 0.0112933 -0.135401 0.0821014 0.0175716 -0.44281 0.141235 -0.0366552 -0.569673 -0.299121 -0.499265 0.350985 -0.329369 0.329344 0.107513 -0.332391 0.118508 -0.0850165 0.312426 -0.217684 -0.217862 0.488319 -0.339915 -0.320014 0.145815 0.177838 -0.204055 0.173989 0.155991 0.208149 0.356842 0.47386 -0.507747 0.323952 0.140583 -0.235735 0.344861 -0.296649 0.110344 -0.0934789 -0.199724 0.380991 -0.260718 0.345561 0.0845608 -0.197268 0.252068 0.342837 0.126858 0.0825586 -0.200785 -0.216451 0.127122 0.273291 0.0401558 0.0180706 -0.22406 -0.0655535 -0.0483257 0.212878 0.0529686 -0.432699 0.419214 -0.045964 -0.357757 0.207185 -0.0183001 0.41388 0.444049 -0.302459 0.294124 -0.161852 -0.412934 -0.341267 0.177226 0.471055 -0.345143 0.208577 0.0585769 -0.195463 -0.476842 0.34617 -0.562137 0.0977898 0.0502521 0.461335 -0.370049 -0.333673 0.424087 -0.249903 -0.208163 -0.501516 -0.122456 0.346075 -0.467527 -0.367262 -0.0929185 -0.32555 -0.476034 -0.48076 0.556894 -0.399292 0.0262151 0.0633778 0.398217 0.158859 0.0471742 0.0429263 0.24322 -0.0641916 -0.503813 0.219327 0.106227 -0.148134 0.0653027 0.163545 0.0674029 0.229025 -0.120213 0.179461 -0.328483 0.442594 -0.065922 0.210593 0.311069 0.248325 -0.149847 -0.284701 -0.00470771 -0.313288 -0.181256 0.0640123 0.50057 0.346143 -0.367978 0.0366528 -0.392632 -0.117327 0.189374 -0.369942 0.422046 -0.358251 0.391646 0.284134 -0.1888 -0.194925 -0.213607 -0.529623 0.115921 -0.304786 -0.347276 0.127566 -0.0699596 -0.192096 -0.373356 -0.442486 -0.460222 0.419664 -0.0232013 -0.510169 -0.436395 -0.0911041 0.277635 0.236052 -0.326456 0.313725 0.303153 0.409057 -0.14043 0.346744 0.47053 0.393171 -0.135173 -0.391869 0.0841124 -0.32711 -0.415998 0.00360749 -0.377633 0.00700424 0.289962 -0.445435 0.250532 -0.0643556 -0.486555 -0.362263 0.161216 -0.411798 0.077438 0.293995 0.156604 -0.230521 0.0625275 0.179399 0.0113936 -0.178592 -0.112319 -0.369805 0.104803 -0.224761 -0.205702 -0.0907501 0.395232 0.0956038 0.307383 -0.245057 0.210437 0.425905 -0.369239 -0.187119 -0.517438 -0.150586 -0.100253 -0.388066 0.47013 -0.344855 -0.194756 0.118416 0.296808 0.189437 -0.388512 -0.411805 -0.431813 -0.264507 0.00815892 -0.439669 0.379255 -0.46702 -0.179375 0.314611 -0.570853 -0.315535 0.0408453 0.247348 0.308919 -0.354192 -0.275687 0.217151 -0.179257 0.391896 -0.0715337 0.102966 0.0195427 0.374905 0.438246 0.29734 -0.376727 0.0682788 -0.0387317 0.383562 -0.158235 -0.162709 -0.495048 0.157046 -0.406421 0.273271 -0.468028 -0.44907 0.300557 0.116089 -0.0446383 -0.174137 -0.406515 0.310811 0.0282766 -0.296238 -0.273566 -0.20689 0.433119 0.285836 -0.3759 -0.360108 -0.51461 -0.314335 -0.0583742 -0.196562 -0.312606 0.0613344 0.0370989 -0.26404 0.0424842 0.296909 -0.0859048 -0.186582 -0.293471 -0.261841 0.171973 -0.200593 0.294306 0.463861 -0.466088 -0.55108 0.307749 -0.0954917 0.337813 0.279441 -0.373288 0.278604 -0.238447 -0.463608 0.515798 -0.436354 -0.297952 0.0959416 0.0817054 -0.079425 0.21622 -0.213783 -0.0718024 0.386197 0.461296 0.306453 0.0479412 -0.219716 -0.429903 0.45947 0.447633 -0.516179 0.25134 -0.416672 0.299039 -0.138162 -0.0133097 0.46126 0.230799 0.433545 -0.1683 0.139548 0.259719 0.044137 -0.589566 0.149442 -0.211558 0.112993 -0.201226 0.337962 -0.0898915 -0.0856684 0.40969 0.0754647 -0.443618 0.424284 -0.3758 0.197958 0.336361 0.319502 -0.278496 0.207701 -0.000907995 0.511721 -0.388935 0.37171 -0.195151 -0.143827 0.0962603 0.372877 -0.199926 0.380812 -0.378642 -0.0259466 -0.562885 -0.488851 -0.25952 0.229883 0.371781 0.200707 -0.490642 -0.297658 -0.217127 0.33953 -0.126625 -0.145997 -0.364641 0.236235 -0.308548 -0.298589 -0.193268 0.0592704 0.223167 0.521486 0.408083 0.0772615 -0.515066 0.186064 0.246853 0.499705 0.409539 0.127769 0.274054 -0.108638 -0.311074 0.292923 0.0172037 -0.057605 -0.119352 -0.00402967 -0.391497 -0.0408947 -0.420522 -0.013658 0.505845 -0.202576 -0.232472 0.257234 0.32938 -0.442096 -0.27865 -0.0487175 -0.0573703 0.200495 -0.223581 -0.14139 0.300577 0.370043 0.254414 -0.0471243 0.364287 -0.0618497 -0.0174989 -0.0655757 0.271187 0.4198 0.265766 -0.255745 -0.193055 -0.428192 -0.300612 0.413789 0.107494 -0.43711 0.182875 0.0874748 0.264633 0.25989 0.0925856 -0.157897 0.289932 -0.340911 -0.221108 0.33565 0.205488 0.165733 0.290779 -0.219529 -0.533511 0.417086 0.0464693 0.344831 -0.250308 -0.203612 -0.414913 -0.0984113 0.17597 -0.289473 0.085381 0.0619804 -0.327308 0.136158 -0.462014 0.104293 -0.372013 -0.0613866 0.157091 -0.236739 -0.493561 0.19134 -0.490614 -0.192816 -0.157627 0.305079 -0.456408 0.404573 -0.152507 -0.500925 -0.308114 0.39409 0.0858758 -0.443554 -0.348831 -0.0554432 0.197772 -0.225258 0.0352537 0.288416 0.235658 -0.345033 -0.500699 -0.037969 -0.504798 0.146219 -0.0683006 0.276171 0.449068 0.360311 -0.0144085 -0.186852 -0.385608 -0.422787 -0.246437 -0.0672516 0.421142 0.0938486 -0.438566 0.374489 -0.0973132 0.106348 -0.134855 0.266061 -0.245854 0.359963 -0.380584 0.369429 -0.219001 -0.00681571 0.252223 -0.0429484 0.289347 -0.424442 -0.264225 0.528919 0.376627 -0.0593617 -0.466232 -0.161015 0.0639046 -0.460826 -0.0120547 -0.00282836 0.146602 -0.453459 0.0775659 0.109219 0.129673 -0.0198923 0.221348 0.320742 0.0621324 -0.251574 -0.238458 -0.116146 0.367254 -0.159259 0.183321 -0.393941 -0.229626 -0.436398 -0.347106 -0.292971 0.417053 -0.328431 -0.221141 0.28103 -0.426398 0.191453 -0.325028 0.384203 -0.345194 0.103579 0.162026 -0.00159529 -0.263354 -0.346507 -0.362215 -0.482523 0.477762 0.447934 -0.402516 0.498816 -0.227201 -0.43232 -0.221331 -0.275038 0.360349 0.168584 -0.392103 -0.0593139 -0.115516 0.123676 -0.553996 0.253231 -0.419016 0.0835848 -0.373532 0.165041 0.377827 -0.0513938 0.458431 -0.0713947 0.357149 0.440513 -0.288306 0.196221 -0.258853 -0.382324 0.41948 0.0788996 0.18362 -0.174807 0.221757 -0.156175 0.00161473 -0.0783391 -0.206234 0.312471 0.293922 -0.225821 -0.177327 -0.445561 -0.33476 0.242188 0.383624 -0.15168 -0.0787008 -0.207499 -0.213656 0.367385 -0.159952 0.202156 -0.0538676 0.442175 0.269261 -0.404206 0.10032 -0.424931 -0.191247 0.185247 0.0429304 -0.18672 0.170294 0.469406 0.253722 0.0896482 0.269842 -0.304679 -0.327186 -0.182479 -0.410982 0.045947 -0.469812 -0.427129 -0.138346 -0.20462 -0.456349 -0.289172 0.266568 -0.00466626 0.0745276 0.459923 -0.409018 0.16383 -0.0274358 0.355585 -0.439691 -0.471488 0.379544 0.0330449 0.499132 -0.162535 -0.139418 -0.0882334 0.21709 0.455907 -0.200308 0.156498 0.195113 -0.354175 -0.212893 -0.201892 -0.102237 -0.0197699 -0.0345341 -0.483318 -0.333313 -0.481597 0.118047 0.368145 0.165715 0.169712 -0.260064 0.487498 -0.143894 0.222627 -0.501804 0.43659 -0.0735487 0.0634071 -0.0308712 -0.169955 -0.232186 0.285937 -0.240188 0.226337 -0.00179698 -0.253184 -0.239534 -0.230565 0.479004 0.123506 0.39498 0.0321574 0.0155488 0.123826 -0.173491 0.366408 0.448935 0.27821 0.360908 0.0832066 0.449295 -0.137021 -0.00578625 -0.0571828 -0.356923 -0.451301 -0.251998 -0.290281 0.137026 -0.279456 -0.195275 0.240194 -0.338064 0.32187 0.0818321 -0.0287197 0.133801 0.21986 -0.0704147 -0.162129 0.464211 0.234035 0.115286 0.471547 -0.394329 -0.0829332 -0.382304 -0.227476 -0.371773 0.381804 -0.367974 0.460827 -0.137156 0.199668 0.491096 -0.103269 -0.0242197 0.175002 -0.309786 0.385518 -0.39306 0.270117 -0.299515 -0.513644 0.0266914 0.110123 -0.324467 -0.420513 0.329483 -0.175492 -0.0257204 -0.223929 0.124076 -0.165307 -0.0343837 0.128525 0.0587584 -0.204788 0.397361 0.0348815 -0.0968058 -0.260725 0.267585 -0.396091 0.308604 -0.370341 -0.381146 0.320809 -0.0222744 -0.437125 0.0542405 0.494896 -0.481658 0.468715 -0.384027 0.263252 0.179203 0.412022 0.183678 0.00352243 0.412668 -0.342767 -0.0109719 0.270337 0.15962 0.111282 0.254211 0.313113 0.253578 0.0757391 0.325614 -0.127613 0.32367 0.451619 0.375473 0.0428848 0.314963 -0.0568984 0.0323766 0.330975 0.0163149 0.441965 0.0261227 -0.01883 -0.0436617 0.373756 0.455334 0.299323 0.077678 -0.317025 0.130711 -0.221661 -0.233788 0.243605 -0.131858 0.03348 0.037268 -0.422101 0.196788 0.309868 -0.00210026 -0.107326 0.332556 -0.30121 -0.110105 0.326035 -0.0162701 -0.118679 0.316503 0.0309078 -0.491938 0.51722 -0.00467475 -0.0487309 -0.343811 -0.498933 0.102174 -0.396979 0.45328 0.271127 0.367411 0.253812 -0.146181 -0.0830083 0.317218 -0.330566 -0.232827 0.248792 -0.217636 0.523478 0.174617 0.454433 0.0562474 0.211247 -0.0539416 0.0585581 0.0877158 0.264235 0.256647 -0.143856 0.00283772 -0.338724 -0.277029 -0.500159 0.360629 -0.0328912 -0.474077 0.402108 0.323369 -0.065173 0.100801 -0.369232 0.0672861 -0.39384 -0.43573 -0.318543 0.00270266 -0.175155 0.26938 -0.27391 0.137745 -0.26354 0.366782 0.166213 -0.268864 0.0839533 -0.393446 -0.0178637 -0.474557 -0.180944 0.445925 -0.324241 -0.141069 -0.234763 -0.140869 -0.0795433 -0.402409 0.424292 0.470987 -0.440667 0.317694 -0.0588057 -0.462066 0.1307 0.433951 0.317379 0.285811 0.291371 0.153873 0.369211 -0.0578863 -0.126141 0.284817 -0.236229 0.130445 -0.468008 -0.238517 -0.184807 -0.117554 0.115887 -0.0738923 -0.465225 0.158211 0.288824 0.242097 0.0677771 -0.118323 -0.298297 0.235573 -0.0980953 0.177136 -0.354138 0.181171 0.1195 0.314359 -0.383443 -0.224181 0.251715 0.0107932 -0.0713395 0.261724 -0.133642 0.302541 -0.226086 0.476075 0.371883 0.0141968 -0.106429 0.223269 -0.497905 0.476606 -0.471722 -0.114534 0.00386923 -0.306795 -0.417192 -0.186188 0.423704 0.470663 -0.470689 0.0531652 0.0660543 -0.042801 0.24127 -0.361764 -0.318824 -0.077308 0.0236803 -0.0489226 -0.361282 -0.118348 -0.462256 0.341959 0.247552 0.000942064 0.17592 0.0602117 -0.145748 -0.381837 -0.373913 0.126082 -0.106312 -0.0142466 -0.402334 -0.193413 -0.468337 0.0124334 0.0898391 0.25569 0.0535741 0.0897261 -0.388001 -0.00268757 0.291386 0.437478 0.18359 -0.378428 0.249854 -0.431757 -0.505935 -0.405002 -0.37978 0.354571 -0.16659 0.310964 -0.39982 -0.0134298 -0.0170175 -0.331997 -0.43088 0.466811 -0.296976 0.406963 0.249826 -0.175904 0.409839 -0.219598 0.475312 -0.268586 0.199763 -0.436044 -0.429922 0.451689 0.0168766 -0.276302 0.457809 0.0500665 -0.0604207 0.350836 0.286088 0.0958086 0.0958431 0.0308807 0.363451 -0.272671 0.31582 -0.170096 -0.219912 0.212029 -0.366821 -0.137296 -0.19129 -0.152283 -0.157906 -0.0659015 -0.487517 0.154171 0.458482 0.150506 -0.475485 -0.377956 0.125634 0.0314571 0.174958 -0.455929 0.206025 0.391751 -0.335199 -0.180449 -0.475328 -0.468072 -0.414364 0.0604163 -0.319125 -0.194264 0.107065 -0.05622 -0.0857647 -0.481982 0.339446 0.283941 0.0568285 -0.459492 -0.118325 -0.473413 0.391895 -0.0699365 0.0899122 0.223497 -0.304578 0.21083 -0.44237 -0.084413 -0.335173 0.19865 0.00976455 0.278543 -0.150573 -0.0612857 0.449593 -0.309259 0.454099 0.220112 -0.465112 0.502321 -0.313765 0.141865 -0.454321 0.220899 0.322292 -0.0414044 -0.480204 0.465419 -0.059334 -0.343381 -0.0115303 -0.405845 0.0568512 -0.00332784 0.0324744 -0.264413 0.177259 -0.0102176 -0.152234 -0.440083 0.252506 0.304505 -0.246476 0.37334 0.267656 -0.360384 -0.376457 -0.280212 -0.353611 0.410202 0.331673 -0.230661 -0.0825054 -0.161798 -0.059158 -0.210779 0.0182442 -0.0934127 0.212528 0.0582051 0.110071 -0.301961 -0.145178 0.394798 -0.375859 -0.365079 0.0030955 0.241822 -0.357137 0.338522 -0.382429 0.236847 -0.480233 -0.259346 0.219898 -0.183183 -0.206778 -0.29976 0.0621568 -0.459521 0.015278 0.0786385 -0.353961 -0.256346 0.202917 -0.108098 -0.453412 -0.0854501 0.135815 0.154411 0.136566 0.222713 -0.277644 -0.332225 0.290561 0.161054 -0.411705 -0.424578 -0.0787666 -0.470521 0.095734 0.453881 -0.499321 0.0730011 0.0788072 -0.408792 -0.0518741 -0.271203 0.120888 -0.127484 -0.300432 -0.281193 -0.0477749 -0.481314 -0.327954 -0.377811 -0.0691947 -0.0129154 0.0906104 0.0371334 0.518139 0.389823 0.480552 -0.249713 0.268077 -0.0472284 -0.0401145 0.263979 0.134998 -0.157266 0.303394 0.306489 -0.312862 0.128434 -0.356241 0.460308 0.152034 0.167908 0.100476 -0.150985 -0.64372 0.45957 0.0405212 -0.095998 0.0651152 0.389491 -0.143941 0.444189 -0.0774333 0.392758 -0.395106 0.108391 0.162853 -0.13276 0.317203 -0.196304 0.0734351 0.28504 -0.513241 -0.379398 -0.062621 -0.114619 0.0613256 -0.391142 -0.37899 0.191957 0.278382 -0.243705 -0.122908 -0.32173 0.294674 0.340053 -0.45409 -0.291035 -0.405099 0.165079 0.351856 -0.427225 0.183238 0.120331 -0.0250308 -0.344022 0.271245 0.344244 0.218616 -0.0917841 -0.391784 -0.182409 -0.229703 -0.198569 -0.289488 -0.297896 -0.0894516 0.135927 0.68524 -0.231685 -0.0048213 -0.478461 0.378958 -0.387185 -0.135073 -0.333725 0.277235 -0.449353 -0.247002 0.114717 0.14981 -0.567547 -0.337692 0.353114 -0.34999 0.354955 0.218963 -0.032281 0.188257 -0.294757 0.26863 0.354297 -0.223771 -0.182702 0.412647 0.523375 -0.0123418 -0.412795 -0.0468087 0.0194535 0.445075 -0.125187 -0.177785 -0.539358 -0.0488188 0.603383 0.0409907 -0.162219 -0.0437728 0.350508 0.331927 0.13344 0.287267 0.22412 -0.285413 0.187348 -0.155936 0.078556 0.295994 -0.123488 0.332197 0.392159 -0.393324 0.220972 0.177732 -0.599405 -0.59213 0.434937 -0.0527756 -0.160806 -0.305745 -0.0158039 0.104068 -0.303683 -0.155646 0.29756 -0.0369163 0.383988 0.118943 -0.467173 -0.265427 0.495116 0.284915 0.179502 -0.514714 0.23119 0.52321 0.213745 0.185495 -0.399451 0.381283 -0.516779 -0.385567 0.30213 0.0740955 -0.212701 0.0714419 0.149075 0.122829 0.226285 0.438191 -0.328136 0.163446 -0.0518852 -0.369984 0.38284 -0.129171 -0.0248419 -0.0481351 0.296815 -0.106654 0.209392 -0.260963 0.197892 -0.0058787 0.0979699 -0.418264 -0.383327 -0.276944 0.333433 -0.300896 -0.156436 0.443433 0.187981 0.0190275 0.466246 0.0963473 0.406533 -0.330058 -0.552796 0.0427929 0.403624 -0.261464 -0.326186 0.466763 0.523984 0.508253 -0.0479748 0.206706 -0.148454 -0.253219 -0.156469 0.0691603 0.321271 0.0794439 -0.275429 -0.336726 0.354289 0.152433 -0.445655 -0.191148 -0.198283 -0.210521 0.0814479 -0.317395 -0.31601 -0.16184 0.160789 0.477916 -0.198576 0.391813 -0.204981 -0.058054 0.205936 0.385463 0.0912979 0.371725 0.231786 -0.176492 -0.288428 0.358552 -0.163128 -0.359391 -0.271801 0.268729 -0.299196 0.182742 -0.332429 -0.360599 -0.370403 0.396216 0.381153 -0.0166271 0.0211428 0.436408 -0.207327 -0.404592 -0.398809 -0.222826 -0.38173 -0.46871 -0.28432 -0.0541692 -0.121142 -0.286331 0.278854 -0.381177 -0.244075 0.265739 -0.56161 -0.379263 0.525058 0.203154 0.254757 -0.51095 0.0416237 -0.16369 0.321515 -0.181614 -0.150236 -0.378715 -0.472731 0.179954 -0.104192 -0.252616 -0.104165 0.39521 0.085533 0.269106 -0.0927607 -0.323063 0.37196 -0.287856 -0.150182 -0.220114 -0.133898 -0.235559 -0.444432 -0.120421 0.28565 0.247816 0.0936827 -0.390022 0.410581 0.369533 -0.204475 0.412842 -0.3067 -0.0320285 -0.459304 0.200204 0.160559 -0.10412 -0.182234 -0.310882 0.20747 -0.397875 -0.171166 0.370368 -0.114956 -0.21566 -0.035265 -0.0818355 0.300728 -0.306784 -0.390595 0.0651542 -0.408019 -0.104909 -0.398998 0.357453 0.358441 -0.231434 -0.193099 -0.514164 -0.625071 0.225213 -0.334173 0.298718 0.227677 -0.378137 -0.100299 0.0924863 0.383471 -0.459903 0.46095 0.250038 -0.23563 -0.153856 0.180239 0.212012 -0.294537 -0.203434 -0.463082 0.572519 -0.017504 -0.233972 0.107147 0.315366 -0.403429 -0.258871 0.365307 0.519652 0.286306 0.398591 0.434278 -0.418675 0.262316 -0.160839 -0.502867 -0.108631 0.437044 0.375484 0.459847 0.348668 -0.174538 0.389983 0.462562 0.462988 0.0408876 0.444335 -0.340958 -0.534598 -0.183301 -0.42248 0.191622 -0.314285 -0.311275 0.0303177 -0.226641 0.456177 -0.173322 -0.207255 -0.278791 -0.0694757 0.170795 -0.0253402 0.086424 0.15399 -0.167115 -0.0491084 0.19293 0.405766 0.383207 0.120283 0.409193 -0.300103 -0.0245843 -0.0833869 0.192611 0.295596 0.0481745 0.402249 0.347504 -0.430151 0.202543 -0.338783 -0.305257 -0.258174 -0.389645 -0.166221 -0.00866874 -0.256366 -0.395335 -0.361509 -0.0536347 -0.183615 0.512303 -0.0551421 -0.0143772 0.465696 -0.217823 0.37399 0.129878 -0.127615 0.0870649 -0.235912 -0.244574 -0.234269 -0.422409 -0.315886 0.15138 -0.436747 0.363866 0.482069 0.31333 -0.211156 -0.0766864 -0.497398 -0.195658 0.135548 -0.284277 -0.372539 0.309367 0.0791682 -0.0896831 0.142005 0.373179 -0.424118 -0.297677 -0.196166 0.273054 -0.493584 -0.0387053 -0.447359 0.434757 0.351243 -0.53292 0.425576 0.225396 0.0760734 0.0717506 0.178428 0.31883 0.0400256 -0.185491 -0.465084 -0.312884 0.249495 0.144282 0.214597 -0.493172 -0.035882 -0.262292 0.0192445 0.175571 -0.172945 0.0837334 0.108194 -0.11429 -0.43426 -0.00824332 -0.0478209 0.274859 -0.449772 -0.123285 0.22628 -0.556572 -0.275062 -0.454556 -0.10776 0.397352 -0.293822 0.0972819 0.345156 -0.286727 -0.346053 -0.171944 -0.347643 -0.316859 -0.488448 -0.000215917 0.248245 0.175633 0.0593193 0.227654 0.174679 0.308366 -0.0162364 0.411218 -0.377303 0.480902 0.209762 0.0907922 0.120932 0.0665015 0.0066634 0.279462 -0.00483216 0.00361777 0.496889 -0.327832 -0.0509144 0.157763 -0.373952 -0.206181 0.395595 0.409887 0.390579 0.300315 -0.0427858 -0.10256 0.0523233 0.471389 -0.344048 -0.309743 -0.338341 0.214009 -0.265697 -0.0657448 0.118986 0.476591 -0.548343 -0.312551 -0.0481503 -0.370326 0.22959 -0.0432221 -0.420657 -0.434942 0.348844 0.44791 0.133613 0.139627 0.282482 0.0622872 0.479611 0.227535 -0.0923658 -0.258861 -0.352237 -0.29032 -0.103615 -0.358915 0.257003 -0.283401 -0.382602 0.314127 0.104735 -0.237602 0.185529 0.19639 0.394457 -0.182907 -0.466935 -0.00489796 -0.0704385 -0.0913663 0.0711841 0.189676 -0.433258 0.348566 0.291628 -0.469236 -0.216422 -0.335871 -0.501499 -0.370435 -0.302085 0.109147 -0.141384 -0.210548 -0.0630997 0.193798 -0.372512 -0.420633 0.0472813 0.398842 -0.039047 -0.380619 0.334205 -0.51952 0.147068 0.000377548 -0.322126 0.305914 0.383352 0.430677 -0.432897 0.496974 0.48533 -0.409735 0.294752 -0.43344 -0.0310064 -0.0974444 -0.496396 -0.0907732 0.292311 0.446584 -0.24766 -0.149517 -0.144132 -0.466893 -0.140861 0.249611 0.485036 0.1315 -0.490042 0.464426 0.22726 0.274477 -0.468944 -0.0718306 0.483209 0.293642 0.11787 0.302041 0.502778 -0.121712 -0.341219 -0.0745899 -0.496965 0.424444 -0.282287 0.446815 0.376294 -0.453942 -0.0995012 -0.542702 -0.154813 0.348862 -0.291427 0.292883 0.0800916 -0.18232 0.0846047 0.235167 0.0642073 -0.418879 -0.0851493 -0.205542 -0.364252 -0.31668 -0.229903 -0.246092 -0.189855 -0.172307 -0.23085 0.408304 0.0638054 0.421197 0.0526756 0.107414 0.443847 0.350175 -0.178801 -0.165827 0.112368 0.347437 -0.325761 -0.176615 0.0698219 -0.107429 -0.575892 0.218036 -0.296114 -0.0383871 0.498775 0.330189 -0.407556 0.13722 0.109565 -0.460224 -0.272962 0.405446 -0.240719 -0.399711 0.0921934 0.0210919 0.0589936 -0.0869442 0.176649 -0.159589 -0.127031 0.0870317 0.315133 -0.350179 -0.45868 -0.260053 -0.329232 0.26129 0.381092 0.301318 0.0429169 0.014344 0.419591 -0.0519859 0.237168 0.174603 -0.351102 -0.470749 -0.0474771 0.136875 0.339668 0.248262 0.488952 -0.115555 -0.531042 -0.362403 0.241078 -0.270033 -0.0655233 -0.273054 0.0373516 -0.504608 -0.426681 0.124582 -0.44187 -0.479899 -0.239381 0.423356 -0.100076 0.148635 0.319676 0.160499 0.407761 -0.30621 -0.174117 0.0668482 -0.179439 0.379417 -0.523277 0.0669388 -0.412569 0.0951668 -0.268869 0.459812 -0.491123 0.45567 -0.108942 -0.39408 0.472776 -0.47155 0.381133 -0.01915 0.165063 -0.108213 0.0507077 -0.0772142 -0.0295959 0.0969135 0.191963 0.0919776 0.323725 0.332913 0.228189 0.325684 0.399477 0.24423 0.343236 -0.362889 -0.244995 0.137051 0.397913 0.161928 -0.28704 0.289614 -0.0886315 0.0469461 0.018024 -0.16774 0.130272 0.355071 -0.401583 -0.363147 -0.0177749 0.343176 -0.0128949 -0.00632511 -0.0808192 -0.00816508 -0.193531 0.409026 -0.261255 0.0847548 -0.402294 -0.0236264 0.322001 -0.0805932 -0.0602483 -0.0251789 -0.0734332 0.321401 0.301072 -0.1718 -0.0900455 0.278161 0.459631 -0.494706 0.155733 0.0235743 -0.334933 -0.00834312 0.484971 -0.376154 0.00309965 0.0711767 0.237628 -0.242967 0.211099 0.380658 0.0423014 0.0629253 0.350637 0.210708 0.13976 0.451676 -0.367426 -0.128871 -0.0724091 -0.275342 -0.423606 -0.146726 0.294057 0.171828 -0.363877 -0.315739 -0.183202 -0.421515 0.455974 -0.496683 0.405471 -0.464865 0.438368 -0.0559106 -0.141877 -0.0127698 0.20771 -0.214902 0.139753 0.0512534 -0.395878 0.37989 -0.279704 0.134979 0.425948 0.22742 -0.109056 0.103245 0.34659 -0.0350476 0.493068 -0.508798 0.266462 0.259608 0.0486559 0.349144 0.144075 0.104548 0.0125108 0.0905434 0.388043 -0.296105 0.0699851 0.0388068 -0.0536137 -0.326281 -0.134529 0.241748 -0.0367572 0.24813 -0.252816 -0.00669027 0.300987 0.335123 -0.381004 -0.273203 0.286612 0.263727 0.492558 -0.182207 0.393412 -0.0518747 -0.308508 -0.384557 -0.300861 -0.383778 -0.205068 0.448824 -0.045108 -0.34695 -0.214721 0.176604 -0.211359 0.2836 0.281858 0.225691 -0.470739 0.210692 0.133255 0.106387 -0.19116 -0.453962 0.462264 -0.362175 0.203428 -0.417087 0.353097 -0.429886 0.0467219 0.230081 0.200151 -0.0356869 -0.257626 0.48252 -0.337233 0.267094 0.110176 0.392035 -0.132963 -0.0372741 -0.0369276 0.25467 -0.062059 -0.427789 0.403857 0.462727 0.187626 0.34003 -0.23774 0.274285 0.432555 -0.13064 0.266824 0.0795616 0.31917 0.184217 -0.177444 -0.25083 0.149401 0.317134 -0.323792 -0.192359 0.248842 -0.455788 -0.361977 0.115369 0.285303 0.35639 -0.247638 -0.440041 -0.176032 -0.475536 0.105961 -0.0188418 0.365843 0.249912 0.134146 -0.247773 0.472891 0.38497 -0.438253 -0.124588 0.25429 0.223728 0.469532 0.149531 -0.29834 0.479436 -0.343346 -0.0604667 0.388382 -0.437472 -0.274287 0.391411 -0.399439 -0.11627 -0.331309 0.0136825 -0.180693 0.120059 -0.413638 -0.272291 0.409065 -0.0445748 0.272608 -0.473408 0.458712 -0.13327 0.125777 0.489905 0.33494 0.322557 -0.322752 0.241052 0.125495 0.143676 0.130196 0.238578 0.215131 0.372908 0.436633 -0.189358 -0.240277 -0.121215 0.361033 -0.359505 -0.168806 -0.376058 0.0584043 0.035685 -0.468042 -0.247666 0.144626 0.195422 -0.28047 -0.435282 -0.362759 0.114582 0.422959 -0.487059 0.299842 0.469704 -0.0794478 0.446975 0.443184 0.330025 -0.139996 -0.0592727 -0.0282975 -0.199325 -0.295646 0.0638183 0.220298 0.271889 -0.328298 -0.412669 0.109978 0.0873304 -0.208823 -0.305986 -0.509853 -0.0973261 -0.218577 -0.452797 -0.420604 0.0524511 -0.319123 0.407096 0.160974 -0.12202 0.394297 0.0960333 0.406272 0.154315 -0.235574 0.281065 0.143529 -0.358595 0.0127212 -0.0693387 0.444581 0.155146 -0.202359 -0.268125 -0.227442 0.391763 -0.469765 -0.0730034 0.200313 -0.0293814 0.261117 -0.121858 -0.172922 0.222086 -0.290248 0.106148 0.39742 -0.00967112 -0.295698 0.487412 -0.186316 -0.0801765 0.393415 -0.0220391 0.451007 0.034784 0.342662 -0.0554164 0.159989 0.182747 0.0567337 -0.22096 -0.0713378 -0.049988 0.427679 0.304212 -0.405622 -0.200046 0.0837329 -0.365134 0.322155 0.23095 -0.0973407 0.124003 0.0988086 -0.202172 -0.112332 0.0870126 0.0633664 -0.0302441 0.158822 0.160408 -0.308776 0.393682 0.196212 -0.480517 -0.268892 -0.126986 0.00796969 0.0988554 -0.106703 0.282461 -0.194837 0.44454 -0.034 0.27741 -0.299348 0.253777 -0.365894 0.00896896 -0.491965 0.0940259 0.186782 0.089201 0.0126932 0.339082 -0.00904953 -0.374092 0.482726 -0.425656 0.238743 0.119097 -0.177424 -0.111415 0.0718819 0.121191 -0.118137 0.31661 0.41719 -0.0320872 -0.104796 -0.0942755 -0.480698 0.269244 -0.208511 0.451125 0.431492 -0.489611 0.0203683 0.203676 0.243258 0.184527 -0.0351991 -0.157258 -0.422444 -0.427055 0.0838743 -0.139525 0.440484 -0.0493015 -0.188754 0.13392 0.0884192 -0.271629 0.189385 -0.220301 -0.266984 0.267508 -0.406669 -0.269145 -0.133453 0.360924 0.168634 -0.345502 -0.475558 -0.311362 -0.386735 -0.304212 -0.0171844 0.0810174 -0.0310906 0.126547 0.190964 0.142815 -0.388381 0.408579 -0.0982691 0.304408 0.21254 -0.382518 -0.0868479 -0.408358 -0.111872 0.428733 -0.272134 -0.317601 -0.300174 -0.170661 0.414823 -0.0406446 0.227724 0.318642 -0.225735 0.0821887 0.317101 0.187168 -0.228843 -0.388248 0.2762 0.472193 0.380423 -0.432271 0.350034 -0.127537 0.413081 0.0583165 -0.139087 0.427707 -0.0877069 0.298092 0.0495305 0.403057 0.0378524 -0.120483 0.142598 -0.487007 0.473879 0.19098 0.00602545 -0.016039 -0.495092 -0.0873807 0.00942249 0.471333 0.00800885 -0.118609 -0.268839 -0.298694 0.266206 -0.148655 -0.0780805 -0.497195 0.0626127 -0.296461 0.468265 0.037658 -0.393253 -0.116344 0.0230743 0.0715146 0.317375 0.108539 0.12774 0.386803 -0.389895 0.394202 -0.299784 -0.421021 0.0135822 -0.415171 -0.0218258 -0.433952 0.0518929 -0.335331 0.0714613 0.113587 0.0618925 -0.518832 -0.19015 0.169387 0.0402139 -0.0956245 0.384359 0.151448 -0.178229 -0.472299 -0.03168 -0.144231 -0.419928 -0.101062 0.421261 -0.508049 -0.0348005 -0.116538 -0.365097 0.284565 0.283293 0.150657 -0.348083 0.210626 -0.376662 -0.236812 0.447762 -0.0191192 0.377326 -0.375775 0.505227 -0.318979 -0.310193 -0.312518 -0.183926 -0.00964318 -0.516657 -0.172992 0.431025 -0.343845 0.336282 -0.183845 0.411797 -0.170428 -0.373995 -0.143536 -0.400728 -0.440126 0.303602 0.480772 0.359254 -0.509296 -0.132716 0.250578 -0.344826 0.179364 0.0747813 -0.141371 0.290629 0.177722 0.519784 -0.0546625 -0.402744 -0.16557 0.220137 0.136055 -0.334284 0.440437 0.321769 0.446333 -0.0172338 0.187077 -0.394619 0.0277462 -0.227339 0.372422 0.278892 -0.191251 -0.524625 0.325765 -0.215318 -0.205379 -0.139997 0.434634 -0.101561 -0.29993 -0.260747 -0.16622 0.309788 -0.332072 0.00350246 -0.231449 0.264245 0.486543 -0.426906 0.290017 0.364589 -0.0406811 -0.490936 0.351065 0.53988 0.0324749 -0.171117 0.407758 0.49135 -0.566009 -0.235326 0.319228 -0.226075 -0.0492258 -0.329382 0.124973 0.144004 0.523745 -0.17141 0.0903835 -0.540743 -0.191636 -0.524348 0.23301 0.299454 -0.45469 0.101308 -0.399092 -0.109017 -0.0672823 0.125939 0.0399025 -0.213278 0.51885 0.153491 -0.353065 0.308261 -0.570998 -0.129461 -0.134557 0.258499 -0.003576 -0.178569 0.440607 -0.293559 0.478412 -0.252805 0.497558 0.0318323 -0.0449989 0.536043 0.33164 -0.0890993 -0.18444 0.489663 -0.047639 -0.328418 0.054066 -0.0170805 0.171895 0.111645 -0.423838 0.284395 -0.141891 -0.263459 -0.527453 0.206166 0.106913 0.338297 -0.23522 0.103653 0.432368 -0.242256 0.487109 0.0504642 0.22983 0.23736 0.274568 -0.0789348 -0.416458 -0.528095 -0.0225306 0.0315952 -0.228295 -0.294027 -0.0851026 0.0823033 -0.0583593 -0.373701 -0.110265 -0.370932 0.154019 -0.0429476 -0.597237 -0.246001 -0.421803 0.419463 0.228337 -0.0590185 -0.125673 0.144205 -0.192958 0.139539 -0.545634 -0.283332 -0.348156 0.263389 0.0360794 0.466723 0.0822403 -0.300192 -0.0551499 -0.347119 -0.29469 -0.296144 -0.354126 0.243308 0.11932 0.177581 0.464213 -0.208539 0.317853 0.11622 0.307196 0.603756 -0.603149 0.413546 -0.357493 0.3645 0.28465 -0.433209 0.367354 -0.389138 0.262016 -0.113861 -0.455838 -0.168435 0.240295 0.0807836 0.368645 -0.291533 -0.393599 0.0203273 -0.525354 -0.0897158 0.40949 0.345607 0.485869 0.447846 0.0466587 0.0308775 0.445086 -0.390136 0.281086 -0.325396 -0.618971 -0.341173 0.271863 -0.123431 -0.557871 0.0250833 -0.309658 0.234178 -0.0053531 0.191144 -0.449819 -0.0208129 0.377039 0.45409 -0.450093 0.0782445 0.288748 -0.183732 -0.0938254 0.735204 -0.13917 0.496177 0.133402 0.148821 -0.381315 0.345223 0.245122 -0.17611 0.459008 -0.0291878 -0.108192 0.225885 -0.568986 -0.358532 -0.186704 -0.516906 0.477414 0.327647 0.166656 0.469252 -0.420405 0.209934 -0.100419 -0.17094 -0.283441 -0.355077 -0.144862 -0.381808 0.135612 -0.0657899 0.215582 0.209979 0.309722 0.504746 -0.627435 0.863794 0.225835 -0.363681 0.0479788 -0.247998 -0.351937 -0.268257 -0.0612285 0.0710694 0.298608 -0.955851 -0.326673 -0.0837689 0.524257 0.448447 0.140865 0.0151484 0.303359 -0.0414181 0.236251 -0.0272565 -0.549113 -0.566078 0.618066 0.327738 -0.66306 0.304162 0.241451 0.269759 -0.587418 -0.176231 0.122964 -0.444238 0.140575 -0.0553403 0.175431 -0.378005 0.199177 -0.0630912 0.218792 0.212706 -0.355436 0.486082 -0.00615719 -0.113705 0.226166 -0.181341 0.208798 0.58449 0.121306 0.126006 0.182905 0.642881 -0.616551 0.0178227 0.172024 0.223787 -0.00376337 -0.114473 0.402673 -0.815762 0.322191 0.819359 -0.0433335 0.186111 0.158598 0.596393 0.219539 -0.0726431 -0.238262 0.0844789 -0.213291 -0.577665 -0.454047 -0.0535211 -0.38773 0.495965 -0.68142 0.267312 -0.0806117 0.243625 0.155713 -0.435718 0.0295853 -0.370191 0.296601 -0.0678987 0.0314874 -0.025907 -0.291178 -0.0671028 -0.0684709 0.201061 0.097307 -0.135992 0.126456 0.37919 -0.413616 0.449509 0.129039 0.57414 0.116623 0.178567 -0.297261 -0.592503 0.0415854 -0.400085 0.528654 -0.320953 -0.00334363 0.0840535 -0.211775 -0.321134 0.431211 0.37583 0.0168406 0.197711 -0.0144683 0.432059 -0.24257 -0.19823 -0.545506 0.0790408 -0.201648 0.147186 0.00182405 -0.117879 -0.586904 -0.15691 -0.239517 -0.246005 0.362536 -0.218121 0.47099 0.213973 0.0599698 -0.210526 -0.190671 -0.0411792 0.274147 0.55772 0.0879307 0.0611716 -0.228874 0.0495336 -0.0779228 0.786204 0.282051 0.678208 -0.702396 0.24085 -0.353256 -0.52181 -0.542387 -0.277809 -0.158702 -0.463278 -0.208043 0.130163 -0.0407742 -0.222891 0.190377 0.0026849 0.498001 -0.382329 0.0828731 -0.0676067 0.140182 0.0485319 0.482093 -0.108447 -0.101774 -0.530927 -0.350522 -0.261449 -0.786105 0.00739906 -0.457687 0.10676 -0.33515 -1.04066 0.427264 0.0134997 0.0578396 0.209692 -0.228424 0.0792428 0.384527 -0.236768 -0.347709 -0.0452423 0.208024 -0.195381 0.283671 -0.293083 -0.545398 -0.0225415 -0.425707 -0.285934 -0.518496 0.11034 0.410491 -0.206392 -0.450826 -0.130856 -0.1455 -0.0597303 0.208682 -0.555484 0.37982 -0.405533 0.00533304 -0.52445 0.425879 0.169001 -0.0121905 0.0823564 0.017964 -0.488312 0.671395 -0.148954 0.3944 -0.492879 0.493146 -0.37768 -0.522543 0.181072 -0.419745 0.146293 -0.0338722 -0.379157 0.127961 0.0286304 0.238134 0.0533811 0.0292757 0.328596 0.42484 -0.404584 0.445552 0.215316 0.625968 0.369292 -0.305853 0.547735 -0.234764 -0.392878 0.0492474 -0.421105 -0.166407 0.0418331 0.407895 0.135623 -0.0950334 0.090195 -0.370844 -0.31765 -0.347126 -0.448441 0.176709 -0.432848 0.427227 -0.407577 0.0816724 0.350183 -0.426993 0.516839 0.234892 -0.26857 -0.0782902 0.315642 -0.286165 0.0998433 0.150701 -0.250953 -0.0417079 -0.584354 -0.544819 0.147873 0.139904 0.16058 0.195388 -0.0526872 -0.426795 0.444498 -0.144656 -0.41564 -0.0309147 -0.0963574 0.488117 0.472996 -0.408126 -0.447549 -0.1752 -0.297121 0.20082 0.18501 0.495644 0.390836 -0.416534 -0.00849785 -0.011335 0.0917245 -0.641601 -0.114993 0.375697 0.135281 0.337287 0.357867 0.402715 -0.307969 -0.399235 -0.236936 0.20978 0.470161 0.0432663 0.373942 0.101189 -0.0354371 0.0747086 -0.149889 0.48655 -0.221264 0.00316983 -0.49293 -0.223908 -0.1454 0.0407674 0.100997 -0.224099 -0.239353 0.348507 -0.395964 -0.678309 -0.0585702 0.0846118 0.44437 -0.132306 -0.34461 0.0853313 0.325558 -0.216051 0.0971414 -0.171905 0.564938 -0.618712 0.234352 0.408579 -0.239533 0.100168 -0.286955 -0.0323765 0.356651 0.31744 -0.346184 0.0648634 -0.119705 -0.325154 0.0305487 -0.216608 -0.370168 -0.116561 -0.758411 0.238737 0.63121 -0.656202 0.684371 -0.572928 0.138451 0.411977 0.31936 0.0974492 -0.363264 0.0603676 0.304199 -0.736306 0.229954 0.146148 -0.331112 0.252277 -0.390845 -0.0861662 0.0664811 -0.330319 0.153745 0.139996 -0.126956 0.256036 0.018737 0.42207 0.381189 0.252834 0.182706 -0.366164 0.201777 -0.491653 0.0725061 -0.103677 0.0694407 -0.502984 0.46325 -0.31465 0.158832 0.18705 0.0248694 -0.212557 -0.0823059 0.387814 0.645271 -0.497785 -0.324582 0.35673 -0.491225 -0.0566225 0.416583 0.363131 0.0695039 0.00896402 -0.216638 -0.0827183 0.532801 0.0955046 -0.181884 0.287537 -0.178829 0.0448181 -0.0588107 0.1286 0.150953 0.586779 0.169983 0.251036 0.409159 -0.342362 0.160457 -0.238621 0.290858 0.169103 -0.330182 0.00701383 -0.363211 0.213377 0.272473 -0.549907 -0.0742656 0.00590386 0.48365 -0.0168477 0.293736 -0.155026 0.341431 0.433733 -0.264324 -0.0506856 0.344626 -0.00876976 -0.206281 0.451842 0.143857 0.213505 -0.429901 0.401771 -0.251738 -0.186289 0.319403 0.331423 -0.0124176 -0.603254 -0.386147 0.680354 0.541675 -0.324402 -0.131049 0.236314 -0.117836 -0.251795 -0.327724 -0.301096 0.0180525 -0.521065 -0.169999 -0.0253046 -0.305423 -0.684208 -0.0306613 0.318814 0.409058 -0.136932 -0.731823 -0.301268 0.238005 -0.0995228 -0.206216 -0.330405 -0.205015 -0.0421612 0.125146 -0.235551 -0.110562 0.425855 -0.126168 0.445029 0.0802723 0.139039 -0.0962708 0.0552154 0.217426 0.432018 0.152311 0.441266 0.269649 0.224565 -0.0565041 -0.379278 -0.198621 0.0445692 -0.0711239 -0.00184436 -0.0739041 0.530893 -0.47051 -0.223148 0.10426 0.0103362 -0.205125 0.338362 0.0840957 -0.108155 0.266113 -0.171207 0.162773 0.199233 -0.485934 -0.440075 0.574215 -0.256161 -0.399451 0.181553 -0.356488 0.0807528 -0.233744 0.0598673 -0.304957 0.0335199 0.484298 0.150009 -0.0197264 -0.347891 0.393017 -0.242611 -0.059607 -0.273149 -0.203054 0.457712 -0.193231 -0.0730411 -0.0207923 -0.0285323 0.246231 -0.451455 -0.254489 0.454696 -0.527373 -0.119915 -0.311237 -0.346592 -0.204791 0.357213 -0.0970857 -0.0591914 -0.370397 0.130406 -0.311859 -0.338929 0.217906 0.36012 -0.35657 -0.189094 -0.124432 0.0016055 -0.218056 0.314185 0.370766 -0.0929946 -0.234858 0.194966 -0.329513 -0.0779053 -0.440985 0.325506 0.0198674 -0.204115 -0.43752 -0.0797769 0.180165 -0.472149 0.299195 -0.399326 0.149471 -0.0623956 -0.475321 -0.428996 0.12699 -0.086457 0.405634 -0.306376 0.419355 -0.288393 0.386819 -0.351651 0.428683 0.409731 0.0498542 0.359495 -0.153296 -0.0379597 -0.201253 0.436321 -0.0045047 -0.438786 -0.277321 -0.359866 0.273791 0.00428664 0.473281 -0.208984 0.124786 0.1041 0.387918 0.464368 0.407305 -0.230906 -0.458099 -0.478113 0.135282 0.319655 -0.206242 0.144848 0.349003 0.124404 0.488719 -0.242995 0.389379 0.381767 0.365243 -0.383509 -0.280378 0.380883 -0.272943 -0.227986 0.283647 -0.360197 0.252542 0.40845 0.151264 -0.426592 0.337547 0.251474 0.0157461 -0.0536414 0.453201 0.0845768 0.0317896 -0.0298895 -0.370798 -0.265228 -0.333578 0.109856 -0.140083 -0.249491 0.128252 -0.401421 0.314879 -0.192424 -0.336578 0.199889 -0.19187 0.021831 0.328018 -0.0468078 -0.321659 0.347731 0.483305 -0.326526 0.0333845 -0.39282 -0.262851 -0.0890319 0.439118 0.425788 -0.00130705 -0.0586716 -0.456516 -0.411224 -0.165656 -0.00529944 0.286145 0.185265 0.366145 -0.363261 0.132991 0.112144 -0.0101257 -0.479586 0.00165407 0.230817 0.495754 -0.218532 -0.333027 0.228901 0.0907643 -0.0568571 0.0723482 0.134726 -0.27582 0.424943 0.239721 0.259044 0.290858 0.145308 -0.07711 -0.296731 0.130499 -0.0511409 -0.177341 0.0265292 -0.526973 0.103508 0.264422 -0.0674517 -0.237835 0.427662 0.0933802 -0.199326 0.434758 -0.16442 0.236352 -0.143523 0.491081 0.39179 0.445127 -0.3829 -0.443195 -0.0539523 -0.22997 -0.268217 0.14195 -0.443133 -0.454045 0.0875949 0.477829 -0.463355 0.175458 -0.116169 0.323366 0.308177 0.391989 0.254748 -0.165849 0.0437331 -0.455049 0.368966 -0.0356215 -0.328844 0.452259 0.366362 -0.105737 -0.161492 -0.462201 0.468201 0.247539 0.102085 -0.497514 -0.463822 -0.187327 -0.0720192 0.307155 0.244264 0.328406 0.309781 -0.44071 -0.26479 -0.490827 -0.413044 0.120903 0.265562 -0.207858 0.489939 0.208885 0.357971 0.428345 0.0301511 -0.445655 0.0929413 -0.289205 0.0358702 -0.0557619 0.36335 -0.166349 -0.0134406 -0.164429 0.162519 -0.0894857 4.07686e-06 -0.124379 0.152646 -0.263589 0.328225 -0.39065 0.43833 -0.288161 0.478102 -0.329439 0.433476 0.122935 -0.283887 -0.250716 -0.0709052 0.129086 0.0928885 0.44978 -0.32098 0.44583 0.432528 0.0855714 0.454991 0.422596 0.312736 -0.322404 -0.227558 0.241611 0.204623 0.500933 -0.316099 -0.424663 -0.360523 0.164496 -0.0732671 0.32708 0.385566 -0.395158 -0.297668 0.319475 0.0371779 0.373724 -0.0730834 -0.273448 -0.145118 -0.0520392 -0.390526 0.340065 0.341676 0.520743 -0.0952376 0.376651 0.226309 0.301972 0.104606 0.13296 0.299326 -0.398039 -0.142177 0.132206 0.461771 -0.22139 0.215656 -0.242273 0.13345 -0.388741 0.0022197 -0.221169 0.0470842 -0.274798 0.248983 0.224275 -0.387743 -0.431687 0.304351 -0.276987 -0.330829 0.146846 0.0488514 0.433177 -0.07666 0.376115 -0.121142 -0.316397 -0.124653 0.352493 -0.451177 -0.370195 0.205018 -0.389846 -0.366358 -0.276356 0.1647 -0.109265 0.270368 0.426329 -0.444539 0.377319 0.392111 -0.300216 -0.308263 0.328573 0.207696 0.146511 -0.444656 -0.400698 -0.228413 -0.473554 -0.114547 -0.130253 0.198204 0.240555 -0.294884 0.233509 -0.333512 0.156348 -0.233544 -0.000471782 -0.146577 0.308105 0.215713 -0.400098 0.386981 -0.299738 -0.00668642 0.44463 -0.428612 0.398715 0.326467 0.37356 0.297878 -0.0299082 -0.0104109 -0.430673 -0.22435 -0.235499 -0.421518 -0.343824 -0.0506344 0.340356 -0.479394 -0.309541 0.481478 -0.0785781 0.437922 -0.122689 -0.0345056 0.241174 -0.185182 -0.241237 -0.385156 0.3426 -0.15618 0.146609 -0.271103 0.305056 0.279788 -0.130046 -0.308663 0.144545 0.236419 0.472762 -0.449059 0.329542 0.422269 -0.131094 0.0892681 0.0757364 0.118293 0.518661 -0.221094 0.197821 0.36037 0.306708 -0.045618 -0.50072 0.227695 -0.0897918 0.190272 0.297547 -0.0534314 0.30695 0.425726 -0.434134 -0.0675869 -0.383269 -0.221601 -0.345971 0.382579 -0.38945 0.0868258 0.22794 -0.341298 -0.00936274 -0.221079 -0.0555087 0.25409 -0.518677 0.273157 0.176449 -0.405702 -0.175452 -0.181217 -0.236103 0.206572 0.0472098 0.433203 0.130326 -0.0505844 0.320918 -0.0455161 0.118981 0.330691 0.447188 -0.0224158 -0.426908 0.254534 0.0600498 -0.182623 0.0523025 0.409466 -0.114824 0.296254 0.175578 0.410235 0.16961 -0.367967 -0.234313 0.465019 0.226049 -0.354689 -0.00933048 0.297546 0.0615125 -0.294149 0.320541 0.262002 -0.135289 0.23556 -0.488329 0.282928 0.0548446 -0.0125893 0.35026 0.45807 0.0970731 0.150661 0.339165 -0.121662 0.418765 0.0862026 -0.197374 0.18155 0.366496 0.190786 0.0676854 -0.516563 -0.13701 0.272844 -0.019841 -0.496057 0.390999 -0.178527 -0.155717 0.315843 0.34986 0.284572 0.114298 -0.454287 0.377991 0.297585 -0.00323204 0.383395 0.287784 -0.168863 -0.363965 -0.401203 0.288226 0.00688905 0.460942 -0.0270498 -0.0937083 -0.334774 0.260229 0.270479 0.373387 0.122431 -0.246005 -0.0904107 -0.228558 0.323547 -0.341246 0.228203 -0.346583 -0.0114546 0.102485 -0.223696 -0.00267035 -0.238259 -0.171076 0.443344 -0.436447 0.00118099 0.0707878 -0.0744427 -0.374503 0.265117 -0.355519 -0.0536571 0.441443 0.419768 0.405546 0.131771 0.361702 0.296584 0.317698 0.132933 -0.319716 -0.398359 0.264242 -0.113106 -0.0644199 -0.191809 -0.105773 -0.13769 -0.423984 -0.0555267 0.425058 -0.231931 0.435118 -0.459108 0.143093 -0.433411 -0.270133 -0.244654 0.504919 0.392 -0.401993 0.468323 0.00620371 -0.0182188 0.623419 0.184949 0.106884 -0.0141263 -0.330526 -0.426585 -0.35279 -0.0861413 -0.165484 0.0385114 0.430969 -0.0997651 0.479461 -0.0110327 0.0418962 -0.543834 0.0937173 -0.330406 -0.25223 -0.390109 -0.423655 0.474787 0.448814 -0.313895 -0.381691 -0.184416 -0.122535 -0.0190907 0.091011 -0.0412689 0.0388582 0.131458 0.294017 -0.0785457 -0.428448 0.331215 -0.296423 -0.0167569 0.274284 -0.369517 -0.0685076 -0.309936 -0.114618 0.372632 -0.0331658 -0.0773373 0.498656 -0.115467 -0.154197 0.0867281 0.144856 -0.24642 -0.185445 0.730823 0.195969 0.209237 -0.00879061 -0.258942 -0.436988 -0.570179 0.16512 0.0201011 0.102219 0.370163 0.261984 0.453406 -0.763533 0.539671 0.376611 -0.435773 0.508422 -0.407259 0.0782929 0.143696 -0.110306 -0.544023 0.591915 -0.305844 -0.148103 0.432388 -0.0364506 0.13735 0.267392 -0.213626 0.113438 -0.516633 0.495694 0.67378 0.03717 0.255879 0.250845 0.593824 0.354849 0.263298 0.881172 -0.308793 0.0652371 -0.0684106 -0.164429 -0.0309351 -0.0790155 0.00324618 -0.105716 0.634227 0.0682011 -0.0618329 -0.068263 -0.396256 0.164629 -0.774136 -0.0975962 -0.240075 -0.296191 0.383168 0.712548 -0.00606801 -0.977112 -0.412338 0.384975 -0.0905881 0.334546 0.180387 -0.687186 0.271736 0.400095 -0.297859 -0.0879957 -0.251232 -0.797664 0.587182 -0.665028 0.240536 0.0814081 -0.798325 0.314999 -0.414847 0.309004 0.0851637 -0.664023 -0.556844 0.638397 0.370637 0.21835 -0.21596 -0.114408 -0.0116939 -0.276395 -0.278903 -0.333502 -0.324524 0.531169 -0.695508 -0.159247 0.507063 0.613331 -0.708782 -0.0162094 0.27446 0.277306 0.0572374 0.0547894 0.348362 0.379654 0.50599 0.318981 -0.0425269 -1.12587 0.0944182 -0.267715 -0.0500094 0.418419 -0.31047 0.195648 0.258079 -0.226824 -0.0652989 -0.38017 -0.372495 -0.582191 0.145488 -0.048654 0.151612 0.401411 -0.372786 -0.249827 -0.0508287 -0.0449997 0.677833 0.0889407 -0.708864 0.821423 0.188669 -0.0958371 -0.0107211 0.221684 0.807049 -0.135497 0.928107 0.328194 -0.560012 -0.387454 -0.593327 -0.807749 0.0897933 0.0787895 -0.462514 0.559101 0.306349 0.131353 0.279492 0.390848 -0.0595847 -0.0430658 0.683504 -0.252048 -0.0957941 -0.290034 0.379447 0.693442 0.637678 0.458457 -0.508225 0.201214 0.407264 -0.123086 -0.498056 -0.271564 -0.731589 -0.0344138 0.433665 -0.646354 -0.610298 -0.172202 0.349929 -0.0869308 -1.13891 -0.481446 0.643568 -0.208025 -0.475073 -0.0221188 0.326258 -0.342328 -0.453595 1.10663 0.614681 -0.0192052 0.075114 -0.76636 -0.403711 -0.574458 0.11312 -0.207787 0.120731 0.259398 -0.90256 0.325491 -0.425478 -0.351404 -0.631839 0.687176 0.045552 0.200527 0.839721 0.254815 0.399833 -1.15274 0.0687081 0.807851 0.241015 -0.433275 -0.22013 0.317614 0.432279 0.08491 -0.1989 -0.00280872 -0.980405 -0.446434 0.306724 -0.622873 -0.519946 0.0755348 0.284817 -0.151411 -0.755523 -0.395576 0.819906 -0.352165 -0.458719 -0.409796 0.613616 -0.0692367 -0.178289 1.03102 0.171759 0.00527009 0.720106 -0.395784 -1.12909 -0.346469 -0.466956 -0.191906 0.554606 0.904121 -0.840007 0.277465 -0.425247 -0.587809 -0.829894 0.0258853 -0.225915 -0.205517 0.930596 -0.27765 0.339069 -0.932571 0.469852 0.898204 0.737478 0.0187174 0.411288 -0.120964 0.482443 0.246975 -0.362443 -0.538513 -1.0992 0.0461647 -0.210148 -0.753568 -0.977521 -0.0736989 -0.758264 0.426385 -0.808729 -0.582421 1.17147 0.0970514 -0.393955 0.265988 0.315622 -0.543685 -0.271525 0.353787 0.0375118 -0.0663263 0.773265 0.48564 -0.72917 -0.345686 0.253347 -0.0889761 -0.32784 0.699227 -0.566581 0.367093 -0.138017 -0.329101 -0.934948 -0.0535714 -0.266649 -0.2403 0.692616 -0.89202 0.109283 -0.702363 0.55541 -0.243619 0.497236 -0.0398773 -0.227959 0.123854 -0.0924775 0.205925 -0.0822165 -0.58865 -0.287845 0.0904781 -1.15706 -0.0900712 -1.41895 -0.133842 -0.229855 -0.0285094 -0.173554 -0.80786 0.253677 -0.718707 0.225038 -0.145586 0.34095 -0.203504 0.154003 0.291071 -0.0757716 0.656462 0.701336 0.368974 0.277929 -0.76923 0.36563 0.304328 0.255071 0.155227 -0.687228 -0.212043 -0.272493 -0.258903 -1.24699 -0.500449 -0.704653 -0.736471 0.106478 -0.493193 -0.360505 -1.05142 0.218333 0.116076 0.0618179 0.236865 -0.143879 -0.159187 -0.245069 0.158163 -0.232151 0.0111894 0.222842 0.10051 -1.02358 -0.417945 -1.40892 -0.498294 -0.941068 -0.0783521 0.474936 -0.318271 -0.178188 -0.658073 -0.311434 -0.348644 0.117 -0.720446 -0.357561 0.191609 -0.27813 1.37132 0.889245 0.682081 -0.268843 -1.34946 0.559659 0.187002 0.0974595 -0.0788935 -1.2066 0.127559 -0.0227705 0.464339 -0.544285 -0.367359 -0.589134 -0.923757 0.490733 -0.864301 0.37694 -0.384081 0.42043 -0.307215 -0.0974324 -0.114505 -0.517765 0.195164 -0.740272 0.541628 0.0158746 0.134893 -0.7446 -0.591787 -0.613781 0.078076 -0.786035 0.410232 -0.0165806 -0.326494 0.714594 -0.233471 -0.348141 -0.642712 -0.387351 -0.021828 0.837197 -0.452574 0.41206 -0.170318 0.591401 0.935745 0.197328 -0.11166 0.111109 -0.153968 0.26159 0.00829185 -0.582842 -0.145919 -0.704454 0.318314 0.148227 -0.0286389 -0.427026 -0.348298 -0.688077 -0.916689 0.413554 -0.455726 -0.255974 0.200794 0.512814 0.402205 0.0662466 -0.110311 -0.429779 -0.18966 -0.883203 0.326672 -0.264516 -0.551208 0.224232 0.210692 -0.0554738 -0.065871 -0.608584 0.164387 -0.3112 -0.367308 0.236448 -0.291765 -0.304679 0.19703 -0.254799 0.197858 0.223744 -0.476065 0.569443 -0.276459 -0.00616935 0.45391 0.581299 -0.50014 0.137557 0.324057 0.0969159 0.130248 -0.136341 0.274878 0.218804 0.766033 -0.339604 0.342771 -0.627727 -0.360895 -0.496195 -0.209216 0.287968 -0.356566 -0.405888 0.0466086 0.0565426 -0.136746 -0.414935 -0.604513 -0.551554 0.323807 -0.834876 -0.493911 0.127781 0.392073 -0.242892 0.479486 -0.593157 -0.0612232 -0.732796 -0.319282 0.562649 -0.31802 0.0439463 -0.18331 0.249131 0.796917 -0.533384 -0.329172 -0.190691 -0.283125 0.0987099 -0.643643 0.419988 0.631253 -0.46325 -0.600754 0.0554113 0.319044 0.274066 -0.302682 0.532361 0.174615 -0.241103 0.960766 -0.194836 -0.0576727 -0.201314 -0.0156797 0.0316333 -0.323296 0.126565 0.469122 0.102361 0.0650937 -0.507236 -0.0742435 -0.152014 -0.55069 -0.318806 1.19469 -0.148976 -0.0527538 1.06381 0.120779 0.548879 0.53795 -0.182903 -0.119274 -0.294505 -0.0978503 0.235237 0.0568365 -0.0524742 -0.252703 -0.274884 -0.343939 -0.283056 0.364571 -0.298292 0.330668 0.174384 -0.208877 0.437012 -0.166362 0.153942 -0.178068 -0.179059 0.314238 -0.152003 0.0284912 -0.215097 0.309168 -0.478167 0.742048 0.121716 0.416711 -0.282969 -0.320879 -0.281943 0.173027 -0.299478 -0.221449 -0.515503 -0.127929 0.056923 -0.322161 0.146124 -0.0483713 -0.306557 1.07192 -0.377167 -0.293047 0.641671 0.17765 0.508326 0.107091 -0.107085 0.470922 -0.84412 0.227039 -0.0785679 -0.353663 0.250585 -0.143888 0.206714 0.515596 -0.194768 -0.0496121 -0.413782 0.358563 -0.11989 -0.645037 -0.0152867 0.229775 0.503163 -0.627311 -0.0413018 0.350251 -0.659292 0.102601 0.24417 -0.359043 0.157371 -0.204646 -0.110281 0.29863 -0.585616 -0.15646 0.0961917 0.212497 0.174295 -0.278024 -0.575549 -0.110347 0.245443 -0.116079 -0.0741955 0.355113 -0.407249 1.16076 0.16836 0.04515 0.637264 -0.0936024 0.556968 -0.127596 -0.175738 -0.209351 -0.151312 0.000127945 0.136668 0.0942932 -0.26642 0.115283 -0.0739398 0.108036 -0.386024 0.123941 -0.297185 -0.410653 0.73096 -0.366278 0.197632 -0.0621206 0.278581 -0.0648655 0.184131 0.130175 -0.539957 0.133834 -0.47345 -0.315658 -0.4485 -0.275717 0.550157 0.175472 -0.499543 0.262209 0.362464 0.188151 -0.0938787 0.23596 0.335437 -0.382502 -0.422666 -0.0421168 0.548261 0.0184797 -0.235597 -0.171512 -0.00521181 0.136671 0.053961 0.0699388 0.364471 0.113204 0.134034 -0.667647 -0.578259 0.38446 -0.192516 0.00653772 -0.565535 -0.345121 0.343791 0.275027 -0.1295 0.284201 -0.409869 0.331322 0.548786 -0.332239 0.604505 0.113938 -0.0231154 -0.158377 0.165274 0.285799 -0.0625487 -0.571573 0.0902551 -0.249635 -0.547083 0.0210979 -0.520578 0.044987 -0.253343 -0.398161 0.496374 -0.31962 0.0740818 0.349532 0.0770435 -0.409032 -0.0559689 -0.754809 -0.146293 -0.351109 -0.498788 -0.0646298 -0.434487 -0.172284 0.480113 -0.290773 -0.389116 -0.154211 -0.108835 0.179903 -0.537945 0.0580398 -0.61589 -0.254237 -0.386113 -0.212521 0.0271755 0.198825 -0.103738 0.259389 -0.238058 -0.107981 -0.20273 0.00682199 0.364265 -0.117244 -0.355866 0.0681983 -0.186789 0.304679 -0.47162 -0.621915 0.105468 -0.301658 -0.20415 0.422887 0.08737 0.325102 0.187422 -0.0477613 -0.18984 0.489339 0.40413 0.230003 0.331774 0.00579468 -0.416379 -0.0787539 -0.446113 -0.273552 -0.261734 -0.180263 -0.276143 0.208988 0.0531213 -0.431804 0.283849 -0.27149 0.0923891 0.310706 0.158907 0.176636 0.295587 0.437392 -0.181213 0.337276 -0.355383 0.308985 0.321704 -0.437414 0.32785 -0.272118 0.32713 0.211326 0.276463 0.465458 -0.115948 0.0316356 0.304193 0.157235 0.307801 -0.465059 0.0913961 -0.410468 0.316112 -0.088657 -0.213634 -0.00650427 0.308312 0.0261324 -0.347932 0.109332 0.191455 0.269302 -0.147927 0.429859 -0.470561 -0.245117 -0.173409 -0.0151602 -0.433982 0.270886 0.453617 -0.165088 -0.0628798 -0.377156 0.131438 -0.271928 0.151236 0.297781 0.504577 -0.329755 0.100107 -0.188704 0.133948 -0.177848 0.257321 0.164248 -0.309724 -0.168071 -0.020075 0.182584 0.0290098 0.477891 -0.473291 -0.48114 -0.0127343 -0.109374 0.277133 -0.379273 -0.463141 -0.381791 0.257283 0.0724313 -0.360795 -0.42925 -0.174724 -0.0250855 -0.156511 -0.424246 -0.284426 0.47172 0.143226 -0.375561 0.308556 0.262344 -0.012856 0.0291903 -0.184052 0.363763 -0.260617 -0.41746 -0.517042 0.138975 -0.451373 -0.169525 -0.403357 -0.500204 -0.217462 -0.450262 -0.167073 0.263801 0.348413 -0.474949 -0.469056 -0.114802 -0.128718 0.165606 0.486282 0.1069 0.328384 0.141587 0.482737 0.304071 0.03147 -0.213123 0.000196972 -0.40534 0.395559 0.432018 -0.187635 -0.0621963 0.0530517 0.342865 -0.0248787 0.483455 -0.316145 -0.139743 0.256773 0.441515 -0.212297 -0.00218628 -0.187243 -0.0701791 0.26801 -0.430087 -0.0438683 0.24002 -0.241573 -0.148708 -0.0854 -0.136914 0.233372 -0.170881 0.205698 0.308891 -0.264459 0.128696 -0.230173 0.00923361 0.219711 0.451361 0.464398 0.343074 -0.295922 0.48299 0.0885756 -0.285848 0.40848 0.353092 0.0930924 0.0301246 -0.501271 0.311487 -0.393333 -0.196262 0.267808 0.378748 0.357274 -0.415334 -0.223398 0.0832198 -0.0312114 0.204455 -0.305699 0.0693968 -0.246167 0.215314 -0.345263 -0.404144 -0.319555 0.373201 0.305602 -0.289135 0.449131 0.317612 0.138969 -0.0587204 -0.294326 -0.155948 -0.240473 -0.491469 0.435473 -0.264577 -0.210637 -0.456242 0.306574 -0.0851105 0.105225 0.280844 -0.126277 0.297731 -0.469106 -0.43284 0.0898363 -0.331041 0.2967 0.429003 -0.470309 -0.412872 -0.371907 -0.167266 -0.184515 -0.29118 -0.1684 0.415928 -0.177545 0.0153259 0.0462733 -0.399124 -0.00940662 -0.0274471 -0.497061 -0.501375 -0.0965216 -0.119458 0.266257 0.209362 0.0659333 0.302647 0.113779 0.0200241 0.401108 0.465719 -0.460789 -0.111101 0.0494129 -0.306111 0.0611231 0.0142022 -0.201207 -0.199234 0.443138 0.384743 -0.434706 -0.211817 0.356122 0.336661 -0.261207 0.25082 0.115867 -0.215052 0.485636 -0.233139 0.249417 -0.218793 -0.419022 -0.341605 -0.286311 -0.355597 -0.379101 0.218553 0.284602 -0.0421918 -0.309517 -0.281338 -0.180561 -0.138963 -0.0104564 0.23471 0.125605 0.190287 -0.308345 -0.35805 0.311803 0.227915 0.307025 0.409803 -0.0214632 0.16137 0.324446 -0.254962 -0.430443 0.189055 0.21836 0.222928 0.338704 -0.42602 0.462127 -0.200008 0.0124945 -0.453915 -0.319991 0.378133 0.344137 -0.214824 0.442813 -0.178331 -0.376381 -0.281097 -0.301756 0.00893382 -0.449636 -0.246173 0.249986 0.176333 -0.416527 -0.0535121 -0.471107 0.182308 -0.431695 -0.0108416 0.384487 -0.28955 -0.0793534 0.375553 -0.224868 0.482167 0.326547 0.125382 -0.190026 0.361814 -0.441411 0.377403 0.321261 0.223507 0.445845 -0.175427 -0.452333 -0.0737131 0.165767 -0.434286 0.355449 -0.0478544 -0.179225 -0.236812 -0.00281653 0.382706 0.461389 0.297371 -0.21586 0.0582298 0.363682 -0.487133 -0.26635 0.291247 -0.0166438 0.259808 -0.0917623 -0.0387473 -0.486952 -0.0978345 0.412564 0.412944 0.180301 -0.189234 0.323093 0.0836518 0.485893 0.412219 -0.0955593 0.106753 0.500699 0.492026 -0.165204 0.284805 0.286936 -0.139418 0.405168 0.0617951 -0.359353 -0.00270699 0.515358 -0.336196 0.221057 -0.220031 -0.445868 0.490102 -0.217488 -0.456559 0.508193 0.0526037 0.270046 0.512592 -0.251887 -0.298104 0.244887 -0.326391 0.443384 -0.154675 -0.184747 0.00288356 0.298807 -0.109878 -0.010794 0.323904 -0.466478 0.298327 0.0464501 0.385372 -0.309708 0.249766 0.018724 -0.336989 0.429014 0.172554 -0.395564 -0.399937 0.283164 0.029968 -0.10329 -0.409549 -0.109858 0.313779 0.436359 -0.174933 -0.313281 0.168911 0.219012 0.351132 0.364434 0.404964 0.469198 0.511514 -0.432822 -0.159522 -0.354927 0.0161639 -0.080739 0.569546 0.52556 0.203323 0.298206 -0.0482493 0.21434 0.166501 0.0949579 -0.199768 0.263123 -0.156909 -0.0710121 -0.0923078 0.510712 0.286547 -0.0418521 -0.346364 0.180585 0.313697 0.358832 -0.00345118 -0.0864044 0.00896911 0.206271 -0.214082 0.410402 0.18603 0.14387 0.217145 -0.12366 -0.251995 -0.19363 -0.0967968 0.522595 0.243271 0.51514 0.257147 0.252458 -0.140197 -0.398234 -0.179605 0.377169 0.371784 -0.182979 0.460908 -0.346266 -0.747667 0.133935 -0.489611 -0.0823129 0.456908 0.565052 0.251884 0.466244 -0.169787 -0.787379 0.416557 -0.210111 -0.0505936 -0.295324 0.44733 0.353214 -0.724652 0.574407 0.232799 0.104988 -0.48631 0.173156 0.279577 0.153307 -0.206751 -0.212055 -0.0412348 -0.0638615 0.35376 0.246179 -0.0960286 -0.303311 -0.548952 -0.196103 -0.430033 0.318611 -0.370302 0.150723 0.140686 -0.203516 -0.00111345 0.437805 -0.48093 0.259184 0.38211 0.042818 0.116023 0.230763 -0.351695 -0.431681 0.165426 -0.478849 -0.282614 -0.457528 0.0686818 -0.124301 0.0729519 0.532402 0.177527 -0.836883 0.144699 0.233868 0.0733836 -0.352435 -0.211769 0.923585 -0.724512 0.626276 0.548838 -0.0484956 0.0151786 0.233289 0.303175 0.486168 0.362247 -0.36541 0.356166 -0.109472 -0.0529088 0.0529059 0.155906 0.195203 0.00944128 -0.440657 -0.202573 0.0927139 0.409241 -0.559244 1.15433 0.690613 0.335576 0.310222 -0.180053 0.00320513 0.853783 -0.554715 -0.00317027 0.684665 0.246976 0.233814 -0.533231 0.0506518 -0.305687 -0.470217 -0.0210365 -0.383085 -0.233183 0.45712 0.420826 -0.136768 -0.498406 0.324792 0.119303 -0.602865 0.503709 0.143496 -0.515865 0.961496 -0.114459 -0.170249 0.00303928 -0.828521 -0.807214 0.141899 -0.211947 -0.0193649 -0.534739 -0.387184 0.595952 -0.169489 -0.593629 -0.0128971 -0.0157829 -0.603316 -0.225374 0.938126 0.368915 -0.277543 0.469768 0.266909 0.489929 0.139983 0.566023 -0.964245 0.607584 -0.653557 -0.581323 0.645466 -0.30082 0.358513 -0.0129209 0.045873 -0.139382 -0.465811 0.78295 -0.223545 -0.512619 0.353339 -0.187973 -0.239594 -1.41401 0.521617 0.441731 -0.298427 0.519774 0.00138932 -0.858596 0.378387 0.845747 -1.07554 0.816909 -0.653526 -0.534581 0.478307 -0.304499 0.103618 -0.217057 -0.477236 0.0157871 -0.461085 -0.244363 0.55299 -0.0606949 -0.0694191 0.532768 0.944374 0.146381 0.0425466 1.20031 0.530929 0.439085 0.0377739 -0.177776 -1.02876 0.366092 -0.655764 -1.04368 -0.404271 0.384037 -0.296796 -0.157646 0.290118 -0.335849 -1.13476 0.257582 -0.0462954 0.0902124 0.140121 0.511163 0.298176 -0.80036 0.653743 1.45196 0.677504 -0.189721 0.310614 -0.532098 -0.109779 0.386146 -0.450368 0.565707 -1.38558 -0.777363 0.405516 -0.296523 -1.07767 -0.131973 -0.226186 0.0751041 -0.135894 -0.597041 0.0635856 -0.155818 -0.842774 0.526103 1.19635 0.541933 -0.476078 1.97209 0.0221167 0.335598 0.295211 0.0516196 -1.08715 0.722004 -0.0521243 -0.981194 -0.0425062 -0.035581 0.784005 -0.256362 -0.164809 -0.5001 -0.408509 1.15239 -0.56641 0.553085 0.706479 -0.549573 0.592919 -0.718215 -0.0701415 0.933682 0.265334 -0.548231 -0.351724 -0.702086 0.629652 0.785905 -0.712021 0.761379 -1.50633 -0.937649 0.115421 -0.842994 -1.04171 -0.166032 0.26374 -0.351557 -0.0606642 -0.376631 0.035197 0.28988 -0.195312 -0.234593 1.40086 0.456791 -0.433709 2.07296 0.424108 0.0919669 0.475015 0.213219 -0.838318 -0.360739 -0.590778 -0.609722 -0.306469 0.32985 0.240068 0.213547 -0.713686 -0.416891 -0.478271 0.706123 -0.592736 0.411941 0.50164 -0.669338 0.284444 -1.04167 0.72779 0.861137 0.344934 0.113936 0.209926 -1.01711 0.88091 0.487722 -0.164279 0.587182 -0.819222 0.103219 -0.11081 -0.626282 -1.6813 -0.0908589 -0.210698 -0.320834 -0.583421 0.402576 0.214435 -0.408733 -0.222319 -0.952828 1.75301 0.166227 -0.92183 1.00054 -0.464557 -0.0315677 1.55596 0.0852511 -1.03343 0.203276 -0.370083 -0.764365 -0.455327 0.210189 -0.272693 0.0884645 -0.225118 -0.618954 -1.38691 -0.124847 -0.284942 -0.573225 0.440161 -0.144591 0.49613 -1.41663 0.356464 0.567644 0.0382405 -0.349135 0.570814 -0.661826 0.480713 1.19059 0.376965 -0.0557464 -0.962438 -0.520729 -0.262924 -0.814257 -2.25939 0.275647 0.274698 0.000942516 0.425319 0.871541 0.450412 -0.239755 -0.183824 -1.07551 1.01865 0.0480612 -1.01436 0.649804 0.201703 1.14454 1.42536 0.404416 0.509519 -0.0875035 -0.499294 0.0321583 -0.0602786 -0.6413 0.243447 -0.0367895 -0.837201 -0.0323748 -1.38945 0.314587 -1.12267 -0.136684 0.270646 -0.557705 0.814298 -1.3675 0.367347 0.580012 0.415382 -1.02019 -0.464802 -0.575319 0.575417 0.652443 0.166826 -0.635285 -0.721021 -0.861403 -0.0540708 -0.938044 -2.04291 0.524637 -0.61513 -0.465839 -0.030209 1.07094 -0.280696 -0.757545 -0.448547 -0.872344 0.912605 -0.23325 -1.04546 0.709444 -0.582067 2.01543 1.01311 -0.150834 -0.244285 -0.224431 0.461211 0.780309 0.0605137 -0.903671 -0.161749 0.327722 -1.3973 -0.477434 -1.38304 0.354254 -1.10491 -1.33897 0.740442 -0.717927 0.246917 -0.26532 0.192201 -0.22775 0.477015 -0.831822 -1.64359 -0.328493 0.147931 0.0803713 -0.351268 0.227295 -0.816883 0.0807088 -0.139636 -0.48418 -0.442242 -0.249262 0.155321 0.416925 0.525543 0.40607 -0.626722 -0.230227 0.29618 -0.00114671 0.780781 -0.138757 0.0446968 0.188052 0.184016 2.23712 1.16539 -0.399322 -0.916339 -0.857054 0.398086 -0.165906 -0.254612 -0.512525 -0.310757 0.671683 -0.921646 0.37819 -0.637906 0.0940976 -0.0949245 -0.231541 0.478844 -0.73085 0.523189 0.0564446 0.119202 -0.770042 -0.351008 0.0754031 -1.62705 0.0494857 -0.230895 0.483813 -0.367536 -0.248333 -1.18976 0.0428223 -0.0750444 0.414962 -1.32346 0.148323 0.621852 -0.279395 0.946011 -0.374626 -0.88324 -1.16478 0.152641 0.792387 0.0329399 -0.52088 0.657568 0.321019 0.253444 1.47955 0.549315 0.0840952 -0.24596 -1.26 0.604912 -0.236079 -0.513685 -0.599182 -0.375004 0.136557 -0.121529 0.700331 -0.896267 0.404711 0.191251 -0.870412 0.415312 -1.02896 0.340429 0.236752 0.334902 -0.196016 -0.42009 -0.578434 -1.767 0.217167 -1.45074 0.204273 -0.294252 -0.0117912 -0.186542 -0.235524 0.0992993 -0.0873324 -0.603424 0.243494 0.827384 -0.240787 0.38132 -0.198237 -0.509706 -0.558362 0.355219 0.547503 -0.709618 -0.600014 0.534076 0.130286 -0.264001 0.643667 0.471177 0.491211 -0.137734 -0.541573 0.438769 -0.013602 0.0528378 -0.342277 -0.317412 0.685874 -0.480985 -0.182485 -0.113065 0.471023 -0.108394 -0.428142 0.499821 -0.914934 0.0800502 0.227073 -0.429045 -0.155144 -0.183478 -0.472646 -0.849605 0.169491 -0.691811 -0.0682714 -0.458993 0.764091 -0.307281 0.614282 0.595719 -0.113588 -1.05772 -0.04359 0.430616 -0.39957 0.192702 0.282884 -0.164649 -0.0958083 0.690367 0.951009 -0.883995 -0.0805329 0.884405 0.172276 0.259053 0.389288 1.11439 -0.0217081 0.406021 -0.186294 -0.000198615 0.0294418 -0.598462 -0.275252 0.0233146 0.821758 0.526309 0.14753 -0.503382 0.452573 -0.398732 -0.363665 0.481525 -0.908241 -0.294758 0.394029 -0.186702 0.0159084 -0.401512 -0.109784 -0.759752 1.0509 -0.796992 -0.20753 0.46567 0.0760571 -0.0197292 1.03714 0.658036 1.00906 -1.52072 0.07428 0.975009 0.422574 0.152143 -7.89574e-05 -0.0892194 0.234722 0.063215 0.467797 -0.607619 0.324304 0.9784 -0.720757 0.45267 -0.597795 0.240822 0.149965 0.617457 0.332415 0.020048 0.0556539 -0.585288 -0.08098 0.151676 0.956222 0.614259 0.634491 -0.54412 -0.111934 0.11663 -0.423101 0.559999 -0.235461 0.224489 -0.33777 -0.175389 -0.0644798 -0.0470407 0.273332 -0.729398 1.46922 -1.03092 -0.0780718 1.46463 -0.200076 -0.0962894 0.845469 0.454912 -0.507882 -1.24394 -0.375067 0.0921274 0.0773023 -0.0565614 -1.09601 -0.206827 -0.242229 0.118779 0.16312 -0.904422 -0.395368 1.09141 0.450206 0.310622 0.207481 0.479143 0.0760715 0.405744 0.406124 -0.032062 0.0941666 -0.503093 -0.440592 -0.0788766 0.306089 0.946223 0.707281 -0.0969666 -0.106953 0.205969 -0.0709094 0.0152 -0.0667269 0.0298583 0.273188 -1.11379 -0.616655 -0.22273 0.302377 0.0570944 1.00523 -0.810333 -0.286907 0.134579 0.0156078 -0.00824095 0.189335 0.274086 -0.815657 -0.520349 0.365937 0.042931 0.179337 0.230423 -0.815663 -0.305143 0.459108 -1.09845 -0.346348 -0.438971 -0.165699 0.415256 -0.520302 0.535068 -0.738987 0.31811 0.159703 0.259264 0.303323 -0.359394 -0.129211 -0.731528 -0.309928 0.118659 0.709206 0.721721 0.278395 0.180955 0.259575 -0.291703 -0.116184 0.300294 0.225146 -0.963578 0.491668 -0.516672 -1.00511 -0.372867 0.550564 0.229163 0.299639 -0.391972 -0.0871225 0.197943 -0.166889 0.287817 0.761055 -0.156695 -0.571377 -0.0391873 0.174596 0.0845409 -0.453758 -0.249158 -0.738425 0.482785 0.355521 -0.34303 -0.120477 -0.158812 -0.731425 0.691014 -0.0651666 0.411047 -0.278224 -0.579549 -0.19295 0.263484 -0.122928 -0.479928 -0.128431 0.260445 -0.0287322 0.0619985 0.0553041 0.172671 0.133869 -0.298101 -0.536846 -0.37458 0.300539 0.296055 0.246453 -0.318276 0.251105 -0.487379 -1.15543 -0.191168 0.489068 -0.203707 0.157391 -0.591699 0.108435 0.210312 0.142441 -0.0643102 -0.562928 0.233038 -0.0790275 -0.29693 -0.0383784 -0.036613 -0.575319 -0.468257 -0.0716599 0.0304387 0.628351 0.0660248 -0.332775 0.254494 -0.466907 -0.386407 0.0130513 -0.0278293 -0.289105 -0.111206 0.038609 0.102807 0.241586 0.190181 0.242207 -0.345907 0.0262525 -0.238308 0.564462 0.246861 0.11883 -0.0724805 0.252553 -0.384049 0.0267101 -0.338712 -0.0726617 -0.428107 0.36703 -0.444825 -0.215228 -0.233125 -0.277698 -0.474762 0.0125873 0.220252 0.329395 -0.186916 -0.302445 -0.297504 0.0744178 -0.032934 -0.530535 0.213568 -0.181759 -0.0620666 -0.144116 0.271666 0.500908 -0.272307 0.338563 -0.639087 -0.64342 0.193623 -0.433237 -0.316456 -0.329496 -0.20467 -0.0845755 -0.108919 -0.127523 -0.00112168 0.47655 -0.0651905 0.283877 -0.225282 0.458145 -0.125526 0.207495 -0.424227 -0.322129 -0.138939 -0.138584 -0.231451 -0.440845 0.292895 -0.251651 0.266627 -0.0447832 -0.646007 0.154116 -0.421715 0.209762 0.375114 0.496745 -0.439981 0.00842972 -0.319574 -0.386898 0.34014 -0.241426 0.44717 0.421618 -0.0841602 -0.21926 -0.248274 0.295158 -0.383179 0.00182533 -0.407047 0.590773 0.21939 0.229155 0.206151 0.155466 0.347797 -0.0805076 -0.451233 0.545842 -0.0902294 0.443238 -0.262959 0.513329 0.284017 -0.141627 -0.418872 0.136986 0.0964112 -0.00788127 -0.0799462 -0.452334 0.103438 0.146561 -0.0245004 -0.248166 0.152189 0.454792 0.0107875 -0.413518 -0.111269 -0.365909 0.278162 0.104981 -0.104854 -0.194529 -0.396241 -0.449971 -0.0903658 0.105007 -0.107472 0.111298 -0.0300642 -0.356339 0.51387 -0.344163 -0.326277 0.457244 -0.107122 -0.368508 -0.231004 0.388274 0.276749 -0.0164652 0.335875 0.367181 0.347237 -0.341176 0.0847781 0.321643 0.387881 0.00344495 -0.221878 0.282362 0.0204697 -0.107503 -0.44085 0.269664 -0.240428 0.0548075 0.401955 -0.114143 -0.456924 -0.0609774 0.144306 0.0413589 -0.0661094 0.21802 0.0403868 -0.138988 0.182951 0.271818 0.197404 0.353416 -0.419875 0.0436842 0.314678 0.00987068 -0.114597 -0.3037 -0.464663 0.266375 0.368328 0.278272 0.434607 -0.0243895 0.180181 0.264814 0.440815 -0.368275 0.00902959 -0.124598 -0.0167273 -0.139455 0.240195 0.384137 -0.293773 -0.229631 0.146193 0.0809622 0.472058 -0.256987 -0.418684 0.0796135 -0.151816 -0.174773 -0.286005 0.0150036 -0.447307 0.390836 -0.0242412 -0.433852 0.487313 0.49263 -0.158855 -0.221826 0.195906 0.352875 0.433088 -0.465364 0.31427 0.244966 0.479931 -0.367895 0.455252 -0.253202 0.138088 0.325606 -0.307528 -0.19723 0.391731 0.150119 -0.292897 -0.161696 0.385884 -0.405958 -0.285878 0.291417 -0.475186 -0.304556 -0.464235 0.391511 0.128441 -0.0558102 0.0855374 0.408034 -0.0838649 0.0834798 -0.0100378 -0.177437 -0.365835 0.105098 0.201704 0.473522 -0.0624479 0.0752957 -0.26029 -0.457949 -0.200667 -0.340874 0.245765 0.226437 -0.316237 -0.230248 -0.0107781 0.280056 -0.481968 -0.0903286 0.262357 0.398658 0.322633 -0.290448 -0.378939 -0.031809 0.27531 -0.355556 -0.141699 0.368239 0.340501 -0.310539 0.0342431 -0.28508 0.47337 -0.213341 0.412626 -0.0900663 0.0299715 0.363023 0.145219 -0.495851 -0.278893 0.486224 -0.421818 0.358602 0.0553052 -0.189475 0.251628 0.143701 -0.316995 -0.499992 0.427852 -0.0497204 0.436252 0.350463 0.325787 0.0588642 0.196852 -0.00827177 -0.390258 -0.406749 0.0907887 -0.0060123 -0.502789 0.158736 0.489835 -0.0871202 0.223278 -0.346835 0.023376 -0.2141 0.0348264 -0.0232793 -0.338859 0.277794 -0.383309 0.122713 0.250729 -0.425039 0.281557 -0.0157915 0.184318 -0.133404 0.282477 -0.0241579 -0.210438 -0.274085 -0.0955089 -0.390046 0.294736 0.168801 -0.364407 -0.260033 0.0268432 0.234266 -0.27624 0.0777571 -0.385112 -0.399198 0.199052 0.490588 0.34648 -0.101499 -0.00422102 -0.454171 0.200861 0.0515607 -0.0115484 0.0919673 -0.0319745 -0.396282 -0.0876931 -0.380618 -0.206543 -0.0291214 -0.320121 0.302494 0.316843 0.170278 0.361007 -0.130233 -0.278285 -0.207007 -0.0516048 -0.337724 0.00280327 0.329048 0.220915 0.134649 0.0406441 0.266652 -0.283595 -0.0623883 -0.51561 0.463536 -0.408782 0.00253381 -0.283512 -0.472173 -0.373165 -0.399557 -0.519776 -0.187128 -0.0748395 -0.468418 0.00139138 -0.0181494 -0.352917 -0.307079 -0.391527 -0.20147 -0.529385 0.401332 -0.394159 0.0982733 -0.289587 0.41513 -0.209029 -0.278802 -0.481835 -0.104581 0.554685 -0.351356 -0.206316 0.087429 0.153724 0.24789 0.403583 -0.354689 -0.237631 0.0400236 -0.0166113 -0.714371 -0.647637 0.193663 0.196331 -0.56966 0.48332 -0.336098 -0.428701 -0.319284 -0.1999 0.124794 -0.225717 -0.285401 0.00646888 -0.0683113 -0.302499 -0.471128 -0.283157 -0.251248 0.139793 -0.0199738 0.105435 0.280763 -0.254642 -0.217189 -0.351091 0.370193 -0.230578 -0.426098 -0.194442 -0.361536 -0.347399 0.110578 0.254979 0.142982 -0.133345 0.217902 0.19023 -0.502373 0.251641 -0.386031 0.320797 0.0266673 0.216487 0.370095 -0.161724 -0.249383 -0.435528 0.300005 -0.400539 0.0475951 -0.680908 0.144467 0.638098 -0.251413 0.903847 0.0540944 0.108784 0.282831 0.0205802 0.0551073 0.3031 0.0256707 -0.398519 -0.415009 -0.255076 -0.323506 -0.268724 0.231553 -0.677121 -0.216569 -0.307798 0.113901 0.420445 -0.537999 -0.41114 0.827617 0.333416 -0.467966 -0.160263 0.332134 0.00316089 -0.277453 -0.0745407 0.259972 -0.147186 -0.103126 -0.422383 -0.577302 0.663654 -0.41246 -0.0849915 0.738206 -0.515128 -0.250083 0.271635 0.100002 -0.398495 -0.00906328 0.527619 -0.541424 -0.113884 -0.13209 0.797545 -0.573851 1.57052 -0.12199 -0.532224 0.452645 0.15055 0.41492 -0.0261753 0.359627 -0.232784 0.0908541 0.271778 -0.32302 0.778793 -0.377507 0.210794 0.0719957 -0.237445 -0.163804 0.653185 -0.397929 -0.0826771 0.672462 0.649561 0.241034 0.145341 -0.034701 -0.346258 0.187892 -0.644604 -0.0657151 0.34648 -0.00133418 0.0199812 0.194455 -0.0823242 -0.223435 -0.507697 0.455487 -0.456103 0.259549 -0.194699 0.571763 -1.12466 0.151917 0.674542 0.0145986 -0.358722 -0.0772694 0.772118 -0.86173 1.45681 0.649575 -0.230545 0.0204594 -0.802806 0.527953 0.608657 0.607262 -0.656078 0.103384 0.453783 -0.124751 0.505002 -0.355496 -0.623166 0.243247 -0.570432 0.320672 0.658959 0.339192 0.182847 1.0157 0.699543 0.127045 0.336923 -0.0486018 -0.480293 -0.106056 -0.53825 0.206169 0.0712507 0.72251 0.427379 0.503053 0.737315 -0.0205082 -0.762958 -0.219831 -0.100714 -0.312919 0.152852 -0.396239 -0.00972778 -0.255788 0.236304 0.177407 0.389204 0.555743 -0.102054 -1.61143 1.08195 0.757574 -0.790122 -0.063437 -0.99989 0.29219 0.560201 0.38745 -0.679271 0.0679746 0.583133 0.384938 -0.0895154 -0.976657 -0.433048 -0.012674 -0.870134 0.333239 1.49434 0.261527 0.136305 0.805724 1.19008 -0.870637 0.269753 -0.332291 -0.516202 -0.12976 -0.212775 -0.410587 0.442682 -0.183059 0.56682 0.603401 0.170517 -0.300383 -0.20702 0.204283 -0.360511 -0.0670907 0.37774 0.350633 -0.164188 -0.775952 0.000306241 0.66164 0.28868 -0.00832835 0.0123195 -0.291832 0.575974 0.712066 -0.697274 0.902672 -1.13298 -0.0696286 0.583072 -0.174574 -0.586972 0.0768391 0.55943 0.123704 -0.0245214 0.0422216 -0.18653 -0.162484 -0.586182 0.574516 1.2199 -0.400018 -0.0559749 1.70793 1.08821 -0.585757 0.344054 -0.473417 -0.716379 0.352913 -0.893262 -0.574785 -0.106785 -0.0784057 0.255103 1.20254 -0.30169 0.330708 -0.754941 0.0925616 -1.10634 0.238364 0.138327 -0.368273 0.875521 -0.526646 0.270522 0.629193 0.275351 -0.242204 -0.60866 -0.0540515 0.0584265 0.892022 -0.779022 0.899167 -1.34761 -0.127572 0.977813 -0.632073 -0.540222 -0.541484 0.727033 -0.357552 0.298262 0.14386 0.501477 0.207994 -0.363192 -0.260849 0.973711 -0.275485 -0.695328 1.05056 -0.33403 -1.08807 -0.606314 -0.362998 -1.55989 0.424345 -0.794631 -0.950577 -0.555103 0.272992 0.829375 0.455716 -0.851202 0.524517 -0.500108 0.576976 -0.416528 0.249458 0.018401 0.104603 1.14161 -0.361046 -0.601461 0.537209 1.15995 0.840283 0.101985 -0.236515 0.174331 0.748449 -0.517708 0.630722 -0.647558 0.288996 0.751296 -0.742068 -0.506454 -0.241419 0.805038 -0.0159561 0.160633 0.0334058 -0.215265 0.361138 -0.423527 -0.515331 1.99765 0.355117 -0.983801 1.75343 -0.00865182 -1.10541 -0.73795 -0.0711931 -0.449321 0.844523 -2.00405 -1.02327 -0.375757 -0.0578343 1.04498 -0.204914 -0.340673 0.179604 -0.728837 0.785762 -0.116698 1.17987 0.412058 0.612165 1.1711 -1.21098 -0.405725 0.273241 0.950683 0.989536 -0.145152 -0.0351536 0.11987 0.982398 -0.166582 0.207363 -0.442205 0.435711 0.189904 -1.1767 -1.21557 0.0240145 -0.106762 -0.285436 0.313001 -0.0424688 -0.301918 0.691506 -1.0474 -0.0807528 0.987851 -0.0780589 -1.29004 1.29755 -0.502521 0.617955 -0.824988 -0.239453 -0.841293 0.348127 -1.39403 -0.258429 0.012827 -0.432294 -0.459824 -0.264272 -0.431649 -0.786118 -1.67417 0.96071 -0.484858 0.485563 -0.170342 0.743512 0.910126 -0.818985 0.393954 0.517358 0.484323 0.786892 0.863437 0.655406 0.202829 0.606461 -0.329899 0.559106 0.604218 -1.13561 0.333028 -0.858929 -0.998812 0.0308611 0.588403 0.0508268 0.690325 0.628081 0.762285 0.67432 -1.06633 0.409656 0.749611 0.302138 -0.288714 0.912071 0.144241 0.329724 -0.539452 -0.531859 -0.499802 -0.361879 -1.36922 1.07876 -0.0534172 -0.332382 -0.484232 -0.311867 -0.958395 -1.22736 -0.744718 0.81748 -0.925459 0.703922 -0.0188296 0.59884 0.982708 -1.35674 1.17263 0.485395 -0.16928 0.552639 0.699218 0.00400403 -0.241929 0.795274 -0.121022 0.155335 0.115415 -2.13563 -0.259656 -0.609171 -1.92139 -0.253152 0.290334 0.475143 0.678456 -0.406772 0.671111 -0.832717 0.0361349 0.0902233 1.14958 -1.02982 -1.06015 0.651272 0.142189 2.18696 0.312342 0.560791 -0.583545 -1.15038 -0.837608 0.520658 -0.228192 -0.56455 -0.712158 -0.352513 -0.397001 -0.559434 -0.131353 1.35751 -0.303332 0.475332 0.0852764 -0.574984 -0.0370378 -0.706434 0.964507 0.54769 0.0360646 0.339727 0.149277 -0.571499 0.434543 0.419025 -0.69338 -0.300935 -0.464602 -1.98636 -0.522403 -0.503648 -2.02955 -0.172737 0.519842 0.316002 0.556219 -0.346135 0.930262 0.0284359 0.580216 0.0665978 0.845032 -0.470592 -0.145362 1.07371 -0.507283 3.30663 0.997551 1.03677 -0.866782 -1.077 -0.956268 0.254692 -0.149669 -0.850776 -0.0254662 -0.198203 -0.688476 -0.467146 -1.02471 1.72253 -0.338633 0.794315 0.437375 -0.357435 0.723058 -0.195762 0.0835053 -0.275192 0.0979894 -1.07795 -1.16135 0.430979 -0.501215 0.680831 -1.34197 0.149737 -0.15621 -0.181768 -0.355006 0.123717 -1.80216 -0.0905449 0.919048 0.139352 0.676073 0.0458137 -0.615185 0.520982 -0.455526 0.625503 -0.189101 -0.380207 0.522838 0.831348 -1.56846 1.91291 1.59639 1.23758 -0.886042 -0.898644 -0.650249 -1.04171 -0.242246 -0.820471 0.154146 0.685526 -1.33421 0.122779 -1.1069 2.39125 -0.894504 1.20036 0.916458 0.198763 1.37037 0.406518 -0.222032 -0.911236 0.424244 -0.571637 -2.33175 0.186696 -1.30573 0.603434 -0.596074 1.34903 -0.133571 1.17515 -0.353718 -0.288321 -0.945213 -0.0185714 0.897241 0.344734 0.410078 -0.0461506 0.581859 -0.148739 -0.518451 0.641356 -0.178138 -0.204188 -0.0740795 1.23414 -1.93006 0.0581876 1.16689 0.404095 -0.650926 -0.497971 -0.729426 -1.40235 0.185774 -0.538314 -0.671677 1.32917 -1.0942 0.34534 -1.68484 1.81679 -0.391995 0.577806 0.922898 -0.304048 0.0332042 0.120847 0.0306055 -0.348964 -0.994831 -0.653004 -2.23329 0.350977 -0.783959 0.363715 -0.305053 1.14343 -1.15497 1.65879 0.0348825 0.0196588 -0.69771 -0.214239 1.27145 0.319772 0.503429 0.49971 0.99724 -0.669223 -0.200811 0.446111 0.152579 -0.321519 0.369361 0.856836 -1.14564 -0.91314 0.408689 1.28369 -0.847156 -0.0872542 -0.339029 -1.33137 -0.149239 -0.438952 -0.427544 0.736768 -0.922801 0.195767 -1.74246 1.98539 0.40658 0.907951 0.934475 0.342694 -0.318405 0.00929448 -0.266749 -0.0301412 -0.318819 -0.0366134 -1.05445 0.0153541 -1.92664 0.535633 0.421139 1.4422 -0.0977723 1.28324 -0.00270818 0.139228 -1.18093 -0.596745 0.229678 0.128836 1.08339 -0.200338 -0.115364 -0.188681 -0.904113 0.480584 -0.549774 -0.104935 0.061163 0.803791 0.27026 -0.344054 1.03235 0.560556 -0.327148 0.684062 -0.9387 -1.19376 -0.454138 -0.244902 0.106883 1.0643 0.0461398 0.161549 -1.4609 1.47729 0.33165 0.551822 0.617048 0.00142221 0.31333 -0.138077 -0.598112 -0.900549 -0.844339 -0.256823 -1.02967 0.156231 -2.38195 0.162479 -0.0724246 1.05832 -0.104521 0.960721 0.244682 -0.231599 -0.234557 0.148173 -0.572529 -0.288774 0.403137 -0.347597 0.0827451 -0.0290096 -0.817509 0.0511917 -0.54945 -0.333606 1.13338 0.21014 0.235213 -1.56439 0.263735 0.751558 0.430244 0.114195 -0.199434 -0.366071 -0.115757 -0.242477 0.10215 1.0235 -0.0496923 0.131017 -0.66773 1.13797 -0.19931 0.376423 0.3429 -0.268397 -0.557354 0.084434 -1.09675 0.146653 0.229506 0.376973 -0.665149 0.850492 -1.7395 0.101865 -0.0883256 0.029909 0.295028 0.586756 0.405729 -0.645947 -0.00946541 0.0481873 -0.662561 -0.173097 -0.00556216 0.0299316 0.0531767 -0.0736499 -0.429961 -0.109137 0.0190616 -0.532671 1.06006 0.254325 -0.185337 -1.17724 0.554911 0.544821 -0.000781227 0.953616 -0.165989 -0.635278 -0.858829 -0.395745 0.48051 1.05597 -0.160472 0.0319498 -0.35993 0.34844 -0.530922 0.537458 0.269946 -0.599603 0.1191 0.0158878 -0.259943 -0.686688 0.382498 0.589575 -0.730947 1.50652 -1.57013 -0.0899562 0.0437685 0.747049 0.397431 0.804012 -0.233003 -0.563119 -0.53007 0.0236674 0.154002 -0.707966 0.290406 0.0155827 -0.525594 0.535764 0.410575 -0.993853 -0.339403 -0.0785465 0.55107 -0.497464 0.272482 -1.46974 -0.201487 -0.426871 0.0402277 0.603878 -0.986628 -0.419716 0.154186 -0.659796 0.725023 0.106062 0.506818 -0.0315683 -0.093335 -0.273922 0.0363599 0.246837 -0.275017 -0.0574198 0.00362855 0.0559191 -0.701969 -0.337029 -0.323408 0.631507 -0.593497 0.397852 -0.396377 -0.0727509 -0.115519 0.40623 0.46587 0.262638 -0.0214809 0.0267314 -0.00896897 -0.174635 -0.518782 -0.238837 0.52567 0.349532 -0.173452 0.0816372 0.577374 -0.898436 -0.166649 -0.285019 -0.035458 -0.510227 0.345926 -0.276143 -0.0322831 -0.536237 0.319309 0.24362 -0.328971 -0.042106 -0.266575 0.0042257 -0.40895 0.240006 0.206492 -0.349784 -0.461546 0.471987 -0.0629328 0.316767 -0.0979506 0.305739 0.405314 -0.378923 -0.671119 0.092507 -0.305209 -0.291784 0.342759 0.81583 0.248839 0.377333 -0.380718 -0.382918 0.519483 0.354966 -0.369937 0.0488567 -0.614041 0.133862 0.145016 0.00732737 0.359116 0.212027 -0.839713 0.0828395 0.281244 -0.82304 0.297211 -0.46718 0.52168 0.441259 -0.569405 -0.123031 -0.0182833 0.33183 0.444175 -0.195998 -0.472631 -0.0884041 -0.119057 0.204856 0.46226 -0.0125814 0.0456595 -0.177437 -0.767684 0.667428 -0.000528428 0.277458 0.206837 0.414534 0.537463 -0.0644724 -0.294242 -0.277057 -0.381877 0.0386939 0.0492038 0.615239 -0.00173868 -0.508078 -0.728733 -0.408972 0.659081 0.257084 -0.433534 -0.558841 -0.230813 -0.0795814 -0.42627 0.235825 -0.234879 0.397391 0.0476657 0.400213 -0.439142 -0.538496 -0.0337346 0.3684 -0.410166 0.137789 0.412488 -0.14725 -0.106444 0.0429732 0.258869 -0.124305 -0.0726949 -0.0833159 -0.459483 0.0803891 0.404864 0.133817 -0.34986 0.352228 0.0973947 0.0570393 -0.0584802 -0.362698 0.045516 0.09031 0.475384 -0.0107292 0.306703 0.152662 0.0430282 0.0632612 0.376098 -0.36656 0.151733 0.329722 0.342368 0.159847 0.164432 -0.136829 0.383906 -0.0227254 -0.39536 -0.476319 -0.296536 0.416227 -0.139911 0.226885 -0.268454 -0.0899853 0.118069 -0.360377 -0.421283 0.405198 0.474035 0.181187 0.187275 -0.349476 -0.309326 -0.253548 -0.00751268 0.427472 0.166951 -0.146753 -0.479976 -0.265242 -0.277319 -0.0156584 0.0363922 -0.112286 -0.461789 -0.433824 0.0251005 -0.147078 0.0270515 -0.395386 0.0280045 -0.208596 0.0362045 -0.16634 -0.117897 -0.085052 -0.432424 0.491805 0.0430351 -0.478564 0.363136 -0.101416 0.191805 0.2244 0.105063 -0.27747 -0.510321 0.365004 0.281618 0.0508914 0.301155 0.201368 0.211062 0.202085 -0.372507 0.293398 -0.0831443 -0.183218 -0.240379 -0.461861 -0.0506712 0.0766948 0.188153 -0.0794568 0.379506 0.422634 0.280714 0.394592 0.460417 -0.365187 -0.246966 0.0793791 0.156349 -0.182933 -0.164449 0.306373 0.406466 -0.255162 -0.294907 0.076392 -0.453202 0.374437 0.174823 -0.293806 0.31338 -0.495295 -0.366001 -0.0744268 0.374033 0.425965 0.351805 -0.219989 -0.101861 0.332579 -0.25278 0.0791032 -0.379864 -0.462327 -0.161545 -0.221367 -0.419265 0.154424 -0.329274 0.266176 -0.428652 0.154125 0.433081 -0.0571544 -0.337372 0.415933 0.294742 -0.343611 0.425998 -0.24809 -0.00818521 -0.114655 -0.214405 0.142633 -0.490837 0.163785 0.114825 0.173563 -0.199558 -0.0249664 -0.0993058 0.13913 -0.373215 -0.0333516 0.257879 0.324073 0.177908 0.176088 -0.200492 0.39342 -0.248966 0.0702281 -0.321446 -0.35299 0.523246 -0.0608891 0.270098 -0.422434 -0.211317 0.418767 0.220562 0.188363 -0.19878 0.318195 0.198972 0.100679 -0.194961 -0.242628 0.478259 0.0810014 0.433766 -0.0787403 -0.321677 0.363016 -0.490203 0.504972 0.0559936 0.0840949 0.051294 -0.113586 -0.116112 0.140212 -0.387929 0.396398 -0.419448 0.336597 -0.0567747 -0.159985 0.436901 -7.61637e-05 0.323181 0.0234435 -0.177189 -0.171734 0.0936561 -0.00333305 -0.459598 0.502298 0.503701 -0.212778 -0.315766 0.326435 -0.302356 -0.47227 -0.405937 0.0458245 -0.455265 -0.177044 0.253183 -0.367224 0.464771 -0.432614 0.00715121 -0.213627 0.351833 -0.387746 0.31431 0.0883416 -0.268272 -0.392242 -0.450055 0.513962 -0.0536858 0.414427 -0.503479 -0.0558593 -0.344658 0.402657 0.11081 0.295848 0.355395 -0.111579 0.0158829 0.411518 0.268325 -0.458572 0.443906 -0.0948818 -0.0773814 0.302679 0.305245 0.58983 -0.272934 0.264573 0.215802 -0.32754 0.34708 0.370846 0.234097 0.0937673 -0.118572 0.0810963 0.0980303 0.118501 0.06316 0.114176 -0.442231 0.210226 -0.425687 0.0602152 0.197543 -0.129476 0.314899 -0.184703 0.424397 0.466111 -0.117289 0.302712 0.135806 0.20284 0.410923 0.365922 -0.258014 0.344548 -0.116511 0.200178 -0.304206 0.0392033 -0.00777906 -0.223548 0.261958 -0.271609 -0.387412 -0.28732 0.283297 0.497231 -0.142351 0.193558 0.366123 -0.100124 0.19249 0.558853 -0.159041 0.379123 0.226511 -0.0557498 -0.250276 0.245995 0.309058 -0.382814 -0.611524 0.27645 0.219927 -0.61293 0.346931 -0.495724 -0.243096 0.0351077 0.0367625 0.626907 0.306826 0.204971 -0.399681 -0.0107671 0.14743 -0.427858 0.0576277 -0.375248 -0.199674 0.481999 -0.490494 0.0291717 0.0168955 -0.715778 -0.306329 0.491538 0.444118 -0.164797 -0.3196 0.367776 -0.444275 -0.522902 -0.176226 0.126918 -0.564667 0.237335 0.79405 -0.595972 0.246142 -0.479578 0.268125 0.227442 0.495536 0.0528796 -0.0213297 0.11367 -0.83727 0.736373 0.638497 -0.671815 0.0410306 -0.0589647 0.0690472 -0.094758 -0.0176377 -0.269051 -0.185116 0.323448 -0.435903 0.452891 -0.0444995 0.372597 0.0963331 -0.052313 0.183287 -0.195572 0.644636 -0.017041 -0.581511 -0.121952 0.152809 -0.636302 0.328496 -0.126482 -0.106631 0.309904 0.731378 -0.688348 0.0421566 -0.141261 -0.324733 -0.275399 -0.708198 -0.255451 0.00400384 0.399508 0.226051 0.0753287 -0.0678055 -0.636882 0.311633 0.469113 -0.265963 -0.0455799 -0.0310241 -0.181388 -0.490624 0.105636 0.426952 -0.643454 0.206549 -0.425402 0.0814771 -1.11024 1.34633 -0.167447 -0.600639 -0.623612 -0.57386 0.464169 0.277306 -0.373714 -0.322488 -0.11496 0.918571 -0.0812208 -0.0438752 -0.729704 -0.527088 0.227956 -0.209769 0.191724 0.945243 -0.345763 -0.647128 0.633601 0.902699 -0.741058 0.446493 -0.394444 -1.10286 0.706725 -0.769096 -0.345518 -0.139905 0.247941 0.425385 -0.0126543 0.986365 -0.437403 -0.116114 -0.547057 -0.206377 0.376075 -0.0226504 0.44503 -0.666222 0.298018 -0.00701089 -0.168742 0.797064 0.109364 0.435306 -1.53872 0.878507 -0.226224 -0.870148 -0.525858 -0.569619 0.747203 0.966693 0.388043 -0.741322 -0.158213 0.554993 -0.181132 -0.45311 -0.544204 -0.0745753 -0.53788 -0.400027 -0.114774 1.4122 -0.617408 0.298721 0.495927 0.497366 -0.749703 0.476385 -0.711111 -0.95079 0.829839 -0.837766 0.011656 0.244525 0.672191 1.35837 0.961324 1.01502 0.228503 -0.382754 -0.0109566 -0.310318 0.54906 0.594234 0.160578 0.146754 -0.251127 -0.324151 -0.0892425 1.16446 0.0725655 0.450609 -0.716321 0.718834 -0.747097 -1.12175 0.0518972 -1.81082 0.173747 0.919932 0.208656 -0.540005 -0.574647 0.378398 -0.000448362 -0.384647 -1.02741 -1.17793 0.504877 -0.512369 -0.551255 1.7019 -0.143924 -0.350062 0.844779 0.510276 -0.708691 -0.608007 -0.234503 -0.645465 0.595035 -0.110029 -0.475069 -0.25256 0.523057 0.792552 0.211263 0.315717 0.395438 0.157561 0.604747 -0.0817427 -0.0723659 0.761038 0.0986609 0.495682 -0.125441 -0.224687 0.111741 0.119559 -0.352244 -0.0992256 -0.815132 0.390314 0.685924 -1.38651 0.0807255 -1.3059 0.721649 1.03445 -0.137426 -1.03013 -0.335427 0.897213 -0.313672 -0.556301 -0.774247 -0.649653 -0.205544 -0.0170227 -0.147716 1.62799 -0.571516 -0.931548 0.882768 -0.307342 -0.811485 -1.34747 -0.451143 -0.395425 0.796604 -0.0928208 -0.590864 0.0606261 1.19346 0.0084418 -0.155275 -0.528009 0.337343 -0.312833 1.09108 -0.645684 0.210805 0.149686 0.850397 0.927595 -0.00491638 -0.867857 0.234793 0.979389 -0.379907 0.75664 0.314884 0.590058 1.23577 -0.776829 0.749823 -1.18665 -0.230358 1.3257 -0.324011 0.554566 -0.308191 1.00408 -0.182156 0.130386 -0.0582314 -0.956 0.563114 -0.657586 -0.497584 1.43127 -0.693097 -0.278289 0.942354 -0.113731 -0.762908 -2.11035 -0.211171 -0.17055 0.898449 -0.265243 -0.394566 0.0691968 0.596586 -0.0364549 -0.147762 -0.33144 0.351455 0.169741 1.22349 -0.327112 0.206966 0.867508 0.659023 0.564501 -0.453361 0.093613 0.248638 1.72465 1.0733 0.488435 -0.0136411 0.723445 0.844801 -0.766578 1.16393 -0.696069 -1.14024 0.955399 -1.06279 1.60237 -0.780383 1.24421 0.189321 -0.1753 0.00574525 -0.433483 0.559735 -0.725354 -0.41892 0.547547 -0.317575 -0.706082 1.96334 0.115789 -0.294836 -2.2404 -0.259389 -0.00042964 0.305139 -0.733952 0.564596 0.335911 0.0569833 1.19412 0.607838 -0.71517 -0.187984 0.106036 0.885571 0.164668 0.138005 0.481898 1.32853 1.03535 -0.358874 0.901801 -0.254576 0.614769 1.26999 -0.0702814 -0.896816 0.650006 0.835889 -0.343215 0.723297 -0.100446 -1.07111 0.834206 -0.64219 1.44119 -0.377534 1.03042 -0.990933 -0.159624 -0.190305 -0.465255 0.886586 -0.549082 -0.304755 -0.885685 -0.0262965 -1.50865 1.72348 0.237261 0.0730329 -2.62096 0.0201563 0.0641567 -0.492122 -0.492579 -0.275826 -0.226041 -0.549591 0.123021 0.131292 -0.543759 -0.0532706 -0.256026 1.07532 -0.114516 0.475437 -0.336635 0.854354 0.0111305 0.385277 0.382597 0.128652 -1.31772 0.298098 -0.240613 -0.304149 0.389838 0.813178 -0.343927 1.56866 0.0215812 -2.88611 -0.0961296 0.120396 1.73542 0.0312301 0.301455 -0.458135 0.61547 -0.36868 0.0497057 0.925073 -1.32092 0.180247 -1.06519 0.172174 -0.961813 1.05521 1.30823 1.68584 -2.41642 -0.377855 -0.558212 -0.317006 -0.760211 -0.56508 -0.319973 -0.241951 0.827073 -0.585237 -0.193813 -0.606499 -0.036852 0.339536 -0.353744 0.327373 -1.21981 -0.0937587 0.15724 -0.140634 1.0769 -0.320144 -0.318608 0.752173 -0.139253 0.168258 -0.316307 0.927593 0.0707908 0.198787 0.176445 -4.44059 0.202106 -0.525989 0.98172 0.778288 0.120528 -0.211645 0.927421 -0.278755 0.0634015 -0.0455578 0.106383 1.00645 -1.01029 -0.812788 -0.426486 0.570381 -0.114463 4.70623 -1.39642 0.0332087 -0.0775269 -0.809742 -1.53072 -0.78623 -0.516218 -0.360528 0.786522 0.0656934 -0.256606 -0.099895 0.0336112 -0.064286 0.43675 0.568415 -0.215094 -0.174122 -0.345606 0.140379 0.329662 -0.107671 -0.892317 -1.20329 -0.239775 0.31879 0.19352 0.688778 0.350084 -0.0524934 0.402522 -2.82634 0.177403 -0.285991 -1.02505 0.352436 0.500702 -0.177462 0.656624 -1.58222 -0.324838 -0.0118197 0.361811 0.610581 -0.0347858 0.109497 -1.15719 1.28092 -2.20218 5.11177 -1.1586 0.318986 0.0280679 -0.240509 -1.15781 -0.420293 -0.576986 -0.728192 0.0348085 0.795178 0.126995 -0.944715 -0.33288 0.841832 -0.340335 -0.734348 -0.52212 -0.926416 -0.628242 -0.567792 -0.31327 0.253016 -0.0949815 -1.10879 -0.820583 -0.195265 0.595324 0.891218 0.557949 -0.443694 -1.10397 -0.126473 0.235531 -0.403805 -0.751878 0.141591 1.32294 -0.273301 0.241619 0.410228 -0.0251927 0.119417 -0.16531 -0.122853 -0.0096967 0.595609 -1.02931 1.25694 -3.20175 2.2733 -1.21345 0.393097 -0.867317 -0.215023 -1.20703 -0.466573 -0.529007 -0.594044 0.86948 1.06602 -0.0668192 0.151084 -0.27347 0.249883 -0.839786 -0.791481 0.0264616 -0.984358 -0.364033 -0.213219 -0.115516 -0.404626 -0.515823 -0.301429 -1.04214 0.435433 -0.0902367 0.024304 -0.0546332 -0.0509522 0.0328633 1.05048 -0.128145 -0.216506 -0.673011 -0.58575 1.13609 -0.727749 -0.0314906 -1.03837 0.0591426 0.240698 -0.040689 -0.30248 0.136149 0.201317 -1.04826 0.768308 -3.10434 -1.5174 -1.61095 1.25531 -0.513064 -0.982105 -0.515471 -0.250105 -0.661023 -0.730975 -0.220151 0.531122 -0.147984 0.184827 -1.28841 1.25548 0.0723315 -0.420605 -0.140353 -0.877861 -0.0310208 -0.530942 -0.414521 0.309633 -0.607807 0.198326 -1.71485 0.656777 -0.315735 -0.473837 0.0881312 1.58361 0.659577 1.09231 -0.741467 -0.240528 0.267769 0.684107 0.338511 -0.212227 -0.0193586 0.154128 -0.313445 -0.517936 0.144827 -0.71283 -0.430519 0.00326077 -0.277313 0.527464 -2.17423 -1.403 -0.366283 1.20531 -0.518003 -0.103228 -0.390322 -1.11597 -0.977915 0.12653 0.535757 0.690875 -0.55362 -0.707246 -1.39856 0.270503 0.157883 0.861356 0.353146 0.193063 -0.316489 -0.209326 -0.845282 -0.515572 0.121548 0.170864 -1.50836 0.942566 -0.752651 0.101826 -1.58134 1.05892 0.594294 1.87392 0.145992 -0.930148 0.973909 0.645871 0.255304 -0.778776 -0.0454185 0.561782 -0.274472 0.180217 0.296587 -0.761863 0.161242 -0.546348 0.450425 0.310108 -0.992588 -1.53905 0.739386 0.809386 -0.501052 -0.586972 -0.394202 -0.772818 -0.924381 -0.301267 0.865132 0.914758 0.0295898 -0.369434 -1.29345 0.817677 0.180214 0.498091 -0.0923663 -0.374946 -0.211557 -0.624686 -1.68503 -0.284639 -0.569871 -0.842919 -1.52485 0.703278 -1.90559 -0.678409 -0.765114 0.174533 -0.714149 1.95638 -0.227168 -0.752819 0.100374 0.0677157 -0.359758 -0.0198598 0.637614 0.38493 -0.249367 0.862222 -0.370063 -0.631172 -0.677737 -0.247032 0.204563 -0.4037 0.145098 -0.98404 0.274938 1.50551 -0.379416 0.0267963 -0.62562 -0.251091 -0.308928 -0.519693 1.23669 0.934486 0.402319 0.366174 -0.510193 -0.551226 0.163002 0.313977 0.293199 -0.257421 -0.755594 -0.325051 -0.620584 -0.202018 -0.818606 -0.320954 -0.204492 0.669904 -1.75456 -0.196499 -0.878016 0.315142 0.0755161 0.867361 0.595911 -0.606736 -0.502755 -0.240541 -0.187758 0.608158 0.516704 -0.399029 0.179467 -0.331072 0.612088 -0.645896 -0.528583 -0.692109 1.2526 0.307549 0.534797 -1.49536 0.405818 0.55111 -0.249466 -0.21413 -0.601765 -0.0338627 -0.753125 -0.248275 1.20591 0.374404 0.116942 0.132046 -0.0291134 -0.924252 0.426434 -0.210025 -0.413473 0.0773627 0.24007 0.566616 -0.307188 -0.431758 -0.141819 0.462097 0.132916 0.984442 -1.2571 0.220636 -0.564264 0.756064 0.68946 -0.0460387 0.60055 -0.158646 -0.0873165 0.00638638 -0.233969 0.223939 0.237784 -0.226061 -0.584074 0.546636 0.915387 -0.918397 -0.934562 -0.287232 0.69935 -0.32787 0.83472 -1.27733 0.573798 -0.112446 -0.0263022 0.314142 -0.314145 -0.267005 -0.363352 -0.853531 1.1161 0.401908 -0.758017 -0.0531821 0.0997704 -0.255033 0.112867 0.513839 -0.115512 -0.00673393 -0.209535 -0.570743 -0.624323 -0.30468 -0.240077 0.279401 0.24774 1.2279 -0.466746 -0.330998 -0.323742 0.887054 0.975559 -0.252591 0.306841 0.253497 0.288137 -0.0671954 -0.553086 -0.116333 0.471187 0.0174667 -1.39456 0.357228 0.445585 -0.563099 -0.512174 -1.14159 0.79112 0.192117 0.119239 0.0735229 0.527229 -0.614527 0.620997 0.540199 -0.323167 0.432363 -0.141916 -0.686015 0.30184 0.550018 -0.0733328 -0.303929 -0.342484 0.169641 0.267457 0.214484 0.530487 0.555365 -0.282389 0.160997 -0.242956 -0.389366 -0.374299 -0.489559 -0.346633 0.755711 0.0977764 -0.114302 -0.806648 0.6517 0.909196 0.186489 -0.546685 -0.00200733 0.366622 0.161859 -0.569511 -0.62308 0.274212 0.663178 -0.646357 0.457731 -0.00661267 -0.674511 -0.550582 -0.15095 0.0424854 -0.360481 0.295058 -0.707637 0.578124 -0.372944 -0.301341 0.393444 0.0509427 0.0354312 0.058231 -0.533897 0.260974 0.236586 -0.524944 -0.0380238 0.106662 0.133553 0.352322 -0.393381 0.239139 0.614313 0.30792 0.176378 -0.0299277 -0.13427 -0.0513112 -0.460315 0.0360228 0.410871 0.296533 0.261276 0.0900295 0.091437 0.399566 -0.283605 -0.00141858 0.209159 0.578753 -0.180003 -0.459197 -0.445807 0.246031 0.569506 -0.385755 0.205494 -0.120584 -0.120186 -0.286158 -0.380834 0.0565776 -0.296603 0.41599 -0.312799 0.062725 0.0686443 -0.117824 0.167248 0.0311953 0.489573 0.0584409 0.184923 -0.304587 -0.181598 0.223336 0.265888 -0.252844 -0.144246 -0.483232 0.00459269 -0.214909 -0.207362 -0.177217 -0.060962 0.139334 0.484944 -0.0509805 0.0612223 0.0271775 0.161588 0.275437 0.0774036 -0.309826 0.430219 0.112717 -0.125792 -0.0107954 0.0997743 -0.0787959 0.333905 -0.448002 0.168462 -0.381844 -0.314682 -0.351012 0.397777 -0.309867 -0.0311245 0.120065 0.265007 -0.156221 -0.406083 0.221378 0.421933 0.309479 -0.262867 0.201757 0.283437 -0.206274 -0.0248322 -0.134182 0.270596 0.313946 -0.253291 -0.286518 0.113769 -0.418211 0.163906 -0.0751196 -0.415786 0.00958518 -0.0887884 -0.501067 -0.268257 0.460683 -0.0449451 0.251477 -0.215926 -0.191601 0.0594795 0.0123346 -0.461289 0.244538 -0.0654799 0.402406 -0.281755 -0.134291 -0.114561 -0.276263 -0.324573 -0.349796 0.355916 -0.131593 -0.125773 0.000311135 -0.299026 0.373812 -0.146275 0.462048 -0.000686865 0.19403 0.236894 0.18668 0.430193 0.283804 0.169421 0.0415931 0.176439 0.127642 -0.0189297 -0.453124 0.365627 -0.0998308 -0.478278 0.146675 -0.360753 -0.227975 0.136127 -0.40844 -0.337263 0.291144 -0.310876 0.0569355 -0.0187146 -0.301475 0.414943 0.39258 -0.0848877 -0.185656 0.0173954 0.0335086 0.131627 -0.0362611 -0.180701 -0.34809 0.201471 0.0282277 0.463522 -0.00690997 0.281668 -0.034544 0.0387633 0.462614 -0.446786 0.165557 -0.49478 -0.405745 -0.463397 0.444318 -0.42156 -0.138881 -0.352974 -0.0814078 -0.229946 -0.296518 -0.432729 -0.222237 0.291905 0.108643 0.38352 0.219011 -0.459406 0.485377 0.0369874 -0.0390967 0.112646 0.0674896 -0.30845 0.352051 -0.275303 -0.0247495 0.0294782 -0.22468 -0.403694 0.0656746 0.0810464 -0.155599 0.382472 0.504224 0.401832 -0.40919 -0.153139 -0.117043 -0.210289 0.45682 -0.11875 -0.217917 -0.243266 -0.519476 -0.214152 0.461902 0.30146 -0.359155 -0.108993 0.234026 -0.316101 -0.122824 -0.232158 -0.384206 -0.156942 -0.436315 -0.386074 -0.424394 0.0552897 -0.314847 -0.470612 0.0806538 -0.289783 0.469147 0.284932 -0.437339 0.418639 0.517091 0.209924 0.0885302 0.290465 0.140143 0.0711521 0.356395 -0.0947129 -0.429551 -0.393572 -0.255944 -0.431359 0.0363869 -0.402921 -0.298744 -0.0345112 0.383357 -0.19327 -0.106188 -0.407991 -0.121255 0.365087 -0.0586623 0.0166415 0.371424 -0.0640964 -0.101522 0.297475 0.25714 -0.0866599 -0.0966835 -0.293183 0.385638 0.374231 0.279029 0.391354 0.21977 0.152574 0.0566383 -0.0306016 -0.339674 0.19696 -0.279067 -0.00811834 0.204003 -0.506884 -0.313669 0.274521 -0.101495 -0.354615 -0.00807923 0.147063 0.109185 -0.0824349 0.382785 -0.0595723 0.0072092 -0.314432 -0.249932 -0.357654 0.0531335 0.434849 -0.0958253 -0.517049 0.336903 -0.11152 -0.14676 -0.097794 -0.219713 -0.0718918 -0.484406 -0.0111084 0.162713 -0.146157 0.108586 0.592671 -0.0227382 0.409253 0.637777 0.388593 -0.372454 -0.144844 0.000724718 0.396378 -0.39235 -0.0243688 0.676977 0.0639663 -0.32715 0.157958 0.113822 0.210491 -0.315726 -0.249575 0.128435 -0.335513 0.441202 -0.242333 0.193761 0.448923 -0.0725932 -0.506677 0.168461 -0.196918 0.155763 0.0892445 0.5836 0.185048 0.0119074 0.398345 -1.07433 0.797148 -0.303404 0.00574047 -0.385221 -0.0323665 1.13151 -0.278068 0.348807 -0.405352 0.161745 0.389761 -0.577299 0.624172 -0.374753 0.987375 -0.0702115 -0.0770977 0.441527 0.397057 0.0677497 0.39848 -0.572715 0.408656 -0.50384 0.137282 0.492765 -0.556602 -0.298529 0.282247 0.384339 -0.118971 0.0614539 -0.369725 0.316054 0.200803 -0.0875297 0.16855 -0.145451 0.447504 0.423441 -0.0716814 -0.302901 -0.693941 -0.327223 -0.360889 0.431853 0.376448 -0.208198 -0.0693084 -0.936981 0.247579 -0.300813 -0.906223 -0.781053 -0.0898791 0.691269 -0.825272 0.687758 -0.0277973 -0.649274 -0.473905 -0.569292 0.178973 -0.444911 0.457578 0.230542 -0.405479 0.96441 -0.605742 0.214979 -0.48979 -0.992626 -0.145823 -0.37972 -0.226429 0.71393 -0.4025 -0.0125589 0.57219 0.747152 -0.0940348 0.482937 -0.100407 -0.868477 -0.36833 0.181049 0.152083 -0.409918 0.69633 0.423792 -0.524327 -0.345867 -0.180598 0.20685 -0.153129 0.145251 0.722625 0.905619 -0.0323752 -0.303232 -0.0936046 -0.113035 -0.808424 -0.19497 -0.0915944 -0.0831448 -0.217078 0.536654 -0.22489 -0.266017 -0.0736446 -0.780366 -0.258677 0.387283 0.242211 -0.192278 -0.874266 0.902092 -0.431989 0.0174856 -0.596667 -0.223244 -0.0330944 -0.2919 -0.344381 1.06577 -0.719343 0.574294 -0.192414 0.467231 -0.137255 0.0373289 -0.00336622 -0.94486 0.280445 -0.706536 0.700232 -0.27162 0.514533 1.07429 0.265569 0.142986 0.324149 -0.535746 -0.438556 0.506797 0.292274 0.457594 -0.0700659 -0.936857 0.024694 -0.655658 -0.423292 0.898664 -0.394152 -0.735089 -0.990506 -0.274357 -1.07146 -0.784088 0.137689 -1.22573 0.439773 0.697954 -0.0759924 -0.787261 -0.4165 0.542945 0.198039 -0.952962 -0.633848 -0.946676 0.183248 -0.917733 -0.900128 1.05071 -0.317014 0.878122 1.17548 -0.475671 0.127459 0.267488 -0.904209 -1.03031 0.380648 -0.217634 0.0727054 -0.107861 0.635764 1.25059 -0.0199248 -0.264833 0.0458952 -0.760996 0.172342 0.407637 0.5161 0.0263998 0.00909943 0.603151 0.705133 -0.582597 -0.607729 0.422091 0.17525 -0.663068 0.0264289 0.471346 -0.405036 -1.14308 0.559129 -1.31556 0.900898 0.926419 0.236001 -0.225278 -0.518118 1.13933 -0.231944 -0.241468 -1.45979 -0.454343 0.0882869 -0.782612 -1.09094 2.25147 -1.24273 1.48913 1.37411 -0.833378 -0.0288112 -0.723125 -0.434689 -0.522166 -0.345735 0.192562 -0.0247532 -0.820335 0.539447 0.814281 0.375878 -0.472419 0.385637 0.0905039 0.31804 0.290878 0.0493566 0.101307 0.418039 0.713087 0.29067 -1.10791 -1.0487 -0.408612 0.433615 0.0324622 -0.152906 -0.0343703 -0.418457 -1.65706 0.904091 -1.12389 0.200388 0.978232 -0.053176 0.604474 0.210007 0.808668 -0.0771195 -0.334839 -0.858519 -0.79471 -0.102012 -1.01877 -0.483564 1.84982 -1.04264 0.770763 1.49455 -0.95088 -0.722355 -1.26371 -0.375591 -0.459203 -0.30071 0.300074 -0.838687 -0.0254596 1.18126 0.22164 -0.0347747 -0.306025 0.0680591 -0.157702 0.390112 0.256913 -0.491803 0.926401 0.366516 1.27236 0.568708 -0.62252 0.0127215 0.803825 -0.691541 0.206029 0.292281 0.108852 -0.431227 -1.73411 0.157604 -0.0231335 0.483798 1.68988 -0.83739 1.85205 -0.23438 0.132905 0.618948 -0.00317304 -0.825051 -0.943945 0.0852346 -1.16633 0.062796 0.0678198 -0.666748 -0.456233 0.790386 0.112574 -1.17352 -1.4601 0.0651802 -0.251915 0.0107678 0.440351 0.231596 -1.14261 0.897634 -0.682108 1.29793 -1.00147 -0.753855 -0.219272 -0.052287 0.326337 -0.711127 0.517171 1.08902 0.812636 0.474867 0.0656351 -0.104594 1.41147 0.647034 -0.472824 0.0339525 0.257277 -0.111819 -0.890118 0.00657449 -0.0145575 -0.0635451 0.301678 -0.458208 2.30378 0.383488 0.322705 0.268719 0.000572508 0.0551284 0.717151 -0.0183981 -0.56472 -0.140796 -0.600391 -0.237344 -1.01003 0.658407 -0.658489 -0.528341 -2.20811 -0.215815 -0.765624 -0.55338 0.692053 1.47078 -1.25613 0.324895 -0.0978225 1.10208 -0.16809 -0.835612 0.0211062 0.944196 0.571695 -0.992361 0.904721 0.409842 0.31469 0.449773 0.188131 -1.13086 0.214187 0.471211 -0.821358 -0.403406 -0.605619 