Inputs_node_num= 784
hidden_layer_num= 2
hidden_node_num= 50
output_node_num= 10
0.113182 0.364054 -0.309449 -0.406759 -0.345632 0.33904 -0.126237 0.424064 -0.415558 -0.0740912 -0.103962 0.0148106 -0.0582284 0.0978693 0.177012 0.362766 -0.187399 -0.0693964 0.349643 -0.0479445 -0.134907 -0.352518 -0.440322 -0.0371103 -0.0734655 -0.300893 -0.262788 -0.0714323 0.12115 -0.357527 0.39207 -0.0631149 -0.393568 -0.0724955 0.107731 0.461914 0.489322 -0.0436775 -0.0835012 -0.262193 0.153094 -0.381166 -0.385291 0.190141 -0.0998193 0.272254 -0.239983 0.0306898 -0.465413 0.402652 -0.229464 0.342079 0.177507 -0.153586 -0.407144 0.432607 0.0383712 -0.460311 -0.257585 0.420711 0.154689 0.32384 -0.0379115 0.0667789 -0.435425 -0.084379 -0.297748 -0.463425 0.301881 0.280657 -0.0643284 -0.280586 -0.0223604 0.0255761 -0.390265 -0.0976572 -0.132813 -0.445188 0.240905 -0.125576 -0.431908 0.4709 0.168573 -0.340521 0.0525847 0.158025 0.315414 -0.228026 -0.174566 0.178144 0.164176 0.0694651 -0.203669 -0.446055 0.0141276 0.265015 -0.319954 0.300618 0.191372 -0.367174 -0.188015 0.414952 -0.474868 0.44872 0.436932 -0.227052 0.404686 -0.430026 0.283104 0.0868458 0.431302 -0.299012 -0.142973 0.187118 -0.170157 0.0915615 0.0317294 0.411038 -0.147146 0.148388 -0.400589 -0.15475 0.141614 0.372459 0.45418 0.246178 0.353805 0.169814 -0.161865 0.271998 -0.309881 0.17977 -0.384513 -0.344696 -0.467073 0.121861 0.336717 -0.101655 -0.406281 0.423956 -0.510025 0.341625 0.252484 0.294765 -0.328058 -0.205696 0.504843 0.46274 0.013913 0.436623 -0.323593 0.319441 0.384084 0.189829 -0.455154 -0.211809 -0.310937 -0.265471 -0.0310139 0.412759 -0.174346 -0.475855 -0.0284265 -0.040225 -0.303554 -0.024115 -0.0637711 -0.343118 0.274104 -0.248285 0.12603 0.192318 -0.505137 -0.464595 0.0291454 -0.370724 -0.010582 -0.353161 -0.321778 0.0572173 -0.404511 0.298068 -0.387118 0.400314 0.142122 -0.433618 -0.154278 -0.1956 -0.0951364 0.160671 0.0413329 -0.371463 -0.381455 0.079067 0.0818047 0.332953 0.182581 -0.524949 -0.311641 -0.267452 0.110028 0.229473 -0.31836 -0.380259 0.13568 0.0739535 -0.0425785 0.185638 -0.144045 0.181466 -0.432559 0.280348 0.195291 -0.213849 -0.165118 0.429994 0.155238 -0.486092 0.144717 0.437785 0.395413 -0.435054 -0.430831 -0.388323 0.386055 -0.353385 -0.0413973 -0.437222 0.364785 0.215243 0.119709 -0.339958 -0.30375 0.28564 0.142488 0.251181 0.257168 -0.472967 -0.296874 -0.303211 -0.454843 -0.0587688 -0.289837 -0.172978 -0.101714 -0.227445 -0.50601 0.0119235 0.297591 -0.292375 0.0798863 -0.0144024 -0.201499 -0.0356445 0.413808 -0.249622 0.0515415 -0.290588 0.252082 -0.479554 -0.319855 -0.0858759 0.224002 0.116073 0.442144 -0.00125286 0.432089 -0.310365 0.0437323 -0.160183 -0.233809 0.248262 0.221879 -0.0897718 0.463392 -0.352308 0.284787 -0.0841705 -0.135083 0.00243439 0.0676132 -0.017477 -0.0618968 0.119331 -0.260935 0.086798 0.187723 0.284234 -0.375809 0.400315 0.434252 -0.148329 -0.212024 -0.241546 -0.400135 -0.37638 -0.360746 0.417154 0.239019 -0.0712996 -0.324103 -0.499928 -0.484969 0.478754 0.117784 -0.24663 -0.104314 -0.295648 -0.121444 0.150988 -0.299905 0.47432 -0.365731 0.0866789 0.46179 0.153353 -0.238373 0.342094 0.345871 0.117194 -0.163449 -0.021825 -0.243495 0.0889862 -0.339151 -0.38155 0.208533 0.268507 0.257514 -0.249242 -0.422996 -0.041891 -0.459018 -0.453933 -0.209614 -0.304255 0.39149 -0.0734202 0.118294 -0.0386651 0.370812 -0.0389266 -0.30511 0.178151 -0.133972 0.279019 0.308177 -0.218205 0.155923 -0.140087 -0.182909 -0.18239 -0.223597 0.27079 0.446557 0.232744 0.287139 -0.426715 0.0665908 -0.199958 0.0481236 -0.247429 -0.306993 -0.172729 0.152442 -0.318428 -0.234101 0.431907 -0.260786 -0.293773 -0.0144309 0.0266847 0.302358 -0.437816 -0.0811821 -0.0666513 0.131071 -0.0121535 0.301795 0.387767 0.0156665 -0.317675 0.194111 0.245501 -0.443494 -0.103407 -0.096936 0.278176 -0.089057 0.256446 0.36595 -0.343989 -0.154696 -0.415524 0.0404859 -0.460682 0.489074 0.310704 -0.48275 0.0417964 -0.0494382 0.428045 0.310925 0.11805 -0.295568 -0.192639 -0.110152 0.189328 0.277428 -0.29616 -0.496129 0.350062 0.474152 0.102586 0.286956 -0.441973 -0.292095 -0.0203288 0.392526 -0.0668966 -0.412728 -0.407342 0.159181 0.413817 0.21673 0.26646 -0.442673 -0.170269 0.336529 0.424439 -0.392213 -0.513092 0.0463397 0.379177 0.074241 0.0113474 0.122541 -0.026638 0.120974 -0.262518 0.102218 -0.0533432 0.237608 0.00618798 0.424736 0.152329 -0.218989 0.0705425 0.110845 -0.113171 -0.512279 0.159499 -0.0543545 0.4169 -0.11852 0.0314513 0.428268 -0.404477 0.362198 0.00276569 0.314309 -0.178082 -0.327538 -0.459304 -0.114447 0.26967 0.140471 0.186194 -0.26477 -0.0270113 -0.386587 0.447241 0.33306 -0.0395008 0.379206 0.487245 0.293612 0.419632 -0.335451 0.0124119 0.292018 0.0860905 -0.287244 -0.340915 -0.377644 -0.0249021 0.0888355 0.408548 0.250671 -0.0812444 0.0540246 -0.465597 0.0463437 0.0726783 -0.246176 0.293335 -0.395463 -0.205583 -0.500466 0.13759 -0.294479 0.0114982 -0.11775 -0.177758 0.503033 0.00371024 0.252011 -0.492736 -0.47592 0.0849147 -0.202915 -0.23429 -0.143883 0.143861 0.253103 0.373166 0.0310413 0.416205 -0.31325 0.0928781 -0.293566 0.496521 0.251191 0.276548 -0.399774 0.32646 -0.135713 -0.0632141 0.299915 0.368684 -0.103657 -0.0574711 0.0816457 -0.228389 0.417725 0.230205 0.0392838 -0.00957393 0.0824068 -0.0423465 0.0310933 0.0012179 -0.445599 -0.350253 0.240141 0.301359 -0.16445 -0.499352 0.265976 0.347152 0.524093 0.324663 0.356209 0.392437 -0.080438 -0.336627 0.495026 -0.455887 0.387658 0.177352 0.227223 0.00232314 0.273353 0.0241496 0.061699 -0.294982 0.481925 0.085997 -0.121382 -0.0735749 -0.010476 0.0167661 -0.124398 0.318629 -0.239601 0.263334 0.281378 -0.262794 0.190206 -0.144205 -0.0636374 0.162869 0.102928 0.194536 0.151253 0.129034 -0.205108 -0.0986226 0.185019 0.42185 -0.343541 -0.443904 -0.347021 -0.124985 0.291545 -0.128327 0.284908 -0.362945 -0.0814584 0.322213 0.464018 -0.0271973 0.209252 0.00952564 -0.137765 0.0886877 0.0133041 -0.444034 0.138055 -0.0431232 -0.564989 -0.305117 -0.495441 0.358491 -0.323871 0.332313 0.0960996 -0.336459 0.123729 -0.0876095 0.327399 -0.208141 -0.22133 0.485885 -0.335427 -0.321196 0.143236 0.179016 -0.214982 0.162158 0.157943 0.200199 0.368004 0.475725 -0.507232 0.310146 0.145683 -0.24034 0.350897 -0.299477 0.118772 -0.0979639 -0.194943 0.384928 -0.265194 0.339121 0.082837 -0.193435 0.249156 0.349289 0.128714 0.0722474 -0.202218 -0.209737 0.12857 0.29464 0.0410634 0.0185847 -0.225103 -0.0644914 -0.0442092 0.213183 0.0556903 -0.433382 0.41772 -0.0505049 -0.3579 0.211004 -0.0142354 0.408946 0.445579 -0.302078 0.295855 -0.15854 -0.412451 -0.330911 0.174916 0.468469 -0.337164 0.208944 0.0595372 -0.188484 -0.486448 0.347573 -0.556654 0.0897713 0.05384 0.462892 -0.380684 -0.329544 0.424479 -0.249717 -0.208838 -0.501931 -0.116864 0.352608 -0.468983 -0.368879 -0.0922217 -0.328943 -0.469104 -0.476093 0.552832 -0.387248 0.0217285 0.0630418 0.389488 0.155096 0.0485223 0.0450414 0.240095 -0.0682969 -0.509942 0.217448 0.113113 -0.14882 0.0617759 0.1587 0.0662065 0.234204 -0.124327 0.169946 -0.319312 0.434302 -0.0628236 0.207681 0.31532 0.244566 -0.146041 -0.275057 -0.00361103 -0.314716 -0.18333 0.0645044 0.493432 0.339926 -0.367195 0.0408058 -0.385661 -0.111071 0.194399 -0.367516 0.42364 -0.360097 0.400782 0.282543 -0.194619 -0.17355 -0.218665 -0.528052 0.116321 -0.300166 -0.346564 0.120174 -0.0743126 -0.195188 -0.370114 -0.441216 -0.459979 0.42047 -0.0199231 -0.504415 -0.434009 -0.0882083 0.277183 0.231339 -0.324704 0.312588 0.308955 0.413401 -0.137827 0.344339 0.467194 0.392206 -0.12658 -0.385296 0.0784165 -0.3245 -0.414857 -0.0044071 -0.377071 0.00408788 0.288943 -0.447172 0.249732 -0.0720867 -0.480841 -0.358207 0.154322 -0.403023 0.0762958 0.301444 0.156073 -0.229441 0.0606316 0.176855 0.00469654 -0.187128 -0.11484 -0.370975 0.110659 -0.231316 -0.211714 -0.0900013 0.392686 0.0997192 0.306415 -0.247226 0.212656 0.431311 -0.365358 -0.189693 -0.511958 -0.14214 -0.101582 -0.383827 0.466432 -0.353197 -0.198794 0.119439 0.290556 0.194976 -0.391733 -0.408081 -0.431488 -0.2699 0.00960374 -0.437067 0.384688 -0.464449 -0.181646 0.320139 -0.571035 -0.310977 0.039945 0.244041 0.316057 -0.358612 -0.279237 0.220353 -0.172144 0.387692 -0.0645478 0.0962309 0.00969427 0.382329 0.439166 0.290032 -0.375797 0.0674265 -0.0405144 0.378077 -0.166187 -0.15496 -0.498662 0.163579 -0.406962 0.278751 -0.471599 -0.44953 0.301368 0.113402 -0.0500201 -0.174557 -0.390246 0.320519 0.0256081 -0.300543 -0.266285 -0.197916 0.432851 0.295467 -0.376539 -0.363798 -0.509752 -0.309407 -0.0580944 -0.196271 -0.304931 0.0645856 0.0353177 -0.258651 0.0469056 0.301316 -0.0964315 -0.191181 -0.298277 -0.257908 0.162577 -0.192291 0.30174 0.457669 -0.469529 -0.543171 0.315342 -0.0878663 0.339063 0.291526 -0.371666 0.281384 -0.246626 -0.464743 0.520122 -0.43462 -0.294881 0.0964005 0.0786317 -0.0798886 0.212645 -0.212968 -0.0656469 0.375706 0.465434 0.310869 0.0499952 -0.218764 -0.429626 0.451682 0.44966 -0.512742 0.250244 -0.417213 0.30385 -0.13765 -0.0104566 0.462892 0.233394 0.44266 -0.175533 0.13328 0.268259 0.0412872 -0.578018 0.138177 -0.207392 0.117732 -0.210816 0.335707 -0.0901951 -0.0823895 0.410565 0.071846 -0.433958 0.426298 -0.367006 0.201686 0.330224 0.315059 -0.278516 0.207311 0.00834855 0.517425 -0.39797 0.381775 -0.197921 -0.133436 0.0945818 0.366678 -0.196473 0.387729 -0.374252 -0.028788 -0.559173 -0.48239 -0.25729 0.238308 0.371456 0.200034 -0.492938 -0.299628 -0.222832 0.337972 -0.12789 -0.141965 -0.364177 0.235806 -0.307953 -0.29789 -0.186593 0.0557291 0.21846 0.525389 0.404249 0.0819108 -0.521544 0.177481 0.245627 0.495913 0.418342 0.129887 0.270968 -0.110165 -0.317001 0.299303 0.00871419 -0.045832 -0.123892 -0.01244 -0.394873 -0.0371216 -0.419387 -0.0153495 0.495381 -0.204874 -0.22699 0.256225 0.325026 -0.440864 -0.279326 -0.0549432 -0.058038 0.196739 -0.227435 -0.142456 0.302938 0.368383 0.253512 -0.0564158 0.36737 -0.0626567 -0.020282 -0.0628774 0.26648 0.418165 0.265243 -0.256596 -0.189852 -0.425177 -0.302798 0.413522 0.112144 -0.436937 0.18886 0.0889009 0.263507 0.258043 0.0973714 -0.164413 0.275422 -0.342882 -0.215767 0.330186 0.208945 0.162974 0.299766 -0.219303 -0.542577 0.416728 0.0417977 0.342921 -0.254183 -0.20374 -0.417387 -0.0947264 0.167423 -0.294904 0.0866508 0.0679762 -0.332739 0.137155 -0.462384 0.101062 -0.365588 -0.0556476 0.147692 -0.240939 -0.496588 0.207808 -0.488084 -0.183462 -0.149507 0.312488 -0.452687 0.400361 -0.149734 -0.499847 -0.307882 0.402013 0.0839733 -0.447018 -0.342941 -0.0615149 0.198146 -0.220169 0.0244494 0.285074 0.22844 -0.342667 -0.50148 -0.029435 -0.498808 0.152166 -0.0662034 0.272399 0.448726 0.361453 -0.0138484 -0.18715 -0.377156 -0.431423 -0.24496 -0.0674315 0.418096 0.108469 -0.437859 0.387875 -0.0911524 0.096664 -0.130076 0.2712 -0.242103 0.357538 -0.379817 0.381175 -0.221378 -0.00818217 0.245407 -0.0464042 0.279276 -0.422909 -0.256437 0.529865 0.378647 -0.0533087 -0.460941 -0.155537 0.0645328 -0.457789 -0.0146858 0.00305618 0.146792 -0.450016 0.0953373 0.106958 0.127572 -0.0249201 0.222518 0.317951 0.0554489 -0.247044 -0.2295 -0.120496 0.366043 -0.151646 0.178663 -0.39374 -0.225594 -0.431219 -0.342787 -0.286372 0.413712 -0.332809 -0.222867 0.284476 -0.430739 0.193982 -0.324714 0.38419 -0.346475 0.104127 0.167944 -0.00864427 -0.26189 -0.345779 -0.360644 -0.484745 0.479437 0.445748 -0.398831 0.50481 -0.22413 -0.423138 -0.218398 -0.27489 0.361915 0.169016 -0.397721 -0.0527095 -0.111956 0.1276 -0.555746 0.248602 -0.416916 0.0883429 -0.374318 0.162912 0.370348 -0.0528011 0.454601 -0.068058 0.35335 0.43801 -0.288735 0.19643 -0.25227 -0.378896 0.419538 0.0755254 0.187093 -0.177868 0.220624 -0.157579 0.00212665 -0.0780691 -0.205531 0.312477 0.295847 -0.224503 -0.177114 -0.44442 -0.332596 0.243822 0.384641 -0.151141 -0.07997 -0.208251 -0.213321 0.368149 -0.158515 0.199952 -0.0567195 0.442838 0.269497 -0.403038 0.101571 -0.424627 -0.190162 0.185856 0.0429522 -0.18661 0.170163 0.47057 0.253904 0.0894357 0.270151 -0.305926 -0.330252 -0.181293 -0.410539 0.0463798 -0.468365 -0.426794 -0.137663 -0.205188 -0.459656 -0.289033 0.267172 -0.00398456 0.0749523 0.462184 -0.410234 0.163547 -0.0251762 0.355644 -0.440557 -0.471222 0.379685 0.0332054 0.498198 -0.161338 -0.139211 -0.0886839 0.218201 0.456889 -0.197175 0.156028 0.195552 -0.353634 -0.210543 -0.201965 -0.101763 -0.0199293 -0.035025 -0.483325 -0.332592 -0.482075 0.118513 0.367756 0.165586 0.170076 -0.26026 0.485459 -0.143709 0.222668 -0.5017 0.435588 -0.0740054 0.0636968 -0.0309045 -0.170015 -0.232797 0.286018 -0.239661 0.23008 -0.00194632 -0.253454 -0.23932 -0.231807 0.48004 0.124581 0.395666 0.0309107 0.0161032 0.123817 -0.172522 0.365721 0.448908 0.278923 0.362145 0.0839886 0.450562 -0.136172 -0.00534521 -0.0562865 -0.358342 -0.452147 -0.252101 -0.288528 0.135769 -0.281117 -0.194833 0.24014 -0.337976 0.322182 0.0823235 -0.0288493 0.133447 0.21977 -0.0702233 -0.161625 0.463326 0.235032 0.115467 0.471123 -0.394246 -0.0835598 -0.382175 -0.225988 -0.371026 0.381909 -0.367191 0.461702 -0.136201 0.199744 0.489653 -0.103835 -0.0223032 0.172223 -0.309599 0.388367 -0.395084 0.269545 -0.297576 -0.512752 0.0276883 0.109341 -0.322765 -0.419574 0.327826 -0.172568 -0.0261316 -0.224436 0.125364 -0.164611 -0.0336977 0.12894 0.0570569 -0.204478 0.397957 0.0359603 -0.0975509 -0.260546 0.266211 -0.394328 0.309977 -0.37117 -0.381286 0.322464 -0.0222427 -0.437067 0.0533074 0.493306 -0.481418 0.468675 -0.383667 0.262979 0.179407 0.412617 0.183886 0.00342987 0.41401 -0.341535 -0.00987808 0.270652 0.159604 0.112608 0.255422 0.312869 0.255532 0.0769021 0.325084 -0.127014 0.322598 0.452533 0.376463 0.0437012 0.314131 -0.0556178 0.0328378 0.330504 0.0160782 0.441829 0.0275579 -0.0189256 -0.040683 0.373272 0.448449 0.2976 0.0770361 -0.316318 0.127817 -0.222143 -0.235012 0.242348 -0.131237 0.0327316 0.0376381 -0.424845 0.201385 0.311273 -0.00419684 -0.107939 0.330111 -0.296658 -0.110343 0.324482 -0.0158072 -0.11843 0.31396 0.0361626 -0.492337 0.51528 -0.0032154 -0.0469584 -0.342941 -0.498549 0.100605 -0.393344 0.451255 0.271392 0.367136 0.253264 -0.147239 -0.0806532 0.314821 -0.328519 -0.233238 0.248571 -0.21751 0.52293 0.174466 0.453253 0.0541209 0.212917 -0.0539879 0.0572011 0.0907508 0.264459 0.257638 -0.144312 0.00344156 -0.34267 -0.277526 -0.500766 0.365407 -0.0324709 -0.473702 0.403034 0.320741 -0.0641512 0.098354 -0.368455 0.0595364 -0.395452 -0.435882 -0.322296 -0.00027408 -0.173836 0.271425 -0.273806 0.140655 -0.264035 0.366261 0.166907 -0.267313 0.0851148 -0.394208 -0.0223325 -0.474302 -0.178151 0.445069 -0.323693 -0.14489 -0.233342 -0.142506 -0.0800004 -0.402281 0.42333 0.471041 -0.441499 0.317835 -0.0594063 -0.465844 0.133786 0.435366 0.316948 0.289825 0.292298 0.150652 0.369374 -0.0583098 -0.119639 0.287882 -0.238871 0.133391 -0.465103 -0.237999 -0.183573 -0.122757 0.119344 -0.0736775 -0.465428 0.157579 0.289116 0.242071 0.0618354 -0.119015 -0.298056 0.238181 -0.0958869 0.177796 -0.355392 0.179572 0.120775 0.314663 -0.381705 -0.222793 0.251982 0.00983573 -0.0696701 0.261794 -0.133378 0.302415 -0.22236 0.475505 0.372743 0.0133214 -0.10578 0.223294 -0.49862 0.476108 -0.469088 -0.115311 0.00683514 -0.306394 -0.416153 -0.185012 0.424941 0.473028 -0.47056 0.0531216 0.0725473 -0.0391763 0.24115 -0.361098 -0.320021 -0.0773022 0.0220211 -0.0434824 -0.356985 -0.116653 -0.460011 0.337254 0.243733 0.00108389 0.173589 0.0605172 -0.145016 -0.379948 -0.371021 0.127414 -0.109539 -0.0153251 -0.401398 -0.192338 -0.468969 0.0104656 0.0962954 0.253305 0.0538534 0.08994 -0.385532 -0.00201906 0.292063 0.437601 0.184453 -0.381255 0.249231 -0.431153 -0.507412 -0.404187 -0.37914 0.352134 -0.168354 0.308255 -0.400113 -0.0141387 -0.0151545 -0.33024 -0.426841 0.465505 -0.296684 0.406987 0.249944 -0.177351 0.410022 -0.221563 0.472523 -0.272886 0.204132 -0.443277 -0.432495 0.453726 0.0166793 -0.27645 0.453869 0.0502868 -0.0616222 0.349758 0.285292 0.0924467 0.0947851 0.0305643 0.362677 -0.275035 0.316116 -0.171751 -0.22369 0.210581 -0.36606 -0.13735 -0.191283 -0.151105 -0.157578 -0.0676272 -0.488737 0.152357 0.45826 0.15025 -0.475586 -0.377111 0.124425 0.0311266 0.172837 -0.455791 0.209742 0.389966 -0.335316 -0.182656 -0.475605 -0.468615 -0.416595 0.0592114 -0.317606 -0.192233 0.109284 -0.0573403 -0.0889761 -0.48253 0.340746 0.282494 0.0572924 -0.45963 -0.118555 -0.473294 0.392908 -0.0698878 0.0894066 0.220122 -0.307957 0.207804 -0.443788 -0.085216 -0.335683 0.202925 0.0100669 0.279203 -0.15193 -0.0609504 0.449696 -0.309049 0.453178 0.216462 -0.457442 0.501655 -0.308809 0.14123 -0.453831 0.220915 0.323912 -0.0423336 -0.478057 0.464008 -0.053204 -0.345095 -0.0104852 -0.405759 0.0562133 -0.0110324 0.0338723 -0.263946 0.178956 -0.0115823 -0.151012 -0.437098 0.255022 0.303913 -0.24739 0.37152 0.264942 -0.35883 -0.374821 -0.28286 -0.351651 0.41022 0.332028 -0.230247 -0.0786532 -0.162125 -0.0512082 -0.213061 0.0179369 -0.0931488 0.213621 0.0600421 0.111815 -0.30056 -0.145779 0.393914 -0.374304 -0.365236 0.00270768 0.237086 -0.348221 0.337633 -0.382166 0.236734 -0.484092 -0.259072 0.221373 -0.184608 -0.206504 -0.300608 0.0664155 -0.460093 0.00870065 0.0777739 -0.355928 -0.260111 0.204716 -0.110187 -0.459253 -0.085387 0.134153 0.156023 0.144467 0.224118 -0.275973 -0.339278 0.288476 0.160439 -0.410691 -0.425266 -0.0788807 -0.471075 0.0965391 0.448724 -0.488314 0.0750908 0.0816668 -0.40707 -0.0537116 -0.273629 0.12399 -0.126179 -0.299756 -0.280709 -0.0462182 -0.48243 -0.326684 -0.375122 -0.0704542 -0.0098831 0.0927082 0.0305377 0.502748 0.391966 0.47911 -0.2438 0.270059 -0.0476715 -0.0392636 0.258762 0.1359 -0.15781 0.301631 0.304043 -0.312257 0.134078 -0.362438 0.455801 0.143993 0.166771 0.105589 -0.155045 -0.641484 0.460969 0.024727 -0.0893582 0.068371 0.40074 -0.150251 0.438246 -0.0819016 0.400126 -0.414152 0.108367 0.165337 -0.134142 0.314278 -0.20161 0.0674628 0.299697 -0.505795 -0.373015 -0.0638053 -0.114543 0.065403 -0.396308 -0.374681 0.19405 0.269345 -0.24697 -0.108935 -0.329176 0.314212 0.336214 -0.443631 -0.296146 -0.398704 0.171735 0.350853 -0.420126 0.18668 0.111053 -0.031459 -0.349389 0.259472 0.34284 0.231327 -0.0798433 -0.388581 -0.17858 -0.238634 -0.204343 -0.29388 -0.301795 -0.0849615 0.140221 0.675155 -0.233485 -0.0107347 -0.471622 0.375843 -0.37971 -0.136127 -0.323578 0.279747 -0.463269 -0.248836 0.123794 0.149781 -0.566941 -0.343021 0.357763 -0.357366 0.34961 0.224053 -0.0329957 0.185748 -0.293585 0.268196 0.349606 -0.227815 -0.189434 0.455472 0.519587 -0.00897935 -0.411433 -0.0483652 0.0135629 0.43758 -0.124851 -0.177151 -0.536054 -0.0609448 0.603966 0.0490658 -0.149425 -0.0428022 0.353406 0.331602 0.128654 0.291074 0.230126 -0.278942 0.198481 -0.152896 0.0841243 0.282193 -0.129161 0.330162 0.391022 -0.390807 0.217971 0.174758 -0.581679 -0.590564 0.427819 -0.0524373 -0.154281 -0.305311 -0.0170506 0.103888 -0.301136 -0.164793 0.288631 -0.047364 0.390145 0.125947 -0.464023 -0.269644 0.488732 0.288735 0.16836 -0.527447 0.229483 0.51768 0.211915 0.177276 -0.411557 0.384452 -0.519363 -0.374849 0.294141 0.0723642 -0.21064 0.0654201 0.153303 0.113677 0.238978 0.44253 -0.317959 0.164799 -0.0375757 -0.365376 0.380738 -0.132577 -0.0380959 -0.0538555 0.298086 -0.108974 0.21041 -0.259198 0.193651 -0.0170145 0.0837991 -0.428456 -0.370733 -0.273064 0.335732 -0.294433 -0.159198 0.443219 0.189949 0.0280688 0.46831 0.0841057 0.402428 -0.336628 -0.555112 0.044454 0.406205 -0.2578 -0.32654 0.460595 0.518247 0.501032 -0.0532903 0.210232 -0.147202 -0.242228 -0.157662 0.0675377 0.322038 0.0833669 -0.272819 -0.33942 0.3678 0.150128 -0.449134 -0.195179 -0.196926 -0.209631 0.0836883 -0.318021 -0.316266 -0.160292 0.162666 0.487078 -0.194033 0.394865 -0.215234 -0.0608665 0.19724 0.374205 0.0904289 0.376303 0.217743 -0.163463 -0.289766 0.364487 -0.168654 -0.370851 -0.272219 0.278569 -0.303308 0.207012 -0.335573 -0.360794 -0.379596 0.399577 0.384847 -0.0200899 0.0179017 0.439164 -0.20632 -0.392891 -0.398251 -0.222808 -0.37369 -0.474132 -0.273168 -0.0479405 -0.123097 -0.285924 0.286924 -0.372066 -0.242326 0.265441 -0.559076 -0.373697 0.520276 0.204284 0.259634 -0.505897 0.0333635 -0.164085 0.310619 -0.185522 -0.139199 -0.38654 -0.471632 0.178399 -0.108012 -0.252632 -0.111581 0.410445 0.0664037 0.279736 -0.0926737 -0.325406 0.371822 -0.281804 -0.155795 -0.22398 -0.143212 -0.236726 -0.436955 -0.122056 0.291993 0.253373 0.0816164 -0.384906 0.399662 0.379988 -0.214164 0.413125 -0.301767 -0.0332865 -0.450661 0.188555 0.157648 -0.101166 -0.179768 -0.31601 0.213949 -0.398984 -0.160244 0.370857 -0.105949 -0.205046 -0.04316 -0.0836746 0.304718 -0.302763 -0.387353 0.0609348 -0.418198 -0.0986436 -0.377283 0.360576 0.359029 -0.228291 -0.193203 -0.51864 -0.609591 0.216221 -0.337384 0.296182 0.237265 -0.365716 -0.0934226 0.0915822 0.394185 -0.476742 0.463286 0.244681 -0.243975 -0.154403 0.177501 0.196039 -0.297017 -0.176741 -0.466382 0.566224 -0.0172817 -0.207929 0.110608 0.302856 -0.399121 -0.263114 0.352647 0.520782 0.281975 0.406395 0.446854 -0.429976 0.263635 -0.161786 -0.509348 -0.099634 0.420238 0.371743 0.457269 0.350157 -0.165583 0.383226 0.465192 0.463226 0.0343633 0.453878 -0.348925 -0.530174 -0.183675 -0.426863 0.188145 -0.316728 -0.321229 0.0280066 -0.21147 0.449928 -0.163271 -0.212501 -0.281993 -0.060394 0.170808 0.00196121 0.0922028 0.151477 -0.169679 -0.0447778 0.183525 0.434817 0.381305 0.137584 0.408124 -0.269212 -0.0145444 -0.104037 0.18824 0.291903 0.0485373 0.403483 0.355589 -0.43407 0.206048 -0.341474 -0.298683 -0.252903 -0.394598 -0.163659 -0.0378117 -0.255337 -0.391079 -0.352406 -0.0517291 -0.185643 0.504545 -0.0683154 -0.0164445 0.44648 -0.218457 0.365992 0.12606 -0.135375 0.0844212 -0.231343 -0.235093 -0.23156 -0.40783 -0.313607 0.163481 -0.43312 0.366038 0.478961 0.30843 -0.202594 -0.0646503 -0.494323 -0.185665 0.13266 -0.290162 -0.364919 0.308188 0.0800148 -0.1003 0.153161 0.376347 -0.433297 -0.29462 -0.186666 0.273362 -0.481618 -0.0343276 -0.440105 0.437483 0.36567 -0.532697 0.418752 0.226606 0.0730987 0.0543838 0.17736 0.322773 0.0496689 -0.176662 -0.454757 -0.319957 0.247346 0.137306 0.209867 -0.498326 -0.035248 -0.253562 0.00965903 0.173842 -0.185726 0.0951897 0.108292 -0.094839 -0.437013 -0.00212236 -0.0442928 0.268682 -0.442716 -0.116993 0.210003 -0.556374 -0.266856 -0.456321 -0.105821 0.388416 -0.302404 0.0926201 0.343788 -0.286388 -0.35693 -0.170361 -0.335342 -0.311049 -0.475744 0.000319835 0.256816 0.170819 0.0754492 0.223689 0.182514 0.310336 -0.0253893 0.404795 -0.36679 0.479824 0.205881 0.100893 0.115759 0.0647804 0.00918373 0.27939 0.00306196 0.00400933 0.501182 -0.33461 -0.0379852 0.153948 -0.380132 -0.198492 0.397652 0.410396 0.400554 0.306155 -0.0400269 -0.0942233 0.0455125 0.468294 -0.348093 -0.305681 -0.355668 0.225864 -0.26147 -0.0633508 0.115321 0.47136 -0.530786 -0.320496 -0.0331461 -0.369466 0.244874 -0.0389391 -0.422482 -0.444069 0.339638 0.449958 0.135004 0.132057 0.283049 0.059197 0.458124 0.219994 -0.0775216 -0.248955 -0.336177 -0.284225 -0.10219 -0.355581 0.241121 -0.282842 -0.383496 0.31572 0.122791 -0.232277 0.187783 0.201419 0.402484 -0.192542 -0.471353 -0.00785565 -0.0635714 -0.101453 0.0749876 0.192667 -0.428211 0.352023 0.292877 -0.46913 -0.20886 -0.332066 -0.489532 -0.369107 -0.301407 0.107601 -0.144455 -0.213716 -0.0522935 0.199787 -0.356472 -0.412684 0.0510822 0.393544 -0.0412532 -0.372467 0.327208 -0.514448 0.149449 0.0021518 -0.324673 0.300475 0.395425 0.41842 -0.431269 0.496615 0.488785 -0.400416 0.292644 -0.430763 -0.0277232 -0.0917739 -0.489584 -0.0878601 0.294066 0.443734 -0.241016 -0.149408 -0.138421 -0.468719 -0.147492 0.248234 0.487094 0.126861 -0.493608 0.468547 0.225852 0.286309 -0.462284 -0.0633773 0.483751 0.307401 0.116609 0.300428 0.511424 -0.117198 -0.339792 -0.0716301 -0.490932 0.42821 -0.26788 0.444453 0.369326 -0.459271 -0.0888306 -0.533542 -0.152802 0.354037 -0.275944 0.293192 0.0939266 -0.185246 0.0833294 0.260216 0.0635493 -0.421457 -0.0931131 -0.203992 -0.365923 -0.310899 -0.221496 -0.246788 -0.188326 -0.157834 -0.257462 0.408616 0.0590999 0.412772 0.0468786 0.0876757 0.446121 0.352343 -0.185801 -0.162368 0.113556 0.340196 -0.32717 -0.180976 0.0681103 -0.104607 -0.570127 0.220101 -0.299279 -0.03563 0.494014 0.337079 -0.408648 0.125207 0.110828 -0.458864 -0.273534 0.394452 -0.245494 -0.391727 0.101625 0.0273421 0.066622 -0.0784987 0.200579 -0.160365 -0.129321 0.09304 0.313576 -0.317939 -0.445354 -0.258759 -0.321031 0.251228 0.374846 0.307527 0.0545601 0.00404766 0.413613 -0.0556085 0.203297 0.178478 -0.343967 -0.469975 -0.051802 0.120175 0.333833 0.252831 0.487383 -0.123702 -0.522584 -0.363876 0.238706 -0.271837 -0.0666646 -0.276479 0.0445244 -0.512791 -0.433246 0.131885 -0.456067 -0.474026 -0.235214 0.409317 -0.0967352 0.149424 0.312738 0.163788 0.416316 -0.310826 -0.176647 0.0640743 -0.187836 0.3791 -0.518377 0.066728 -0.413072 0.0906526 -0.263786 0.454823 -0.490896 0.454611 -0.107898 -0.386303 0.472874 -0.466606 0.373301 -0.0131395 0.163878 -0.110011 0.04773 -0.0640699 -0.0370489 0.10813 0.190989 0.0891841 0.311847 0.328645 0.226078 0.33212 0.404062 0.250011 0.344517 -0.36098 -0.246923 0.131846 0.400358 0.158477 -0.280807 0.288666 -0.0892527 0.0476783 0.017642 -0.166701 0.130306 0.355863 -0.407308 -0.362825 -0.0175548 0.341377 -0.0126236 -0.00618438 -0.0809331 -0.00645653 -0.19166 0.408107 -0.262141 0.0856006 -0.40174 -0.023808 0.32559 -0.0796372 -0.0610664 -0.0274793 -0.0742363 0.318989 0.299395 -0.171941 -0.0897701 0.278221 0.459394 -0.494672 0.1507 0.023788 -0.334815 -0.0080591 0.483529 -0.375597 0.00412407 0.0709246 0.237274 -0.243924 0.215329 0.380923 0.0409176 0.0631659 0.348338 0.21147 0.137087 0.454682 -0.365569 -0.129244 -0.0721471 -0.273222 -0.423335 -0.145485 0.292625 0.172564 -0.363285 -0.31658 -0.183592 -0.420249 0.455344 -0.495996 0.405976 -0.466057 0.437087 -0.0558396 -0.141045 -0.0118347 0.210755 -0.215099 0.139562 0.0494723 -0.395719 0.380771 -0.280353 0.135481 0.427092 0.227125 -0.108966 0.10332 0.343318 -0.03481 0.492992 -0.508584 0.265823 0.25937 0.0495969 0.347742 0.143501 0.1064 0.0145779 0.0908391 0.38654 -0.295741 0.0674406 0.0404008 -0.0538683 -0.323107 -0.134204 0.241276 -0.0366489 0.249672 -0.252314 -0.00553465 0.302644 0.336615 -0.380068 -0.273558 0.285362 0.264628 0.491967 -0.181426 0.395656 -0.0521343 -0.309376 -0.3853 -0.299671 -0.38343 -0.204703 0.448798 -0.0437321 -0.348273 -0.214386 0.178285 -0.211539 0.283641 0.282381 0.22542 -0.470665 0.21081 0.133215 0.106569 -0.19129 -0.4528 0.461628 -0.36294 0.203771 -0.416404 0.352808 -0.42773 0.046725 0.230232 0.199943 -0.0376125 -0.2577 0.483847 -0.336716 0.266999 0.110885 0.391865 -0.133768 -0.0364698 -0.0370476 0.254739 -0.0614286 -0.427014 0.404674 0.463654 0.18927 0.340206 -0.238718 0.274858 0.433369 -0.130181 0.266226 0.0818247 0.320327 0.185171 -0.176783 -0.25144 0.148589 0.316291 -0.324205 -0.192922 0.249817 -0.457587 -0.361268 0.114668 0.285704 0.355235 -0.249158 -0.43985 -0.1763 -0.476122 0.104559 -0.0196619 0.366698 0.250531 0.134445 -0.246897 0.473381 0.38552 -0.435609 -0.126252 0.253924 0.226307 0.469482 0.15236 -0.296827 0.478939 -0.341724 -0.0635489 0.391055 -0.436939 -0.273595 0.38829 -0.399449 -0.116507 -0.330575 0.0156578 -0.179906 0.117019 -0.413111 -0.274537 0.413836 -0.0429822 0.27175 -0.479529 0.459162 -0.132123 0.131019 0.492774 0.336197 0.322705 -0.321309 0.24126 0.129023 0.142314 0.135609 0.239778 0.214824 0.371645 0.426895 -0.189996 -0.239154 -0.120513 0.360611 -0.360249 -0.16685 -0.375665 0.0556032 0.0354713 -0.467368 -0.2435 0.145616 0.196607 -0.282553 -0.436492 -0.362624 0.114117 0.422221 -0.484205 0.303869 0.469196 -0.0784192 0.447104 0.439798 0.330036 -0.140918 -0.0587971 -0.0254038 -0.203644 -0.297501 0.0574592 0.219248 0.268704 -0.327393 -0.413428 0.110641 0.0841767 -0.214398 -0.306137 -0.510364 -0.0949529 -0.215492 -0.455699 -0.422985 0.0470341 -0.318362 0.403087 0.160918 -0.122545 0.393781 0.0959893 0.405558 0.153298 -0.233909 0.280301 0.141862 -0.359384 0.0118044 -0.0669053 0.44557 0.155607 -0.202775 -0.26633 -0.226493 0.392583 -0.469052 -0.073221 0.200399 -0.0268061 0.262153 -0.12074 -0.171315 0.221887 -0.289647 0.1056 0.397841 -0.0106258 -0.294657 0.490272 -0.183829 -0.0831788 0.392258 -0.0238496 0.451036 0.0299824 0.342368 -0.0585119 0.155976 0.182484 0.0581674 -0.221599 -0.071175 -0.0493464 0.427509 0.302462 -0.405808 -0.203095 0.0817601 -0.365695 0.322122 0.230976 -0.0976824 0.123995 0.0985321 -0.202724 -0.114734 0.0861802 0.0625897 -0.0299047 0.159818 0.161637 -0.307558 0.393896 0.20082 -0.481725 -0.268196 -0.127276 0.00862305 0.0995059 -0.104317 0.282986 -0.193752 0.442016 -0.0328052 0.277917 -0.300114 0.254589 -0.365121 0.00897852 -0.488535 0.0967373 0.186393 0.0886193 0.00914935 0.338503 -0.0086847 -0.374946 0.481877 -0.423196 0.238026 0.117857 -0.176082 -0.109083 0.0727856 0.12284 -0.119185 0.319354 0.416347 -0.031898 -0.104319 -0.0951293 -0.480371 0.269852 -0.209194 0.448796 0.434859 -0.490321 0.0177139 0.201802 0.244507 0.190661 -0.0340353 -0.158387 -0.417074 -0.431629 0.0850713 -0.140048 0.440276 -0.05149 -0.184688 0.131367 0.0831819 -0.272051 0.188928 -0.219873 -0.267909 0.267732 -0.408591 -0.269652 -0.13587 0.360036 0.170967 -0.342721 -0.480087 -0.310699 -0.385566 -0.305007 -0.0186267 0.080366 -0.0353726 0.12734 0.189757 0.143533 -0.389601 0.407138 -0.0977935 0.30612 0.215208 -0.391707 -0.0875798 -0.409165 -0.114651 0.428149 -0.27124 -0.321189 -0.2951 -0.170834 0.41319 -0.0431265 0.230373 0.320822 -0.223772 0.0804332 0.315046 0.184925 -0.226655 -0.388603 0.275239 0.47659 0.382582 -0.432392 0.349537 -0.127549 0.413002 0.05821 -0.138332 0.427584 -0.0891117 0.297908 0.0504497 0.402193 0.0381375 -0.122835 0.143068 -0.486744 0.470938 0.189294 0.00457942 -0.0159978 -0.494587 -0.087338 0.0064936 0.470748 0.00714033 -0.118908 -0.269014 -0.29918 0.263795 -0.149926 -0.0760032 -0.49733 0.0607979 -0.296515 0.468302 0.0377253 -0.393818 -0.116761 0.0213424 0.0727232 0.319619 0.110464 0.128628 0.38715 -0.389034 0.39393 -0.29858 -0.421686 0.0143866 -0.414395 -0.0198723 -0.432303 0.0547146 -0.336072 0.0730387 0.113567 0.0566828 -0.518157 -0.188218 0.168771 0.0397245 -0.0934021 0.379253 0.150741 -0.180482 -0.472951 -0.0341133 -0.147463 -0.417602 -0.100087 0.423239 -0.508748 -0.0395071 -0.116254 -0.367459 0.288435 0.28786 0.153102 -0.34946 0.209797 -0.376409 -0.236802 0.445225 -0.018517 0.386768 -0.377209 0.506485 -0.318504 -0.312303 -0.313319 -0.180232 -0.00509973 -0.517172 -0.173074 0.433564 -0.344748 0.33695 -0.184627 0.411871 -0.165969 -0.372451 -0.144073 -0.403926 -0.439709 0.304902 0.481141 0.356728 -0.510194 -0.133881 0.246002 -0.349486 0.178959 0.0677389 -0.146884 0.2889 0.174782 0.517397 -0.0582917 -0.40189 -0.164031 0.218402 0.135778 -0.335388 0.437554 0.316931 0.450984 -0.0149363 0.183251 -0.396755 0.0276606 -0.226546 0.372544 0.277381 -0.19067 -0.512308 0.323448 -0.217715 -0.20822 -0.141259 0.436309 -0.101576 -0.299894 -0.260535 -0.165784 0.311104 -0.332939 0.00390693 -0.225757 0.254876 0.490199 -0.424958 0.284846 0.367714 -0.0345361 -0.487975 0.35037 0.532911 0.026656 -0.148884 0.400851 0.504242 -0.573559 -0.245735 0.307923 -0.205279 -0.0366846 -0.339393 0.12921 0.166162 0.528516 -0.159734 0.101705 -0.532154 -0.192481 -0.527901 0.226731 0.292139 -0.446774 0.106606 -0.411754 -0.104849 -0.0697361 0.13452 0.0284437 -0.204584 0.523542 0.161763 -0.353016 0.309093 -0.579839 -0.126663 -0.142211 0.254567 -0.000100102 -0.198935 0.437193 -0.286047 0.476551 -0.240964 0.502419 0.0277055 -0.0526707 0.523527 0.333544 -0.0889633 -0.17514 0.488273 -0.0425105 -0.290478 0.0697727 -0.0189974 0.164644 0.116771 -0.41279 0.290387 -0.137303 -0.293645 -0.522029 0.206045 0.102871 0.335894 -0.237273 0.102605 0.430273 -0.246789 0.478737 0.0740744 0.222273 0.262899 0.263789 -0.0699289 -0.422646 -0.538802 -0.0198017 0.0422008 -0.243544 -0.254252 -0.0875611 0.0725621 -0.0549749 -0.365553 -0.089195 -0.380292 0.144973 -0.0318463 -0.601749 -0.251121 -0.422115 0.433056 0.229249 -0.0551247 -0.139339 0.167621 -0.210615 0.125981 -0.538473 -0.280728 -0.338477 0.25744 0.00832001 0.453004 0.0934977 -0.306785 -0.047363 -0.33405 -0.298644 -0.306339 -0.36578 0.249265 0.113262 0.174848 0.465827 -0.212219 0.3102 0.1067 0.312761 0.611432 -0.59847 0.418063 -0.372297 0.365099 0.281765 -0.446623 0.36853 -0.388172 0.244607 -0.103605 -0.439956 -0.165408 0.254489 0.0899975 0.375807 -0.284728 -0.402794 0.0332537 -0.522825 -0.0845955 0.417325 0.343363 0.481149 0.444302 0.0242955 0.0556521 0.446356 -0.388586 0.30063 -0.324509 -0.60968 -0.350694 0.239752 -0.129746 -0.557828 0.0208542 -0.294917 0.233876 -0.00678672 0.199214 -0.472581 -0.00887387 0.384083 0.465171 -0.478854 0.0883315 0.283329 -0.215722 -0.0992135 0.744173 -0.145298 0.492995 0.146883 0.146249 -0.373469 0.322379 0.256697 -0.162798 0.444212 -0.0123325 -0.0900688 0.227155 -0.548182 -0.353133 -0.19274 -0.502385 0.473525 0.321229 0.160799 0.475964 -0.415121 0.201237 -0.106977 -0.179197 -0.301753 -0.340298 -0.146218 -0.376409 0.134799 -0.0656311 0.223405 0.186451 0.300474 0.486379 -0.632776 0.849115 0.243864 -0.364178 0.0514159 -0.23873 -0.35339 -0.261548 -0.0617195 0.0627245 0.264995 -0.917823 -0.318864 -0.128699 0.53292 0.459277 0.134865 0.0302037 0.294746 -0.0378494 0.235362 -0.045263 -0.542374 -0.563816 0.606774 0.336553 -0.650631 0.299379 0.24515 0.273786 -0.580622 -0.176155 0.136143 -0.423729 0.12401 -0.0483799 0.169072 -0.384418 0.16747 -0.0533396 0.21615 0.217939 -0.354931 0.492141 -0.00694313 -0.111511 0.231196 -0.202774 0.183092 0.569891 0.1333 0.123646 0.185746 0.651546 -0.582139 0.0312265 0.1739 0.220755 -0.0144385 -0.129884 0.406968 -0.773771 0.324853 0.827484 -0.0374529 0.133785 0.145553 0.62039 0.20487 -0.0768669 -0.266608 0.0801191 -0.203142 -0.578967 -0.462723 -0.0492281 -0.333271 0.495327 -0.672049 0.273744 -0.0684121 0.236812 0.174233 -0.418903 0.0527161 -0.374853 0.300807 -0.0867109 -0.0256717 -0.00287148 -0.308189 -0.0349925 -0.0776753 0.228217 0.0934753 -0.14265 0.13408 0.382251 -0.449884 0.41879 0.146162 0.555165 0.0995177 0.175014 -0.244178 -0.560319 0.0423979 -0.409816 0.512883 -0.34812 0.0119257 0.0932216 -0.220744 -0.293154 0.42557 0.362742 0.0492215 0.248924 -0.0285067 0.425556 -0.246278 -0.219299 -0.541408 0.0717573 -0.212227 0.165303 0.0161357 -0.131426 -0.555203 -0.164613 -0.223014 -0.212843 0.374133 -0.210654 0.505369 0.205078 0.0575163 -0.20442 -0.218697 -0.0165365 0.266886 0.58236 0.0790225 0.095424 -0.211537 0.048001 -0.0575897 0.770503 0.269223 0.630169 -0.688907 0.213589 -0.380765 -0.522361 -0.546298 -0.21043 -0.155065 -0.482552 -0.209566 0.10609 -0.0322513 -0.221293 0.173808 0.0118777 0.483623 -0.346957 0.122255 0.0100797 0.165357 0.0534059 0.491955 -0.124966 -0.0933653 -0.50636 -0.364575 -0.212623 -0.783614 -0.0124055 -0.411293 0.0934722 -0.294906 -0.997336 0.412568 -0.00553966 0.035935 0.208 -0.223479 0.0682422 0.369678 -0.224828 -0.345951 -0.0644835 0.206783 -0.163191 0.293847 -0.280067 -0.530076 -0.0134078 -0.434096 -0.284369 -0.516582 0.118646 0.414172 -0.233423 -0.450109 -0.103253 -0.155398 -0.0772776 0.192356 -0.558592 0.382819 -0.410089 -0.00476531 -0.526747 0.437804 0.178164 -0.00323332 0.103704 0.0232571 -0.485051 0.675875 -0.168361 0.413376 -0.48698 0.484076 -0.352935 -0.505555 0.169988 -0.403118 0.137399 -0.00825906 -0.337837 0.126422 0.0219906 0.243313 0.0478322 0.0339706 0.325704 0.414978 -0.412969 0.445893 0.205676 0.629497 0.355166 -0.302362 0.549005 -0.232214 -0.393561 0.040801 -0.41615 -0.16048 0.0391461 0.416115 0.0872916 -0.0899283 0.0924616 -0.357161 -0.330343 -0.335601 -0.440988 0.172786 -0.437963 0.412286 -0.401797 0.0839104 0.342734 -0.423664 0.494273 0.240543 -0.267116 -0.0844246 0.30948 -0.282235 0.0996795 0.137592 -0.231061 -0.0333332 -0.592695 -0.530518 0.14857 0.174819 0.204973 0.193194 -0.0522166 -0.433829 0.447442 -0.145886 -0.420329 -0.048295 -0.0999687 0.494951 0.469058 -0.403599 -0.454625 -0.189743 -0.297514 0.209832 0.193846 0.473913 0.406018 -0.419179 -0.0135496 -0.00221885 0.0929099 -0.623836 -0.109152 0.392056 0.129837 0.365691 0.350691 0.400632 -0.30613 -0.386022 -0.236816 0.203042 0.47419 0.0451612 0.316406 0.112355 -0.035381 0.0842949 -0.178254 0.480431 -0.220452 0.00509263 -0.486429 -0.228057 -0.149095 0.0422363 0.10033 -0.212534 -0.234048 0.349096 -0.393252 -0.67861 -0.0514764 0.0897333 0.445941 -0.141886 -0.325362 0.0880151 0.324586 -0.218555 0.095008 -0.168187 0.566156 -0.61509 0.233983 0.416933 -0.225862 0.0999684 -0.275716 -0.0161393 0.358593 0.330365 -0.338343 0.0773198 -0.124366 -0.331742 0.025352 -0.207171 -0.365714 -0.118448 -0.744071 0.241637 0.618062 -0.648991 0.660315 -0.577085 0.12895 0.40464 0.317621 0.0906672 -0.365039 0.0560769 0.309827 -0.73371 0.234692 0.145051 -0.334045 0.248806 -0.384962 -0.105074 0.0627671 -0.323879 0.14187 0.141136 -0.126868 0.234418 0.0254196 0.417238 0.363511 0.247968 0.16434 -0.366685 0.213183 -0.482969 0.0752233 -0.0980996 0.0754357 -0.503729 0.468596 -0.325155 0.170764 0.19521 0.0167342 -0.218453 -0.0777241 0.385402 0.651796 -0.489796 -0.319633 0.355125 -0.485638 -0.0495688 0.404806 0.365678 0.0675244 0.0122445 -0.21887 -0.0946813 0.52419 0.10124 -0.202508 0.293486 -0.175425 0.0507659 -0.0616391 0.129524 0.15301 0.590262 0.179504 0.254079 0.416625 -0.332834 0.148037 -0.239789 0.290373 0.161947 -0.326702 -0.003283 -0.356422 0.211032 0.283217 -0.54798 -0.075695 -0.000399875 0.480526 -0.0200599 0.295949 -0.162556 0.343033 0.444154 -0.272348 -0.0365326 0.338975 -0.0051159 -0.200343 0.458004 0.148476 0.220103 -0.429212 0.400874 -0.250331 -0.184868 0.318823 0.334282 -0.0178744 -0.600617 -0.383722 0.683889 0.531391 -0.337786 -0.129392 0.226761 -0.127504 -0.247171 -0.325939 -0.302185 0.0209251 -0.531972 -0.167538 -0.021178 -0.301309 -0.682735 -0.033565 0.316873 0.40123 -0.144518 -0.722372 -0.30459 0.254494 -0.0979065 -0.190967 -0.327937 -0.208691 -0.0411039 0.124981 -0.240054 -0.103803 0.423958 -0.132393 0.44198 0.0579293 0.173832 -0.088898 0.0627956 0.217063 0.4292 0.149551 0.449108 0.27957 0.221415 -0.0503586 -0.376161 -0.227707 0.047294 -0.0839048 -0.00724853 -0.0710196 0.489211 -0.47513 -0.222261 0.102298 0.00245139 -0.209631 0.341051 0.0913648 -0.101204 0.26355 -0.169022 0.160617 0.203836 -0.483545 -0.44497 0.549121 -0.254131 -0.39884 0.185194 -0.348271 0.0801127 -0.224305 0.0550617 -0.309518 0.0405292 0.48424 0.153676 -0.0222202 -0.345254 0.404649 -0.245789 -0.0642082 -0.265225 -0.20357 0.456727 -0.191003 -0.0709505 -0.0152357 -0.0243582 0.249988 -0.445757 -0.25021 0.452975 -0.521544 -0.115929 -0.323099 -0.334709 -0.203371 0.365895 -0.0925309 -0.0673184 -0.366246 0.131799 -0.310179 -0.344657 0.218075 0.358299 -0.356269 -0.187695 -0.122397 0.00707493 -0.216251 0.310375 0.368037 -0.079989 -0.234334 0.195124 -0.330264 -0.077598 -0.440885 0.326221 0.0210994 -0.200111 -0.436108 -0.0775742 0.182562 -0.468683 0.301606 -0.396487 0.150318 -0.063151 -0.47523 -0.430279 0.128045 -0.0849072 0.4002 -0.309377 0.420295 -0.289621 0.387418 -0.350526 0.428176 0.408881 0.0508008 0.359255 -0.153227 -0.0378473 -0.20031 0.436501 -0.00429504 -0.438232 -0.277779 -0.357738 0.274096 0.00550637 0.474071 -0.207081 0.124527 0.105504 0.388792 0.461221 0.406786 -0.229723 -0.458227 -0.474875 0.135756 0.318402 -0.208137 0.147334 0.348161 0.126492 0.488981 -0.239724 0.391736 0.379256 0.368188 -0.384469 -0.281452 0.379709 -0.271037 -0.229162 0.282064 -0.361325 0.253234 0.408206 0.14366 -0.429091 0.338098 0.253284 0.0163557 -0.0525065 0.453132 0.0854565 0.0321044 -0.0298466 -0.369967 -0.266227 -0.334011 0.110069 -0.140536 -0.248651 0.127237 -0.402998 0.315704 -0.192242 -0.337116 0.199006 -0.191479 0.0237399 0.329363 -0.0480228 -0.320199 0.351157 0.480163 -0.325158 0.0363504 -0.393567 -0.263703 -0.0874585 0.438892 0.425402 -0.00120218 -0.0575899 -0.455384 -0.412586 -0.164532 -0.00569703 0.285028 0.185934 0.366754 -0.3607 0.131936 0.112322 -0.00914972 -0.479963 -0.00056026 0.230053 0.495655 -0.218061 -0.331833 0.229706 0.0903533 -0.0558042 0.0715949 0.134978 -0.275031 0.424637 0.238111 0.259223 0.290509 0.145895 -0.0785922 -0.300428 0.13078 -0.0517276 -0.177302 0.0253715 -0.52634 0.104366 0.266737 -0.0677479 -0.238745 0.428493 0.0894084 -0.200426 0.438449 -0.165025 0.235389 -0.142498 0.492046 0.391457 0.44446 -0.383104 -0.444373 -0.0551624 -0.230051 -0.268434 0.141713 -0.439203 -0.453607 0.0886973 0.477229 -0.462771 0.176529 -0.115472 0.326898 0.309051 0.391627 0.254392 -0.166979 0.0438226 -0.456432 0.369802 -0.0378415 -0.328811 0.452682 0.365682 -0.110591 -0.161303 -0.461602 0.468542 0.248709 0.0981001 -0.497107 -0.465812 -0.18747 -0.071256 0.307801 0.24449 0.329435 0.308564 -0.446712 -0.263353 -0.489768 -0.412993 0.124244 0.265161 -0.207366 0.490314 0.2099 0.35707 0.429285 0.0288426 -0.444086 0.0928748 -0.290163 0.0363347 -0.0568156 0.363785 -0.162535 -0.0119723 -0.164111 0.163089 -0.090674 -0.000979309 -0.125706 0.150878 -0.266519 0.329626 -0.390726 0.439953 -0.294265 0.478686 -0.326751 0.428326 0.123823 -0.283792 -0.250884 -0.0717876 0.128819 0.0925519 0.446781 -0.320543 0.445857 0.434055 0.0822069 0.455233 0.421515 0.312261 -0.321159 -0.228151 0.242702 0.203362 0.498759 -0.315017 -0.42309 -0.360523 0.163967 -0.0731847 0.33045 0.384832 -0.395272 -0.297834 0.319924 0.0379254 0.371364 -0.0731423 -0.272732 -0.145553 -0.0518085 -0.392358 0.340804 0.344507 0.520316 -0.0951956 0.377477 0.224754 0.300786 0.105173 0.130986 0.302378 -0.3937 -0.142384 0.131208 0.464997 -0.221755 0.210691 -0.242271 0.133841 -0.390251 0.00213356 -0.223079 0.045862 -0.274305 0.246277 0.227912 -0.388082 -0.43385 0.303916 -0.276972 -0.328159 0.147892 0.048432 0.439103 -0.0764516 0.377693 -0.121708 -0.316608 -0.12817 0.353457 -0.452383 -0.367607 0.202971 -0.390058 -0.366314 -0.276395 0.1654 -0.110371 0.272233 0.423554 -0.445339 0.377502 0.395054 -0.300751 -0.310521 0.329717 0.205395 0.145468 -0.445308 -0.40292 -0.224845 -0.474978 -0.114419 -0.130279 0.196849 0.243402 -0.298987 0.231569 -0.34281 0.154609 -0.233377 -0.00147094 -0.146412 0.309176 0.213323 -0.398133 0.388518 -0.300544 -0.00506309 0.448248 -0.424912 0.400303 0.325589 0.373501 0.297243 -0.0284602 -0.0106461 -0.429235 -0.225821 -0.233729 -0.421123 -0.33914 -0.0535861 0.339713 -0.479487 -0.309265 0.482263 -0.077382 0.437631 -0.121251 -0.0383975 0.238958 -0.186095 -0.245028 -0.388203 0.342985 -0.156774 0.147525 -0.271554 0.306551 0.282089 -0.127478 -0.309402 0.145053 0.233115 0.47518 -0.449399 0.329545 0.420581 -0.128518 0.088787 0.0762283 0.118749 0.51656 -0.219218 0.195594 0.361205 0.30522 -0.0461529 -0.500365 0.229237 -0.0894203 0.192487 0.293709 -0.0611846 0.307962 0.421907 -0.434676 -0.0848672 -0.379854 -0.227666 -0.345949 0.383229 -0.392964 0.0870258 0.228161 -0.338481 -0.0201825 -0.222529 -0.0566722 0.266171 -0.518075 0.267348 0.176959 -0.407753 -0.176894 -0.185129 -0.23324 0.20599 0.0310885 0.435034 0.131767 -0.0467577 0.315676 -0.0367711 0.12385 0.329859 0.447655 -0.023352 -0.426218 0.254481 0.058341 -0.182456 0.0540761 0.410156 -0.115847 0.296586 0.175097 0.410626 0.175057 -0.371484 -0.230162 0.467408 0.224366 -0.35865 -0.00869417 0.294888 0.0612826 -0.305239 0.321415 0.259261 -0.133492 0.234727 -0.487323 0.282901 0.0326375 -0.00422649 0.341805 0.456915 0.097345 0.166821 0.338579 -0.126071 0.420973 0.0825209 -0.197701 0.182533 0.364862 0.182786 0.0551042 -0.511796 -0.136451 0.27579 -0.0210725 -0.493108 0.394289 -0.18127 -0.159394 0.311697 0.344938 0.284903 0.115626 -0.454154 0.377778 0.295806 0.00363499 0.383292 0.286099 -0.169467 -0.354977 -0.39305 0.29469 0.00603481 0.466027 -0.0286741 -0.0931184 -0.335453 0.260998 0.265025 0.381503 0.118631 -0.248045 -0.0918613 -0.226373 0.323658 -0.378031 0.236046 -0.346216 -0.0132186 0.104471 -0.216252 -0.00429515 -0.240275 -0.170465 0.443911 -0.436504 0.00239642 0.0629935 -0.0918722 -0.378002 0.272707 -0.349577 -0.0533652 0.44672 0.41836 0.408324 0.134261 0.36193 0.295285 0.314573 0.132587 -0.317488 -0.397258 0.274301 -0.11559 -0.0545697 -0.190499 -0.105954 -0.136674 -0.411192 -0.0534328 0.432527 -0.232718 0.433554 -0.458341 0.145384 -0.433673 -0.280784 -0.249231 0.544338 0.379428 -0.404023 0.467029 0.00533606 -0.0178195 0.583376 0.188297 0.109813 -0.0130994 -0.310327 -0.448855 -0.352911 -0.102727 -0.161021 0.0380123 0.427725 -0.105633 0.481357 -0.0413163 0.0454051 -0.53045 0.110541 -0.33086 -0.259547 -0.394199 -0.431906 0.471394 0.451604 -0.314112 -0.379847 -0.182697 -0.122011 -0.0235085 0.106265 -0.0418534 0.0432943 0.129659 0.293028 -0.0677685 -0.418037 0.327426 -0.290381 -0.0135356 0.27074 -0.367373 -0.0647655 -0.311694 -0.12553 0.361448 0.0101401 -0.0910141 0.472501 -0.118733 -0.152087 0.0868617 0.138955 -0.248083 -0.203695 0.63812 0.209436 0.175435 -0.0118663 -0.26532 -0.428009 -0.550556 0.159153 0.0162404 0.100342 0.336596 0.258121 0.457746 -0.763693 0.544742 0.372154 -0.4272 0.519587 -0.422593 0.0912149 0.124625 -0.119614 -0.535774 0.566785 -0.29836 -0.114936 0.421787 -0.0483007 0.171345 0.270862 -0.19217 0.116403 -0.515605 0.493425 0.681686 0.0326714 0.25372 0.255124 0.594285 0.326742 0.266862 0.90401 -0.31796 0.0207305 -0.0591941 -0.163301 -0.0236964 -0.0878816 0.00945549 -0.110504 0.499376 0.0812489 -0.0530625 -0.046396 -0.402547 0.170645 -0.746293 -0.130959 -0.279625 -0.28864 0.356133 0.705365 -0.0134839 -0.969299 -0.407968 0.351803 -0.0572976 0.358472 0.166594 -0.676959 0.236677 0.399643 -0.286988 -0.100873 -0.251652 -0.76341 0.568752 -0.626381 0.286686 0.0866272 -0.768279 0.353695 -0.411251 0.324251 0.0878518 -0.659313 -0.561498 0.63566 0.359991 0.196498 -0.205799 -0.118043 -0.0390111 -0.300216 -0.272041 -0.337625 -0.311962 0.546163 -0.678208 -0.128896 0.415274 0.630063 -0.682171 0.00114815 0.265085 0.324676 0.0588953 0.0255517 0.280249 0.389653 0.486236 0.314783 -0.0482986 -1.10246 0.0904857 -0.322076 -0.0438119 0.440108 -0.307601 0.204707 0.229114 -0.221591 -0.0455424 -0.396135 -0.352019 -0.545126 0.137958 -0.000688863 0.195016 0.408072 -0.346111 -0.207358 -0.0377507 -0.0242234 0.657574 0.064543 -0.712369 0.822859 0.177835 -0.111014 -0.0249808 0.216775 0.766846 -0.103944 0.914522 0.328446 -0.515866 -0.363671 -0.568761 -0.704336 0.0528667 0.0999677 -0.432391 0.584635 0.334017 0.166734 0.30473 0.398255 -0.145888 -0.0449527 0.666956 -0.274008 -0.117973 -0.258138 0.362048 0.625941 0.645 0.450725 -0.508413 0.183406 0.417219 -0.118058 -0.501017 -0.324376 -0.689298 -0.0126143 0.402815 -0.612437 -0.570144 -0.164051 0.404477 -0.0687294 -1.1101 -0.511503 0.635544 -0.171464 -0.477684 -0.00768538 0.295183 -0.350645 -0.450301 1.09952 0.574124 0.0168682 0.063583 -0.765151 -0.37827 -0.539901 0.122127 -0.129004 0.0709094 0.2483 -0.874309 0.314979 -0.36936 -0.253963 -0.562897 0.687781 -0.010146 0.198404 0.83694 0.217522 0.37693 -1.11202 0.0538754 0.706076 0.244974 -0.422945 -0.26712 0.356162 0.413433 0.0802873 -0.204085 -0.0983401 -0.931927 -0.423731 0.277168 -0.624608 -0.479922 0.0946648 0.359201 -0.140582 -0.714803 -0.414168 0.796269 -0.336868 -0.500172 -0.381828 0.590818 -0.0749507 -0.232818 1.01799 0.160204 0.0800644 0.709621 -0.390765 -1.08575 -0.315653 -0.442452 -0.167418 0.497132 0.894206 -0.823539 0.198918 -0.37136 -0.504277 -0.748779 0.0699447 -0.267517 -0.209912 0.940647 -0.30087 0.327326 -0.922842 0.464362 0.822047 0.728206 0.0350104 0.413162 -0.0498224 0.473971 0.247604 -0.376309 -0.61525 -1.01574 0.054536 -0.234934 -0.762821 -0.915273 -0.0712081 -0.67209 0.427048 -0.736962 -0.500901 1.17399 0.12373 -0.382562 0.287218 0.306783 -0.566626 -0.339444 0.402953 0.0300512 -0.0312033 0.725067 0.605271 -0.670925 -0.365224 0.264255 -0.0876367 -0.407055 0.62676 -0.551671 0.301944 -0.144713 -0.270066 -0.83851 -0.0051804 -0.287304 -0.161478 0.693112 -0.960133 0.1367 -0.688254 0.586104 -0.287487 0.482682 -0.0123902 -0.199274 0.179976 -0.0826885 0.180335 -0.105494 -0.610505 -0.181484 0.109779 -1.18252 -0.132602 -1.3436 -0.158952 -0.136688 -0.0202226 -0.191389 -0.697017 0.270432 -0.703063 0.317339 -0.134748 0.312494 -0.233367 0.0998451 0.338182 -0.0737384 0.636167 0.675871 0.486779 0.342865 -0.818055 0.365068 0.309405 0.244772 0.0394803 -0.657748 -0.150923 -0.287987 -0.22531 -1.2384 -0.35421 -0.756018 -0.652105 0.0700469 -0.561688 -0.346328 -1.02664 0.28277 0.0499398 0.089393 0.322258 -0.100105 -0.151002 -0.209904 0.0919782 -0.226395 -0.0298778 0.397172 0.111797 -1.00187 -0.439348 -1.3514 -0.494994 -0.863112 -0.0413821 0.362658 -0.311649 -0.24705 -0.668099 -0.311774 -0.368299 0.0986585 -0.736159 -0.420003 0.253504 -0.263327 1.34953 0.883179 0.753922 -0.279022 -1.34435 0.539111 0.163942 0.0435817 -0.100887 -1.21679 0.192956 -0.00133015 0.445921 -0.553175 -0.334557 -0.619305 -0.843217 0.488883 -0.894312 0.390326 -0.341552 0.457791 -0.346363 -0.080034 -0.0582884 -0.43826 0.0610675 -0.738977 0.482016 0.0231192 0.104553 -0.687709 -0.546878 -0.568696 0.101292 -0.736136 0.41761 -0.0103862 -0.330493 0.574061 -0.166653 -0.361215 -0.69052 -0.394305 -0.0295025 0.803708 -0.449455 0.362436 -0.104121 0.615786 0.944433 0.226059 -0.0859875 0.00963977 -0.108613 0.196129 -0.0963654 -0.628954 -0.141027 -0.727576 0.362759 0.160798 -0.00499363 -0.454332 -0.377246 -0.658677 -0.831881 0.497944 -0.424355 -0.222845 0.239447 0.507252 0.391535 0.0928945 -0.100699 -0.374635 -0.274064 -0.941976 0.307805 -0.297923 -0.558957 0.13034 0.207518 -0.0142945 -0.0842292 -0.547868 0.120503 -0.301957 -0.379627 0.135807 -0.166234 -0.288894 0.17056 -0.289837 0.203019 0.20493 -0.47178 0.547187 -0.197081 0.000530582 0.452948 0.594073 -0.513076 0.0739702 0.375318 0.0796427 0.0621605 -0.189279 0.265061 0.20417 0.784551 -0.332592 0.343484 -0.621225 -0.354645 -0.440578 -0.168498 0.386222 -0.37631 -0.400514 0.0367757 0.0803459 -0.0905357 -0.398558 -0.618491 -0.536132 0.303267 -0.842238 -0.468862 0.123097 0.37044 -0.276447 0.45486 -0.585028 -0.0798955 -0.719009 -0.411575 0.511313 -0.345523 -0.0192022 -0.0764713 0.228155 0.796941 -0.54511 -0.318285 -0.164723 -0.273324 0.0773559 -0.571823 0.418849 0.615477 -0.425565 -0.554554 0.0488836 0.355714 0.256732 -0.376958 0.481961 0.146559 -0.251434 0.942089 -0.205392 -0.113449 -0.117347 -0.108514 0.0774223 -0.346428 0.196892 0.452497 0.0793045 0.0564803 -0.48812 0.030924 -0.132961 -0.565697 -0.321835 1.14878 -0.209406 -0.0386518 1.13108 0.115548 0.567665 0.561849 -0.208251 -0.153935 -0.281875 -0.121657 0.199602 0.0357879 -0.117304 -0.216203 -0.277543 -0.33603 -0.231436 0.373223 -0.295892 0.366022 0.16165 -0.174648 0.449093 -0.171306 0.185816 -0.125263 -0.178581 0.353755 -0.177407 -0.0495748 -0.234444 0.304593 -0.523114 0.738333 0.0944543 0.381175 -0.270493 -0.48901 -0.239571 0.159317 -0.26956 -0.21902 -0.52505 -0.139501 0.0793542 -0.189629 0.14181 -0.0597853 -0.310168 1.05887 -0.390549 -0.303132 0.658307 0.100462 0.509489 0.101733 -0.109831 0.404711 -0.831204 0.237005 -0.101135 -0.366564 0.188993 -0.246057 0.216872 0.505831 -0.157896 -0.0446115 -0.409243 0.398508 -0.150819 -0.634131 -0.0023883 0.211993 0.521901 -0.604693 -0.0438539 0.37905 -0.646059 0.0660848 0.244915 -0.333345 0.0958595 -0.207525 -0.11435 0.305276 -0.592807 -0.184028 0.12467 0.228862 0.190671 -0.294909 -0.564063 -0.114347 0.278333 -0.0592492 -0.0864412 0.340943 -0.39976 1.17557 0.188985 0.0414122 0.611038 -0.113924 0.545656 -0.158502 -0.173717 -0.237386 -0.157366 0.0049446 0.124496 0.0968538 -0.312335 0.0272416 -0.0693065 0.118366 -0.356233 0.14581 -0.282389 -0.40367 0.695502 -0.363191 0.20617 -0.0837178 0.30121 -0.0567087 0.177958 0.172448 -0.536711 0.124195 -0.446684 -0.299858 -0.457153 -0.270402 0.545926 0.169097 -0.491184 0.25993 0.369593 0.191508 -0.0869586 0.223177 0.345128 -0.385842 -0.386349 -0.0322192 0.540636 0.00438964 -0.231381 -0.143292 -0.00781899 0.131942 0.045058 0.0775696 0.350694 0.0510983 0.137186 -0.646285 -0.590478 0.390176 -0.189862 0.0157309 -0.608575 -0.363423 0.355544 0.278076 -0.122739 0.305506 -0.392029 0.336212 0.536627 -0.328924 0.604864 0.11706 -0.0114608 -0.158261 0.16548 0.325414 -0.0593169 -0.563291 0.120044 -0.246167 -0.520686 0.0153741 -0.522423 0.0456186 -0.245352 -0.402842 0.499386 -0.32298 0.0629806 0.350879 0.0947413 -0.402875 -0.0502412 -0.74393 -0.143893 -0.349792 -0.496728 -0.0735716 -0.432117 -0.188165 0.479743 -0.29447 -0.388558 -0.174093 -0.108764 0.193044 -0.535364 0.0543006 -0.615228 -0.221805 -0.425966 -0.221257 0.0284234 0.207871 -0.104289 0.27297 -0.238356 -0.10582 -0.194566 0.00640696 0.364545 -0.123035 -0.348661 0.0692269 -0.190189 0.312215 -0.472013 -0.622634 0.115541 -0.301337 -0.157587 0.419325 0.0876953 0.328396 0.189368 -0.0640258 -0.190052 0.490107 0.391525 0.227979 0.340506 0.00443998 -0.415485 -0.0797528 -0.447811 -0.273726 -0.262374 -0.207011 -0.275963 0.209809 0.0547485 -0.432237 0.284405 -0.269092 0.0872605 0.309781 0.154231 0.183714 0.298723 0.477752 -0.199837 0.325125 -0.354543 0.308927 0.322943 -0.434329 0.327541 -0.270408 0.353577 0.211552 0.276296 0.462615 -0.114038 0.0268158 0.286313 0.157213 0.307466 -0.465961 0.0913749 -0.404524 0.315862 -0.0885587 -0.212458 -0.00586437 0.310718 0.0164834 -0.348347 0.108886 0.189131 0.26835 -0.149518 0.429721 -0.471218 -0.244875 -0.173938 -0.0142304 -0.43382 0.265403 0.45381 -0.166036 -0.0582841 -0.378997 0.132233 -0.270611 0.150346 0.296734 0.478497 -0.323332 0.100706 -0.192989 0.125783 -0.185154 0.257544 0.163922 -0.318686 -0.164896 -0.0201022 0.180866 0.0353388 0.477703 -0.471511 -0.480496 -0.0123823 -0.110036 0.272637 -0.37641 -0.460402 -0.381766 0.257267 0.0744858 -0.360866 -0.429079 -0.174682 -0.0236379 -0.153009 -0.424501 -0.284615 0.471352 0.143726 -0.3737 0.30818 0.262134 -0.0134394 0.0303851 -0.184004 0.364764 -0.260544 -0.415287 -0.516863 0.138001 -0.450175 -0.171083 -0.403754 -0.498569 -0.216924 -0.448685 -0.173126 0.264685 0.349994 -0.476041 -0.470211 -0.115245 -0.128395 0.164404 0.483099 0.107513 0.326955 0.140285 0.483648 0.305093 0.0323445 -0.213261 0.000319282 -0.407693 0.394837 0.432639 -0.186344 -0.0618397 0.0552022 0.34326 -0.0253424 0.483151 -0.316255 -0.139935 0.257005 0.443361 -0.212414 -0.00208562 -0.188824 -0.069614 0.269928 -0.431548 -0.0427937 0.240433 -0.241573 -0.148495 -0.0847208 -0.135284 0.233588 -0.170651 0.205626 0.309509 -0.26435 0.129566 -0.228914 0.00954561 0.222621 0.451503 0.46451 0.343171 -0.297985 0.483379 0.0891905 -0.283883 0.408616 0.353804 0.092665 0.0301184 -0.500245 0.312583 -0.393668 -0.195539 0.267354 0.379597 0.357494 -0.415553 -0.222221 0.0845428 -0.03361 0.200504 -0.308171 0.0701982 -0.246199 0.214864 -0.345695 -0.402813 -0.321174 0.370047 0.304334 -0.288803 0.446914 0.321973 0.137201 -0.0603322 -0.289012 -0.156869 -0.24328 -0.4923 0.434502 -0.264841 -0.210488 -0.455418 0.304522 -0.0850327 0.104381 0.282537 -0.128053 0.296836 -0.467637 -0.429176 0.0902808 -0.330358 0.292408 0.429613 -0.470297 -0.413337 -0.372106 -0.167448 -0.184068 -0.287523 -0.167947 0.414936 -0.177464 0.0153661 0.0461542 -0.400172 -0.00908553 -0.0256934 -0.495668 -0.499014 -0.0984302 -0.118223 0.261434 0.208136 0.059702 0.30102 0.112943 0.0195983 0.400036 0.463585 -0.460236 -0.10886 0.0516425 -0.304333 0.0608553 0.0133491 -0.200701 -0.19817 0.441645 0.385923 -0.435293 -0.211413 0.356799 0.335756 -0.26156 0.253082 0.115455 -0.217248 0.484932 -0.23398 0.249729 -0.218985 -0.419764 -0.343858 -0.28822 -0.355181 -0.379565 0.218536 0.290254 -0.0382974 -0.31033 -0.284123 -0.183327 -0.139463 -0.0104797 0.234722 0.126931 0.19337 -0.310903 -0.356198 0.30446 0.228911 0.30201 0.410921 -0.0212013 0.161062 0.324428 -0.253677 -0.429556 0.189925 0.222284 0.224407 0.336974 -0.422115 0.456127 -0.195406 0.0101628 -0.453684 -0.322281 0.377033 0.343254 -0.216128 0.443628 -0.178264 -0.37783 -0.283143 -0.300454 0.00753688 -0.454249 -0.245494 0.24908 0.17693 -0.41572 -0.0589449 -0.469559 0.182488 -0.432142 -0.0108295 0.38335 -0.287732 -0.0816556 0.376646 -0.226598 0.480954 0.326834 0.127272 -0.188296 0.361264 -0.440426 0.375219 0.322108 0.224194 0.445931 -0.177459 -0.452832 -0.0746919 0.163089 -0.431338 0.35649 -0.0485152 -0.179786 -0.237234 -0.00143736 0.3792 0.463203 0.30324 -0.21425 0.0595832 0.357835 -0.490057 -0.266474 0.289736 -0.0163397 0.260514 -0.0934756 -0.0345369 -0.48649 -0.098415 0.412727 0.417612 0.182638 -0.186848 0.32041 0.0824886 0.483198 0.41603 -0.0999645 0.106904 0.479699 0.494564 -0.170529 0.293218 0.286918 -0.13886 0.405493 0.0636795 -0.353793 -0.019856 0.520893 -0.333975 0.232172 -0.220252 -0.453331 0.492157 -0.219755 -0.459976 0.505447 0.051682 0.269917 0.488516 -0.244328 -0.298013 0.25293 -0.325524 0.461081 -0.156923 -0.19432 0.00571 0.288082 -0.108815 -0.0101291 0.319924 -0.469147 0.297676 0.0457753 0.386138 -0.311336 0.248578 0.018303 -0.328504 0.437745 0.1795 -0.395145 -0.395342 0.283562 0.0319957 -0.109394 -0.408908 -0.145427 0.31569 0.433587 -0.134927 -0.312045 0.172078 0.220101 0.30793 0.378832 0.380127 0.46448 0.513133 -0.398 -0.163913 -0.351952 0.0126571 -0.0824866 0.56874 0.52198 0.197 0.279433 -0.083696 0.269481 0.172174 0.104097 -0.213798 0.28064 -0.165361 -0.119854 -0.0669005 0.383645 0.288843 -0.0420121 -0.352332 0.180658 0.313474 0.356166 0.00958538 -0.0840807 0.00461745 0.205221 -0.190438 0.425683 0.204505 0.142585 0.226342 -0.123799 -0.252436 -0.193444 -0.104568 0.506567 0.270116 0.504343 0.284177 0.248147 -0.137905 -0.398024 -0.231015 0.382602 0.372374 -0.186778 0.468166 -0.345448 -0.75846 0.116055 -0.494831 -0.0974578 0.4585 0.544496 0.244375 0.438869 -0.16405 -0.721529 0.427775 -0.214317 -0.0351962 -0.301249 0.457606 0.303024 -0.685574 0.46345 0.236843 0.103819 -0.483545 0.173353 0.300958 0.151136 -0.190694 -0.219032 -0.0460358 -0.0567948 0.367599 0.237112 -0.0876707 -0.298526 -0.546169 -0.192725 -0.428648 0.317815 -0.384119 0.121605 0.178691 -0.228582 0.0250889 0.429552 -0.484336 0.260035 0.315771 0.0382585 0.137927 0.212335 -0.332942 -0.430239 0.152676 -0.496592 -0.285994 -0.458292 0.0871074 -0.192915 0.072912 0.489427 0.182846 -0.786442 0.146072 0.222321 0.0201003 -0.392121 -0.176759 0.859969 -0.706141 0.547392 0.570087 -0.0409555 0.0137952 0.235189 0.339802 0.479723 0.367784 -0.398569 0.337341 -0.0796783 -0.0354666 0.0348947 0.156393 0.217523 0.0189145 -0.438659 -0.191504 0.083419 0.41172 -0.58346 1.17361 0.68165 0.259211 0.299707 -0.187762 0.0137988 0.829524 -0.558666 0.00882227 0.556485 0.247688 0.232354 -0.514659 0.0329157 -0.293631 -0.477589 -0.0150819 -0.452386 -0.224264 0.418108 0.395115 -0.131753 -0.485871 0.289657 0.0598521 -0.653705 0.544278 0.115438 -0.558304 0.905767 -0.0604228 -0.156619 -0.0247777 -0.821459 -0.764513 0.0941553 -0.14015 -0.00954413 -0.570298 -0.357842 0.618646 -0.122587 -0.602096 -0.0270623 0.00986918 -0.601807 -0.225844 0.931897 0.342223 -0.303409 0.473865 0.256755 0.452378 0.115866 0.556412 -0.963209 0.594249 -0.637151 -0.554022 0.445608 -0.367129 0.396901 -0.0278558 0.0373907 -0.0695804 -0.439939 0.796491 -0.272485 -0.480959 0.31319 -0.22787 -0.269405 -1.37288 0.461425 0.35245 -0.320632 0.51172 -0.0209716 -0.860207 0.326842 0.863507 -1.04059 0.76194 -0.673092 -0.491021 0.411087 -0.181194 0.173247 -0.239524 -0.406767 0.0627614 -0.38842 -0.246676 0.507079 -0.0180206 -0.0868818 0.524778 0.926373 0.140155 0.0272391 1.17843 0.48383 0.461312 -0.00237395 -0.18822 -1.00082 0.411916 -0.669874 -1.00527 -0.509935 0.303467 -0.276525 -0.205759 0.324936 -0.262571 -1.12171 0.230409 -0.0594129 0.105498 0.127556 0.424472 0.252637 -0.713235 0.604152 1.35239 0.662534 -0.238986 0.242306 -0.570714 -0.137046 0.369649 -0.422895 0.462872 -1.37588 -0.729446 0.400394 -0.181034 -1.02892 -0.189977 -0.126945 0.124521 -0.0963053 -0.53948 -0.0305322 -0.134947 -0.857609 0.514825 1.17223 0.551032 -0.509533 1.92701 -0.0798142 0.357935 0.23784 0.06391 -1.08357 0.786531 -0.0256328 -0.869194 -0.105823 -0.0676947 0.746438 -0.2657 -0.104148 -0.567049 -0.340467 1.10448 -0.600785 0.548777 0.729546 -0.645109 0.557144 -0.69659 -0.0854173 0.808145 0.202236 -0.563394 -0.428568 -0.694984 0.614412 0.770708 -0.7481 0.632344 -1.45315 -0.872259 0.0467804 -0.736398 -0.998766 -0.265079 0.412512 -0.296411 -0.0313999 -0.327652 -0.0381491 0.294506 -0.199869 -0.277186 1.37899 0.464057 -0.468057 1.99946 0.352279 0.182975 0.406046 0.219043 -0.7724 -0.280206 -0.560751 -0.544809 -0.351137 0.303614 0.18624 0.3346 -0.634643 -0.491823 -0.360918 0.757082 -0.589363 0.387518 0.555599 -0.715832 0.27428 -1.07715 0.691718 0.742768 0.343649 0.122749 0.257922 -0.909451 0.871051 0.4871 -0.240546 0.441745 -0.712125 0.167173 -0.229386 -0.573346 -1.63778 -0.238827 -0.0954186 -0.30044 -0.576 0.464867 0.065626 -0.518747 -0.257269 -0.99139 1.73829 0.1829 -0.989532 0.918961 -0.46384 0.0448373 1.52662 0.153358 -0.98495 0.217556 -0.340926 -0.799934 -0.53194 0.184958 -0.298351 0.0815113 -0.103699 -0.688473 -1.19044 -0.0561038 -0.274301 -0.559154 0.5164 -0.214588 0.535998 -1.44081 0.322616 0.41997 0.0302063 -0.243424 0.538513 -0.591608 0.497687 1.19958 0.228173 -0.26883 -0.812329 -0.441236 -0.360369 -0.847985 -2.21952 0.0849943 0.389748 -0.0587104 0.344908 0.900851 0.361682 -0.422802 -0.15222 -1.13047 1.00385 0.0926125 -0.997107 0.572541 0.30034 1.12882 1.40988 0.630884 0.564772 -0.0845956 -0.437148 0.0290833 -0.116641 -0.653842 0.260229 -0.0704597 -0.739585 -0.0632646 -1.20503 0.271149 -1.13882 -0.0415153 0.297433 -0.69457 0.953314 -1.39121 0.353246 0.432477 0.340225 -0.853139 -0.582991 -0.527969 0.547781 0.631131 0.0193964 -0.783317 -0.600819 -0.759998 -0.144354 -1.04723 -1.98918 0.361568 -0.485752 -0.479581 -0.263986 1.05287 -0.456704 -0.925841 -0.507779 -0.950646 0.961477 -0.187431 -0.922611 0.661399 -0.510689 1.93723 1.02736 0.0133074 -0.200474 -0.210213 0.514136 0.940557 0.0743927 -0.872165 -0.0877169 0.409319 -1.43593 -0.457181 -1.33156 0.423922 -1.13509 -1.24027 0.77038 -0.884968 0.492806 -0.266018 0.179755 -0.337237 0.44221 -0.733543 -1.76222 -0.36435 0.0820677 0.060327 -0.381207 0.0991416 -0.701431 0.160724 -0.198419 -0.570756 -0.426611 -0.356876 0.216364 0.351597 0.194614 0.315725 -0.740697 -0.360916 0.159206 -0.0466196 0.817798 -0.100213 0.123807 0.163486 0.238056 2.22149 1.12344 -0.269159 -0.929978 -0.810596 0.431342 -0.136508 -0.311474 -0.400755 -0.245414 0.879941 -0.898905 0.32292 -0.593833 0.104354 -0.0761155 -0.117131 0.579741 -0.865594 0.752793 0.134416 -0.0468365 -0.81917 -0.316709 0.117971 -1.60404 -0.024433 -0.333131 0.43159 -0.38251 -0.368952 -1.14896 0.14833 -0.0467364 0.301547 -1.23947 0.095247 0.622843 -0.359781 0.632381 -0.380089 -0.921943 -1.2666 0.0597537 0.744504 0.112605 -0.515032 0.708419 0.388214 0.262593 1.48943 0.504628 0.208968 -0.349621 -1.21806 0.593736 -0.348113 -0.594793 -0.458339 -0.325491 0.234519 -0.0910389 0.772664 -0.877906 0.407712 0.268903 -0.726764 0.552906 -1.09475 0.565162 0.260577 0.221783 -0.140449 -0.34006 -0.582269 -1.73665 0.185894 -1.50263 0.177428 -0.39771 -0.0674697 -0.305142 -0.15387 0.147796 -0.198271 -0.510999 0.148341 0.810483 -0.27459 0.179905 -0.0257249 -0.492475 -0.602003 0.321319 0.511168 -0.553916 -0.506967 0.54756 0.269247 -0.250522 0.617414 0.45067 0.5942 -0.163168 -0.463793 0.406655 -0.139462 -0.0331844 -0.262663 -0.267334 0.749431 -0.491608 -0.181312 -0.0546654 0.462324 -0.00338399 -0.336829 0.584207 -0.909654 0.219076 0.210337 -0.405765 -0.091814 -0.104292 -0.537586 -0.852233 0.285851 -0.717082 -0.0749473 -0.541893 0.746816 -0.410199 0.683028 0.526239 -0.205649 -1.00546 -0.18448 0.370532 -0.403138 0.100199 0.503155 -0.225394 -0.0656559 0.679983 0.911338 -0.669967 -0.00833373 0.810675 0.339264 0.268551 0.367068 1.15538 0.00172757 0.446677 -0.086806 -0.0178382 -0.0641295 -0.680959 -0.259134 0.0992077 0.730619 0.448368 -0.041648 -0.377573 0.353437 -0.39726 -0.387307 0.525897 -0.888938 -0.284579 0.395934 -0.0662482 0.0266576 -0.35639 -0.178869 -0.751463 1.1835 -0.865469 -0.205085 0.412462 0.0410078 -0.0449162 0.952247 0.598578 0.899227 -1.47812 -0.06415 0.967954 0.467664 0.0873969 0.129231 -0.114014 0.312251 0.0591942 0.5199 -0.474052 0.395703 0.910634 -0.640471 0.460396 -0.601856 0.310796 0.172289 0.636131 0.456859 -0.0108147 -0.0481338 -0.626729 -0.0436776 0.13953 0.872447 0.463839 0.433665 -0.502427 -0.184767 0.118997 -0.446268 0.587047 -0.162639 0.235372 -0.345161 -0.0325132 -0.00635117 0.016272 0.210632 -0.727556 1.58429 -1.08372 -0.0871018 1.34039 -0.271084 -0.101048 0.62124 0.441207 -0.615749 -1.19305 -0.395247 0.0804133 0.106512 -0.105167 -1.15874 -0.209541 -0.196675 0.142009 0.201721 -0.89271 -0.314006 0.997375 0.422895 0.31111 0.162168 0.496838 0.0998092 0.386454 0.430168 -0.0351506 0.0388804 -0.50231 -0.388098 -0.119729 0.220178 0.846484 0.650241 -0.149548 -0.114044 0.231158 -0.089941 0.0405446 -0.0130536 0.0899395 0.264945 -0.994548 -0.575215 -0.200535 0.307297 0.0593221 0.986338 -0.802835 -0.285893 0.0787656 -0.0144116 -0.00230966 -0.0343803 0.268526 -0.875024 -0.50998 0.281172 0.0270077 0.190112 0.219086 -0.903886 -0.283745 0.454171 -1.0891 -0.270911 -0.453303 -0.166186 0.355757 -0.51424 0.534676 -0.748373 0.344223 0.196613 0.234311 0.323871 -0.359737 -0.133246 -0.723229 -0.250396 0.128672 0.685752 0.695188 0.292814 0.146239 0.240208 -0.282406 -0.119596 0.31515 0.300066 -0.900474 0.459773 -0.481531 -0.978856 -0.37382 0.558168 0.217719 0.290233 -0.379798 -0.0829824 0.179718 -0.164033 0.271053 0.668878 -0.162609 -0.576573 -0.0519454 0.114196 0.102279 -0.429243 -0.246218 -0.796649 0.487543 0.301341 -0.366049 -0.0762269 -0.143367 -0.746398 0.656543 -0.0481853 0.415907 -0.2724 -0.559774 -0.151058 0.241662 -0.106684 -0.469008 -0.124313 0.268785 0.0247604 0.0932118 0.022867 0.134964 0.132498 -0.315002 -0.553602 -0.367159 0.29156 0.301725 0.26568 -0.289001 0.236148 -0.46195 -1.14636 -0.189442 0.484035 -0.21738 0.16988 -0.586428 0.112207 0.204512 0.137388 -0.0677993 -0.560964 0.229141 -0.0815545 -0.305357 -0.0192038 -0.0291902 -0.53761 -0.496568 -0.092056 0.032509 0.581445 0.0529263 -0.310401 0.25224 -0.469142 -0.352612 -0.00142383 -0.0237442 -0.286765 -0.0992298 0.0613815 0.0788596 0.271711 0.199556 0.249051 -0.350128 0.0352719 -0.207999 0.537644 0.242697 0.114636 -0.073704 0.195609 -0.38417 0.0240529 -0.33957 -0.0717652 -0.408879 0.365351 -0.438533 -0.218325 -0.233355 -0.273964 -0.48189 0.0443613 0.220448 0.328985 -0.180306 -0.303194 -0.305421 0.0783446 -0.013017 -0.538852 0.199438 -0.171846 -0.0577384 -0.102353 0.231686 0.493409 -0.267343 0.314499 -0.645092 -0.615194 0.191475 -0.435853 -0.287626 -0.330469 -0.201766 -0.0812534 -0.108503 -0.131963 -0.0176794 0.48065 -0.0606706 0.284746 -0.22315 0.465118 -0.108861 0.207226 -0.423314 -0.322953 -0.14034 -0.160417 -0.23357 -0.441762 0.289879 -0.252621 0.269437 -0.0403197 -0.6451 0.156465 -0.42202 0.211645 0.373149 0.504504 -0.439791 0.00771262 -0.312806 -0.389166 0.340049 -0.239154 0.457603 0.421107 -0.113739 -0.213543 -0.24632 0.307769 -0.396313 0.00328632 -0.404921 0.591441 0.209222 0.239913 0.206428 0.15479 0.35175 -0.0803651 -0.451241 0.543163 -0.089627 0.443423 -0.262915 0.514803 0.283597 -0.142224 -0.413278 0.139013 0.0984887 -0.00728398 -0.0791413 -0.451597 0.103331 0.145552 -0.0285044 -0.24887 0.149286 0.45475 0.0100697 -0.411922 -0.113458 -0.365637 0.277882 0.104863 -0.105558 -0.198541 -0.396053 -0.451009 -0.0896417 0.101881 -0.107782 0.111821 -0.0299736 -0.357032 0.512426 -0.34151 -0.324724 0.457469 -0.105943 -0.365688 -0.230159 0.386777 0.279481 -0.0148196 0.335788 0.367034 0.347669 -0.341056 0.0849135 0.322889 0.389788 0.00389376 -0.22152 0.282047 0.0229836 -0.106805 -0.438966 0.270869 -0.240711 0.0537568 0.399485 -0.113984 -0.454711 -0.0601622 0.143184 0.0413138 -0.064766 0.218312 0.0408143 -0.13943 0.183132 0.271697 0.197319 0.35349 -0.420137 0.0414592 0.31486 0.00896647 -0.114523 -0.304699 -0.465162 0.266893 0.366908 0.278978 0.435557 -0.0246668 0.180503 0.26548 0.439693 -0.368786 0.00953059 -0.125158 -0.0167582 -0.13839 0.239829 0.385387 -0.289679 -0.228387 0.144814 0.0832058 0.471906 -0.257735 -0.419492 0.0793126 -0.151394 -0.174632 -0.284053 0.0138522 -0.457239 0.392124 -0.0321227 -0.435062 0.482627 0.492214 -0.159075 -0.221195 0.197051 0.35217 0.437599 -0.461663 0.313641 0.245437 0.479148 -0.364196 0.451309 -0.253267 0.129926 0.32479 -0.307444 -0.199316 0.391782 0.148721 -0.294291 -0.156621 0.386701 -0.405542 -0.288565 0.291402 -0.47221 -0.303347 -0.463255 0.39092 0.129276 -0.0540871 0.0850502 0.408861 -0.0850301 0.0879333 -0.00980065 -0.173793 -0.36644 0.107026 0.202308 0.472277 -0.0624194 0.0741334 -0.259325 -0.453795 -0.199351 -0.342911 0.24578 0.223116 -0.314705 -0.231626 -0.0111153 0.28084 -0.480872 -0.091207 0.265132 0.392872 0.324521 -0.286923 -0.383526 -0.028634 0.276193 -0.355348 -0.139789 0.372684 0.339892 -0.311884 0.0348059 -0.286435 0.475261 -0.217725 0.41067 -0.0921504 0.0306272 0.363353 0.147041 -0.495065 -0.277791 0.48244 -0.421717 0.360223 0.0545738 -0.189584 0.252684 0.142913 -0.31745 -0.498611 0.426797 -0.0519031 0.436402 0.349678 0.32599 0.0582361 0.188955 -0.0114411 -0.393996 -0.406561 0.0957837 -0.00381641 -0.504725 0.154926 0.486542 -0.0886291 0.221752 -0.349194 0.0263547 -0.215699 0.0326835 -0.0212553 -0.345755 0.275671 -0.383581 0.120713 0.251284 -0.424752 0.282025 -0.0159795 0.184626 -0.134318 0.281542 -0.0253654 -0.207603 -0.27455 -0.0959813 -0.389222 0.294101 0.169361 -0.364446 -0.259368 0.0280534 0.235642 -0.276654 0.0774016 -0.38377 -0.398449 0.199038 0.489427 0.346698 -0.100603 -0.0037959 -0.456108 0.201422 0.0522079 -0.00886539 0.0916304 -0.0323491 -0.395687 -0.0837339 -0.380913 -0.211376 -0.0268801 -0.321497 0.295267 0.318533 0.170255 0.359386 -0.135057 -0.277494 -0.208568 -0.0524875 -0.337591 0.00163582 0.32396 0.221334 0.140015 0.0410873 0.268102 -0.283717 -0.0644346 -0.516645 0.463712 -0.408732 0.00234055 -0.283302 -0.468008 -0.371795 -0.399417 -0.522253 -0.180522 -0.0753133 -0.46749 -0.00587776 -0.0180684 -0.348068 -0.303019 -0.397007 -0.196901 -0.521564 0.401789 -0.394662 0.0975438 -0.281665 0.386231 -0.189204 -0.27452 -0.446245 -0.109154 0.512734 -0.357881 -0.201401 0.0879861 0.148319 0.248091 0.407674 -0.400457 -0.239151 0.0114619 -0.00559012 -0.715159 -0.625936 0.193158 0.190186 -0.569665 0.480655 -0.334261 -0.429068 -0.32293 -0.202207 0.113881 -0.229067 -0.301995 0.00239755 -0.0742861 -0.305484 -0.465643 -0.27664 -0.243799 0.137484 -0.02796 0.107055 0.281657 -0.258494 -0.219961 -0.300841 0.379968 -0.226364 -0.382078 -0.179289 -0.352644 -0.349108 0.0568375 0.269482 0.124385 -0.0773032 0.222349 0.220886 -0.512702 0.174797 -0.429879 0.283345 0.0244565 0.20621 0.347254 -0.184362 -0.265066 -0.391716 0.275366 -0.403845 0.0158145 -0.716908 0.136118 0.596483 -0.229602 0.784164 0.0597121 0.108675 0.293844 0.0203519 0.0425682 0.299863 0.000448764 -0.423801 -0.423815 -0.266565 -0.297054 -0.288366 0.239036 -0.661544 -0.253256 -0.317002 0.11538 0.418933 -0.559756 -0.345786 0.876692 0.324055 -0.4394 -0.161165 0.346216 0.00418933 -0.330713 -0.0656144 0.226738 -0.109664 -0.107661 -0.418019 -0.594385 0.563706 -0.45081 -0.10723 0.723078 -0.530568 -0.292161 0.247692 0.103923 -0.341101 -0.0226653 0.522958 -0.511803 -0.244575 -0.121872 0.764756 -0.542252 1.46386 -0.0996405 -0.531353 0.450344 0.150102 0.417476 -0.03825 0.338134 -0.288047 0.0796285 0.255185 -0.288991 0.749919 -0.365531 0.236546 0.0464465 -0.237092 -0.150835 0.650429 -0.425079 -0.0454081 0.730683 0.615236 0.253912 0.129429 -0.0259954 -0.345754 0.115953 -0.643173 -0.0916598 0.315818 -0.055775 0.0206589 0.174434 -0.103808 -0.251446 -0.531282 0.447786 -0.498852 0.207259 -0.222357 0.557752 -1.08618 0.119313 0.648682 -0.0139995 -0.55048 -0.0391541 0.726722 -0.882861 1.36784 0.680541 -0.221489 -0.000469149 -0.801954 0.538159 0.553152 0.635817 -0.755403 0.0708169 0.449039 -0.0723159 0.565169 -0.349653 -0.596379 0.253065 -0.57054 0.346262 0.659808 0.312178 0.205978 1.06438 0.665463 0.207329 0.305486 -0.0414594 -0.471144 -0.157082 -0.502042 0.118369 -0.0979699 0.621186 0.421657 0.475236 0.645611 -0.0195342 -0.785848 -0.217575 -0.149699 -0.366123 0.101885 -0.439787 0.0318982 -0.314683 0.194965 0.0939904 0.203624 0.57076 -0.154651 -1.59576 1.07829 0.797999 -0.772238 -0.133393 -0.995358 0.286807 0.441376 0.488792 -0.70372 -0.00637415 0.613823 0.460475 0.0567593 -0.96721 -0.486303 0.0474605 -0.865656 0.377884 1.48343 0.26122 0.133488 0.868432 1.11526 -0.709831 0.223426 -0.359345 -0.507951 -0.0673493 -0.158857 -0.466569 0.146035 -0.228582 0.538171 0.601759 0.0781313 -0.239948 -0.168968 0.165865 -0.34671 -0.0983204 0.349366 0.238489 -0.0595359 -0.729466 -0.0648433 0.534091 0.20034 -0.0296436 -0.0547348 -0.257281 0.675207 0.753466 -0.685754 0.778517 -1.12142 -0.120451 0.490496 -0.0834845 -0.585576 -0.0274776 0.620204 0.196311 0.122786 0.0354312 -0.235266 -0.108916 -0.640204 0.587336 1.23359 -0.409066 -0.0207487 1.78059 0.970834 -0.446296 0.27385 -0.490766 -0.65769 0.447773 -0.923933 -0.584355 -0.269503 -0.0416252 0.202382 1.23786 -0.332341 0.312289 -0.683938 0.0495139 -1.00458 0.192267 0.248182 -0.479719 0.919499 -0.457009 0.258012 0.537512 0.093894 -0.253134 -0.700763 -0.0638353 0.278634 0.9356 -0.762033 0.663028 -1.32487 -0.14829 0.943474 -0.503693 -0.607359 -0.706152 0.810591 -0.299027 0.465038 0.237764 0.449024 0.133475 -0.426383 -0.300838 0.995244 -0.33043 -0.690922 1.03004 -0.435461 -1.16313 -0.594503 -0.337055 -1.51593 0.50854 -0.797781 -0.972551 -0.609046 0.302565 0.699824 0.561685 -0.90345 0.4079 -0.380765 0.641984 -0.344687 0.210542 0.161014 -0.0235369 1.13456 -0.375822 -0.615169 0.476432 0.934116 0.844084 0.0472872 -0.228504 0.382996 0.768658 -0.502766 0.376247 -0.640334 0.377215 0.642469 -0.491172 -0.597301 -0.450767 0.856445 -0.0099847 0.227541 0.104501 -0.231017 0.164931 -0.432491 -0.594396 2.04697 0.387718 -1.05253 1.59798 -0.0990181 -1.24451 -0.676215 -0.0238675 -0.418037 0.782147 -1.92425 -1.04567 -0.362432 -0.0446743 0.929897 -0.0257344 -0.434028 0.335473 -0.42064 0.847566 -0.0718844 1.0697 0.53158 0.476487 1.17333 -1.22144 -0.410733 0.189819 0.765243 1.0144 -0.116228 -0.0438813 0.345457 1.0328 -0.204193 -0.0581837 -0.307076 0.519662 0.127742 -1.00883 -1.29812 -0.188694 -0.052401 -0.299788 0.236905 -0.0572156 -0.415621 0.374662 -1.03797 -0.11194 1.10148 0.00490952 -1.38587 1.12008 -0.517889 0.553804 -0.743323 -0.0816772 -0.862722 0.206581 -1.23322 -0.283738 -0.0514716 -0.401807 -0.5289 -0.22283 -0.500229 -0.491117 -1.28233 0.902821 -0.503005 0.315326 -0.0294637 0.655161 0.952962 -0.838849 0.443533 0.422818 0.20259 0.786519 0.885117 0.551096 0.44404 0.649359 -0.386283 0.289772 0.638132 -1.02935 0.209624 -0.838639 -0.995251 -0.0997309 0.697595 0.0461607 0.503873 0.451916 0.699046 0.46217 -1.0028 0.375088 0.804871 0.390336 -0.408002 0.797569 0.171861 0.476586 -0.47536 -0.296201 -0.574785 -0.453192 -1.23272 1.12544 -0.13415 -0.332397 -0.549931 -0.211515 -1.04439 -1.10752 -0.56624 0.651435 -0.882811 0.643373 0.117274 0.552283 1.09758 -1.50178 1.16048 0.356139 -0.480017 0.510694 0.723497 -0.00856468 -0.0108538 0.849436 -0.16878 -0.0362708 0.06208 -2.08621 -0.461868 -0.598571 -1.78318 -0.340866 0.39571 0.485221 0.450341 -0.617525 0.662696 -0.954142 -0.0523773 0.103366 1.26999 -0.917529 -1.03593 0.583582 0.144591 2.23861 0.32078 0.732683 -0.589921 -1.14251 -0.794016 0.666316 -0.217258 -0.507562 -0.669904 -0.212105 -0.358315 -0.661167 -0.205576 1.19608 -0.192161 0.55588 0.316454 -0.639194 0.12653 -0.794617 0.894886 0.477952 -0.138254 0.322794 0.202269 -0.719823 0.531758 0.449106 -0.753754 -0.386454 -0.530279 -1.92879 -0.581655 -0.500277 -1.83487 -0.275575 0.506827 0.333944 0.378835 -0.629488 0.850981 -0.179542 0.407078 0.0761873 1.00012 -0.410656 -0.121253 1.10524 -0.595537 3.26152 0.926982 1.18234 -0.889729 -1.05174 -0.962813 0.358718 -0.22719 -0.606906 0.0824949 -0.0824542 -0.633365 -0.638313 -1.15516 1.62164 -0.242614 0.855119 0.756875 -0.421416 0.922428 -0.389347 -0.0683733 -0.182774 0.0275543 -1.0392 -1.19739 0.176025 -0.493077 0.684186 -1.39147 0.0684716 -0.146655 -0.135729 -0.360185 0.114347 -1.59179 0.0298359 0.897273 0.173209 0.534132 -0.0901946 -0.654417 0.35571 -0.576715 0.602026 -0.0879167 -0.324959 0.4969 0.875987 -1.62992 1.85049 1.54212 1.3931 -0.97649 -0.83504 -0.726167 -1.1111 -0.344384 -0.572357 0.205755 0.763487 -1.25409 0.0802504 -1.19566 2.2625 -0.770863 1.3221 1.18609 0.169849 1.5985 0.169925 -0.334177 -0.771129 0.361841 -0.430962 -2.26649 0.050271 -1.30934 0.631644 -0.668858 1.21117 -0.218868 1.16579 -0.347454 -0.339219 -0.858279 0.00316616 0.890434 0.356893 0.350366 0.00647966 0.706342 -0.304278 -0.567388 0.640324 -0.0738994 -0.0927084 -0.0654473 1.31067 -1.93919 0.0676913 1.09175 0.473814 -0.695011 -0.357759 -0.741891 -1.39113 0.103448 -0.352759 -0.565028 1.36236 -1.04547 0.328096 -1.5834 1.77944 -0.249727 0.633361 1.01426 -0.27813 0.208851 0.0477503 0.00747155 -0.308669 -0.954443 -0.613351 -2.17368 0.485939 -0.754776 0.39638 -0.435159 1.04636 -1.18753 1.65952 -0.0719741 0.0303461 -0.665296 -0.347891 1.19822 0.264162 0.619688 0.563402 1.02621 -0.748973 -0.157495 0.408492 0.302548 -0.232833 0.29222 0.913616 -1.15235 -0.843621 0.455636 1.22145 -0.874378 -0.0114083 -0.294961 -1.27028 -0.205278 -0.268604 -0.313699 0.60045 -1.00683 0.112823 -1.59599 1.95765 0.450861 0.892843 0.973044 0.335939 -0.235859 0.00100888 -0.0575125 -0.0232958 -0.319867 -0.0590583 -0.997206 0.201041 -1.87312 0.563393 0.368363 1.41749 -0.0579835 1.26338 -0.15352 0.100296 -1.20878 -0.803889 0.189879 0.122813 1.13063 -0.276868 -0.0944549 -0.211899 -0.837292 0.501782 -0.468484 0.0436861 -0.0641554 0.876719 0.220051 -0.318213 1.16625 0.470503 -0.367892 0.75383 -0.880902 -1.23637 -0.515511 -0.113426 0.155328 0.902686 -0.102104 0.00863863 -1.43001 1.47117 0.325784 0.490219 0.646349 0.0496599 0.474669 -0.117492 -0.326053 -0.896979 -0.771528 -0.252003 -0.999537 0.373727 -2.3287 0.17293 -0.210237 1.0995 -0.0360898 0.929991 0.166365 -0.291565 -0.268407 0.00864708 -0.590362 -0.242707 0.402818 -0.43552 0.0977094 -0.0735862 -0.738443 0.0833743 -0.532783 -0.239424 1.00994 0.20789 0.178725 -1.57523 0.358016 0.664578 0.409188 0.162725 -0.169702 -0.430124 -0.189488 -0.12546 0.129025 0.889115 -0.178475 0.0684675 -0.702686 1.11604 -0.22552 0.319377 0.328494 -0.228357 -0.450723 0.0836822 -0.835196 0.100256 0.286532 0.422457 -0.658326 1.08641 -1.71319 0.105905 -0.166683 0.00723528 0.421582 0.534751 0.351214 -0.684303 -0.0477978 -0.0725162 -0.626452 -0.150249 0.0273102 -0.0394738 0.092389 -0.16517 -0.374781 -0.0400664 -0.0309555 -0.512895 1.02797 0.270021 -0.227088 -1.17814 0.564985 0.474792 -0.0352348 0.969656 -0.120317 -0.640954 -0.85827 -0.305578 0.520068 0.99133 -0.209719 0.0993759 -0.381052 0.313799 -0.538297 0.489466 0.257978 -0.568383 0.219174 -0.00599188 -0.184022 -0.677847 0.394161 0.633464 -0.74572 1.60399 -1.55362 -0.113395 0.0494578 0.697666 0.443853 0.805752 -0.307016 -0.565217 -0.55691 -0.107721 0.214098 -0.694507 0.349119 0.0202309 -0.459182 0.412942 0.450965 -0.947427 -0.322996 -0.076418 0.576713 -0.496616 0.262792 -1.4619 -0.183096 -0.402972 0.0264176 0.631456 -0.926609 -0.370028 0.182755 -0.586322 0.736583 0.0247241 0.487095 0.0717382 -0.0855785 -0.345843 0.0372816 0.231089 -0.274189 0.0150825 0.0726831 0.0578467 -0.688298 -0.315934 -0.323337 0.653076 -0.608363 0.424843 -0.371321 -0.0854062 -0.0988966 0.375286 0.439348 0.264749 -0.03721 0.0320293 0.00954026 -0.172462 -0.499924 -0.217539 0.499797 0.337606 -0.147409 -0.0378822 0.639975 -0.86138 -0.16887 -0.305229 0.0116191 -0.532732 0.367366 -0.287275 -0.0242638 -0.513616 0.309656 0.295615 -0.279857 -0.00401577 -0.279435 0.0257691 -0.420841 0.207565 0.202818 -0.326404 -0.444315 0.407402 -0.0689476 0.316653 -0.103239 0.321371 0.421939 -0.376002 -0.677011 0.10437 -0.305285 -0.269632 0.337978 0.826365 0.248813 0.375676 -0.368602 -0.384642 0.504078 0.370753 -0.377885 0.0408415 -0.627703 0.154111 0.162243 0.0424709 0.328591 0.196774 -0.81579 0.0267864 0.316918 -0.790423 0.296116 -0.48594 0.529989 0.434164 -0.546741 -0.129617 -0.0162631 0.333245 0.447132 -0.166191 -0.449785 -0.0673502 -0.112119 0.218096 0.436058 -0.0159113 0.0440093 -0.155453 -0.731708 0.635772 -0.00884005 0.279492 0.219661 0.411965 0.531535 -0.0616397 -0.292995 -0.273549 -0.382107 0.0505742 0.0445484 0.625194 -0.00165946 -0.506849 -0.726912 -0.411408 0.651398 0.267081 -0.434668 -0.55784 -0.251404 -0.0731469 -0.414258 0.247302 -0.251374 0.400826 0.0676987 0.37193 -0.417249 -0.524516 -0.034298 0.366586 -0.410681 0.138587 0.414526 -0.151152 -0.105305 0.0445301 0.256331 -0.125664 -0.0699872 -0.0837051 -0.459363 0.0816622 0.404618 0.131312 -0.349203 0.352708 0.119464 0.0553532 -0.0577877 -0.362352 0.043887 0.0891868 0.471648 -0.0147326 0.309167 0.152327 0.0425703 0.0632818 0.376749 -0.36954 0.15198 0.330502 0.343136 0.160668 0.160518 -0.136711 0.38454 -0.0244503 -0.392695 -0.473079 -0.295355 0.41485 -0.142161 0.222883 -0.265814 -0.0970827 0.117511 -0.356504 -0.420217 0.405183 0.475647 0.181222 0.186876 -0.351483 -0.308908 -0.251803 -0.00896881 0.427396 0.167252 -0.146681 -0.479418 -0.264569 -0.276789 -0.0163851 0.0370118 -0.111253 -0.462343 -0.431935 0.0252148 -0.147012 0.0262452 -0.395779 0.0278178 -0.208854 0.036147 -0.166231 -0.118009 -0.0848499 -0.432569 0.48959 0.0432363 -0.479284 0.363693 -0.103513 0.189596 0.224918 0.106639 -0.277217 -0.50931 0.367079 0.282204 0.0499795 0.298307 0.198534 0.212722 0.200175 -0.370262 0.295355 -0.0834657 -0.182688 -0.238283 -0.460363 -0.0496116 0.0729045 0.187988 -0.0808106 0.379095 0.42296 0.279999 0.397117 0.464121 -0.364295 -0.249121 0.0833349 0.159508 -0.183827 -0.165702 0.305616 0.403824 -0.255919 -0.293018 0.0765911 -0.45472 0.375258 0.17498 -0.293957 0.311576 -0.494946 -0.367354 -0.0749711 0.373529 0.421284 0.35168 -0.221911 -0.101834 0.331533 -0.254687 0.0787308 -0.380062 -0.463691 -0.162937 -0.221046 -0.420078 0.154283 -0.328359 0.264803 -0.427625 0.154149 0.432572 -0.0563601 -0.34016 0.417042 0.291954 -0.341727 0.421804 -0.246272 -0.00760641 -0.112967 -0.213329 0.141682 -0.492119 0.166103 0.112716 0.173529 -0.202023 -0.0254638 -0.101559 0.141009 -0.377226 -0.0377245 0.258727 0.323611 0.181631 0.175351 -0.20014 0.388897 -0.244295 0.072883 -0.321209 -0.352755 0.524357 -0.0594539 0.270398 -0.420022 -0.213714 0.420024 0.220001 0.188248 -0.20155 0.315813 0.19686 0.104297 -0.19417 -0.240686 0.473611 0.075984 0.432823 -0.0763693 -0.322105 0.362046 -0.485382 0.506161 0.0561566 0.0852811 0.0502615 -0.114947 -0.115892 0.139005 -0.387179 0.397827 -0.422201 0.337559 -0.0573035 -0.158164 0.435739 -0.000448653 0.319063 0.024288 -0.179394 -0.173867 0.0920375 -0.00549686 -0.45428 0.507507 0.501995 -0.216037 -0.31896 0.323345 -0.303718 -0.470825 -0.417872 0.0516177 -0.455246 -0.180518 0.249032 -0.367593 0.465592 -0.430001 0.0078009 -0.213654 0.35458 -0.387583 0.316262 0.0901349 -0.266186 -0.393263 -0.45113 0.515881 -0.0577486 0.416999 -0.499083 -0.0550942 -0.340525 0.405588 0.110043 0.29623 0.355547 -0.112248 0.0134226 0.412862 0.271349 -0.449578 0.455964 -0.0951201 -0.0795084 0.293765 0.310535 0.585506 -0.270371 0.292221 0.223011 -0.334038 0.347167 0.377686 0.233497 0.0939528 -0.119109 0.096075 0.0942256 0.111678 0.0616778 0.11445 -0.441578 0.203922 -0.425938 0.0420306 0.198476 -0.131339 0.315678 -0.189716 0.42295 0.465604 -0.114319 0.303632 0.134967 0.202883 0.412534 0.366173 -0.268606 0.350683 -0.102156 0.204467 -0.304888 0.0504757 -0.00572221 -0.222114 0.262563 -0.268735 -0.374008 -0.308091 0.326409 0.499298 -0.0859132 0.203412 0.337641 -0.124642 0.203932 0.543357 -0.166273 0.475541 0.23523 -0.10167 -0.25885 0.219651 0.319852 -0.38312 -0.594646 0.329087 0.21316 -0.617957 0.350312 -0.550806 -0.246319 0.0296897 0.0367864 0.57918 0.300772 0.157316 -0.411041 -0.0277594 0.133768 -0.41119 0.0508268 -0.365639 -0.205031 0.46328 -0.485825 0.0329786 0.0148628 -0.713345 -0.233198 0.503324 0.438151 -0.120121 -0.313039 0.388194 -0.441049 -0.573404 -0.154312 0.126017 -0.483309 0.228096 0.797497 -0.569779 0.233903 -0.520623 0.263806 0.198346 0.48788 0.0760671 -0.0417933 0.0988872 -0.862306 0.692074 0.641945 -0.698052 -0.0524041 -0.0014561 0.042847 -0.0996716 -0.034341 -0.373112 -0.186293 0.316195 -0.435745 0.408283 -0.0531563 0.354418 0.0251688 -0.0722378 0.156602 -0.13295 0.608508 0.00134292 -0.558868 -0.171149 0.156272 -0.605514 0.326538 -0.135238 0.0194183 0.378644 0.720546 -0.641355 0.0256045 -0.10547 -0.321397 -0.315764 -0.682251 -0.291048 0.088975 0.373345 0.184869 0.0957666 -0.159937 -0.663545 0.26043 0.430487 -0.278151 -0.108288 -0.039281 -0.163594 -0.483112 0.111235 0.462035 -0.65181 0.0504946 -0.361893 0.05859 -1.10669 1.31078 -0.243135 -0.599092 -0.65965 -0.584942 0.418005 0.232871 -0.353432 -0.415485 -0.142101 0.891295 -0.00706892 -0.0428013 -0.701186 -0.528111 0.201105 -0.220581 0.243665 0.941163 -0.345118 -0.535881 0.751344 0.862321 -0.72062 0.399261 -0.356336 -1.10344 0.635574 -0.747488 -0.383697 -0.186422 0.213473 0.378702 -0.0073841 0.952111 -0.454276 -0.197174 -0.588669 -0.233751 0.220559 -0.0275179 0.433323 -0.601334 0.350468 0.00633645 -0.190351 0.552983 0.185023 0.428227 -1.59985 0.813804 -0.214213 -0.874663 -0.623069 -0.583656 0.700785 0.888739 0.498374 -0.820567 -0.219026 0.507164 -0.107993 -0.339632 -0.517279 -0.0885575 -0.546643 -0.416578 -0.0533748 1.40327 -0.587703 0.334302 0.569156 0.47059 -0.606436 0.36735 -0.733319 -0.949396 0.805234 -0.798927 -0.0497422 0.0755385 0.763445 1.29733 0.955146 0.946531 0.197004 -0.41915 -0.0895282 -0.297251 0.46885 0.619733 0.133338 0.23843 -0.115103 -0.323507 -0.164189 1.06797 0.0985168 0.44278 -0.767875 0.794789 -0.711716 -1.11133 -0.162665 -1.8758 0.169193 0.871283 0.291249 -0.61587 -0.6901 0.335909 0.0503631 -0.250736 -1.00838 -1.22676 0.457113 -0.543743 -0.441652 1.71423 -0.119558 -0.324274 0.923654 0.425643 -0.429659 -0.716544 -0.277533 -0.623829 0.657882 -0.170573 -0.503359 -0.476555 0.614462 0.768749 0.209032 0.280729 0.341716 0.245649 0.482856 5.80128e-06 -0.124273 0.82798 -0.0321527 0.62467 0.008057 -0.26717 -0.0164068 0.0198687 -0.355543 -0.204228 -0.828949 0.528637 0.705733 -1.37461 -0.152815 -1.32397 0.669342 0.967649 -0.0589529 -1.09384 -0.384546 0.952251 -0.311706 -0.458789 -0.761868 -0.694842 -0.326845 -0.123696 -0.0781283 1.66094 -0.562943 -0.827207 0.915474 -0.40844 -0.636557 -1.39059 -0.505966 -0.341302 0.881408 -0.208099 -0.617961 -0.0604882 1.17108 0.0122139 -0.0587188 -0.454824 0.277521 -0.151122 1.00495 -0.560972 0.126698 0.223422 0.715577 0.955355 0.041275 -0.84287 0.0881449 0.74796 -0.273517 0.545816 0.288074 0.7663 1.20425 -0.704783 0.45945 -1.16853 -0.188733 1.18109 -0.157173 0.470039 -0.351969 1.01002 -0.192956 0.341726 0.0719716 -0.894631 0.296925 -0.758073 -0.502187 1.4784 -0.750117 -0.0705786 1.01394 -0.217568 -0.990415 -2.03239 -0.282535 -0.0754071 0.940118 -0.218467 -0.449709 0.0716277 0.604365 -0.0601 -0.0159935 -0.201941 0.301435 0.385067 1.05028 -0.329556 0.0935956 0.837764 0.664069 0.578639 -0.438821 0.230662 0.145294 1.52789 1.12898 0.389145 0.0971852 0.796504 0.736122 -0.708634 0.864383 -0.638227 -0.916918 0.869568 -0.903024 1.45417 -0.836039 1.27506 0.170086 -0.0238936 0.233643 -0.328087 0.457735 -0.74414 -0.45645 0.719579 -0.346239 -0.553379 1.97915 -0.0538348 -0.473705 -2.22923 -0.233817 0.0145773 0.254802 -0.634623 0.522849 0.452362 0.170615 1.15147 0.629054 -0.625945 -0.0208182 0.353105 0.583562 0.0273922 0.0335073 0.458457 1.45934 1.13641 -0.316453 1.13836 -0.379488 0.583557 1.21907 -0.126186 -0.809653 0.842877 0.70501 -0.303913 0.441019 0.0125652 -0.850516 0.870936 -0.596595 1.38312 -0.428563 1.04644 -0.908036 -0.125341 -0.190529 -0.390614 0.692151 -0.546396 -0.274208 -0.697479 -0.0272925 -1.43359 1.87202 0.105549 0.241689 -2.603 0.14069 0.0938085 -0.585211 -0.401506 -0.170133 -0.226622 -0.438704 0.0672772 0.155253 -0.55621 0.0789974 -0.0923356 0.750122 -0.255394 0.36549 -0.27465 1.02232 0.101636 0.366634 0.567535 0.0997079 -1.2331 0.16886 -0.319036 -0.225416 0.760877 0.762321 -0.20045 1.39989 0.0347881 -2.68456 -0.140137 0.199108 1.74905 0.0530173 0.282167 -0.390498 0.541939 -0.490348 0.139588 0.720797 -1.33311 0.254613 -1.0119 0.230766 -0.974764 1.30743 1.23748 1.69272 -2.44615 -0.244132 -0.605453 -0.377204 -0.734015 -0.495245 -0.384166 -0.293535 0.771102 -0.489106 -0.380961 -0.67788 -0.0518888 0.169558 -0.344357 0.308782 -1.14499 0.128428 0.207377 -0.205712 1.05988 -0.318629 -0.200174 0.657284 -0.306059 0.189864 0.0514073 0.890946 0.130341 0.118514 0.0647739 -4.33849 0.0428435 -0.418897 1.22582 0.80619 0.0697715 -0.112838 0.862284 -0.476564 0.131917 -0.0688334 -0.0159654 1.02925 -0.905115 -0.686724 -0.399469 0.801293 -0.128897 4.77034 -1.49278 0.169375 -0.137487 -0.818371 -1.50674 -0.846171 -0.57479 -0.452233 0.780196 0.200234 -0.4119 -0.343915 -0.128669 -0.177901 0.626301 0.776752 -0.113737 -0.0659676 -0.284375 0.0854588 0.264995 -0.0379066 -0.784235 -1.17301 -0.257414 0.284235 0.351184 0.69291 0.303691 -0.15844 0.30976 -2.80644 -0.111425 -0.307771 -0.706372 0.362182 0.472534 -0.0372121 0.766795 -1.78874 -0.381546 -0.0565979 0.172177 0.599429 0.147812 0.259657 -1.205 1.37416 -2.1329 4.87157 -1.07464 0.442655 0.0265257 -0.275652 -1.09134 -0.455581 -0.674821 -0.586431 0.195657 0.867441 0.0397722 -1.04192 -0.465791 0.793366 -0.125067 -0.445931 -0.385479 -0.786382 -0.475186 -0.685087 -0.298479 0.368138 0.0141008 -0.964457 -0.795322 -0.444406 0.590291 0.961261 0.509719 -0.594901 -1.04062 -0.136458 -0.00235851 -0.315726 -0.542104 0.114535 1.21274 -0.161184 0.381476 0.35024 -0.0546781 0.0197299 -0.271165 -0.171099 0.0530565 0.599079 -1.16018 1.37224 -3.03508 2.21429 -1.06557 0.416981 -0.752447 -0.222258 -1.23847 -0.517021 -0.643463 -0.261081 0.998553 1.08912 -0.18551 -0.0658261 -0.279413 0.216081 -0.730767 -0.558165 0.0942468 -0.971229 -0.142466 -0.421933 -0.133726 -0.218655 -0.468414 -0.150386 -0.871013 0.16097 -0.0368253 0.161712 0.0116699 -0.265392 0.0288979 0.876747 -0.28766 -0.0135089 -0.56737 -0.531111 1.12868 -0.617388 0.119355 -0.954514 0.147683 0.207135 0.0499295 -0.389898 0.0739545 0.251173 -1.12302 0.852724 -3.04541 -1.20828 -1.51797 1.26092 -0.431906 -0.845959 -0.559572 -0.170407 -0.686009 -0.418727 -0.114869 0.503777 -0.232092 0.076441 -1.16413 1.20003 -0.0161562 -0.285381 -0.0866883 -0.916911 0.200744 -0.692057 -0.421141 0.473177 -0.510721 0.194872 -1.51306 0.615158 -0.198405 -0.356443 0.193959 1.38014 0.672825 1.05969 -0.882639 -0.125948 0.21171 0.611177 0.230843 -0.147326 0.160949 0.22178 -0.153944 -0.573808 0.274842 -0.710779 -0.417406 0.186332 -0.470513 0.618359 -2.18592 -1.08861 -0.28525 1.22223 -0.439912 -0.0524299 -0.300484 -1.01968 -0.976484 0.383411 0.678396 0.543782 -0.657851 -0.83767 -1.33051 0.292529 0.11907 0.800289 0.404571 0.262263 -0.141465 -0.220588 -0.642277 -0.425437 0.121415 0.139592 -1.36861 0.94792 -0.646058 0.163135 -1.52002 0.879511 0.60497 1.92325 -0.106845 -0.892449 0.869998 0.487497 0.241519 -0.710442 0.0639747 0.592143 -0.197805 0.0120345 0.425882 -0.704905 0.272766 -0.396616 0.238323 0.450197 -1.03503 -1.45614 0.786422 0.798975 -0.373467 -0.573173 -0.2497 -0.791812 -0.839663 -0.0201593 0.969135 0.660121 -0.0951403 -0.587501 -1.3012 0.96514 0.0626089 0.32959 -0.128916 -0.357122 -0.0592398 -0.546749 -1.43507 -0.279783 -0.519203 -0.818212 -1.46248 0.869624 -1.78486 -0.703443 -0.869156 0.101023 -0.583439 1.94651 -0.392612 -0.701832 0.0439922 -0.0737121 -0.345634 0.087946 0.622993 0.458236 -0.215708 0.711021 -0.19573 -0.625354 -0.549556 -0.236734 0.100472 -0.312089 0.0640959 -1.08298 0.266417 1.42636 -0.275991 0.00799481 -0.592349 -0.217691 -0.346481 -0.303354 1.29606 0.77666 0.246031 0.274054 -0.538879 -0.442125 0.0647163 0.1781 0.206856 -0.213242 -0.629845 -0.311569 -0.421276 -0.252439 -0.733348 -0.369571 -0.204828 0.902543 -1.65324 -0.166973 -0.956073 0.269529 0.25172 0.861805 0.555091 -0.607143 -0.525024 -0.336777 -0.0853387 0.662936 0.519099 -0.384791 0.210689 -0.407021 0.712068 -0.593934 -0.508348 -0.758135 1.235 0.401916 0.479042 -1.60651 0.333585 0.532297 -0.199953 -0.247991 -0.59349 -0.0706777 -0.85191 -0.170166 1.23156 0.319155 0.0760859 0.149871 -0.0661921 -0.849934 0.343734 -0.250681 -0.482614 0.0859552 0.294027 0.530212 -0.283609 -0.430589 -0.117915 0.466435 0.129075 0.999076 -1.21549 0.273951 -0.617313 0.657054 0.800676 0.0785784 0.52663 -0.209679 -0.0868998 -0.025183 -0.103705 0.207874 0.303505 -0.217536 -0.481409 0.426977 1.01598 -0.890877 -0.945391 -0.302414 0.74402 -0.290592 0.84381 -1.33096 0.559662 -0.14507 0.00110118 0.322492 -0.270107 -0.281686 -0.4184 -0.799269 1.08769 0.364575 -0.735421 0.0299622 0.102712 -0.231762 0.0688739 0.508387 -0.171168 0.0423564 -0.193014 -0.608693 -0.611778 -0.32429 -0.247171 0.32552 0.220869 1.09927 -0.472508 -0.297114 -0.311203 0.848326 0.991263 -0.128577 0.256461 0.223594 0.337768 -0.0149537 -0.503177 -0.163389 0.46894 -0.0391469 -1.30918 0.200223 0.589132 -0.541848 -0.529922 -1.16695 0.847432 0.187748 0.17215 0.0212812 0.534897 -0.627938 0.626607 0.597445 -0.26159 0.447007 -0.130058 -0.650748 0.250874 0.538085 -0.0715172 -0.254581 -0.304407 0.202043 0.25069 0.233494 0.469445 0.574837 -0.285046 0.130682 -0.284279 -0.3812 -0.375553 -0.479367 -0.398094 0.666113 0.098018 -0.103762 -0.791568 0.660836 0.895999 0.21263 -0.566839 -0.0154118 0.390223 0.235205 -0.545741 -0.655784 0.267929 0.590033 -0.581084 0.427105 0.0926693 -0.656518 -0.553729 -0.176773 0.0466747 -0.365432 0.353517 -0.700967 0.59056 -0.372254 -0.29573 0.430325 0.0979263 0.0471711 0.0844169 -0.508085 0.238452 0.230005 -0.534976 0.00125095 0.13538 0.123609 0.346332 -0.37458 0.239039 0.615193 0.307394 0.141466 -0.0494524 -0.142916 -0.0526174 -0.455659 -0.0142742 0.400327 0.296673 0.278634 0.10168 0.0878395 0.391768 -0.264344 -0.00341906 0.21262 0.574042 -0.162913 -0.442755 -0.451241 0.240611 0.557197 -0.346557 0.166033 -0.091697 -0.113084 -0.287808 -0.381387 0.0581185 -0.295894 0.420903 -0.294725 0.0755486 0.0669519 -0.121402 0.164475 0.0539972 0.489755 0.0609752 0.189125 -0.306469 -0.187173 0.20992 0.267731 -0.244305 -0.142986 -0.482661 0.00713906 -0.207463 -0.205933 -0.175102 -0.0884388 0.139413 0.484752 -0.0510643 0.060237 0.0244 0.162354 0.275681 0.0882024 -0.305209 0.428861 0.110386 -0.123946 -0.0101048 0.0997617 -0.0794592 0.332665 -0.448433 0.166614 -0.382198 -0.32877 -0.345808 0.387484 -0.313713 -0.0301512 0.119019 0.263884 -0.1572 -0.405959 0.223393 0.421761 0.310484 -0.25991 0.200239 0.284764 -0.204238 -0.0241867 -0.132506 0.272274 0.313917 -0.254363 -0.287379 0.114665 -0.419258 0.165305 -0.0771244 -0.415864 0.00872165 -0.0862679 -0.501344 -0.276652 0.46008 -0.0419006 0.251625 -0.215767 -0.190795 0.0604666 0.0125924 -0.459038 0.244897 -0.0660811 0.403255 -0.279751 -0.134152 -0.114981 -0.275576 -0.324515 -0.349436 0.356673 -0.13289 -0.126873 0.0024856 -0.300203 0.37691 -0.145448 0.461653 -0.00112634 0.193484 0.239648 0.184818 0.430304 0.283779 0.170102 0.0416204 0.174806 0.126819 -0.018594 -0.457175 0.366878 -0.100744 -0.478691 0.142735 -0.360918 -0.229725 0.13652 -0.410831 -0.338695 0.289939 -0.312576 0.057199 -0.01653 -0.301443 0.41311 0.390179 -0.0846821 -0.183149 0.0183326 0.0322501 0.134009 -0.0364241 -0.18516 -0.348341 0.202199 0.0297409 0.464244 -0.00707294 0.281159 -0.0343401 0.038636 0.462559 -0.44646 0.163534 -0.489664 -0.408789 -0.46199 0.444119 -0.419234 -0.13923 -0.350393 -0.0822785 -0.228713 -0.299466 -0.432525 -0.221909 0.289594 0.109565 0.384348 0.219404 -0.453709 0.479029 0.0389063 -0.0420551 0.112781 0.0682493 -0.307528 0.349677 -0.276284 -0.0248974 0.0285156 -0.219147 -0.40606 0.0655075 0.0821097 -0.157744 0.384178 0.500915 0.402264 -0.418748 -0.150726 -0.118205 -0.206912 0.456854 -0.119471 -0.216332 -0.240914 -0.520233 -0.215728 0.460259 0.302666 -0.357967 -0.108836 0.232689 -0.314757 -0.122871 -0.232149 -0.38488 -0.156343 -0.433682 -0.383677 -0.424428 0.0570456 -0.314888 -0.47358 0.0808355 -0.288411 0.470625 0.284127 -0.438986 0.426013 0.518271 0.213843 0.0872399 0.293457 0.141371 0.0655994 0.355748 -0.0929723 -0.427586 -0.394373 -0.253275 -0.43892 0.0349806 -0.405956 -0.296198 -0.0294511 0.382605 -0.192605 -0.1066 -0.409632 -0.121193 0.357725 -0.0587802 0.0198582 0.375988 -0.0662662 -0.102244 0.297358 0.255057 -0.0846468 -0.0970425 -0.293386 0.386479 0.367598 0.278714 0.392435 0.215541 0.165173 0.0580234 -0.0437543 -0.332495 0.200414 -0.279519 -0.00741111 0.20442 -0.507639 -0.315085 0.276544 -0.0936556 -0.323776 -0.0122337 0.145545 0.116965 -0.0865238 0.38801 -0.0704217 0.00860655 -0.310252 -0.243672 -0.362675 0.0538868 0.431886 -0.0936448 -0.515805 0.338053 -0.101335 -0.149481 -0.104612 -0.221856 -0.0719857 -0.483522 -0.0171408 0.162648 -0.180181 0.117761 0.563661 -0.020518 0.398139 0.638529 0.397348 -0.38271 -0.142864 -0.00324862 0.391659 -0.389832 -0.0220357 0.666045 0.0756413 -0.302793 0.149824 0.117436 0.233636 -0.324376 -0.249626 0.135772 -0.330225 0.463586 -0.257068 0.202347 0.47274 -0.0413966 -0.4936 0.142747 -0.208597 0.15357 0.086803 0.566469 0.211127 0.0206554 0.35416 -1.06436 0.782358 -0.289798 0.0056385 -0.366738 0.0312346 1.11695 -0.285588 0.348687 -0.420511 0.160491 0.388602 -0.578902 0.582966 -0.370337 0.929956 -0.0867014 -0.106416 0.424669 0.451731 0.0538443 0.409548 -0.592888 0.398406 -0.498098 0.137794 0.490221 -0.549214 -0.226238 0.286956 0.401227 -0.0711301 0.0609063 -0.357835 0.334609 0.158463 -0.0559277 0.194894 -0.110052 0.432754 0.350234 0.0027838 -0.305005 -0.752126 -0.362471 -0.361522 0.410874 0.385711 -0.220513 -0.0931757 -0.979156 0.193031 -0.29005 -0.886409 -0.78647 -0.02355 0.600177 -0.822396 0.68637 -0.035463 -0.651976 -0.461554 -0.56746 0.150199 -0.447937 0.449214 0.175431 -0.437993 0.937661 -0.510053 0.205574 -0.479259 -0.965872 -0.162138 -0.369128 -0.228642 0.716069 -0.387934 0.11156 0.616601 0.763604 -0.0876687 0.454273 -0.0712382 -0.844982 -0.388974 0.193664 0.170016 -0.415927 0.631167 0.284682 -0.445544 -0.381051 -0.244217 0.182179 -0.163686 0.131402 0.750992 0.934035 -0.0044918 -0.331423 -0.0992698 -0.0948413 -0.851054 -0.16865 0.0205141 -0.190678 -0.207215 0.544589 -0.235179 -0.278599 -0.111973 -0.77185 -0.271122 0.333721 0.246248 -0.241985 -0.913719 0.873208 -0.344794 0.0788759 -0.579096 -0.235468 0.0112486 -0.294552 -0.322044 1.06711 -0.674538 0.642712 -0.0913749 0.461668 -0.165919 -0.0417391 -0.00306953 -0.927696 0.267748 -0.70978 0.723024 -0.403924 0.566241 0.914762 0.341002 0.182671 0.232755 -0.644195 -0.463885 0.495437 0.217701 0.492843 -0.102354 -0.86698 0.0713468 -0.654486 -0.416691 0.880905 -0.240517 -0.84266 -1.04357 -0.287299 -1.05303 -0.821919 0.0453441 -1.19248 0.430443 0.704588 -0.0221352 -0.785434 -0.473449 0.483341 0.269354 -0.830916 -0.601119 -0.976554 0.204438 -0.93604 -0.848033 1.05918 -0.275522 0.941137 1.22263 -0.461555 0.215522 0.158604 -0.932879 -1.02987 0.404356 -0.249828 0.139009 -0.23908 0.753496 1.0098 -0.0339065 -0.232761 -0.0104158 -0.818117 0.123569 0.419021 0.465701 -0.00377464 -0.031623 0.608185 0.697342 -0.598964 -0.661365 0.500525 0.193163 -0.769427 -0.107633 0.624653 -0.288855 -1.14092 0.386807 -1.28739 0.920729 0.960885 0.318347 -0.197825 -0.597034 1.18938 -0.212226 -0.0867551 -1.42419 -0.524182 0.170442 -0.867883 -1.02414 2.26737 -1.24604 1.63399 1.35646 -0.892349 0.0730992 -0.881519 -0.519924 -0.530446 -0.234547 0.0570535 0.0884732 -0.860622 0.612383 0.623837 0.377437 -0.451135 0.405178 0.150586 0.258294 0.279155 0.0784664 0.155974 0.318085 0.736174 0.205702 -1.15475 -1.18431 -0.294067 0.475254 -0.127384 -0.152732 0.0310508 -0.337151 -1.59295 0.712795 -1.09676 0.247523 0.921232 0.0111084 0.602041 0.281314 0.914931 -0.0591853 -0.167793 -0.820817 -0.820683 -0.0433168 -1.11159 -0.462721 1.81999 -1.2207 1.05919 1.49534 -1.07387 -0.763613 -1.30935 -0.446452 -0.455972 -0.223029 0.128353 -0.803149 -0.039795 1.19888 0.143254 0.0701153 -0.0607923 0.127205 -0.0376345 0.312208 0.154592 -0.457294 0.851593 0.402805 1.34579 0.535628 -0.495204 -0.140241 0.757167 -0.635135 -0.0762291 0.362157 0.0992797 -0.486743 -1.5564 -0.114065 -0.0232779 0.644603 1.61379 -0.790231 1.82558 -0.174489 0.19814 0.682715 0.24581 -0.667297 -0.851428 -0.141193 -1.23863 0.0335663 0.0279663 -0.826647 -0.294092 0.931789 0.0062263 -1.36176 -1.52551 0.0276507 -0.192213 0.0341322 0.411862 0.140324 -1.03319 0.960618 -0.683485 1.27807 -0.77118 -0.679949 -0.170472 -0.2035 0.107487 -0.772051 0.380148 1.14963 0.722223 0.569281 0.413471 -0.19443 1.30232 0.589373 -0.660789 0.180198 0.318887 -0.307576 -0.705988 -0.174334 0.0580582 0.0949351 0.251456 -0.412134 2.25735 0.462848 0.419307 0.284751 0.137919 0.235708 0.710787 -0.053623 -0.614215 -0.162323 -0.633868 -0.308753 -1.06529 0.903091 -0.745114 -0.292861 -2.28654 -0.202972 -0.706677 -0.573011 0.659257 1.35602 -1.08301 0.40377 -0.0238449 0.929555 0.0300315 -0.674774 0.0157095 0.641628 0.375919 -0.899363 0.8387 0.491959 0.253794 0.505284 0.421541 -1.13242 0.366093 0.42719 -0.90585 -0.275305 -0.385244 -0.887868 0.452174 -0.0786172 -0.188913 -1.36815 0.27937 