Inputs_node_num= 784
hidden_layer_num= 1
hidden_node_num= 70
output_node_num= 10
0.458919 0.345349 -0.82094 -0.238021 -0.380366 -0.559273 -0.794727 -0.535944 -0.759017 0.808806 -0.248298 0.272684 0.0489841 0.097731 -0.961346 0.000492598 0.200253 -0.878576 -0.676154 0.903839 0.452392 -0.608014 0.616668 0.63194 0.776206 0.673139 0.48999 -0.0248385 0.754503 0.371936 -0.0615774 -0.116541 0.713497 -0.29253 -0.0822696 -0.429006 -0.665277 -0.747029 -0.20276 0.649402 0.860807 0.96289 0.272777 0.898395 0.119304 0.749113 -0.635132 0.421454 0.880274 0.727736 -0.901944 -0.518221 0.196389 0.846385 -0.659485 -0.341877 -0.836557 -0.89176 0.286078 -0.154179 -0.0412659 -0.562172 -0.786041 0.0284536 0.678898 0.644536 0.922287 -0.15498 -0.435312 0.511283 0.490823 -0.614046 -0.14888 0.436061 -0.284896 0.848324 0.47783 -0.997396 0.360915 0.929891 -0.76826 -0.623873 0.748396 0.825331 -0.751405 -0.285677 -0.209148 0.564274 0.406204 0.799594 -0.619902 -0.0102031 0.0146826 -0.355969 -0.000270819 -0.415028 0.864426 -0.506804 0.802283 -0.79376 -0.656811 0.807054 0.991196 -0.207491 0.392851 -0.0814695 0.660194 0.0747624 -0.083043 0.0377741 -0.686736 0.878422 0.511741 0.183368 -0.672587 -0.905598 -0.0799925 0.221953 -0.106092 -0.477219 -0.431408 0.464206 -0.629702 -0.734652 0.895378 -0.801347 -0.230464 0.139197 -0.0848064 -0.085323 0.321146 0.111675 -0.730679 -0.492608 -0.770314 -0.277778 -0.523848 -0.264892 -0.217196 -0.865422 0.771786 0.70629 -0.314693 -0.750174 0.200127 0.161245 0.819775 0.917584 0.625645 -0.384566 -0.346893 0.590539 -0.355313 -0.0238849 0.863439 0.68166 0.510397 -0.666337 0.24165 0.271234 -0.233012 0.952702 0.701703 -0.6119 -0.265095 0.731156 -0.58326 0.52944 -0.16191 0.512931 -0.430263 -0.649336 -0.595575 -0.842061 0.703496 -0.276509 0.561652 -0.960396 -0.121017 -0.594117 0.515667 0.0518526 -0.626522 0.0527172 0.153207 0.838036 -0.763938 -0.543165 0.788945 0.194749 -0.513214 0.411749 -0.692857 0.319283 0.939164 0.170058 0.213388 0.586567 -0.831886 -0.641237 -0.19936 0.530777 -0.950109 0.303618 -0.46939 0.279058 0.950203 0.0383716 -0.0826031 0.420337 -0.252541 0.522238 -0.83539 0.317637 -0.718474 -0.592353 -0.431209 0.838128 -0.216176 0.167551 -0.645339 -0.672984 0.168776 0.23194 0.0721694 -0.314003 -0.278373 -0.817199 0.912097 0.774667 0.0748592 -0.540309 0.516517 0.899694 0.527196 0.425071 0.543069 0.753867 -0.797957 -0.957263 -0.655265 0.208647 -0.115321 0.0295091 -0.108937 -0.665669 -0.200559 -0.709122 0.586224 -0.474692 -0.687854 -0.30746 0.980659 -0.946798 -0.0685943 0.658104 -0.20973 0.659535 -0.851925 0.356261 0.540998 0.151297 -0.241166 -0.44989 0.449742 -0.969071 -0.812518 0.36879 -0.360208 -0.58709 0.221007 -0.143167 -0.10624 0.791235 0.51138 0.881885 -0.171103 0.765605 0.898562 0.217697 -0.167542 0.527672 0.443341 0.77722 0.201226 0.178833 -0.604309 -0.917093 0.0982582 -0.607278 -0.833938 -0.634308 0.545181 -0.402303 -0.658105 0.808656 0.798407 -0.831394 -0.21799 0.0219474 -0.970468 -0.897626 0.501836 0.224651 0.53111 -0.204948 -0.358124 0.383803 0.283988 -0.355775 0.40084 -0.806076 0.482119 -0.449565 0.217554 0.141362 -0.660623 -0.698299 0.871958 0.748489 -0.782306 -0.80331 0.829876 0.0269091 0.981841 0.06345 0.529727 -0.615325 0.460019 0.717848 -0.528889 -0.813647 0.911656 0.35583 -0.4714 0.203779 0.0927364 0.366642 -0.225576 -0.0487702 0.763132 0.584144 -0.978227 -0.32233 -0.284567 -0.103205 -0.918154 0.957473 0.45197 -0.614477 0.438691 0.158843 -0.845613 -0.441371 -0.939385 -0.248448 -0.591947 0.0189442 0.0674191 -0.993546 0.397949 -0.115974 0.984292 -0.120696 -0.391692 0.329181 0.556631 -0.379405 -0.0267374 -0.479588 0.272198 -0.680019 0.583155 0.403769 0.0681386 0.991676 0.458803 0.729237 -0.19623 -0.865862 -0.593929 -0.418572 0.708794 0.534763 -0.58122 -0.709814 0.776504 0.761002 0.0742005 0.0039358 0.551241 -0.568884 0.0912123 0.442832 0.173219 0.893318 -0.543954 -0.912557 0.134802 0.99435 -0.518842 0.620112 -0.0868218 -0.662494 0.515167 0.281758 0.643967 0.0722995 0.15296 -0.0396272 -0.874557 -0.107286 -0.286804 -0.665951 0.470811 -0.149788 0.355878 0.272314 -0.111844 -0.624935 0.583848 -0.690028 0.815441 0.990072 -0.312773 0.346149 -0.967109 -0.59131 0.412246 0.630119 0.901329 -0.875447 -0.528282 0.717098 0.101099 0.261049 -0.263896 -0.945963 0.752339 0.0261773 0.952684 0.260336 -0.762115 0.153789 -0.116487 0.05696 -0.570778 0.288811 -0.106533 -0.761624 0.346295 0.903684 -0.964211 0.655831 0.781871 -0.801739 -0.0218975 -0.651611 0.904043 0.949489 -0.594965 -0.0403704 -0.950586 -0.256793 -0.328443 0.258034 0.989759 0.289117 0.98258 0.666823 0.617362 0.509816 0.516237 0.443042 -0.949083 0.450958 0.391499 0.693675 0.802607 0.38267 0.932145 -0.856334 -0.787291 -0.892481 -0.0774533 0.552958 -0.0310652 0.343279 0.183612 0.965837 -0.162958 -0.666928 -0.918398 -0.909632 0.322793 0.901062 0.931711 0.20918 -0.902728 -0.537769 -0.655513 -0.66741 -0.147381 -0.216933 -0.802196 0.454324 -0.625953 0.521957 0.493386 -0.27661 -0.72709 -0.103141 0.942816 -0.419028 -0.407569 0.819642 -0.0536502 0.753629 0.509931 -0.508418 -0.161707 0.293065 0.115629 -0.324683 0.23754 0.431846 0.793369 -0.610514 -0.865641 0.564057 -0.977295 0.351618 0.885689 0.208677 -0.0747212 0.713053 0.733252 -0.0277457 -0.816246 0.457812 0.93305 -0.980493 0.433307 -0.441942 -0.615512 -0.581936 0.421948 0.613363 -0.0371351 0.715152 -0.606402 -0.368441 0.428459 -0.156523 0.709795 -0.265418 -0.544 -0.388187 0.837935 0.253063 0.898518 -0.0740397 0.735818 0.60922 -0.549409 0.86777 0.757851 -0.433057 -0.627846 -0.471628 -0.22977 -0.956806 0.960012 0.703557 0.179479 -0.324239 0.743038 -0.351325 -0.0672371 0.319201 0.25458 0.664634 -0.43529 0.247443 -0.68248 -0.364868 0.434525 0.642361 -0.629093 0.270064 -0.317412 0.952292 -0.91891 -0.620659 0.237957 0.536628 -0.126447 -0.557055 -0.354058 0.613436 0.570273 0.929334 0.333147 -0.463764 -0.936169 -0.962655 0.254957 -0.382605 0.208374 -0.158828 0.963723 -0.00291357 -0.940252 0.65363 -0.494631 0.250343 0.22928 -0.0860035 -0.819353 -0.686872 0.233856 0.0341227 -0.577199 0.662635 -0.435924 0.284242 -0.547247 -0.537072 0.934964 -0.701213 -0.468965 0.518074 0.22613 -0.321691 -0.0840767 -0.784418 -0.644705 0.81787 0.244758 -0.0961398 -0.334706 -0.054603 0.656184 -0.303087 -0.673396 -0.0186223 -1.0024 0.908713 0.0989543 -0.268118 -0.212314 -0.420638 0.80642 -0.0866768 0.760535 0.690545 0.45609 0.93242 0.397971 -0.884458 0.227385 -0.3741 -0.386863 -0.469088 -0.434002 -0.578732 0.653298 -0.592373 0.230081 -0.523897 0.776973 0.147554 -0.973955 -0.419171 -0.336374 0.40243 -0.0487333 -0.810574 0.903395 -0.847795 0.9115 0.0594946 -0.45222 -0.0991194 0.347656 -0.820032 0.829159 -0.44319 -0.0800227 -0.158869 -0.910261 -1.01843 0.166942 0.409556 -1.02863 -0.570105 -0.792144 0.465165 -0.281614 -0.0172978 0.219412 -0.737819 0.770889 0.863563 0.915902 -0.248807 -0.545144 0.835745 0.94305 0.804038 -0.589538 -0.808155 -0.0786947 -0.616481 -0.925291 -0.989027 0.401798 0.18745 -0.883372 0.0813268 0.0937928 -0.647002 -0.489201 0.344556 0.859231 -0.299915 0.641409 0.824862 0.534119 -1.04122 -0.065961 -0.581595 -0.667947 -0.787116 0.846209 0.367615 -0.154791 -0.616869 0.524568 -1.02831 -0.211974 0.820135 -0.462375 -0.489799 0.062256 0.268832 -0.395489 0.60544 0.505206 0.589492 0.208049 -0.358355 -1.01577 0.971415 0.846417 0.892591 0.195266 -0.974057 -0.373766 0.444868 0.88517 -0.5621 0.523964 -0.394788 -0.522097 -0.599893 0.901405 -0.0876721 0.882135 0.426936 -0.834948 0.889031 -0.0645812 0.739857 -0.35727 -0.814237 0.0468688 -0.582557 0.54568 -0.857498 -0.994387 -0.75236 0.231687 -0.813699 -0.799063 0.834562 0.534584 -0.827871 0.607685 -0.0241485 -0.864133 -0.15276 -0.228836 -0.544867 0.667718 0.818797 -0.634757 0.528263 -0.358438 -0.00746383 -0.547762 -0.906782 -0.655725 0.6954 0.29603 0.162802 0.564362 0.0670653 -0.0652089 0.538581 -0.877199 0.334511 0.941986 0.350831 0.235313 0.569385 -0.266456 -0.900429 -0.145852 -0.177121 -0.345908 -0.561383 -0.613483 0.701542 0.122694 -0.341602 -0.605035 0.46065 0.585199 0.916201 -0.251014 0.595759 -0.954553 0.350114 0.170517 -0.526724 0.863947 -0.549005 0.678998 0.196832 0.420756 -0.808561 -0.318858 0.544733 0.184315 0.728197 -0.920947 -0.912787 0.919194 0.784118 0.92749 0.627903 -0.401704 0.379263 0.333765 0.76406 -0.209133 -0.715187 -0.964243 0.342688 0.712885 0.558739 0.420155 0.446552 0.757243 -0.369351 0.584344 0.540264 0.119488 -0.982882 0.493459 -0.0185257 -0.432397 -0.140214 1.005 -0.564579 -0.556481 0.310074 0.453956 -0.317917 0.0829035 -0.0127787 0.606299 0.692047 -0.459475 -0.0110389 -0.397088 0.582817 0.746721 0.218973 -0.182513 -0.4774 0.80433 -0.682361 -0.630808 0.6131 0.527842 0.359411 0.130519 -0.853968 0.665879 -0.605454 -0.860908 -0.909508 0.821731 0.325067 0.876577 0.700972 0.607406 0.0128506 -0.295271 0.945361 0.306323 0.968756 0.322894 -0.184913 0.615717 0.0787306 0.890269 -0.192896 -0.109197 0.819578 0.22333 0.633536 0.916893 -0.114955 -0.388893 0.0382214 0.326513 0.119841 -0.778521 -0.695675 -0.0125281 -0.913658 0.679034 -0.635218 -0.444471 -0.823542 -0.870066 -0.611501 -0.125123 -0.0634122 -0.628852 0.020461 0.0171819 0.613387 0.512099 -0.284943 0.0309898 0.41741 0.106891 0.641894 0.458553 0.220541 0.88619 -0.249091 -0.375604 0.477923 -0.370859 -0.929024 -0.839818 -0.218912 -0.855739 -0.910696 -0.553103 0.68076 -0.398174 -0.190698 0.80629 -0.296344 -0.143135 -0.740784 -0.877116 0.443566 0.799568 0.455678 0.91015 -0.0279536 0.0843659 -0.643873 0.256414 0.229718 0.636942 -0.543207 -0.768454 0.117507 -0.370551 0.369264 0.123329 -0.493185 -0.324376 -0.534816 -0.650681 -0.0487347 0.463561 -0.342938 -1.06119 0.344031 -0.845533 -0.0694702 0.675163 -0.506557 0.0561785 0.218606 -0.753831 -0.0661654 -0.537547 0.354188 0.206223 0.763501 -0.0923525 -0.285211 -0.557061 0.704223 -0.456404 0.00946526 0.945095 -0.151532 -0.467363 -0.192154 -0.0435261 -0.300244 0.860421 -0.688895 0.0789865 -0.5756 -0.591555 0.168577 0.4743 0.556113 0.696 -0.0866628 0.129427 -0.645201 0.61697 -0.75444 0.10884 0.2815 0.705763 -0.036876 -0.520713 0.866741 0.477162 0.247297 0.919153 -0.0431047 -0.445042 -0.297341 -0.366453 -0.120445 0.835998 0.794571 -0.945104 0.973324 -0.0384373 -0.378663 -0.650685 -0.625651 -0.304375 -0.220801 0.760517 0.895446 0.228595 0.70814 -0.0683564 0.695508 0.656183 -0.84385 0.509557 0.227138 -0.828278 -0.0170402 -0.842265 -0.619662 0.520308 -0.381212 0.958618 -0.450812 -0.359626 0.896973 -0.96082 0.390386 -0.115236 -0.283416 -0.10852 0.0968086 0.0842482 0.351497 0.754533 0.0284686 -0.796779 0.602661 -0.72206 -0.0119674 -0.231364 0.613252 0.622077 0.836056 0.277032 -0.315807 0.575788 0.242876 -0.550451 -0.634994 -0.616012 0.578072 -0.103904 -0.211795 0.238692 0.920434 0.162439 0.570064 -0.578916 0.532751 0.55091 -0.188938 0.251489 0.773285 0.118291 0.0571529 0.132635 0.200542 -0.900482 0.100634 0.570775 -0.613447 -0.553394 -0.549467 0.683193 0.854645 0.903878 -0.336238 -0.553873 -0.00902638 -0.600204 0.43262 -0.764776 0.0061102 0.047073 -0.800841 -0.0508549 -0.441713 0.600215 0.698651 0.098891 0.508268 0.712804 0.246764 -0.0332418 0.972249 0.325696 0.403051 -0.0925362 0.701246 0.520743 -0.808259 0.871401 0.190878 0.122328 0.764271 -0.56046 -0.290501 0.13051 0.542417 0.726595 -0.86799 0.958522 0.13669 0.66407 0.196728 0.319781 0.780772 -0.1822 0.71025 -0.029515 -0.593598 0.703869 -0.846245 0.400816 -0.0837325 -0.979518 -0.186854 0.212556 -0.971213 0.130669 -0.234097 -0.154965 0.631908 0.120392 -0.65529 0.853212 -0.66164 0.0747799 -0.442163 -0.979543 -0.600786 -0.345228 -0.850706 0.0123628 -0.622097 0.943612 0.690017 0.82584 0.333256 0.72648 -0.182357 0.121673 -0.0289073 0.338602 -0.724524 0.809871 -0.21827 -0.110608 0.800393 -0.750909 0.365039 -0.159604 0.781453 -0.27243 -0.928821 0.0963931 0.542817 0.791268 -0.56773 -0.944076 -0.474606 0.612349 1.01964 -0.667813 0.905293 -0.147241 -0.181164 -0.227945 0.180488 -0.000239054 -0.643887 0.10961 0.392769 -0.795084 -0.0453945 -0.257198 0.509574 -0.100379 0.66363 0.283786 0.193176 0.729811 0.607756 0.356498 -0.62296 -0.873168 0.575843 -0.498409 0.892545 0.95576 -0.931707 -0.485019 0.027601 0.898984 0.367641 0.203352 0.588917 -0.0379505 0.972255 -0.0250089 0.82731 -0.862132 -0.963524 0.455098 -0.613255 0.847523 0.700848 0.924061 0.889551 0.49633 0.0823505 -0.884611 -0.620556 0.87508 0.252812 -0.163808 0.773652 0.524344 -0.436336 0.659144 0.438204 -0.535659 -0.825807 -0.84432 -0.347416 0.947954 -0.0101555 0.0278221 -0.75144 -0.255229 -0.766901 -0.111204 0.55034 0.342686 -0.588908 -0.0625353 0.494233 0.132173 0.00578322 -0.0236074 0.352711 -0.701555 0.8787 0.00760454 -0.598819 0.572478 -0.759842 0.925692 0.323446 -0.361051 -0.204909 0.887567 -0.939672 -0.0524455 -0.0169518 0.19727 0.135528 -0.736577 0.628663 -0.68219 0.969586 -0.665547 0.941401 0.00710922 0.827587 -0.107507 -0.652727 0.837882 0.0415564 -0.52947 -0.231403 0.434146 -0.715945 0.292022 -0.921658 0.521929 0.250789 -0.604975 -0.841842 0.39039 -0.981854 0.783765 -0.575538 0.2442 -0.615539 -0.69049 0.503808 -0.966617 -0.335929 -0.489171 -0.240787 -0.146503 0.404763 0.667651 -0.351529 -0.908532 0.493514 0.85607 0.344549 -0.722636 -0.859028 -0.651804 -0.610143 -0.566197 -0.836439 0.181234 -0.191691 0.565632 -0.0147666 0.809358 0.257118 0.53276 -0.320435 0.839253 0.486431 -0.645871 -0.10421 -0.706376 -0.825165 -0.679179 -0.216727 -0.870391 0.0938986 -0.940669 0.582174 0.359476 -0.41548 -0.718973 -0.354118 0.411081 0.236107 -0.225646 -0.358033 -0.932983 -0.0269202 -0.876472 0.417303 -0.64898 0.169823 -0.622834 0.359135 -0.745516 0.975301 0.606601 -0.0972665 0.119941 -0.0600633 0.559752 0.106069 0.589253 -0.0501009 -0.360407 0.221893 0.897249 -0.628093 0.340252 0.475612 -0.761413 -0.44615 -0.70966 0.324357 -0.74969 0.128315 -0.77727 -0.719558 -0.357321 0.827775 0.153377 -0.758972 0.544857 -0.531551 0.240455 0.801979 -0.484796 -0.333091 0.689654 -0.0282965 0.0848675 -0.688414 0.33991 0.245447 0.101823 0.471015 -0.204143 -0.309054 0.459139 0.442589 0.870598 0.791995 -0.566897 -0.436202 -0.705163 -0.767779 0.615262 0.608279 -0.727975 -0.835905 -0.94427 0.0807476 0.456075 -0.820416 -0.28044 -0.733409 -0.621906 -0.41313 0.469434 -0.442452 -0.286103 -0.944874 0.540933 -0.894796 0.438276 -0.179478 -0.0304324 -0.488294 0.703798 -0.458397 -0.542956 -0.0897341 -0.587852 0.247099 0.317138 0.311112 0.946685 -0.521788 -0.830231 0.774929 -0.141621 -0.655312 0.248168 -0.659809 0.316147 -0.881366 -0.278567 -1.02684 0.434824 -0.061813 0.0334238 -0.37399 0.687636 -0.488861 -0.327284 0.870602 0.176699 -0.615157 0.561691 0.401592 -0.418075 -0.745989 -0.266959 0.715113 -0.0267353 -0.496101 0.080934 -0.0284651 -0.721943 0.3458 0.765441 0.547587 0.682758 -0.475361 0.380779 -0.249905 -0.221148 0.562242 -0.792608 -0.22343 -0.0539415 0.79529 -0.581169 0.993249 0.334243 0.416622 -0.588633 0.131243 0.185214 -0.579116 -0.630562 -0.427956 -0.787456 -0.340368 0.274825 0.238689 -0.170889 -0.497717 0.881139 0.18508 0.852451 0.373446 0.658607 0.703492 0.160919 0.294634 0.240159 0.513573 0.789954 -0.555657 -0.231122 0.351655 0.904036 0.162857 -0.390204 -0.0636228 0.903434 0.641604 -0.975337 -0.27871 0.781221 -0.920339 0.303378 -1.00219 0.128429 0.0387898 -0.319263 0.808129 -0.256563 -0.984905 -0.24595 0.787912 0.432889 0.653321 -0.899735 -0.515634 0.428678 -0.644198 -0.823146 0.747686 0.103154 0.397156 -0.254641 -0.62764 -0.112267 -0.10754 -0.579751 -0.537932 -0.33571 -0.419123 -0.0203078 -0.946252 0.393667 0.232587 0.204622 0.156984 0.831679 0.794744 -0.724014 0.553538 -0.0145974 0.127669 0.477892 0.636155 -0.710143 0.158558 -0.125542 -0.195127 0.688122 0.759127 -0.38954 -0.366984 -0.473741 0.260823 -0.674624 1.01519 0.365554 0.251571 -0.707826 0.688252 -0.00137723 0.140068 -0.944877 -0.626849 -0.71821 0.617965 0.303703 -0.329432 -0.174032 -0.996765 -0.374986 -0.449237 -0.0697797 0.624726 0.534153 -0.154712 -0.294911 -0.657351 0.608083 0.877204 0.649401 0.396549 0.483827 -0.705127 0.272783 0.414621 -0.734071 -0.400589 -0.509789 0.478243 0.461352 -0.60707 0.959781 0.981281 -0.590147 -0.967391 0.403014 -0.183147 -0.067593 -0.519004 0.623241 0.961522 -0.830102 -0.0293873 -0.503973 0.347125 0.201347 0.708141 -0.256944 0.824257 0.587071 0.0262358 -0.087835 0.842258 0.10247 -0.459972 0.283261 0.0198459 0.80337 -0.385787 -0.612866 0.24514 -0.726241 -0.0332856 -0.678843 -0.832067 -0.598175 -0.246492 0.0714276 -0.832183 0.428933 -0.894828 -0.70522 0.796947 0.00811583 -0.811136 -0.931863 -0.441913 -0.0259611 -0.670737 0.315232 0.988412 -0.332983 0.609468 0.30223 0.55947 0.70077 -0.466492 0.398904 -0.932029 -0.441452 -0.00393258 -0.80932 0.0379639 -0.904898 0.539446 -0.194782 -0.137689 0.728282 0.884746 0.171306 -0.792504 -0.923288 0.313185 0.484097 -0.719171 1.00357 -0.304201 0.157403 -0.645941 -0.0446966 0.283888 -0.686639 -0.712544 0.161731 0.496242 -0.0373359 -0.238128 0.529456 -0.254531 -0.806722 -0.967155 0.679848 -0.593978 0.575385 -0.917472 0.405427 -0.835994 -0.621375 -0.532148 -0.112297 -0.128418 -0.302381 0.0821822 0.921119 0.839127 0.345028 0.515589 0.0785406 -0.877323 0.353929 -0.248675 0.966249 0.857441 -0.589933 0.351106 0.411279 -0.867301 -0.844142 0.530373 -0.325615 0.509755 0.193899 0.682783 0.111348 -0.894289 -0.351309 -0.242165 0.225036 0.880043 0.483304 0.525478 -0.697129 0.620687 0.344649 0.316555 -0.576966 -0.339792 -0.816426 4.38505e-05 0.569369 0.39663 -0.0625203 -0.213313 0.72354 0.0993334 -0.328259 -0.105641 -0.0196064 -0.586851 0.868942 0.0442601 -0.699163 0.182145 0.394853 -0.427639 -0.100139 0.907622 -0.464131 -0.432037 -0.249887 0.357617 0.161406 -0.59882 0.199961 0.548566 -0.104895 -0.52705 0.953888 -0.315325 -0.918222 -0.353101 0.58114 0.167306 -0.394792 0.194998 0.144436 0.218648 -0.0726642 0.477063 -0.0197118 0.385479 0.636101 -0.920381 0.591682 -0.966615 -0.972953 -0.527884 0.587151 0.562434 0.276555 -0.596596 -0.390182 -0.706908 -0.673364 0.755344 -0.228162 -0.822311 -0.00468432 -0.452557 -0.960776 0.106797 0.739151 -0.474205 0.310787 0.306825 -0.858054 0.993313 -0.79291 -0.706855 0.868851 0.113405 0.560459 0.979165 0.634441 0.175964 0.839299 -0.527465 -0.921992 -0.907865 -0.0753819 -0.816397 0.122198 -0.138128 0.502138 -0.288649 -0.2809 -0.494666 0.348946 -0.436173 0.868926 -0.588389 0.913177 -0.260854 0.100759 -0.0722093 -0.352251 0.0337363 -0.713569 0.333856 -0.0133498 -0.593408 0.0611123 0.142155 -0.532355 -0.387671 0.214984 0.0993699 -0.0648432 0.957503 0.53244 -0.321543 -0.909597 0.339792 0.5695 -0.81339 -0.300495 -0.875867 0.492291 -0.766975 0.611561 0.434974 -0.0997498 0.954061 -0.910784 -0.32952 -0.956841 -0.323161 -0.0284369 0.463032 -0.339956 0.151384 -0.679056 -0.00226529 0.0490664 0.190764 -0.918796 0.4872 -0.153406 0.149442 -0.358792 0.469677 0.128655 0.172389 -0.447096 -0.775164 -0.885207 -0.415436 0.967182 -0.724119 -0.199199 0.680925 0.523918 -0.102218 0.606108 0.696184 0.740921 0.280009 -0.944751 0.0548937 -0.0595341 -0.150074 0.751858 -0.504264 0.978967 0.727736 0.125874 -0.254838 0.582041 0.304504 0.574621 0.15912 0.14251 -0.179202 0.863822 0.462751 -0.0513431 0.891175 -0.226669 -0.519527 -0.635579 -0.351626 -0.654949 0.417153 -0.92541 0.420787 0.690726 0.809798 -0.0252128 -0.922993 0.207995 -0.869209 0.0222443 -0.0635743 -0.131086 -0.370025 0.821086 0.52891 -0.297512 -0.74186 0.648465 -0.721706 0.754173 0.193415 0.508633 -0.692438 -0.519454 -0.97997 -0.269947 -0.708941 -0.614458 -0.192239 0.806479 0.941499 -0.678707 -0.3219 -0.88275 -0.663546 0.540957 0.372976 -0.978376 0.80535 -0.598766 -1.00284 -0.820978 0.281943 0.829849 -0.870232 -0.203273 0.765648 0.513758 0.186838 -0.136648 0.968758 -0.712389 0.773648 0.403401 0.140671 -0.350826 -0.862345 0.856689 0.58556 0.637824 -0.339503 0.262692 0.691373 0.179171 0.118688 -0.779703 0.0226339 -0.407422 0.121831 -0.390258 0.803005 0.403329 0.902685 0.827541 0.959293 -0.951841 0.322281 0.381296 -1.00285 0.931408 -0.881948 0.18571 0.15057 0.689417 -0.40199 -0.551375 -0.839592 0.864457 -0.219019 -0.233431 -0.190024 -0.454097 -0.418829 -0.52717 -0.404038 0.513689 0.133571 0.177921 -0.28038 -0.569054 0.973545 0.863831 -0.0587384 0.510316 -0.444335 -0.463384 -0.984868 -0.12308 0.72431 -0.812537 -0.0893201 0.393564 -0.0280194 0.468785 -0.45512 -0.968885 -0.132535 -0.214867 -0.562668 0.459172 -0.553991 -0.650054 -0.797632 -0.958722 -0.399191 -0.656644 -0.0882084 0.664789 0.621412 0.446409 0.164762 -0.495373 0.284591 0.513792 -0.489193 -0.911718 -0.902922 -0.602635 -0.306635 -0.239617 0.34348 0.142721 -0.940604 -0.578909 0.976609 -0.635155 -0.468731 0.439896 0.806868 0.655003 0.948517 0.367511 0.086795 -0.586453 -0.540478 -0.0653406 -0.705005 0.301538 -0.0260953 0.202208 0.900097 -0.115777 -0.94237 -0.141976 -0.522981 0.0726168 0.332361 0.344375 -0.394629 0.801433 -0.736888 -0.782143 -0.072309 -0.0899797 0.977539 -0.0889695 0.0809465 -0.273218 -0.773078 0.785331 0.194885 -0.76404 -0.321771 -0.942227 -0.00145487 -0.643264 0.599786 0.170085 0.536379 0.763936 -0.46999 0.402956 -0.0512807 -0.601481 -0.123415 0.10198 -0.242481 0.834907 0.944533 -0.278223 0.510661 -0.703205 0.375675 -0.771579 0.0994532 -0.436974 -0.393252 -0.17787 0.510088 0.278158 -0.159725 0.911213 -0.202806 0.980225 0.539823 -0.0895198 -0.166853 -0.165219 -0.663693 -0.434792 0.470199 0.346752 0.709367 0.289291 -0.289757 -0.82209 -0.905821 0.866773 -0.469952 0.263898 0.123529 0.0687866 0.121314 0.847667 0.166331 0.498974 -0.181822 -0.514881 -0.349081 0.0906288 0.364957 0.0849027 0.632787 -0.375486 0.79803 -0.159089 -0.946132 0.234369 -0.458652 -0.8474 -0.419948 -0.279714 0.189688 -0.491808 0.605287 -0.173728 -0.488351 -0.228469 -0.211044 0.298338 0.216902 -0.975879 -0.65177 0.214222 0.279884 -0.733754 -0.389644 -0.328349 0.814503 -0.128045 -0.390203 0.37696 0.55183 0.0228836 0.232564 -0.791917 0.731548 -0.57639 0.933624 -0.481085 -0.825828 0.973113 0.266616 -0.809687 0.117078 -0.508299 -0.209624 0.387181 -0.505609 0.532974 -0.724007 -0.155866 0.0661483 0.836772 -0.524688 -0.257443 -0.612861 0.57125 0.547197 -0.929518 0.293583 0.15793 0.381004 0.252046 -0.963035 0.645208 -0.0953793 -0.15661 -0.553274 0.155344 0.356067 -0.443603 0.641859 0.830261 -0.395613 -0.855979 0.295238 -0.14365 0.558793 -0.564549 -0.233315 -0.194922 0.0184533 -0.485396 -0.338372 -0.635968 0.0749364 0.670546 0.0925658 -0.894143 0.329273 -0.139837 0.746934 0.271405 -0.733284 0.809891 0.049129 0.281181 0.337375 -0.644847 -0.41775 -0.367142 -0.366911 0.204823 0.511717 0.909983 -0.872864 0.430945 -0.365418 -0.896024 -0.538296 0.0462921 -0.722692 -0.648864 -0.054681 0.744573 -0.539637 0.00658923 -0.116503 -0.348897 -0.330513 0.449617 -0.332397 0.802756 -0.596912 0.781138 -0.449684 0.702208 0.161332 0.233672 0.599749 0.775082 0.0316188 -0.0576759 -0.00193019 -0.740056 0.696987 0.515986 -0.0505258 0.699139 0.0685752 -0.757682 -0.342398 -0.69815 0.813733 -0.742992 0.835269 0.577788 0.312289 0.0130795 0.0290753 0.633135 -0.950599 -0.746688 -0.507989 -0.637678 0.967757 0.111884 0.873099 0.748862 -0.647841 -0.125131 0.983458 0.399002 0.32193 -0.582087 0.1952 0.0732427 0.379452 0.163302 -0.279134 0.450963 -0.227792 0.493867 0.327195 0.76542 -0.701617 -0.518856 0.572208 -0.972035 0.327738 -0.248034 -0.785816 0.65158 0.15492 -0.0495907 -0.588217 -0.653307 0.0370392 0.89326 0.360093 -0.383009 0.556844 0.765451 -0.800289 0.0420842 -0.286471 0.630081 -0.628223 -0.180371 0.111042 -0.202703 0.713113 -0.504319 -1.00266 0.122121 -0.122027 -0.456063 0.31926 0.787683 0.946081 -0.204148 0.146676 -0.317603 -0.148463 -0.547758 -0.685254 0.93351 0.632559 -0.166855 -0.935687 -0.989079 0.722011 0.69398 -0.628547 0.136124 -0.319299 0.814802 0.166784 0.267993 -0.457953 0.556896 -0.581742 -0.581818 0.0203474 -0.782459 -0.962368 0.971178 -0.192598 -0.717315 0.137968 -0.388071 -0.242188 0.967642 0.216076 -0.710341 0.0518727 0.90604 0.791209 -0.845461 0.174573 -0.782456 -0.382039 0.852307 -0.415689 -0.450328 0.434975 -0.0319738 0.925211 -0.0381147 -0.226396 0.811421 -0.990909 -0.861973 -0.296061 -0.618475 -0.297063 -0.637259 0.133446 -0.236162 0.0645675 0.0809195 0.406202 0.21192 -0.102471 -0.460162 -0.861067 0.578273 0.142228 0.627057 0.157963 -0.881682 -0.646811 0.0478367 -0.00667588 -0.323727 -0.0207349 -0.565814 -0.469516 0.745471 -0.846601 -0.957694 -0.630549 0.545626 0.0147989 -0.202071 0.450681 -0.563013 0.557927 -0.883281 -0.141846 -0.665066 0.587189 0.540688 0.904324 -0.740403 0.590252 -0.512109 -0.250752 -0.97303 -0.222641 -0.503654 0.205943 -0.790767 -0.857094 -0.38792 -0.874374 -0.176916 0.221798 0.585987 -0.0718833 -0.925415 0.0853657 0.803107 -0.462001 -0.670183 -0.950159 0.22108 0.0336502 -0.0738973 0.683669 0.921993 -0.491019 0.087838 -0.89687 0.815206 0.0785355 0.469549 -0.0370951 -0.464822 0.115932 -0.983704 -0.0626209 -0.276549 -0.216527 0.162617 0.677303 -0.497131 0.036053 -0.832478 0.251783 0.845591 -0.319624 0.343278 0.650961 -0.888731 -0.982914 0.879341 0.101212 0.199874 -0.575341 -0.176794 -0.420138 -0.440303 0.0387254 0.534704 0.838573 -0.436607 -0.757917 -0.540568 0.805552 0.229149 0.151313 -0.69109 0.288169 -0.418225 0.290229 0.24124 0.0562281 0.270466 0.893776 0.292674 -0.209579 -0.891327 -0.670752 0.354376 -0.743895 0.0476457 0.782485 -0.157911 0.648357 -0.299231 0.987017 0.743844 0.191155 0.134592 -0.712066 0.927418 -0.335378 0.841258 0.184828 0.296967 0.822274 0.880834 -0.212464 0.858698 0.48688 -0.827276 0.662814 0.510039 0.283593 -0.0890627 0.154884 -0.920816 -0.840802 0.429756 0.972985 0.00657698 0.171095 -0.622369 0.947383 0.259926 0.462365 0.877194 -0.497418 -0.0194082 0.146453 0.724798 -0.178186 -0.792065 0.310442 -0.052525 -1.03726 -0.222476 0.013479 0.526006 0.138966 -0.407536 -0.819904 -0.793844 -0.817094 -0.0877086 0.961776 -0.19073 0.465815 0.114428 -0.0712735 -0.315246 -0.223128 -0.198124 -0.237774 -0.363649 -0.503308 -0.955082 0.14854 -0.757473 0.523917 -0.788795 0.624795 0.554646 0.853917 -0.141943 -0.799991 -0.966298 -0.851572 -0.304557 -1.00003 -0.366176 0.265796 0.794579 -0.0744173 0.267437 0.359409 0.0108613 -1.04358 0.220083 0.25864 0.773611 -0.585142 0.0338798 -0.00513767 -0.48587 -0.869838 0.539548 -0.150145 -0.552551 0.892732 -0.801605 0.818796 0.214989 0.288323 0.702577 0.721231 0.649232 -0.376166 0.866723 -0.0478055 0.254522 -0.0848945 -0.10881 0.0452468 0.469388 0.398064 0.125322 0.934694 -0.209587 -0.913648 -0.929624 -0.439457 -0.11056 0.313748 0.0585933 0.264834 -0.244169 -0.0112384 0.742578 -0.925593 -0.123127 -0.447186 0.785216 0.716879 0.614145 -0.869478 -0.372063 -0.182546 -0.128975 -0.423029 -0.851734 0.594967 0.185661 -0.403978 -0.896873 -0.190909 -0.659293 -0.277835 -0.0319912 -0.508248 -0.70253 -0.322225 0.719517 0.603973 -0.0735873 -0.24834 0.817735 -1.00015 -0.547276 -0.899907 0.713186 0.38159 0.564217 -0.952607 0.608979 0.369435 0.794083 -0.406356 -0.180607 0.533637 0.0856236 -0.140884 0.527533 -0.88942 0.45762 0.441362 -0.837058 0.651318 -0.421073 0.171981 -0.10237 -0.269174 0.312636 -0.531725 0.731704 -0.885876 0.727551 -0.813379 -0.106536 0.410449 -0.428005 0.712809 -0.718304 0.817336 0.0136568 0.143724 -0.539213 -1.11834 -0.300126 0.534759 0.472571 0.899007 -0.334073 -0.615811 0.246877 -0.00974778 -0.724993 0.898401 0.181347 -0.486672 0.58577 -0.30929 -0.223715 0.0885845 0.634697 0.38921 -0.928876 -0.521128 -0.0404302 -0.863205 -0.937706 -0.0838391 -0.658294 -0.104477 0.56142 0.861547 -0.106896 -0.430938 -0.504329 -0.963152 -0.0730983 0.434922 0.755647 0.427696 -0.00985207 -0.108877 0.144516 0.638165 0.0934651 0.438 -0.340729 0.842124 -0.717044 0.204529 0.642792 0.274263 -0.642143 -0.772194 -0.774889 -0.163447 -0.381898 0.843728 -0.408347 -0.316422 0.159971 0.00625307 0.248497 0.123785 -0.106193 0.0808752 0.487069 0.478799 0.324168 0.467537 -0.391214 -0.108936 0.942818 -0.378278 -0.438401 -0.757438 0.382089 -0.0730454 0.779996 -0.57749 0.626735 -0.710829 -0.0472953 -0.283477 -0.430627 0.554794 0.442385 0.634283 0.563919 0.747668 0.657043 -0.529039 -0.357173 0.773409 0.833888 0.979393 -0.918281 0.62826 -0.833964 0.295929 0.716012 0.0207767 0.550739 -0.683358 -0.764683 0.0227833 -0.875892 -0.605953 0.173369 -0.386255 -0.685376 0.577921 0.0918714 0.500962 -0.166526 -0.00108451 -0.663527 0.0299985 0.736078 -0.208505 -0.953194 -0.994783 0.662305 -0.16215 0.839221 -0.0864363 -0.911544 -0.101138 0.862203 -0.726081 0.471911 -1.01733 0.734405 0.234612 0.706062 1.00263 0.599366 -0.533327 -0.365209 0.300602 -0.18053 -0.834202 -0.0691228 -0.0643611 0.530564 1.03618 -0.504239 0.31273 0.0518239 0.66949 -1.07651 -0.470894 0.519851 0.00695876 0.654873 -0.171816 -0.787309 -0.0226677 0.926539 -0.772471 -0.762908 0.719321 -0.648221 0.367215 -0.637933 0.38268 -0.808457 -0.247046 -0.931277 -0.313526 0.601122 0.503297 0.484955 -0.25582 0.53345 -0.9448 -0.761738 0.444245 0.673241 0.272107 -0.0283118 0.85619 0.568731 0.196532 0.352162 -0.259284 -0.0271734 -0.319295 0.327145 -0.91263 0.637383 -0.16819 0.39799 0.875554 -0.50618 0.395557 0.82114 -0.417137 -0.403726 0.0954918 0.160771 -0.744403 -0.0562113 0.587771 0.542346 -0.277303 0.22439 0.404609 0.0447158 -0.830932 0.407784 0.192179 -0.449521 -0.921145 0.0570127 0.602627 0.331943 -0.477817 0.226601 0.839331 0.496808 -0.924884 0.625115 0.430549 -0.600826 0.351983 -0.405387 0.327396 -0.156241 -0.739033 0.106947 -0.693576 0.581441 0.884396 -0.215017 -0.78894 0.0433325 0.479101 0.872106 0.35841 0.141027 -0.550682 0.235265 -0.408169 0.0150253 0.700577 -0.404942 -0.780095 -0.587241 -0.86613 -0.476372 0.487181 0.0554094 -0.178382 -0.930033 0.456995 0.230672 0.587193 -0.95229 0.904712 0.301589 -0.0319373 -0.0399055 0.717771 0.353793 0.348753 -0.0339095 -0.270485 -0.834856 -1.02383 -0.0685849 -0.934137 0.378644 0.853388 0.50625 -0.0793449 0.36782 0.295479 -0.736684 0.928987 -0.477902 0.737511 -0.0448051 -0.629057 0.569802 0.673553 0.933006 -0.849261 -0.0267725 0.497969 0.44861 0.226966 -0.687918 -0.281415 -0.492948 -0.50543 0.474303 0.593968 0.293174 0.406674 0.614898 0.333873 0.52569 -1.05346 -0.862847 0.0918715 0.122422 0.178734 0.994467 -0.315925 0.615554 0.677003 -0.0941445 -0.68497 0.364491 0.199874 0.136385 -0.690901 0.731403 0.230853 -0.09944 -0.969909 0.67091 -0.022064 0.546724 0.288359 0.121046 -0.309476 0.125167 -0.540752 0.0621123 -0.624005 0.274058 -0.843276 0.828617 0.683077 -0.435392 0.169695 0.713279 0.826045 0.524935 -0.546944 -0.120848 0.872978 -0.871866 0.836051 -0.311629 -0.0885582 -0.673541 0.682978 0.0604922 0.541241 0.0524585 -0.739006 0.907718 -0.044326 0.699647 0.165211 -0.379849 -0.173111 0.476254 -0.23008 0.303072 0.451814 -0.126552 0.464771 0.598351 0.741993 0.724018 -0.407644 -1.02035 0.0891125 -0.0888161 0.422245 0.316383 0.620031 0.458434 -0.713874 0.143521 -0.686884 -0.463786 -0.597851 -0.24354 -0.629959 -0.745357 -0.506283 0.534182 -0.461979 -0.855975 0.0839448 -0.522756 0.194292 0.609143 0.725555 -0.102902 -0.180784 -0.541491 -0.49051 -0.00340974 0.52521 0.234938 -0.58226 0.69477 -0.405454 0.924456 -0.754082 0.109651 0.338092 0.833464 0.628295 0.356219 0.476753 0.449704 -0.602939 -0.218461 0.282077 -0.162105 -0.220302 0.689952 -0.272205 0.0295477 -0.929998 -0.112238 0.0316996 0.285052 0.0654876 -0.339788 -0.649453 0.603245 -0.435245 -0.274337 0.273873 -0.423213 0.168074 0.25593 0.727942 0.621137 0.385099 1.00531 0.739344 0.0619422 -0.080351 0.285778 -0.330319 -0.942689 0.708461 0.330216 -0.655619 0.756664 -0.904686 -0.353015 0.140129 0.32047 0.63353 0.93878 0.656653 0.178406 0.485339 0.452509 -0.387994 0.528905 0.580561 -0.343455 -0.633721 0.0862234 0.915466 -0.196573 0.297265 -0.650544 -0.866749 0.359382 0.546657 -0.2788 0.0274421 0.0358829 0.149835 0.616851 -0.441437 -0.925647 0.0225269 0.563972 0.30128 -0.175196 0.367679 0.626093 -0.431928 0.82471 0.530823 -0.277816 0.912899 0.132584 0.848976 -0.810539 -0.764437 -0.34956 -0.667713 0.796071 0.869867 -0.647309 -0.74717 -0.599971 -0.38476 0.242833 -0.567287 -0.553638 -0.820176 0.521421 0.365108 -0.945001 -0.953832 0.810999 -0.397881 -0.721059 0.537286 -0.543721 -0.836963 0.401335 0.552444 -0.0685041 -0.160827 0.661999 0.242735 -0.594787 -0.526516 -0.67302 -0.0197108 0.11093 -0.119699 0.687716 -0.248644 -0.940139 0.432436 0.250048 0.978473 -0.213452 -0.940112 -0.0833487 -0.0280895 -0.789644 0.351129 0.933873 -1.03306 0.773271 -0.929574 0.754591 -0.827977 0.211928 0.0452912 0.288138 -0.844121 0.119594 -0.444236 0.927464 -1.01076 1.0101 -0.129531 0.675612 0.0618172 -0.145722 0.0222986 -0.196059 0.551926 0.0493125 -0.0355297 -0.603636 0.87446 -0.718773 0.97551 0.688493 -0.460598 0.349547 -0.575018 -0.682314 -0.559989 -0.627431 -0.770181 0.494658 0.416006 -0.898326 -0.961314 0.382551 -0.245843 -0.0444546 0.877269 0.146699 -0.421995 0.958789 0.47469 0.730363 -0.538074 -0.768388 -0.318478 -0.543492 -0.831057 -0.203371 -0.962307 0.636949 0.746435 -0.43322 0.358138 0.00887208 -0.0869239 0.688195 -0.644156 0.640196 -0.861378 0.416045 -0.637994 0.867477 -0.449823 -0.322353 0.615793 -0.60751 0.582189 0.157741 0.673364 -0.698426 0.12672 0.356775 -0.79414 -0.955321 -0.536405 -0.826879 0.380368 -0.777454 0.817912 -0.398585 -0.0686875 0.892589 -0.121423 -0.610645 -0.195252 0.468968 0.633692 -0.139289 1.01986 0.117598 0.388889 0.747042 0.63528 0.639487 0.660815 0.861758 0.0159316 -0.265209 -0.867229 -0.833212 0.227331 -0.378278 -0.252564 0.324468 -0.489512 -0.722262 0.423752 -0.718333 -1.04106 -0.506935 -0.462159 0.198184 0.12473 -0.539405 0.474715 -0.0245803 0.696369 -0.626558 -0.929314 -0.141907 0.474102 -0.30038 -0.375453 0.0291362 -0.36977 -0.965918 -0.856879 0.0934428 0.676179 -0.0506862 -0.906865 -0.989961 0.470663 -0.527275 0.539135 0.836143 0.472222 -0.969421 0.141165 0.220921 -0.518527 0.13929 0.386889 0.416199 -0.987044 0.331392 -0.606563 0.519417 0.88422 0.48648 -0.63812 0.445956 0.474406 0.0943364 -0.457423 0.0184669 0.37841 -0.491873 0.645414 0.889583 -0.455322 -0.435672 -0.55588 -0.130754 0.956662 -0.75031 0.939713 0.788979 0.61678 -0.978288 0.0683411 0.116445 -0.275971 -0.340105 0.501651 0.538517 -0.379516 0.966216 -0.911725 0.177316 0.716765 -0.471928 0.110567 -0.0881121 0.989516 -0.899208 -0.0459435 -0.544618 0.551299 -0.204928 0.984041 -1.02289 0.58145 0.215918 -0.0744112 -0.442438 -0.31537 0.428009 -0.127985 -0.240311 -0.477071 -0.0260573 0.0959069 0.877538 0.34722 -0.67841 0.718992 -0.699467 0.581771 0.891337 -0.355726 -0.51938 -0.150699 -0.167011 0.348407 0.233832 0.400688 -0.475402 0.904965 -0.158397 0.454519 0.584897 -0.538117 0.574293 0.255166 0.886269 -0.840573 -0.330714 0.279313 -0.15472 0.725354 -0.571541 0.65284 -0.692765 -0.542076 -0.816381 0.696613 -0.121122 0.811611 0.463273 0.285995 -0.728732 0.720552 0.0643961 0.410551 -0.619845 -0.674446 0.329951 -0.32901 0.944686 -0.926942 0.761859 0.283304 -0.908921 0.745237 0.179088 -0.751881 0.181631 -0.969975 0.442798 0.464366 -0.557127 -0.313002 -0.475047 -0.836203 -0.48164 -0.212604 0.351701 0.0463011 -0.617201 0.666104 0.900958 0.814956 0.870844 0.370445 0.0808095 -0.393575 0.988535 -0.468179 0.253327 0.868954 0.0881596 0.929459 -0.5924 -0.755237 0.91553 -0.00677413 0.785267 -0.929542 0.505598 -0.953967 0.179244 0.261723 0.994543 -0.63079 -0.0891583 -0.085993 -0.593316 -0.636581 -0.0304048 0.345194 -0.75364 -0.737475 -0.122623 -0.206544 0.996207 -0.27164 -0.42362 0.330592 -0.264136 -0.722517 -0.448889 0.512463 -0.798256 -0.179099 -0.504597 -0.757307 0.89316 -0.827149 -0.138903 -0.637469 0.117518 0.28798 0.456388 -0.981065 0.581695 -0.0862937 0.541291 0.0772966 -0.735571 -0.188307 -0.77279 -0.518362 -0.405874 0.690415 0.294599 0.660322 0.266751 -0.983137 0.576472 -0.490614 -0.691529 0.243188 -0.171449 -0.563279 -0.526866 -0.139524 -0.675601 -0.96788 0.934422 -0.617246 1.01602 0.66515 0.232987 -0.0369969 0.61549 -0.993096 -0.0899575 0.493098 -0.509118 -0.171801 0.787847 -0.338593 -0.933661 0.536463 0.956619 -0.138806 -0.470545 -0.236166 -0.446459 0.502051 0.823705 -0.32449 0.713707 0.165925 -0.860367 -0.250323 0.645533 -0.147523 -0.912506 -0.435715 -0.847636 0.821177 0.361245 0.981263 -0.338827 0.845399 -0.976335 -0.0945382 -0.0192079 0.931688 -0.611975 0.564595 0.730852 -0.817427 -0.399705 0.520979 0.817853 -0.530428 -0.416779 -0.996601 -0.000267755 0.900226 0.0372409 -0.670638 -0.255741 0.946897 -0.728413 0.0861081 -0.231719 0.112316 -0.194814 0.869535 -0.991735 0.162616 -0.897717 -0.139288 0.00296301 -0.900092 -0.0096846 -0.0995139 0.163656 -0.106023 -0.578919 0.324574 -0.0925141 0.41742 0.064038 0.26401 -0.671838 0.421815 -0.595693 -0.478626 0.59481 -0.636124 0.958908 0.842324 0.765091 -0.972484 -0.133198 0.155692 -0.703741 0.492823 0.855155 -0.828428 0.204886 0.0814143 0.826917 0.364802 -0.949194 -0.0260479 -0.736558 0.0250944 -0.833666 -0.873782 -0.286535 0.183015 0.604004 -0.77847 -0.453831 0.98619 0.812135 0.42454 0.606285 -0.0499044 -0.829538 0.470089 -0.964461 0.0715919 0.505999 0.754018 -0.957757 -0.780765 -0.661187 -0.0264027 0.101315 0.754492 -0.0662263 -0.575991 -1.00057 -0.239825 0.678945 -0.348361 0.225222 0.442525 -0.349588 0.521596 -0.200368 -0.907397 -0.873491 0.969821 -0.927113 0.912522 -0.92166 -0.651303 -0.106921 0.706096 0.615285 -0.459837 0.459581 -0.601452 -0.151778 0.159904 -0.444786 0.179478 0.973568 0.269935 -0.907691 -0.90142 0.70003 0.70093 0.460132 -0.647304 -0.455815 -0.938709 0.00384806 0.753308 -0.594829 -0.502733 0.949641 -0.343855 -0.842491 0.836148 0.865171 -0.532169 0.28656 -0.397511 0.634249 -0.850955 -0.093132 0.040207 0.253618 -0.250379 -0.695452 0.935437 -0.43789 0.551522 0.94192 0.0150736 -0.137635 0.365174 -0.760617 0.182794 -0.758622 -0.504876 -0.773157 -0.948509 0.312978 -0.897488 -0.957705 -0.642389 0.119921 0.654764 -0.602624 -0.888139 0.189573 -0.163664 0.993304 -0.36652 -0.35056 0.608359 -0.397567 0.079554 0.73585 0.752786 0.820018 0.0553737 -0.582339 0.0413705 -0.350067 -0.906569 -0.145687 -0.454339 0.39351 0.915792 0.711917 -0.859312 0.0728426 0.869055 0.917042 -0.490416 -1.01765 0.68233 0.232179 -0.767071 -0.642472 -0.0975604 -0.752361 0.964345 -0.430539 0.866535 -0.376677 0.285065 -0.656895 -0.274238 0.746913 0.324653 0.313169 0.35727 -0.727091 -0.138968 -0.759413 -0.180264 0.833624 -0.626543 0.0189213 -0.387332 -0.238563 0.880136 -0.818526 -0.458247 -0.904446 -0.326179 0.764547 -0.780996 0.751463 0.848728 0.126282 0.0340452 0.174576 -0.18898 -0.197565 -0.63063 0.265873 0.294185 0.666185 -0.657531 -0.551271 -0.83038 -0.647678 0.797119 0.503504 -0.925763 -0.687292 0.572829 0.599964 0.0387885 0.361266 -0.211139 -0.157739 -0.66521 -0.301289 0.455764 -0.281451 -0.140615 0.870576 0.294515 0.59748 0.995766 0.181223 -0.112831 0.33652 0.5848 0.810696 -0.316807 -0.332928 -0.836147 -0.278103 0.462124 -0.548719 0.433579 0.561916 0.783371 -0.980564 0.396786 -0.343395 0.987179 -0.65988 -0.335302 -0.351176 -0.463173 -0.598456 0.295071 0.600192 0.409535 -0.37802 0.518367 -0.594101 0.0456693 -0.088545 0.742749 0.970794 -0.113493 0.253362 -0.107535 -0.148948 0.278565 0.887484 -0.604247 -0.348515 -0.618577 -0.839907 -0.635716 0.451028 -0.037803 0.0949744 -0.97084 0.44248 -0.722729 -0.577666 -0.314422 0.392641 -0.460797 0.16253 -0.755487 -0.0748041 -0.224863 -0.489407 0.359619 -0.512474 -0.492106 0.132068 -0.713255 -0.556347 -0.324528 -0.231028 0.810383 0.252995 -0.903167 -0.322095 0.944173 -0.0329689 0.301116 -0.0245707 0.491246 0.0367435 0.181681 -0.456564 -0.780011 -0.317704 0.0850795 -0.75483 0.182565 -0.173262 -0.444461 0.772167 0.861415 -0.558304 0.330049 0.833058 0.0954949 -0.794985 -0.055575 0.186027 -0.213877 -0.956071 0.0245846 0.217997 -0.717544 0.313681 -0.868653 0.540497 -0.883911 -0.911767 -0.661943 -0.0432769 -0.620503 -0.0472969 -0.0742234 -0.50318 -0.715353 -0.633025 0.133792 0.971662 -0.254228 -0.0265488 0.36227 0.826341 0.608772 -0.482424 0.503299 0.0319207 -0.388264 -0.776657 -0.321801 0.804705 0.712022 0.779133 -0.288272 -0.699798 0.044325 0.678177 -0.250969 0.664856 0.232793 0.170727 -0.690885 -0.822516 -0.299747 0.547298 -0.892573 0.666287 0.797004 0.439447 -0.21066 0.630162 -0.879427 0.625781 -0.784875 -0.0216868 -0.489596 0.7717 -0.400897 -0.226384 0.215359 -0.36612 0.134737 0.718791 0.470213 -0.0228046 0.325111 0.898182 0.943197 -0.332094 0.859867 -0.763995 -0.568728 0.495496 0.104974 -0.676579 0.494296 -0.412922 0.0495472 0.557231 -0.321981 -0.149448 0.244361 -0.86494 0.527054 0.911027 -0.569688 0.696621 0.173121 -0.0933558 -0.926036 -0.6372 -0.788084 0.0406417 -0.198414 -0.326064 0.206046 -0.178098 -0.451625 -0.664541 -0.24093 0.359003 0.236331 0.953217 0.262175 0.7008 0.776196 0.625093 0.358578 0.362957 -0.306091 -0.0450489 -0.131925 0.986201 0.243462 0.535476 0.216904 -0.315368 0.951589 0.874494 0.236347 -0.397435 0.891079 -0.586804 0.671803 -0.772038 0.615128 0.50448 0.0221788 0.300928 -0.138678 0.768178 0.743549 -0.819813 0.295365 0.897921 0.257177 -0.605604 0.284557 -0.388594 0.14449 -0.937527 0.970773 0.523387 0.915176 -0.267432 0.664318 -0.382812 -0.0758101 0.111143 0.904653 0.931499 -0.305739 -0.353012 -0.684811 0.536831 -0.891956 0.613234 0.87655 0.85539 -0.966888 0.819513 0.14603 0.0504959 -0.47433 -0.618967 -0.198499 0.55188 -0.0694197 -0.106388 -0.662671 0.634978 -0.100591 0.42488 -0.373265 0.79312 -0.417687 -0.0202591 0.908896 -0.813427 0.285546 -0.723317 -0.938605 -0.997823 0.195023 -0.804963 -0.714808 0.383067 0.65581 0.778251 0.0906224 0.401555 -0.23594 0.0810648 -0.50375 -0.492102 -0.337637 -0.268592 -0.494799 0.292625 0.328223 0.508506 -0.517236 -0.863395 0.694074 0.246114 0.216508 -0.313105 0.0463591 0.617721 -0.329526 -0.351542 -0.324204 0.932888 -0.849889 -0.483418 -0.351189 -0.218372 0.872599 -0.0755496 0.717008 -0.388089 -0.977438 -0.447056 -0.10784 -0.577028 -0.136915 -0.117482 0.49809 -0.240994 -0.298809 -0.589338 0.70927 -0.53086 -0.875312 0.180237 -0.884616 -0.557574 0.260449 -0.929178 -0.0634766 0.828745 0.438362 -0.614091 -0.0107048 0.367599 0.603256 -0.968822 0.733312 0.914576 0.01821 0.127675 -0.676639 -0.791752 -0.679996 -0.288227 -0.215754 -0.878863 -0.10582 0.615434 0.392495 0.409867 0.881379 -0.369777 -0.783513 -0.116216 -0.391488 0.682531 0.93745 -0.956786 -0.247715 0.402183 0.384162 0.0814263 -0.770262 -0.566648 -0.744466 -0.224772 -0.336113 0.135418 0.856592 -0.946807 -0.581549 -0.275743 0.213528 -0.123093 0.466426 0.930547 0.735526 -0.284547 -0.763256 0.795666 0.817162 0.113611 -0.481222 0.309168 -0.529776 -0.61062 -0.966225 0.526664 0.0454704 -0.695888 -0.140415 -0.384178 0.533934 -0.448159 -0.524394 0.757284 0.0746065 -0.552311 -0.130254 0.938133 0.0787869 -0.697336 0.445415 -0.104457 -0.936255 0.10423 0.388465 -0.942491 0.180353 0.091419 0.525718 -0.105501 -0.761757 -0.223633 -0.506839 -0.496792 0.741983 -0.626485 -0.52617 -0.7425 -0.545684 0.447409 -0.318251 0.647814 -0.773428 -0.379316 -0.693862 0.859269 -0.0415603 -0.259117 0.298042 -0.186291 0.141049 0.233588 -0.537606 0.952108 -0.795237 -0.996107 -0.86361 0.698555 -0.386648 -0.878489 0.263916 -0.409775 -0.836744 -0.835167 0.552753 -0.16626 0.740112 -0.114707 0.378338 -0.299476 0.733271 0.274935 -0.861747 -0.158523 -0.833622 0.127625 -0.885581 0.245978 -0.255273 0.801317 -0.243416 -0.459217 0.44263 -0.267285 -1.02128 -0.925216 -0.888378 -0.319855 -0.13579 0.809901 0.4972 0.0380648 0.451834 -0.915451 0.711153 -0.552248 -0.637743 0.807314 0.802711 -0.726933 0.714459 0.430788 0.858854 0.344092 0.121867 -0.985978 0.00920979 -0.900862 -0.306306 0.316318 -0.476381 0.851495 0.814581 -0.110138 0.68392 -0.457072 -0.495509 0.0630766 0.643501 -0.397878 0.376381 -0.462157 0.103206 -1.07095 0.14158 0.426219 -0.0947292 -0.688005 -0.174552 0.477969 -0.678767 -0.379951 -0.683547 0.530935 0.743875 0.197352 0.039051 -0.385641 0.974898 0.817928 0.731515 0.78845 -0.802787 -0.721478 -0.433611 -0.52825 -0.0306785 -0.361169 0.297733 -0.107441 0.63683 0.2019 -0.842542 -1.08401 -0.327165 -0.174484 -0.0578823 -1.01726 -0.629483 0.262703 -0.661543 -0.0823135 -0.816229 -0.568569 -0.161943 0.107142 0.142476 0.690046 -0.243271 0.238529 0.416698 -0.605909 0.208462 0.161609 0.845839 0.657985 0.237779 -0.49866 -0.448678 -0.228508 -0.743936 -0.615139 -0.774006 -0.219114 0.849453 0.155978 0.296884 0.884768 0.200373 -0.339579 0.201676 0.00585361 0.0508005 0.492895 -0.547077 -0.311617 -0.239554 -0.36868 -0.00406579 0.694978 0.481599 -0.381269 1.09472 0.258634 -0.898298 0.541336 -0.680349 0.813661 -0.0375791 -0.213985 -0.0315337 -0.0249592 0.254525 0.997199 -0.749417 -0.504908 -0.800923 -0.0463711 0.944983 -0.7464 -0.874715 0.12242 1.06296 0.276249 -0.0714991 0.645909 -0.36174 0.0812476 -0.101991 -0.365125 -0.845654 0.0155167 0.587355 -0.328733 0.606414 0.541166 -0.581986 0.883235 -0.484355 -0.474113 1.01771 -0.462689 0.828725 0.066076 0.659789 0.65109 -0.11226 -0.378353 -0.887228 -0.338811 0.874992 -0.605217 0.560035 -1.13537 -0.732894 -0.609435 -0.622383 0.0324587 0.381164 -0.371248 0.216754 -0.913214 -0.7939 0.820626 0.775133 -1.06074 -0.430712 -0.694426 -1.15132 -0.736618 0.201126 -0.451455 -0.749775 -0.19191 0.50241 -0.594931 0.419411 0.320707 0.70404 -0.700562 -0.27293 -0.0400757 -0.545422 0.300641 0.769668 -0.865063 -0.333762 -0.957308 -0.895198 0.830581 -0.203727 0.137457 0.941126 0.796985 -0.202306 -0.0405799 -0.417958 0.855257 -0.131402 -1.01392 -0.33603 -0.512353 -0.436927 0.788198 0.302559 -0.629544 0.552827 0.963632 -0.916008 1.06246 -0.315366 0.355743 -0.0538122 -0.354839 -0.800091 0.808796 -0.440948 0.487786 -0.996756 0.907519 -0.638183 -0.385541 -0.262137 -1.09379 0.0425274 -0.102499 -0.706281 -0.0368453 0.737981 -0.942789 -0.869123 0.387427 -0.597025 -0.0159364 0.303164 0.513927 -0.628401 -0.317925 0.079516 0.90484 0.959672 0.728012 0.539195 0.265874 0.46244 -0.665783 -0.121093 -0.480883 -0.0189092 0.321527 -0.815168 0.321081 -0.989031 -0.248628 -0.168983 -0.445976 -0.0592389 0.358674 -0.200584 -0.416616 0.355618 0.159827 0.488216 -0.204723 0.79524 -0.853446 0.1668 0.0587788 0.0816557 0.00477725 0.383331 -0.204726 0.845789 -0.842686 0.407706 -0.887567 -0.902665 -0.0383191 -0.984444 -0.391886 -0.555327 -0.380193 -0.573711 -0.795476 0.578188 -1.27749 0.699531 -0.631802 0.566044 -0.985305 0.975607 0.465026 0.689075 0.677205 -0.864227 0.250686 0.0246781 0.606151 0.0123605 -0.539034 0.393212 -0.868939 -0.89296 0.741796 0.662107 -0.207901 0.506737 0.598133 -0.256147 -0.00870254 0.89309 -0.455472 0.105673 -0.900305 0.869754 0.908665 -0.617798 0.658158 -0.187096 -0.529046 -0.820524 -0.477135 -0.530725 -0.787987 0.0825145 0.58391 0.0226471 -0.446349 -0.648084 0.399805 -0.943056 -0.630565 -0.908552 0.656546 -0.0721965 -0.983784 -0.221965 0.352605 -0.0302352 -0.309183 0.877091 0.147946 0.486486 -0.199745 0.16961 -0.752021 0.704622 0.363832 0.633396 0.950131 -0.279173 -0.742982 -0.93104 0.0916061 -0.314526 -0.18207 0.645761 0.0341174 -0.336989 0.402088 0.0790882 0.333891 -0.960379 -0.00794315 0.570395 -0.252111 -0.831515 -0.271878 0.903734 -0.933781 0.822114 -0.457756 0.895658 -0.969395 0.0202477 0.620158 -0.806248 1.3713 -0.929965 0.079961 0.552706 -0.273418 0.180045 -0.564042 0.346265 -0.417813 -0.186494 -0.403376 -0.814541 0.37885 0.0956399 -0.088518 0.839796 0.470978 0.372154 -0.742973 -0.0945237 -0.870887 0.913874 -0.362007 -0.0829824 -0.301629 0.886403 -0.113958 -0.806422 0.19257 -0.557122 -0.148889 0.079966 -0.0910739 -0.308126 -0.215706 -0.883591 0.508751 -0.804757 -0.776905 0.817685 -0.109145 0.566455 0.0291246 -0.55986 -0.842569 0.653601 -0.582975 -0.568929 0.255549 -0.565899 -0.14316 0.928013 0.00989261 0.649536 0.868742 0.219952 -0.501486 -0.208878 -0.554778 0.838357 1.18092 0.852562 -0.4084 0.258897 -0.0210934 -0.45734 0.0726252 0.484689 -0.346595 -0.190356 -0.300548 -0.199202 -0.336264 0.307918 -0.204865 -0.721102 -0.861423 0.712831 -0.0756586 0.593579 0.960123 -0.0319468 0.759978 -0.125992 -1.04163 0.122371 -0.534069 0.615753 -0.324353 0.419462 -0.310276 -0.70163 -0.106742 -0.79796 -0.502421 0.538176 0.605 -0.128737 0.439572 0.390618 0.32881 -0.0816268 0.849293 -0.722686 -0.447911 -0.216693 -0.565313 -0.409155 -0.535389 0.061078 -0.686209 -0.564503 -0.135808 0.840953 -0.0182813 -0.0676155 -0.947202 -0.380519 -0.733412 -0.273576 -0.162575 0.795182 -0.500835 0.593937 0.501803 -0.23502 -0.610497 -0.549538 0.508957 0.376213 -0.563987 0.017659 0.494631 0.340126 -0.279963 0.619953 -0.952644 -0.12452 0.573933 -0.406331 0.699731 -0.550175 -0.440166 0.307148 -0.0460235 0.475862 -0.288691 -0.144677 0.931357 0.933645 1.09747 0.328782 -0.789443 -0.0452527 0.0634485 -0.304446 0.883256 0.153979 0.303028 0.0625739 0.120955 1.31352 -0.0819349 0.199106 -0.317507 0.380429 -0.499011 -0.104472 -0.354306 0.199337 -0.735847 -0.197214 -0.0800589 0.790631 -0.729722 -0.567931 -0.679917 0.69048 -0.283682 -0.0796261 -0.967533 -0.266581 0.0180655 -0.515505 -0.775763 -0.0468067 0.581617 0.943169 0.451748 -0.864346 -0.920342 -0.480046 0.763007 -0.372704 0.907893 -0.962126 -0.853352 -0.317642 0.577576 0.232772 -0.78877 -0.792605 -0.488 0.767161 0.574193 -0.0903019 0.773207 0.891845 -0.659225 0.327458 -0.509286 0.18436 -0.676094 0.208357 -0.663379 0.688594 -0.849276 -0.936239 -0.171663 0.072377 0.589798 0.0584731 -1.02732 0.474005 -0.493565 0.0729199 0.41333 0.566282 0.539757 0.371194 0.0366438 -0.242403 0.661103 -0.226563 -0.122676 0.438505 0.648428 -0.992509 -0.67244 0.824575 -0.71278 0.202264 0.497315 -0.102691 0.727854 0.738862 0.388647 -0.859825 0.898668 -0.582299 0.357374 0.511526 0.42151 0.60681 0.0391459 0.249801 0.727495 -0.835117 -0.310475 -0.100003 -0.408469 1.00215 0.426037 0.758784 0.0576014 -0.693161 -0.277615 0.599904 0.660013 0.827945 -0.478686 -0.793347 -0.668195 0.187568 0.31922 -0.120623 -0.31797 0.462786 -0.00374909 0.0575311 0.79278 0.403261 0.185048 0.408364 -0.298745 0.746895 -0.477741 -0.0573707 -0.835583 0.152464 0.853256 0.720817 -0.435274 -0.40242 -0.528225 -0.355014 -0.333335 0.67052 0.409071 0.438657 0.222427 -0.135888 0.822986 -0.766651 -0.750473 0.702742 -0.911042 -0.444053 -0.896786 0.412566 -0.117919 -0.438231 -1.05926 1.01528 -0.137013 -0.509551 0.558839 -0.205614 1.08731 0.00258583 0.50466 0.819154 -0.49604 0.0689573 -0.829839 0.572018 0.672597 -0.375 0.250139 0.321509 -0.479045 -0.769077 0.879409 -0.512085 0.89998 -0.713148 0.315452 -0.455186 -1.08066 0.878704 0.0944712 0.581109 0.544849 0.64325 -0.349563 0.685807 -0.947103 0.115741 -0.473878 0.451111 -0.071693 -0.0951814 0.140121 -0.466619 0.869953 0.914695 -0.950706 0.340416 0.827816 1.05521 0.608697 -0.198031 0.0441598 -0.737173 -0.973456 -0.000456006 0.647259 0.089534 0.651061 -1.19706 -0.0426896 -0.437719 0.598976 0.306224 -0.532492 -0.452173 0.160087 0.0644557 -0.816175 0.884466 -0.0453501 -1.01704 -0.0579004 0.645948 0.67228 0.0447673 -0.260291 0.657723 0.803681 0.800496 -0.567219 0.471855 -0.813476 0.724682 0.468377 0.139202 0.539996 0.15209 0.477449 0.0574316 0.162123 -0.618324 -0.538383 -0.716676 0.316732 0.338761 0.872003 -0.00648572 0.345491 -0.281425 0.179255 -0.585624 -0.488028 0.740605 0.492976 0.581573 0.130044 0.88706 -0.480291 0.184046 -0.0774244 0.405198 0.135464 0.0412321 -0.0850348 -0.536869 -0.663255 -0.553137 -0.720219 -0.797113 -0.125446 0.827335 -0.586233 0.353063 -0.492519 -0.73846 0.0936933 0.114184 -0.683276 0.437681 0.354954 0.830479 -0.39479 -0.133072 0.476274 -0.495595 -0.119753 0.48102 -0.0958618 -0.822506 0.741998 0.216448 0.74385 0.316123 -0.44932 -0.279198 -0.840166 -0.772936 -0.19819 0.484824 0.700799 -0.375586 -0.350707 -0.643915 0.0165365 -0.71033 0.00846247 -0.894339 0.415805 0.400873 -0.323202 -0.510275 -0.683459 0.424681 0.152675 -0.383762 -0.805022 -0.87291 0.606556 -0.360343 0.0117333 0.451669 0.91451 -0.338007 -0.363733 -0.846663 0.327692 0.74679 0.662948 -0.434201 0.147576 0.721238 0.500555 0.968088 -0.222116 0.988094 0.28064 0.697215 -0.852113 0.420973 0.699142 -0.856056 0.866269 -0.17391 0.701507 0.310921 0.212763 -0.676818 -0.672965 -0.474742 -0.866546 -0.292181 -0.38923 -0.435454 -0.93518 0.59916 0.31691 -0.463924 -0.183527 -0.592168 0.94609 -0.753355 0.730409 0.190612 -0.989243 -0.389485 -0.262199 -0.888372 0.738488 0.220102 -0.298742 0.639589 -0.531346 -0.446655 -0.428622 -0.477342 0.930439 -0.78889 0.688944 -0.178304 -0.909447 0.298321 0.245588 0.985658 0.592459 -1.01423 0.0606715 -0.269732 0.691476 0.886451 -0.673348 0.505237 -0.607808 0.0387108 0.0373267 -0.712317 -0.755727 -0.125172 0.267491 -0.369788 -0.220537 0.646914 -0.0981543 0.822753 0.777351 0.130819 0.172483 0.157274 -0.0459059 -0.0773834 0.772121 -0.036235 -0.836261 0.00797232 -0.285727 0.0582753 -0.840919 -0.834097 0.745205 -1.11056 -0.449037 -0.134113 -0.422915 -0.455313 0.442671 -0.796257 -0.106279 -0.612716 -1.02495 -0.204261 -0.0118632 -0.76625 0.869968 -0.750807 -0.283034 0.155793 -0.532154 -0.122491 0.642437 0.87088 -0.0177902 0.152128 0.311912 0.272475 0.241332 -0.657458 -0.461612 -0.143378 -0.889478 -0.0949221 0.437474 0.880604 0.701769 -0.111637 -0.689549 -0.102849 0.510362 0.897925 0.913148 -0.478195 0.44681 0.271973 0.416497 0.258073 -0.309958 0.69227 0.760417 0.69802 -0.689987 -0.487611 0.762925 -0.0177436 0.91976 0.21422 0.0592076 -0.0514662 -0.694282 0.382656 -0.940682 -0.505778 0.298589 1.02178 -0.697054 -0.356892 0.47177 0.727155 -0.410245 -0.319401 0.653622 -0.646806 0.138709 0.139176 0.932318 -0.826227 -0.286246 -0.0708088 0.511884 -0.447913 0.683445 -0.622232 -0.493253 0.299988 0.908288 -0.182451 -0.327411 0.214857 -0.958623 -0.207245 0.925915 0.536186 -0.456655 0.589377 -0.748114 0.0345146 -0.74832 -0.559684 0.804999 0.1068 -0.52542 -0.151293 0.909496 -0.30593 -0.708632 0.50485 -0.611849 0.872038 -0.654208 -0.871226 -0.504471 -0.702072 -0.467664 -0.423589 0.149379 -0.998163 -0.831004 0.666505 0.462602 0.388827 0.460095 0.972929 0.0029603 -0.114897 0.225433 0.00299935 -0.832391 -0.899221 0.922503 -0.542705 0.784941 -0.825443 -0.478107 0.312195 -0.41909 0.315707 0.613421 0.920377 0.115299 -0.324737 0.850908 -0.336472 -0.00268572 -0.085692 -0.268487 -0.176276 -0.0416549 0.721555 0.343826 0.597646 0.657061 -0.453107 0.269514 -0.00913286 -0.268078 0.840862 -0.755522 0.862765 -0.966427 -0.797643 -0.488794 -0.388779 0.776415 0.0712601 -0.153334 -0.737073 0.70723 -0.194367 0.487618 0.436372 -0.598744 -0.907105 -0.225225 0.15305 -0.661015 -0.485077 -0.879293 -0.66849 0.955398 0.800761 -0.497881 -0.874295 0.711496 -0.251994 0.284694 0.904278 -0.00997465 -0.236975 0.560557 0.434798 0.365842 0.424413 0.780997 0.913858 0.880087 -0.772054 0.289029 0.583705 -0.74143 -0.178562 0.536324 0.905452 -0.915497 -0.797601 0.56948 -0.757015 -0.184179 -0.219184 -0.291868 -0.664799 0.904981 -0.598857 -0.126489 -0.2235 -0.930531 -0.871451 0.507335 -0.0224524 0.980477 -0.947462 0.0651105 0.504409 -0.848183 -0.19257 -0.900384 0.285122 0.320479 -0.0123797 0.939342 0.314447 0.631762 -0.388461 -0.959483 0.573822 0.232382 0.453817 -0.183399 -0.572018 0.708702 -0.146492 -0.611671 0.346121 0.25543 -0.390119 -0.593964 0.070247 0.832853 0.455775 -0.874293 -0.692312 -0.531368 0.445967 -0.0958543 0.704282 0.790688 0.359084 0.282765 -0.346862 0.136404 -0.717057 -0.441843 0.0301361 0.250693 -0.057436 0.476788 0.276411 -0.891613 -0.720545 0.712472 0.798981 -0.291578 0.91034 -0.964868 0.110738 -0.0707031 0.823592 0.598111 -0.738557 -0.347571 -0.974875 0.496641 -0.832899 -0.950297 0.385078 -0.94753 0.197186 0.363987 0.821023 -0.424996 -0.40427 0.724425 0.96511 -0.0722852 -0.201589 0.477852 0.210821 -0.444749 0.341878 -0.532902 -0.100689 0.925179 0.712153 -0.491469 0.60994 0.438158 0.416926 0.205365 -0.528124 0.0823186 -0.706599 0.923895 0.496722 0.905997 -0.774874 0.662868 -0.915105 0.216677 -0.876356 0.162833 0.630474 -0.524494 -0.800547 -0.437287 0.0075063 -0.0493238 -0.051992 0.599105 0.377551 0.449386 -0.939201 -0.0063255 -0.67587 -0.485626 -0.946032 -0.0841378 0.25411 0.595756 0.321947 0.372493 0.516114 -0.0549167 -0.410989 0.113851 -0.157895 -0.89319 -0.694713 0.923974 -0.0914133 0.923024 -0.031856 0.55798 0.629856 -0.337136 -0.195134 0.309006 -0.17968 0.277084 0.0210362 -0.322395 -0.0334419 -0.264831 -0.0768453 0.0708558 0.602763 -0.182981 -0.0240903 0.939501 -0.933536 -0.619087 -0.00860151 -0.834322 0.260285 0.755531 -0.558976 -0.475778 0.300403 0.26885 -0.910132 0.555352 0.35162 -0.149447 0.484646 0.0414707 -0.389585 -0.509367 0.541259 0.582978 -0.444468 0.103949 -0.430714 -0.576463 -0.266968 -0.123478 0.192155 -0.682395 0.407457 0.914771 0.988259 -0.343701 -0.582942 -0.752914 0.214016 -0.952593 -0.679611 -0.706008 0.606321 0.818266 0.152322 -0.0513429 0.61088 0.904967 0.601697 0.929821 -0.765373 0.854534 -0.160627 0.453738 -0.949033 0.0396778 -0.42962 -0.706561 0.0643069 -0.906898 -0.458102 0.590544 0.697783 0.0717954 0.319578 0.860697 0.316986 0.408814 0.36618 -0.841154 -0.258583 -0.916648 0.680162 0.756773 -0.148872 -0.985732 -0.618632 0.657673 0.0441938 -0.645898 0.790418 0.456532 0.251883 0.600004 -0.729071 -0.903098 0.356465 -0.71461 -0.46073 0.775219 -0.109522 -0.221049 -0.298889 -0.081047 0.617324 0.717239 0.233368 -0.549983 0.0180539 0.0378155 -0.59618 0.743117 -0.777151 -1.00182 -0.914301 -0.819324 -0.526205 -0.728579 0.937982 0.160691 -0.559596 -0.990796 0.0475145 -0.229647 -0.691835 0.841789 0.232639 0.251877 0.0235053 0.236901 0.0242738 0.899237 0.132602 0.371063 -0.450675 -0.642992 0.435967 -0.7975 0.150916 0.544849 -0.29441 0.129629 0.960789 -0.522106 -0.664882 0.883665 -0.876367 0.230713 -0.484327 0.0750936 0.151237 -0.950999 -0.33642 0.0890959 -0.748543 -0.349415 0.0475636 0.542252 0.876071 0.00514774 0.836387 0.216135 0.745226 0.753712 -0.0525122 0.14997 0.558591 0.783226 -0.871604 -0.403625 0.515023 -0.666006 -0.236631 0.554127 0.267538 -0.635784 -0.472593 0.880806 -0.295606 -0.416309 -0.47969 0.545096 0.714355 0.942024 0.20349 0.189593 -0.0973615 0.281917 0.0102319 -0.453346 0.39164 0.425983 0.936365 -0.0880269 -0.950935 0.581565 -0.0896117 -0.471744 -0.450013 0.360841 -0.760333 -0.376952 -0.341177 0.191067 -0.483503 -0.652696 -0.733259 -0.763971 -0.399537 -0.903124 0.353695 -0.806253 0.546037 0.252761 0.668455 -0.66924 -0.194838 -0.288001 0.713124 0.918349 0.0976283 -0.0819956 0.655425 -0.46337 -0.698115 -0.396026 0.788204 -0.522175 -0.418399 0.342745 -0.40394 -0.534909 -0.0710751 -0.11839 -0.276796 -1.01389 0.601742 -0.208211 -0.9267 -0.302251 -0.98949 -0.689973 -0.878937 0.114368 0.902662 -0.379468 -0.482239 0.8645 -0.730589 0.342422 -0.0171386 0.383303 0.425519 -0.876104 0.213629 0.971268 -0.878408 -0.00291623 0.771898 0.0277371 0.599096 0.976687 0.35997 -0.644082 -0.838493 -0.0620023 -0.325181 0.483042 -0.0373932 0.0871999 0.527254 0.50309 0.659373 -0.149343 0.633783 -0.0890083 -0.675418 0.326039 -0.899827 -0.135253 -0.969494 -0.628397 0.669891 -0.0474543 0.459696 0.993114 0.176748 0.375097 0.984033 -0.240747 -0.770383 -0.868234 -0.376838 -0.456835 -0.143001 -0.0642957 -0.789836 0.380561 0.752195 0.201041 0.55929 -0.162107 -0.66222 0.555919 0.105619 0.286496 0.128726 -0.307468 0.332728 0.79911 0.374478 -0.635687 -0.524374 -0.64744 0.414213 0.472784 0.0386494 0.695734 0.177796 0.330428 -0.0374167 0.18222 -0.799282 -0.71306 -0.267274 -0.64696 0.395624 0.811288 0.280034 -0.196645 -0.297271 0.675242 -0.303268 0.00629301 0.614206 -0.783569 -0.0107005 -0.874941 -0.436626 0.963508 -0.115272 -0.365509 -0.888836 0.412805 -0.602323 0.874243 0.266052 -0.190045 0.921664 -0.10906 0.556122 0.207576 0.802115 -0.390488 -0.702895 0.958359 0.983406 -0.320276 -0.442006 0.0977419 -0.350544 -0.880299 -0.522168 -0.186362 0.307079 -0.0173132 -0.0989162 -0.456845 -0.333304 0.163073 -0.192479 0.812499 0.419422 0.0943146 -0.880873 0.874704 -0.168059 0.864531 -0.894481 -0.160072 -0.305579 0.0472233 0.387179 -0.334532 0.343223 0.772429 0.623253 0.726361 0.747594 0.898923 -0.0190396 -0.839359 0.560026 -0.886656 0.766671 -0.610828 0.172743 0.505872 0.19246 -0.302218 0.275849 0.0885497 0.656391 -0.977092 -0.643535 -0.0369543 -0.640195 -0.863355 0.609458 -0.582819 -0.791713 0.435454 -0.830614 -0.536461 -0.75354 -0.587382 0.880129 0.0070594 0.522752 0.920858 -0.831461 0.840218 -0.92359 -0.642732 0.48247 0.905592 -0.426595 0.22424 -0.273526 0.343833 -0.615315 -0.0839591 -0.631701 -0.0431307 -0.0599837 -0.36042 0.051526 0.347506 -0.933929 -0.439902 -0.232309 0.648675 0.687809 -0.912427 -0.688273 0.991716 -0.21372 0.792013 0.12001 -0.0275638 -0.864972 -0.0986019 -0.579713 0.780862 0.416453 0.938343 -0.602916 0.247435 -0.528142 0.246991 0.422575 -0.509046 0.266908 -0.492453 0.178645 0.553285 0.879068 -0.960217 0.0551872 -0.98683 -0.0950523 0.100953 0.50403 -0.955948 -0.503352 -0.24842 0.39294 -0.582155 -0.0937406 0.0752708 -0.632758 0.367285 0.185913 0.930677 -0.117988 -0.677128 -0.82097 0.850898 -0.158334 0.30061 -0.985605 0.613779 -0.377014 -0.0558368 -0.29884 -0.747128 0.56214 0.362688 -0.410589 0.937149 -0.223117 -0.72566 -0.414261 0.383643 -0.335885 -0.232226 0.371851 -0.71267 0.125112 -0.193966 0.719307 0.360202 1.01183 -0.0540198 0.0226682 1.02295 -0.648386 -0.305173 0.159641 0.633499 0.362493 0.831563 0.797566 0.360578 0.244819 0.281171 0.454476 0.327244 -0.400874 -0.808052 -0.39119 0.618758 0.46643 0.0849253 -0.575902 -0.195446 0.607688 0.572372 -0.572072 -0.299142 -0.642978 -0.859941 0.335611 -0.500966 -0.517411 -0.146096 -0.171412 -0.93188 -0.764751 -0.130336 -0.791172 0.338545 0.488075 0.749186 0.910994 0.862109 -0.756525 -0.545153 0.826447 -0.95035 0.401514 -0.364606 -0.816945 0.165955 0.429144 0.902913 -0.903128 -0.536012 -0.112698 0.301982 -0.417555 -0.539673 -0.926109 0.341296 0.118187 0.388552 -0.00864257 -0.123526 -0.054114 0.404387 0.727303 -0.512237 0.617163 -0.851232 0.415807 -0.607091 0.364751 0.912313 -0.43219 -0.186727 0.259522 -0.0137354 0.176454 -0.242849 -0.386958 0.520962 -0.0802731 -0.540294 0.286203 -0.25429 -0.582091 -0.578106 0.536924 -0.306183 -0.606609 -0.372933 0.873778 -0.332468 -0.345408 0.300192 -0.202831 0.685722 0.125377 0.732815 -0.524716 0.22774 -0.301667 0.244728 -0.185335 -0.306686 0.955642 0.863382 0.115714 -0.0490017 0.294706 0.116963 -0.275903 0.532841 0.0176659 -1.1326 -0.409479 -0.0202652 -0.769241 -0.333741 -0.619896 -0.867646 0.546883 -0.703423 0.464259 -0.228049 0.00823705 0.149146 -0.0955131 -0.416456 -0.00871241 -0.832669 0.732585 -0.117602 0.120144 0.298739 -0.202066 1.1313 0.621518 -0.406386 0.0899273 -0.820901 -0.80012 -0.475109 -1.0707 -0.0472582 -0.728968 0.308692 -0.894052 -0.900129 -0.91642 -0.115251 0.0654261 0.567201 -0.28848 -0.714692 -0.598035 -0.556379 0.196971 0.00751841 0.157271 -0.156414 0.910845 0.0260632 0.814251 -0.158684 -0.445541 0.606153 0.110904 0.0920428 0.073271 0.814943 -0.906477 0.0201911 -0.206232 1.06154 -0.059713 0.154401 0.472233 0.799482 -0.597323 -0.894798 -0.242193 -0.779031 -0.708436 0.42329 0.895638 0.931487 -0.794542 -0.627333 1.18082 -0.257994 0.390375 -1.11689 0.432979 0.723895 -0.998985 -0.648223 0.236498 0.940718 0.102348 -0.847544 0.982016 0.580153 -0.819975 -0.423808 -1.12467 1.29045 0.86944 0.0529447 -0.382719 0.297267 -0.807283 -0.660486 0.425257 0.700658 0.376542 0.53444 0.587743 0.760551 0.650994 0.45619 0.845894 -0.114837 0.884668 0.084497 -0.414087 0.413999 1.14236 -0.760778 -0.113134 -0.186016 0.0730136 -0.960847 -0.0946739 -1.13135 -1.38062 -0.782488 0.312732 0.641697 0.0624806 0.493251 0.114159 -0.711811 0.037622 0.0172159 0.838335 0.862671 -0.89865 -1.04188 -1.27466 -1.00933 0.744108 0.835946 -0.712829 -0.593858 -0.392616 0.114534 0.640932 -0.292269 0.516112 0.644083 0.155348 -0.532784 -0.878929 -0.0215359 -0.0606497 -0.848306 -0.917737 -0.437126 -0.68021 0.18342 -0.446365 -0.80084 -1.01672 -0.800609 -0.823656 0.235312 0.114361 0.98792 0.866805 0.768344 -0.422557 0.499527 0.431923 0.920927 -0.288259 -0.662773 0.369408 -0.0617639 0.696181 0.0799121 -0.534396 0.210723 -0.5444 -0.338703 0.72999 -0.506771 0.541904 -0.265828 -0.442254 -0.55631 -0.416263 -0.931368 0.721219 -0.895187 -0.137703 -0.487346 0.262039 0.425212 -0.259822 0.14498 -0.93742 0.565151 0.38305 0.411778 -0.130236 0.856032 0.401579 -0.28349 0.616062 -0.804405 -0.462186 0.563812 -0.492651 -0.331224 0.610625 -0.772779 -0.753092 0.962316 0.517166 -1.12216 0.594024 0.594468 0.798447 0.746352 0.854554 -0.592981 0.327669 1.42088 0.864221 0.0628023 0.703526 -0.356695 -0.747277 -0.627447 0.0984865 0.849648 -0.0628985 0.482209 0.10673 0.988452 0.267096 0.192516 0.105218 -0.910423 -0.70756 0.356298 -0.177643 -0.749253 -1.26455 -1.07654 0.640302 -0.216791 0.0532909 -0.0498868 -0.439097 0.054807 0.110241 -0.58347 -0.361963 0.543313 -0.368909 -0.307474 0.00797921 0.355739 -0.360207 0.310098 0.894622 -0.128659 1.32411 0.0562256 -0.00332238 0.0285588 -0.0350926 0.672592 -1.17279 1.19156 -0.0438662 -0.920368 -0.218066 -0.384045 1.00734 -0.500834 -1.03005 -1.61543 -0.707353 0.32159 -0.497811 -0.0026784 -0.666264 -0.692599 0.384129 0.549422 -0.901839 -0.991787 -0.81936 -0.378969 -1.09631 -0.144191 -0.359133 0.957307 0.581913 0.0805698 0.260267 0.43291 -0.842016 0.64224 0.937734 0.415953 0.69351 0.522357 -0.932303 -0.135126 -0.909308 0.338444 -0.273603 -0.727147 -0.846324 -0.937645 -0.597641 -1.00331 0.509788 -0.103467 -0.490124 0.161252 -0.159529 0.319132 -0.0361099 0.442088 0.183502 0.805673 0.580152 -0.308306 -0.369315 -0.560015 -1.15041 0.454968 0.846088 -0.100208 0.474026 0.516427 0.756162 0.996003 0.685383 -0.0257637 0.163864 0.646572 0.521384 -0.972543 -0.413344 -0.681177 0.260567 -0.366195 0.771162 -1.48122 -0.404039 -0.0868352 -0.784483 -0.668291 0.559636 -0.155863 -0.0228249 -0.172661 -0.685797 -0.590147 -1.07406 -0.685455 0.0889985 0.342906 -0.562582 0.962013 -0.488173 0.0845424 0.621488 -0.0445602 0.978967 0.381808 -0.171948 -0.978657 0.980835 0.508852 -0.0546428 -0.157432 -0.34983 -1.09807 -0.287986 -0.123472 0.445635 0.346111 -1.22071 0.14839 0.737191 -0.300498 0.149665 -0.776797 -1.06772 0.796184 -0.38693 0.547978 -0.372712 -1.07407 -0.855943 0.16545 -1.0023 1.22194 -0.241904 0.763871 0.349703 -0.317704 -0.638499 -0.763467 -0.696462 0.727127 0.436185 1.45997 -0.145465 0.733143 0.42151 -0.138441 -0.661757 0.632338 -0.490436 0.610896 -0.42512 -1.55182 0.128815 -0.45139 -0.97148 0.486077 0.201775 0.0122028 1.04768 -0.785025 -0.922693 0.46419 -0.98989 0.588003 0.561131 1.30186 0.0882394 -0.102458 -1.48911 -0.519349 -0.547365 -0.303928 -0.919768 1.41289 0.152752 -0.763024 -0.54723 0.0812183 0.383102 -1.1132 -1.03102 -0.854759 0.54404 -0.369776 -0.730337 -0.0549955 0.218625 -0.255224 0.227882 -0.798609 -0.15361 0.451349 -0.500985 -0.373162 -0.983759 -0.689137 -0.827295 -1.07949 0.299914 0.549913 0.432191 0.99706 -1.09792 -0.579688 0.633374 0.0551877 -1.00547 -1.08597 -0.192258 -0.0663346 -0.509281 -0.22943 0.141768 0.815888 -0.365837 -0.705148 -0.0193787 -0.805889 0.434498 0.558314 -0.275605 -0.237014 0.103964 -0.732962 0.278961 0.786928 -0.555335 -0.828456 0.507216 -0.659969 0.695029 -0.176135 -0.413827 0.0482149 -0.0539088 0.725682 -0.195024 0.36013 0.35935 0.427822 -1.02448 -1.06028 -0.177958 0.961539 0.677642 -0.526782 -1.01839 0.660325 -0.640793 0.558178 -0.409835 -0.848352 -0.867327 0.687598 -0.337325 -0.89491 -1.06967 -1.01768 0.538933 0.689842 -0.408573 0.641308 -0.0222964 -1.06534 0.91121 -0.85263 0.989354 0.725489 -0.478188 0.537092 -0.807519 0.151032 -0.344519 -0.508556 0.383855 0.499471 -0.969416 -0.646304 0.251557 -0.0821888 -0.64916 0.588566 0.440242 -0.054965 0.692023 0.23399 -0.592171 -1.06068 0.239156 0.822781 0.138633 -0.912951 1.29358 -0.0039504 0.338319 0.0341545 0.158148 0.860982 -0.325884 0.691161 -1.06149 0.850517 0.260918 0.698268 -0.780515 0.175648 0.693756 0.109378 0.283137 0.802665 0.0568998 -1.14169 -0.142063 -0.201567 0.169375 -0.511149 -0.842205 0.433891 -0.394013 -0.837156 -0.852641 -0.410448 -0.732406 -0.486456 -0.497034 -0.0358131 -0.759057 0.585654 0.494222 -0.673197 1.09758 -0.717968 0.497009 -0.83854 -0.558549 -0.662347 -0.0868487 0.544462 -0.108895 0.776586 -0.551798 1.32478 0.80356 0.301032 -0.830995 -0.201047 -0.113266 1.14875 -0.402071 0.253724 0.00729539 0.111035 0.554766 0.227093 -0.074568 -0.274197 -1.07062 0.372426 -0.31503 0.192643 0.578764 -0.753693 1.48056 0.0494933 0.302097 0.486425 0.366792 1.34246 -0.745162 -0.376011 0.205824 -1.05309 0.365582 -0.342944 -0.0645685 0.950457 -0.698956 0.37979 0.846687 -0.361046 -0.569573 0.421625 0.0736196 0.146408 0.438451 -0.857412 -0.153964 0.996542 0.457845 -0.547305 -0.618712 0.162358 -0.0722916 1.32165 1.0875 0.302778 0.680846 0.177513 -0.916858 0.11729 1.12797 0.192574 0.377114 -0.546898 -0.789748 0.564108 0.418759 -0.336894 -0.0423609 0.831329 -0.0440815 0.33224 -0.427081 0.334694 0.493577 -0.242908 -1.17653 0.139862 -0.61247 0.76154 -1.13839 0.305467 -0.615635 0.524667 -0.548572 -0.981986 -0.525999 -0.429671 0.815425 1.13864 0.234714 -1.00861 -0.359041 -0.216179 0.446656 -0.662336 -0.662461 0.19841 0.0608884 0.901539 -1.04598 0.894408 -0.979857 -0.195394 -0.30485 0.936312 -0.267031 -0.565452 0.113487 0.452548 0.0817493 -0.969698 0.437324 -0.687873 0.187113 0.534394 0.0179511 0.809497 -0.309913 0.923665 -0.860302 0.446172 -0.122901 0.186707 -0.30835 -0.199162 -0.649058 -0.0113505 -0.770834 -0.756678 0.149276 0.590436 1.00675 0.0193488 0.500468 -0.648819 -0.41738 -0.198465 -0.804452 -0.614696 -1.02669 -0.389028 -0.72684 -1.00199 0.73438 -0.944429 0.694054 0.254642 0.616066 -0.0236026 -1.0111 1.59115 0.64628 -0.624544 0.466184 0.00154417 -0.145454 -0.916749 -0.991512 -0.677955 -0.117606 0.415705 -0.276255 0.476081 -1.10287 -1.41712 -0.959417 0.502944 0.222469 -0.715689 0.763994 -0.931976 0.645379 0.519619 0.62862 0.276516 -1.2209 -0.807688 0.676181 0.989336 0.350905 -1.09165 -1.03164 -0.0420492 0.443617 -0.760853 0.350574 0.108866 -0.228786 1.16462 0.154481 0.78898 0.0593608 1.33854 -0.222496 -0.509671 0.462012 0.706438 -0.832444 0.748659 -0.23049 -0.461772 -0.285294 0.645558 0.44839 -0.960257 0.257469 -0.00406851 -0.374922 0.262248 -0.262543 0.165462 -1.14876 0.0870425 -0.67485 0.876067 -0.299142 0.571273 -0.926627 -0.959115 -1.05107 1.06371 -0.806642 -0.840741 -0.559087 0.645983 0.135404 -1.01173 -0.0982163 -0.626876 -0.796627 -1.07312 -0.842208 0.908327 -0.331605 0.0967499 -0.173782 1.16853 -0.800953 -0.075752 -0.985501 -0.328562 -0.272576 0.595102 0.845121 -0.134659 0.0353585 0.333339 -0.666266 0.980431 0.439815 -0.510297 -0.387472 -0.717142 0.503213 -0.402383 0.766989 0.191287 0.0258204 0.582953 0.621278 0.122788 -0.365507 -0.118126 0.942936 -0.21379 0.339367 0.906851 0.266009 -0.476856 0.298686 0.839022 0.846629 0.848706 -0.180159 0.508391 0.321058 0.42551 0.610817 -0.0184616 -0.567805 0.777841 0.386185 0.48162 0.219277 -0.72891 0.706131 -0.628261 0.663179 0.396893 0.432331 -0.291143 0.757757 -0.536521 -0.666172 0.55555 -0.140924 -0.842284 -0.079795 -0.906492 -0.107437 0.441425 -0.324676 -0.421527 -0.954845 -1.23276 -0.272885 0.780145 0.358475 -0.311572 -0.436017 -0.373748 -0.586502 -0.797946 -0.863919 -0.790387 -0.376093 0.0718024 -0.390742 0.834111 0.748989 -0.944677 0.583265 -0.296273 -0.480125 -0.757899 0.38695 1.07477 0.555158 0.752091 0.780065 0.00947376 -0.497362 0.206598 -0.559584 0.498749 0.081401 0.477609 -0.335558 -0.419656 -0.936271 -0.815253 -0.986872 -0.140197 -0.680079 -0.247499 -0.730932 0.5288 -0.585936 0.200537 0.821416 0.612568 -1.25901 0.821196 -0.450232 0.146355 1.23341 0.807038 -0.452995 0.559787 -0.509243 0.750257 0.00740362 0.310869 -0.385999 0.877909 0.262042 -0.585563 -0.543458 0.483296 -0.65408 0.230923 0.615563 1.41978 0.576125 0.0651683 0.281465 -0.0455154 -0.0661579 0.0341297 -0.915285 0.692976 -0.584138 -0.0212958 0.214083 -1.05011 -0.303476 0.0942259 0.634562 0.00243295 -0.725393 -0.96773 0.321497 0.0352427 -0.588053 -0.127663 -0.43174 -0.138785 -0.0450165 -0.542056 0.052438 0.66986 0.17283 0.221887 -0.137864 0.1744 0.584445 -0.831728 -0.186093 -0.684553 -0.886684 0.417572 0.819696 -0.0720561 0.288088 -0.445345 0.550032 -0.868396 -0.975631 0.501202 -0.245043 -0.924051 -0.943121 -0.779428 0.167656 0.826376 -0.00672664 0.183671 -0.0529508 -0.0660131 -0.306111 -0.0545092 -0.520802 0.757042 -0.029918 0.490109 -0.124589 0.758776 0.156448 -0.860805 -0.619266 0.176045 0.876403 0.455217 -0.684365 -0.716935 -0.674234 -0.349983 0.462282 0.694176 0.668312 0.630774 0.568862 -0.890961 -0.412686 0.105492 0.425316 -0.70417 0.828984 -0.434806 -0.948356 -0.117492 -0.589614 0.523678 1.0108 -0.722392 -0.882648 -0.231614 0.0435846 -0.267239 -0.161169 -0.355992 0.105003 0.0933082 -0.782027 0.326557 0.239084 -0.275476 0.945016 -0.991364 0.754826 -0.499547 0.118136 0.228756 0.349212 0.28992 -0.414337 -0.0892487 -0.518341 -0.484041 -0.542738 -0.879009 -0.194203 -0.616121 -0.327627 0.800055 -0.0252629 -0.90119 -0.328504 -0.735049 -0.939115 0.207566 0.658835 -0.529215 0.416116 0.133333 0.724045 -0.84494 0.218183 0.638404 0.386488 -0.825964 -0.808961 0.240298 -0.77884 -0.95562 -0.959306 0.829479 -0.511982 -0.70897 0.208696 0.654243 -0.180683 -0.691212 -0.9684 -1.04268 0.760132 -0.704085 0.505085 -0.738136 0.745411 0.709058 0.55532 -0.345717 0.753425 0.893021 0.815571 1.10395 0.140938 -0.229079 0.935719 -0.281362 0.0523713 0.375558 -0.7012 -0.62875 0.594401 0.0696661 0.843993 -0.351127 -0.130777 0.597524 0.856909 -0.839302 -0.22226 -0.62031 0.464214 0.92402 0.576095 0.917041 -0.37054 0.658457 -1.05062 0.156472 0.0284923 -0.434709 -0.43417 0.0105106 -0.598824 -0.65893 -0.156214 -0.952491 -0.0231922 1.0434 -0.204813 0.70028 -0.533934 -0.583594 -0.393851 -0.366508 -0.369599 -0.518532 -0.823566 0.00898572 0.392974 0.181105 1.01994 0.932062 0.0298704 -0.689969 0.741452 -0.992352 0.202762 0.782675 0.171713 -0.0267965 0.872898 -0.968376 0.0706948 0.104202 0.719495 0.812617 0.494382 0.700684 0.503764 -0.89078 0.0290302 -0.518951 -0.163276 0.906514 -0.473684 0.61101 -0.41275 0.0693813 -0.589036 -0.883833 -0.484104 -0.0217228 -0.388681 0.589609 0.183589 -0.150806 0.184866 0.496776 0.965593 0.640856 -0.214033 0.767145 -0.805198 -0.147317 -0.961761 -0.693549 -0.724587 -0.482516 0.509544 -0.994875 -0.585887 0.935925 -0.817077 0.135039 -0.847522 0.24363 0.0185791 -0.739861 0.811045 -0.235779 -0.836691 -0.268911 0.621449 -0.645373 0.792254 -0.817067 -0.780011 0.218926 -0.181664 -0.425396 0.143802 0.0124555 -0.696256 -0.99539 0.551969 -0.283194 0.093406 0.917221 0.271963 0.865143 -0.20502 0.527698 -0.423542 -0.577353 -0.118198 -0.57129 0.633828 0.382176 -0.274822 -0.856424 0.57397 -0.167424 0.60254 -0.412604 -0.661546 0.0126558 -0.959415 -0.813156 -0.287904 -0.993533 0.395874 -0.616332 0.127908 0.350511 -0.386644 -0.204155 0.260197 -0.648564 0.461498 0.804191 0.357537 0.980071 -0.335558 0.675644 -0.21403 0.992657 -0.257097 0.626209 -0.614232 -0.775744 -0.135639 -0.959475 -0.369265 0.315156 0.661222 -0.985587 0.929323 0.319849 0.764964 0.833468 -0.671043 0.569204 0.496935 -0.288115 0.180365 0.106238 0.0492092 0.727333 -0.696684 -0.301293 -0.170301 -0.340108 -0.231374 -0.367031 -0.626499 0.975804 -0.116994 0.215139 -0.763773 0.698703 -0.574951 -0.276927 0.897064 0.0431152 0.0486426 0.910743 -0.582115 -0.341411 -0.914924 -0.781392 -0.923269 -0.840671 0.310506 0.637332 0.548803 0.0291225 -0.150055 0.766997 -0.310108 -0.606675 0.128181 -0.577578 -0.793382 0.481493 0.583468 0.255063 -0.027701 -0.536084 -0.169551 0.399239 0.524045 0.849355 0.706749 -0.703216 -0.395546 -0.381783 -0.833952 0.214091 0.84893 0.318686 0.949169 -0.938525 -0.67283 0.297906 -0.641077 0.537154 0.119332 -0.831466 -0.0117509 -0.862869 0.816245 -0.926216 -0.135602 0.259729 0.803297 0.432071 0.162684 -0.742165 0.827051 -0.685672 -0.730874 -0.627218 0.625707 -0.702444 0.97439 0.0392743 0.747651 -0.398342 0.0764333 -0.888815 0.267967 -0.67208 0.677951 -0.283446 0.453235 0.991112 -0.183017 -0.0449934 -0.0753608 0.443535 0.284736 -0.827673 0.430868 0.926409 -0.948109 -0.391275 0.154931 0.613288 0.451494 0.328317 -0.866152 0.104992 0.946741 -0.848256 0.88256 -0.0768294 -0.750553 -0.210709 -0.138323 0.698561 -0.980487 0.27282 -0.139404 -0.937484 0.798371 0.476498 -0.610989 0.674891 0.729073 -0.578203 0.789018 0.808763 0.541783 0.76861 0.156078 0.734423 0.558217 -0.270439 -0.840243 -0.287401 -0.516062 0.301504 0.380774 0.661262 0.493532 0.700881 -0.897006 -0.905125 -0.556619 0.100456 -0.108308 0.831624 -0.839239 -0.380758 0.331915 -0.372426 0.441895 -0.97316 0.678532 -0.928798 -0.880364 0.465446 -0.192678 0.184693 0.986748 -0.413726 -0.138041 -0.759172 -0.35375 0.669322 0.786197 0.569247 0.716064 0.0360645 0.143316 0.555265 -0.635992 0.806419 -0.357933 0.533553 -0.305608 0.423933 -0.208705 0.405766 -0.324503 0.277075 -0.130086 -0.346135 -0.350385 0.230329 0.330662 -0.54033 0.799057 0.805794 0.347779 0.489445 0.28218 -0.095912 0.131755 0.0889876 -0.565607 0.577813 -0.206595 -0.536629 0.28975 0.0236457 0.545358 0.644258 -0.937847 0.510773 0.810903 0.914796 0.953386 0.605891 0.521585 0.538365 0.0434755 -0.787252 -0.9984 0.793785 -0.0678132 0.941594 0.416085 0.958724 -0.0516814 -0.630326 0.502151 0.930141 -0.567598 0.568708 0.203388 -0.179256 -0.207013 0.509737 0.268189 0.492643 0.153219 0.944744 -0.0179586 -0.954363 0.404992 0.867303 0.133723 0.384684 0.293465 0.819131 -0.065929 0.740824 0.954735 0.477339 0.591652 -0.540361 -0.39215 0.364611 -0.420449 0.456896 -0.911739 -0.735778 0.144186 0.774577 -0.10715 0.961748 -0.598711 0.443291 0.00615053 0.748564 0.869942 -0.389717 0.803629 -0.699419 0.0957096 0.0463903 0.514274 -0.0605119 0.902457 -0.109292 -0.432551 0.162039 -0.755309 -0.556541 0.494519 0.404151 -0.666875 0.641765 0.539478 0.660843 0.492241 0.629001 -0.499362 -0.681767 -0.53413 -0.41137 -0.813723 -0.991562 0.133796 0.370314 0.874336 -0.941726 0.562887 -0.968954 0.961351 -0.717537 0.390213 0.457565 -0.0761294 -0.27788 -0.907048 0.535693 -0.248408 0.286766 0.0747626 -0.0236233 -0.431692 0.476819 -0.662577 -0.0923676 0.121491 -0.115597 0.190243 0.379726 0.648955 -0.834967 -0.352125 -0.245048 -0.944956 0.00427055 -0.13736 0.988473 -0.0635884 -0.606413 -0.888676 0.325035 0.502199 0.560299 0.939656 -0.962694 -0.607319 -0.122128 0.200969 -0.574774 -0.89687 -0.12624 -0.606855 -0.710854 0.563554 -0.357428 0.994118 0.495729 0.0924381 -0.189055 -0.943552 0.569796 -0.945195 -0.505529 -0.082042 -0.323648 -0.635271 -0.0212649 0.556669 0.906267 0.0346359 -0.602963 0.934926 0.516349 -0.13735 0.927854 0.854453 -0.509238 -0.132969 -0.91361 0.182604 0.0711325 -0.647025 -0.0837781 0.839761 0.375512 -0.277224 0.82304 0.131804 -0.193845 -0.172542 0.23092 -0.620457 0.809472 -0.0532812 0.920388 0.984991 -0.013643 -0.145372 0.872605 -0.129292 0.869365 0.256157 0.589623 0.206155 -0.608041 -0.849238 0.489266 -0.908096 -0.285378 -0.0118067 0.160047 0.217649 0.657819 0.298089 0.317914 0.706869 -0.803572 -0.982888 -0.406876 -0.176867 0.647214 0.903516 0.643469 0.310144 -0.675865 -0.136413 -0.351667 0.0564872 0.676209 0.498926 -0.701 -0.230981 -0.27276 0.85815 -0.434409 -0.7115 -0.287554 -0.117472 0.442542 -0.812507 0.817002 -0.0173497 -0.353157 -0.139603 -0.397248 -0.0041748 0.947962 0.786841 0.424716 -0.829393 -0.872818 0.803119 -0.223912 0.0600254 0.394877 -0.794487 -0.898593 0.374899 -0.865957 -0.0753007 0.0768576 0.414133 -0.30331 -0.114289 -0.910124 0.706983 -0.600151 -0.981987 -0.374131 0.27608 1.06316 0.896066 -0.92915 -0.897768 -0.668847 0.118485 0.0807652 0.75106 -0.674512 0.0562886 0.750691 0.391253 0.969506 -0.900697 0.332092 -1.13301 -0.374891 -0.0863691 -0.131224 -0.0533678 0.917548 0.54836 0.613937 -0.335107 -0.0100678 -0.932514 0.899157 0.258555 -0.57543 -0.101272 0.478561 0.269703 0.0937926 -0.121413 0.131483 0.942091 0.209114 -0.177617 0.838427 -0.0747831 -0.699922 -0.847808 0.138309 0.376477 0.00134294 0.782141 0.735669 0.1228 0.474457 -0.83048 -0.076927 0.884562 -0.521314 0.21023 0.434686 -0.213046 0.349395 -0.699812 0.033169 -0.2926 -0.622035 -0.486809 0.0614947 -0.158768 0.586602 0.62691 0.628582 0.132252 -0.488245 -0.49937 0.866199 -0.130739 0.6432 -0.518811 0.0159038 -0.730242 -0.825566 -0.0677636 0.718706 0.693918 -0.30278 -0.127772 -0.174242 0.232314 -0.707667 0.491068 -0.114707 -0.283627 -0.617501 0.571386 -0.327302 -0.469718 0.517935 0.311522 -0.770142 -0.55104 1.03039 0.154255 -0.889418 0.784582 -0.633551 -0.895037 -0.110205 0.533869 0.41299 -0.462359 0.358708 0.648862 0.439217 0.0199291 -0.0163026 -0.466036 -0.381209 -0.167446 0.682239 -0.546566 0.419332 -0.356307 0.508916 0.341674 -0.183486 -0.448187 -0.789133 0.428438 0.0292545 -0.456688 0.295189 -0.119813 -0.384008 -0.301367 0.407804 0.594513 -0.319222 -0.217923 -0.275111 0.905236 0.0866612 0.975029 -0.227118 -1.05501 -0.897545 -0.48924 0.0902765 -0.33971 -0.694247 0.707602 0.50024 -0.336828 0.425578 -0.0342645 0.106432 -0.0628232 -0.730405 0.32599 0.340659 -0.454168 -0.437316 -0.49402 -0.352007 0.319191 0.581506 0.0721456 0.0808273 0.367183 -0.171072 0.0759391 -0.248244 1.14711 -0.0033683 0.187417 0.410886 -1.17102 -0.310462 0.297191 -0.573042 0.626945 -0.0732409 0.0732241 0.291058 0.638989 0.0208613 -0.362049 0.327921 -1.00725 0.278539 0.332611 0.762179 -0.523672 1.12708 -0.93432 0.148929 0.100326 -0.790251 0.339037 0.864131 -0.846658 0.428054 0.837934 0.167015 0.00460016 0.302315 -0.735543 0.582404 -0.484073 -0.302116 -0.195159 -1.29688 0.779509 -0.0826236 -0.474966 0.0558476 -0.308764 -1.2026 -0.815424 0.748005 -1.14637 -0.382131 -0.346089 -0.66414 -0.252047 -0.397911 -0.442484 0.890455 -0.385325 -0.692959 -1.02853 -0.716587 -0.340887 -0.763008 -0.486408 -0.548621 -0.167655 -0.298345 0.0719955 1.05342 0.709941 1.10044 0.610472 -0.131566 0.449894 0.435496 -0.35787 -0.121937 -0.680282 -1.13846 0.085912 0.57915 -0.677007 -0.636501 -0.567742 0.146084 -0.735907 0.0665594 0.269626 0.409186 -0.66707 0.628837 0.182022 0.402325 0.194533 0.27528 -1.05791 -0.649388 -0.327225 -0.170265 -0.0264339 0.530227 0.442539 0.556812 -0.357646 0.377596 -0.664614 -0.996503 0.0396365 -0.660653 -0.305853 -0.846421 0.246869 0.739103 -0.823341 -0.861713 0.156034 0.143012 -0.674814 -0.272518 0.487045 0.539249 0.917623 0.764741 0.533032 -0.828512 -0.131146 -0.112965 0.267255 0.300215 0.324525 0.376446 0.254081 -1.03136 1.05168 0.473457 -0.785428 0.616499 -0.657937 0.208364 -0.750856 -0.150781 -0.511127 -0.477387 0.274763 -0.909173 -1.63037 0.265657 0.414365 -0.474023 -0.691213 0.0917799 -0.565663 0.547796 0.413589 0.407542 -0.393954 -0.55295 -1.16947 -0.512008 0.019538 0.692632 0.848015 0.905679 0.77983 0.325691 0.113373 -0.269286 0.159836 -0.0601236 -0.123212 2.14515 -0.723499 -1.01143 -0.667766 1.33497 -0.520607 0.486056 -0.377091 -1.01364 1.02503 -0.440879 0.0191831 0.11553 -1.36206 0.478836 -0.068843 -0.615969 -0.00577976 0.697777 0.175687 -0.938544 -0.75852 -0.808911 -0.579049 -0.255695 0.627158 -0.63132 -0.260806 -0.10027 -0.695386 0.383186 0.5201 -0.467928 0.461274 0.839584 0.372128 0.288745 0.376153 0.41579 0.246238 0.602603 -0.227931 -0.500466 0.456821 -0.237928 -0.237554 -0.444135 -0.330897 -0.109076 0.290022 -0.0687261 -0.112104 -0.269053 -0.449776 0.290286 -0.207888 -0.249018 0.143694 -0.745488 -0.111474 -0.375921 -0.508201 0.164601 -0.100594 -0.545224 0.103905 -0.58925 -0.281942 0.316315 0.667755 2.04151 -0.725542 -1.40879 -0.951 0.461822 0.0871259 -0.0242702 -0.69131 -1.06251 -0.752155 -1.56296 -0.589937 -0.38495 -0.158346 -0.572627 0.074034 -1.03793 -0.589567 -0.643959 -0.619031 -0.797045 1.11669 0.750812 0.549555 -0.981083 -0.380172 -0.698366 0.532852 -0.314352 1.11572 -0.333417 -1.09037 0.171288 1.46497 0.382016 0.444899 -0.445434 0.429868 0.590716 0.27198 0.156653 1.24362 -0.75718 -0.807488 -0.356305 -0.800492 0.604957 0.76723 -0.569434 0.36591 -0.33015 -1.46588 1.33057 1.04106 -0.0938953 0.13571 -0.606166 -0.85314 0.721181 0.541061 0.538656 0.895164 0.920848 -1.11404 0.541307 0.494088 -1.26586 -0.971526 -0.0902249 0.0214789 0.73138 0.602968 0.206295 -0.0749842 0.108825 -1.22051 -1.19774 -0.465067 0.128383 0.233801 -0.430985 -0.895271 -0.132399 -0.445303 -1.11949 -0.335888 -0.367105 -0.371045 -0.536497 -1.10908 -0.342665 -0.362646 -1.00082 0.305581 -0.539068 0.145974 0.0266916 0.531246 -0.291678 -0.69315 -1.0008 -0.866423 0.279768 0.799998 0.15895 -0.213826 -0.156548 -0.220852 0.613999 -1.31706 -0.481216 0.0360558 -1.1093 -1.20654 -0.144024 0.154142 -0.280945 -0.231686 -1.38971 0.129081 -0.365166 -0.596054 0.278692 0.504613 0.458794 -0.148794 0.255292 0.0248821 -0.662054 0.328274 0.862607 -0.571062 -0.519014 0.867812 0.654575 -0.102508 0.222625 0.481107 0.605744 0.387909 1.17147 0.633665 -1.07262 0.400648 0.243274 -0.517832 -0.6518 -1.25921 -1.66218 -0.246062 -1.6445 -0.776463 -0.795698 -0.138973 -0.470031 0.501135 -0.188364 0.0503807 -0.538869 -1.01117 -1.09603 -0.275215 0.153203 -0.0393078 -0.911759 -1.21023 -0.587502 -0.687725 -0.172014 -0.818031 0.260814 0.364334 -0.63628 1.22462 -0.164476 0.146521 0.790895 0.169538 0.684355 -0.31648 -0.739253 1.15973 -0.384307 -0.711571 -1.08354 0.967911 0.44773 0.00969124 0.272293 1.14864 -0.858967 -0.156793 -0.589314 0.758843 0.341166 -0.243457 -0.170742 -1.49188 0.680943 0.590854 0.333794 0.286192 -0.360557 0.80504 -0.506012 -1.6318 0.00359238 0.686293 -0.725417 -0.290406 0.77676 0.239479 -1.33085 -0.199311 -0.205928 -0.399822 -0.335907 -0.86989 -0.328833 0.223966 -0.888672 0.471064 0.438424 -1.39799 0.00639423 -0.456392 -0.975461 -0.917653 -0.233535 -0.904769 -1.32796 0.882545 0.479187 -0.463827 -0.938812 0.174441 -0.896375 -0.808869 0.469741 0.491139 0.0194182 -0.0240325 -0.667923 -0.0362798 0.537671 -0.00408346 0.0303965 0.00836462 -0.614404 -1.00799 0.401947 -0.00501348 -1.2095 -0.521107 0.332084 0.117522 0.378621 0.707152 -0.362882 1.17674 0.129063 -0.915326 0.0581302 0.37827 -0.078772 0.774572 0.934449 -0.836331 -0.703233 0.109772 0.350021 0.573883 0.367348 -0.136687 -0.894091 -0.707569 -0.90004 -0.99599 0.262363 0.116232 0.26084 -0.511874 0.533703 -0.695508 0.336362 -0.282413 -0.147438 -1.67817 -0.851223 0.662912 0.410884 -0.263553 0.525171 -0.143538 -1.10643 -0.666791 -0.634148 0.825189 -0.0930292 -0.501099 -0.253116 -0.108523 0.46057 -0.287391 -0.285831 -0.510068 0.178045 0.728927 1.13269 0.215287 0.302258 0.812345 0.294386 -0.846597 1.04208 -0.525034 -0.782831 -0.513878 0.586111 -0.621929 -1.06193 0.106156 -0.633835 -0.292856 -0.0261655 1.47469 0.0711617 -0.944672 -0.946656 1.2512 0.368563 0.296048 0.749352 0.839389 1.96759 0.726723 0.784693 -0.629947 -0.123642 0.588751 -0.388124 -0.512133 0.501628 0.270502 1.18414 -0.639381 -0.471481 -0.103092 -0.131845 -0.578763 1.24972 0.230478 -0.0832134 0.614895 -0.826832 0.273593 0.662769 -1.14986 -0.976079 -0.180581 0.960679 -0.846988 -0.578984 -0.15503 0.476989 0.375618 -0.151001 -0.119539 -0.0683822 0.54507 -0.0605346 -0.486612 -1.00455 -0.530329 0.297 0.367628 0.022878 -0.751292 1.28605 -0.395408 0.254965 -0.37994 -0.0672055 -0.185609 1.38118 -1.37637 -0.631695 0.935482 0.270023 -0.0155445 0.172282 -0.749611 -0.45098 -0.178584 -0.576237 -0.598099 0.244051 -0.465908 -1.16486 -0.0228117 0.325653 -0.720606 -0.186464 -0.910761 0.225882 -0.348993 0.43041 -0.267818 0.221989 -0.060742 -0.890442 0.621953 -0.398836 -0.940452 -0.297975 -1.12515 0.383942 -1.05925 -0.141853 -0.621429 0.789339 -0.548732 1.04315 -0.536412 -0.600539 -1.46835 0.171467 -0.783578 0.5632 0.0780098 1.29024 0.143785 0.87746 0.167657 0.548577 -0.892261 0.209812 0.480327 -1.25036 -1.09474 0.491149 0.971224 0.0324718 -0.292429 0.197694 0.162544 -0.20304 1.14434 0.728681 -0.291773 0.196203 0.140759 0.363701 0.597443 -0.191511 -0.624561 0.643348 -0.267018 -0.417915 0.297135 -0.175604 -1.70021 0.364917 0.263138 -0.410645 -0.234531 -1.13863 -0.65817 -1.60572 -0.121888 0.270657 -0.316679 -0.0659314 1.00354 -0.0854006 -0.853232 -0.800366 0.0696478 -0.253136 -1.0004 -0.510124 0.597931 0.719119 0.0220476 0.645562 0.488765 0.399959 0.122973 -0.11386 -0.449426 -0.139414 0.240534 -0.520053 0.838985 1.03853 -1.03217 -0.148358 -0.439157 -0.839415 -0.964342 1.04492 0.347604 -0.718943 0.34284 0.147603 -0.0272849 -0.0147071 -0.336355 -0.0977051 0.457289 -1.18122 -0.0476311 -0.254329 0.520369 -1.11722 -0.137923 0.0820068 -0.990431 0.940933 0.168019 -0.990693 -0.694115 0.585141 -0.463689 0.606571 -0.479654 -0.861203 -0.754064 0.871462 0.019748 -0.507448 -0.0809002 0.517755 0.153629 0.666173 -1.23847 -0.466403 0.305862 -0.109325 -0.570935 -0.292673 0.39567 -0.623295 0.28478 1.40152 -0.492652 0.612225 -0.966717 -0.12218 -0.986435 -1.07059 -0.716852 -0.635662 -0.430903 -0.259546 0.315029 -0.0086122 -0.335447 -0.524354 -0.344154 -0.71108 -0.183803 -0.957912 0.829376 1.16256 -1.41934 0.70258 -0.985879 -0.0240143 -0.557897 0.849991 0.264751 -0.0367521 -1.22339 0.232455 -0.30837 -0.138156 1.21458 -0.975596 -0.444882 0.117168 -0.98581 -0.643063 -0.516528 -1.11365 -0.449968 0.539133 -0.0705365 0.43196 -0.63124 -0.0117297 -0.832028 0.214144 0.207396 -0.556507 -0.520128 -0.612968 -0.00523558 0.135103 -0.0912313 0.337188 -0.46935 -0.735031 0.575751 0.447102 -0.0265093 0.0842313 -0.651311 -0.224578 -0.0272054 -0.278795 0.301711 0.165719 -1.04333 0.484664 -1.19981 -0.0813175 -0.373114 -0.0308794 0.609372 -0.635799 0.421696 -0.18615 -0.89589 0.505507 0.0729971 0.938922 0.644404 -0.726983 0.504727 -0.334903 -0.63447 -0.17555 0.820081 1.14271 -1.33803 -0.829771 0.649095 -0.544211 -0.397279 1.66031 -0.129605 0.176969 -0.151697 -0.604661 0.963032 0.139966 0.051818 -0.629195 0.48173 0.0752508 -0.16732 0.803652 -0.310013 -0.856297 0.581845 -0.884334 -0.4946 -0.762088 -0.267308 0.517177 0.498728 0.806906 0.0795824 -0.643704 0.682401 0.125245 -1.2261 -0.410033 0.307591 0.880225 -0.9914 0.108123 0.700243 0.770067 -0.70569 -0.323538 0.22802 -0.797983 -0.447014 0.212286 0.22851 -0.0462636 -0.126604 0.754409 -0.289499 -0.721067 0.268366 -0.191731 0.527085 -0.997404 0.841201 -0.0628733 -0.717704 -1.36143 -0.466198 0.232892 -0.130883 -0.641751 -0.122504 -1.22243 -0.788706 0.0886339 0.907602 1.41354 -1.11806 0.89317 -0.0309978 1.18926 -0.288527 1.19925 -1.04999 -0.723152 -0.69464 -0.160139 0.756388 -0.65063 0.0943679 -0.201532 -1.2136 -1.00405 -1.24999 0.891058 0.159931 0.637946 -0.771207 -0.053992 -0.233525 -1.06654 -0.101681 0.59921 0.983243 0.430111 0.864261 -0.49525 0.488464 -0.848407 -0.60141 0.119637 -0.601753 -0.187269 -1.11212 0.91976 -0.43293 -1.2326 1.02717 -0.35525 -0.0231741 0.446144 0.0142036 -0.33637 0.435926 -1.25793 -0.00665173 0.392828 -1.45852 -0.408348 -0.39931 0.445967 0.695055 -1.12936 0.60655 -0.234211 0.0655174 0.0923472 -0.602612 0.040456 -0.494258 0.318635 0.614998 -1.06088 -0.906799 -0.484024 -0.73512 -0.387945 -0.354146 0.0886835 0.596308 0.910149 0.904759 0.419808 -0.415571 0.833781 0.788903 0.381099 0.891961 -0.670037 -0.441676 -0.0623315 -0.529539 -0.615338 -0.87015 -0.179711 -0.631444 0.38843 -0.311978 -0.49069 -0.989212 -0.0240056 -0.183491 0.0488889 0.0070387 -0.18871 0.485754 0.00687127 -0.104387 0.191105 -0.579807 0.239456 0.438947 -1.00606 -1.00803 -0.18864 0.355575 -0.192859 -0.251033 -0.760189 -1.66065 0.0956863 -0.809146 -0.781432 -1.05109 0.5202 -0.789005 -0.0732117 -0.142183 -0.760818 -0.672258 0.530294 -0.984901 -0.488365 0.261465 0.192345 0.318096 0.516215 0.340049 -0.510736 -0.695419 -0.196715 0.164768 -0.630331 -0.720069 -0.635084 -0.43424 0.405193 -0.211317 1.09083 -0.437381 0.855246 0.643215 0.422872 0.69958 -0.795901 0.366872 0.701136 0.255731 -0.0686984 0.518934 0.453286 0.0270546 0.306698 -0.935689 -0.134799 -0.161164 -0.486969 0.0831758 0.620426 -0.949081 -0.728504 0.451 0.785637 -0.909054 0.882879 -0.710827 -0.871687 0.860914 0.33689 -0.963625 -1.19545 -0.355642 0.0231262 -0.289856 -0.961598 -0.404786 -0.589675 0.619333 0.626829 0.461656 -0.928443 0.780927 0.628428 -0.679521 -0.433981 0.246781 -0.184847 -0.862041 0.361913 -0.453655 0.713052 -0.564452 -0.0131258 -0.312339 0.148864 0.278892 0.849983 0.836276 -1.21359 0.206251 0.152289 -0.373833 -0.581557 -0.17627 0.627986 0.0788972 0.815306 -1.06353 0.668065 0.382278 -0.320688 -0.0119027 0.255767 -0.589723 -0.667712 0.358557 0.330089 -0.524642 -0.361108 -0.456198 0.375928 -0.410364 -0.103234 -0.449818 0.011038 -0.326432 0.54865 0.129408 0.057278 -0.703572 0.253177 -0.767744 -0.23548 0.501215 -0.936515 0.456336 0.275659 -0.848632 0.830332 -0.278973 -0.207662 -0.0225696 -0.0138895 -0.254618 -0.204521 0.12238 -0.940817 -0.525628 -0.247271 -1.07526 0.93172 0.0657973 0.226661 -1.14863 0.13554 -0.828513 -0.38705 0.648454 0.208873 0.07346 -1.06749 0.302897 -0.919255 -0.00564671 -0.934794 -0.887336 -0.157752 0.0631556 0.822312 -0.202624 0.857029 -0.526521 -0.941726 -0.278869 -0.463516 -0.704149 -0.326451 -0.353643 0.893206 0.255147 -0.032631 -0.56603 0.221843 -0.4479 -0.472087 0.407638 0.581203 0.84672 -0.202523 0.596614 0.449708 0.868056 0.334366 -0.213791 -0.305214 1.05841 0.674803 -0.629634 0.141818 0.870534 0.443736 0.947139 0.922941 -0.521356 0.910852 -0.635627 0.410475 0.199415 -0.616144 0.874139 0.76555 -0.257406 -0.496792 0.299239 -1.02786 -0.23881 0.304956 0.470065 -0.12051 -0.461825 0.128277 0.398298 0.589898 0.0569586 -1.02366 0.0537513 -0.872092 -0.372039 -0.160294 -0.95598 -0.86893 0.234838 0.461838 0.506293 0.640854 -0.58924 0.865173 -0.222212 0.546071 -0.522016 0.475442 0.309007 0.844437 -0.79903 0.279541 0.907514 0.0574643 -0.388567 -0.851336 0.0538037 0.736 -0.226375 -0.622381 0.959602 0.878394 -0.657287 -0.0323991 0.762599 -0.675976 0.906986 -0.371264 -0.131444 -0.966299 -0.934859 -0.271478 -0.226279 -0.663712 0.565016 -0.96858 -0.490477 0.00546468 -0.189057 0.182493 0.965231 -0.535599 0.854434 0.683336 -0.229516 -0.420013 -0.427303 -0.156152 0.673534 -0.215073 0.0725014 0.707535 -0.961237 0.744904 -0.839351 0.0688446 -0.934884 -0.677044 -0.431716 -0.7648 -0.0373191 0.767078 -0.862651 -0.0939971 0.695486 -0.797713 0.424253 0.3584 -0.371251 -0.51132 -0.128839 -0.0609641 0.153359 -0.837194 -0.0997606 -0.26993 -0.802355 -0.538593 0.943407 0.207937 0.91272 -0.441652 0.587787 -0.674676 0.887427 -0.200914 0.762126 -0.090274 0.994325 -0.498275 0.504548 0.21734 -0.808495 -0.982184 -0.391582 0.434751 -0.229492 -0.623917 -0.657966 0.774491 0.478522 -0.596743 -0.224934 -0.189352 0.584193 -0.343341 -0.479469 -0.435136 0.285307 -0.0660818 -0.611286 0.970463 -0.355299 0.65913 -0.929986 -0.554433 0.414163 0.666498 -0.818391 -0.891987 -0.59953 -0.551712 -0.77818 -0.384302 0.380186 0.765123 0.923802 0.844551 -0.399497 -0.295089 0.928537 0.752234 -0.982686 0.0333621 0.329791 -0.248627 0.154112 0.00585655 0.734329 -0.969782 0.819125 -0.0983488 0.524435 -0.0207737 -0.437162 0.249302 0.159323 -0.777124 -0.523215 -0.983507 0.736279 -0.779564 0.986802 0.773471 0.158059 0.815406 0.54674 0.728846 -0.874099 -0.0121182 -0.0895626 -0.735062 -0.307458 0.440108 -0.308993 0.629761 -0.590509 -0.938651 0.215025 -0.289358 0.562712 -0.346463 0.0404813 0.208292 -0.834332 0.297033 0.491512 0.155881 -0.514606 0.562645 -0.944295 -0.880584 -0.622423 -0.0829719 0.560517 -0.185075 -0.511157 0.176638 0.595491 0.516312 0.587094 -0.344786 0.767899 -0.777393 0.0776972 -0.109399 -0.596801 0.526201 -0.815352 -0.0329562 0.0196891 0.418878 -0.715672 0.104294 -0.998925 0.732491 0.406508 -0.584165 0.638089 0.495197 0.73322 0.796189 0.588452 0.473849 0.00543303 -0.764179 -0.653946 -0.58042 -0.842361 0.704595 -0.31032 0.38039 0.548444 -0.937338 -0.33559 -0.941771 -0.0215261 -0.344373 0.0616528 -0.0195112 0.288201 -0.103552 -0.987967 -0.311147 0.386685 0.648348 0.432593 -0.44725 0.988756 -0.182656 0.777151 -0.375985 -0.804142 -0.406987 0.54092 -0.929052 -0.182117 -0.79055 -0.74287 0.971634 0.098755 0.803095 0.632716 -0.511559 0.614259 0.937356 0.803218 0.182044 0.0249776 -0.508578 0.00575701 -0.408563 -0.457763 -0.380112 -0.282774 -0.314797 -0.973524 0.902965 0.358624 0.232954 -0.169581 -0.371867 0.48972 -0.584182 0.172408 -0.102683 -0.522173 -0.442387 0.691883 -0.166054 -0.144329 0.36373 -0.609481 -0.762244 0.727406 -0.948966 -0.144734 -0.841149 -0.878108 0.166042 0.521352 -0.269764 -0.783206 -0.0212484 0.497771 -0.451309 -0.712375 -0.784854 0.0725208 -0.304857 0.471348 -0.66333 -0.508474 -0.253442 0.934312 -0.429675 0.676956 -0.472066 0.423082 0.956159 0.715837 -0.548634 -0.18458 0.685368 0.837367 -0.00936843 -0.0938447 0.924597 -0.200493 -0.975813 0.599941 -0.571882 0.0877374 -0.724151 0.522207 0.36132 0.0733628 0.576747 -0.238827 -0.528934 -0.126685 -0.405377 -0.274819 0.91977 -0.554902 -0.614797 0.260312 0.378101 0.200231 -0.849265 -0.878698 0.931925 -0.0841414 -0.205142 0.754631 -0.411886 0.314085 -0.235096 -0.124233 -0.0605363 0.0221536 0.784167 0.933528 -0.63555 -0.364326 0.760178 0.619208 0.16217 -0.21084 -0.0411622 -0.0685997 0.906284 0.206849 0.968986 -0.273988 0.990507 -0.71304 0.52657 0.968423 -0.665791 0.600111 0.462069 -0.0183636 0.952638 0.931468 0.187572 -0.392006 0.372957 0.317152 -0.921861 -0.389432 0.758811 -0.681461 -0.585133 0.458388 0.848709 -0.449484 0.272224 0.903799 -0.692474 0.173569 0.838362 -0.945846 -0.068843 0.617041 -0.708057 -0.0415324 -0.108353 -0.77622 -0.207876 0.981407 -0.291186 -0.386964 0.836467 -0.802718 -0.105576 -0.358724 -0.604664 0.145656 0.525653 -0.882674 0.752367 0.797013 -0.542176 0.574008 -0.829389 -0.82522 0.79486 0.616908 -0.412253 0.179554 -0.371231 0.644312 0.868412 -0.793569 0.405399 -0.859878 0.513154 0.0463545 0.0706294 0.789442 0.052539 0.0106912 -0.735559 -0.500604 0.02105 -0.859576 0.106618 -0.291103 0.70136 0.546733 0.757757 -0.610919 0.160406 -0.263232 0.184419 0.248003 -0.553939 -0.0270548 -0.875692 -0.541212 -0.127419 0.335032 0.707991 0.308079 0.920579 0.0231049 0.349627 0.885554 -0.133114 -0.887699 0.192979 0.688624 0.495816 0.0562951 -0.30213 0.171199 0.191622 0.625264 0.384304 -0.308812 0.845816 -0.00884302 0.054262 -0.801092 -0.12433 -0.540917 0.558718 -0.183095 -1.04581 0.340609 0.00918342 -0.591385 -0.163142 0.918994 -0.390667 0.738904 -0.737269 0.457369 0.941904 -0.883749 0.869858 -0.247815 0.619238 -0.789971 0.839478 -0.902635 -0.610211 -0.0596012 1.05257 0.327172 -0.250103 -0.435298 -0.8504 0.718738 -0.18127 -0.892611 0.288034 0.890834 -1.17893 0.600074 -0.354366 -0.750328 0.403417 -0.668178 0.471874 -0.513521 0.0531092 -0.580339 -0.723913 -0.469857 -0.383044 1.27826 0.702648 -0.703879 -0.732547 0.00326162 -0.18465 -0.180658 0.244055 -0.563305 -0.708752 -0.561531 1.03203 0.597635 -0.787951 -0.779414 -0.747421 -0.899768 -0.360217 1.28973 -0.930059 0.219957 -0.320129 0.117516 0.172271 -0.405628 0.28499 0.518023 -0.0457411 -0.358266 0.339497 0.155611 0.589827 0.474544 0.291478 -1.04957 0.121963 0.255426 0.555459 0.459135 -0.143801 0.409591 -0.630545 0.417371 0.753439 0.760964 -0.621147 0.182958 1.0515 -0.847762 0.124556 0.410426 -0.0725354 0.681991 -0.0391083 0.0253309 -0.965971 0.286753 -0.342007 -0.496921 -0.0505651 0.190781 0.957485 0.766205 -0.820946 -0.641493 0.674171 0.387477 -0.420123 0.303357 -0.0894563 1.09813 -0.677468 -0.731233 0.662217 0.191906 -0.119628 -1.06582 -0.38869 -0.478146 -0.358432 0.992613 -0.407364 0.619734 1.06744 -0.935543 -0.0109738 -0.0180876 0.44902 -0.242582 -0.634996 0.188584 0.834288 -0.933469 0.954484 -0.236342 -1.2143 0.0136737 -0.375392 -0.887365 0.202157 -0.0490242 0.116799 0.373394 0.504768 0.438016 0.298105 0.865276 -1.04707 -0.802203 -0.0421167 0.964135 0.00735679 0.00819936 0.251567 0.517862 0.164956 -0.0195166 -0.0350157 -0.034787 -0.166025 -0.740381 0.59281 0.268701 -0.234676 0.306723 -0.573837 0.332015 -0.270467 -1.06 -0.274861 0.483831 -0.111982 -0.899632 -1.09946 -0.398819 0.877607 1.05952 0.705887 -0.766878 -0.486787 0.0192065 -0.502367 -0.762392 0.0812153 -0.694583 0.688108 0.643935 -0.591308 -0.922306 -0.0432975 -0.20372 1.44445 -0.143401 0.284693 -0.502374 -0.893583 -0.560889 0.475268 0.153999 0.344949 -0.504946 -0.31204 -0.199508 -0.298252 -0.56764 -0.476457 0.10466 0.0951056 -1.28369 0.729427 0.499552 -0.910067 0.856263 0.589115 0.107707 0.215304 -0.369763 -0.310456 0.906781 1.38407 0.773592 -0.0546048 0.0687313 0.188537 -0.475654 -0.731472 -0.827564 1.19257 -0.532911 -0.659244 -0.0126362 0.821583 0.171321 -1.4135 -0.169858 -0.671978 0.197694 -0.459643 0.503532 -0.64828 0.00505028 0.262441 0.286814 -0.616726 -0.489914 1.16323 -0.129631 -0.776244 0.882141 0.375269 -0.555372 -0.555964 -0.831506 1.00542 -0.850536 -0.1656 -0.900643 0.221917 0.504713 0.298721 0.132018 0.11415 0.226205 0.258884 -0.797942 -0.377697 0.511058 0.913938 -0.509422 0.286231 0.054513 -0.104723 -0.12838 -0.580267 -0.139824 -0.225377 0.265706 -0.565349 0.00409011 -0.600239 -0.0608403 0.815592 0.530971 -0.446145 -0.874091 -0.441826 -0.137598 0.0526313 0.35987 0.414725 -0.689296 -0.968466 -0.112504 -1.39648 -0.937778 0.0248051 0.157929 1.3021 -0.663712 -0.334001 -0.986314 0.858994 0.489513 -0.343481 0.194881 -0.255735 0.660908 -1.19181 -0.98702 0.509256 -0.888589 -0.382966 -0.172002 -0.066719 -0.608338 -0.3092 1.07624 0.28539 0.665088 -0.753354 0.418454 -0.497276 -0.609657 -0.566965 0.397933 -0.575535 -0.488581 -0.488018 -1.16497 0.296288 0.497996 -0.14491 -0.753529 -0.571093 -0.881005 -0.333774 -0.111001 -0.657717 -0.203475 -0.502578 0.615544 -0.575569 -0.468299 1.07217 0.612512 -0.166547 -0.37214 -0.421843 0.248492 0.511006 -0.200724 -0.455937 0.29454 -0.671302 -0.999844 -0.613711 0.184919 -0.32185 1.50178 0.869654 -0.748195 0.0148081 -0.0514551 -0.600095 -0.147196 -0.359282 -0.414755 0.675183 0.0761032 -0.135173 0.733131 0.593752 -1.05314 -0.407481 -0.910338 -0.623151 -0.313276 -0.444592 -0.714012 -0.288244 -0.551843 0.0622218 0.687109 0.659656 0.576822 1.19125 0.538481 