Inputs_node_num= 784
hidden_layer_num= 2
hidden_node_num= 100
output_node_num= 10
-0.171521 0.284655 0.67639 -0.479879 0.506282 0.563037 -0.520556 0.145746 0.598256 -0.239167 0.033685 0.540687 -0.0990928 -0.235329 0.654352 0.250093 -0.0220449 0.987285 -0.90819 -0.0982734 -0.586775 0.583732 -0.154322 0.922509 -0.852697 -0.234888 0.513651 -0.0675971 0.448798 -0.85028 0.195881 0.919141 -0.576414 -0.919527 0.331825 -0.957309 -0.676006 0.0472602 0.264971 0.587929 -0.0794111 -0.990772 -0.592063 -0.182507 0.370011 0.134905 0.135727 0.785994 0.941652 -0.286727 0.607826 0.250888 0.753428 -0.223376 0.257223 0.126184 -0.628081 0.965561 -0.194949 -0.284511 0.140822 -0.13105 -0.478336 0.116499 0.601847 -0.703485 0.658627 0.7162 -0.227519 0.408121 -0.752548 0.870662 -0.62781 0.600303 -0.0228323 -0.337217 -0.271706 0.584418 -0.425102 -0.106616 0.113456 -0.365573 -0.775196 0.137922 -0.0503123 -0.545825 -0.0806735 0.254991 -0.248751 -0.584817 0.651409 -0.49442 -0.528326 0.637459 0.796127 -0.0265071 0.560377 0.651651 -0.512332 -0.369497 -0.335695 -0.360502 -0.327221 0.153658 0.322706 0.842712 0.732786 -0.893451 0.419337 0.233314 -0.279329 -0.120463 0.668577 -0.181113 0.561876 0.740862 -0.464619 -0.317011 0.641312 -0.377267 -0.20638 0.939945 0.553503 0.199186 -0.364352 0.184507 0.693427 0.48539 -0.0809364 0.542727 -0.213437 0.540313 -0.385069 -0.474042 0.321321 0.993699 0.0664409 0.467541 0.767415 0.597318 -0.100673 0.775093 0.0946338 0.156105 -0.925075 0.818114 0.982467 -0.816576 -0.212563 0.395069 -0.14224 -0.0612517 -0.322448 0.835532 -0.194919 -0.220894 -0.219315 0.0896919 0.255913 -0.48764 0.944712 -0.320056 0.663884 -0.294597 -0.427361 0.408786 0.0784918 -0.781336 -0.998436 0.490387 0.0497175 -0.48892 0.708655 -0.581927 -0.825698 0.145288 -0.374235 -0.696202 0.602034 -0.914176 -0.680598 -0.597885 -0.794268 0.159973 0.996933 -0.986058 -0.361653 -0.31477 -0.0536504 -0.0326712 0.964106 -0.647536 -0.643303 0.376446 0.33422 0.274732 -0.614305 -0.776299 0.253527 -0.201278 0.584216 0.297131 0.652519 0.00924052 0.504985 -0.593992 0.225452 -0.809837 0.582871 -0.170012 0.476903 -0.933605 -0.262343 0.498574 0.641336 -0.766225 -0.888199 0.165358 0.665402 0.267035 0.230842 -0.656671 -0.102012 0.325772 -0.659555 -0.607315 0.83048 0.222263 -0.245079 0.608469 -0.419229 -0.101527 0.438895 -0.857218 0.476182 0.295415 0.983885 -0.155948 0.413983 0.781742 0.932545 0.191518 0.922373 0.855867 -0.128075 0.0515404 0.839008 -0.854786 -0.450565 -0.390261 0.832729 -0.630346 -0.636327 0.912125 -0.279958 -0.114832 0.0583512 0.975526 0.714294 -0.154366 0.295855 -0.391472 -0.371553 -0.411355 -0.978627 -0.744259 0.488251 -0.623217 -0.158244 0.174424 0.221023 0.651041 -0.587845 -0.273597 0.455355 -0.15555 0.627891 -0.891844 -0.791926 -0.819824 0.102784 0.5526 -0.932174 -0.712478 -0.711628 0.529104 -0.176019 0.257289 0.807536 0.0826909 -0.913157 -0.0161063 0.785264 -0.53965 0.202301 -0.331802 -0.922549 -0.891182 -0.0564741 0.945145 0.49057 0.693371 -0.656291 0.437712 0.398851 0.722205 0.75883 -0.85414 -0.641842 -0.122775 0.753291 -0.146314 0.33756 -0.530748 -0.641128 0.158442 0.94948 -0.799842 -0.764584 0.061283 0.754055 -0.474815 -0.520625 0.0592984 0.719067 -0.00537598 0.637029 0.151651 -0.189106 0.368623 -0.157353 0.963655 -0.378881 0.709264 -0.995667 0.301094 -0.55347 0.27467 -0.104104 -0.235865 0.510925 -0.301242 -0.39241 -0.122543 -0.133994 -0.412477 0.018251 -0.398114 -0.136075 0.537724 -0.879749 0.880528 -0.615363 -0.50552 0.481459 -0.54541 0.980105 -0.140336 0.29857 -0.962091 -0.75399 -0.724284 0.743916 0.16942 -0.229955 -0.00983037 -0.54664 -0.540588 -0.0467648 -0.881384 0.786397 -0.52016 -0.271791 -0.144513 0.923395 -0.00523009 0.471818 0.450146 -0.851957 -0.0944932 0.326652 0.190201 -0.997861 0.0352982 0.773748 -0.572698 -0.343426 -0.272783 -0.754398 -0.189068 0.576642 -0.359294 -0.923813 -0.264057 -0.425768 0.857681 0.462632 -0.626706 -0.776998 -0.50511 0.577197 0.112203 0.169853 -0.538214 0.915014 -0.597737 0.91905 -0.542052 0.764938 -0.620854 0.163549 -0.944553 -0.558587 -0.0871784 0.252538 0.856368 0.669876 -0.731771 -0.409069 0.766932 0.994153 0.817805 -0.331072 0.760952 0.163615 -0.289643 0.864142 0.953249 -0.803131 0.658084 -0.630712 -0.844669 0.631158 0.14314 0.836449 -0.247145 -0.280392 0.756101 0.439542 0.708807 0.900615 -0.911286 -0.232078 0.217329 -0.905283 -0.077399 0.379476 0.844945 0.491735 0.810651 0.871316 0.168459 0.105559 0.781288 -0.441502 -0.1253 -0.487789 -0.0977005 -0.903631 -0.760566 -0.142424 -0.358309 0.670083 -0.347806 0.163566 0.574662 0.279887 0.213999 -0.595392 0.872954 0.494649 0.457949 0.0389249 0.700618 -0.801741 0.937075 0.286763 -0.346132 0.323801 -0.26874 -0.837345 -0.483504 0.602195 -0.384426 0.720474 -0.391442 0.25561 0.20154 -0.399587 -0.228894 0.36659 -0.0695208 -0.0699435 0.696942 -0.075502 0.784843 -0.837249 0.966054 -0.993422 0.711135 0.611472 -0.929033 -0.954743 -0.159874 0.0293351 -0.548029 -0.366478 0.050247 0.0216996 0.771873 0.724933 0.0214867 0.832175 0.991175 -0.33724 -0.550956 -0.805232 -0.824029 0.607995 0.109188 0.368131 0.0315186 0.2798 0.174406 0.829925 0.405883 -0.522075 -0.109613 -0.416309 -0.21744 -0.805099 -0.71375 -0.192688 0.369581 0.52981 -0.483893 -0.135777 0.643589 -0.590513 0.719289 -0.766933 0.981853 -0.549503 0.685163 -0.196905 -0.737082 0.620655 -0.610494 -1.00059 0.704267 -0.457378 0.416828 0.697656 -0.00838105 0.869815 0.726653 0.850105 -0.926863 0.800893 -0.375665 -0.530801 -0.00635658 -0.588859 0.927559 0.591588 -0.0822359 -0.794316 -0.649684 -0.535288 0.821648 -0.380121 0.0721857 -0.226744 0.630575 0.582717 0.129375 0.106091 0.0937071 0.692507 -0.220481 0.659571 -0.319324 0.812834 0.00104281 0.619326 0.81247 -0.371031 -0.189411 -0.87757 -0.68639 -0.86548 -0.491285 0.804717 -0.642048 0.624743 0.748227 0.1721 0.76131 -0.037205 0.364715 -0.585101 0.659222 0.057357 0.581444 -0.756077 -0.404312 0.0160951 0.594983 -0.495616 -0.325136 -0.103776 0.399325 0.117898 -0.264751 0.923188 0.813312 0.806122 -0.471353 0.360442 0.806385 0.317125 0.737255 -0.109878 -0.158917 0.569251 0.720993 0.503975 0.950838 0.281015 0.777063 0.844852 0.712466 -0.0625264 -0.516549 -0.225337 -0.543628 -0.533752 0.885805 0.612966 0.250883 0.492751 0.854825 -0.0886373 0.618702 0.0212167 0.574769 -0.986096 -0.516502 -0.465812 0.475051 0.355714 0.230399 -0.298395 -0.53349 0.150798 0.0927142 -0.751841 0.640273 0.750884 0.205041 -0.654238 -0.640486 -0.0696476 -0.689709 -0.199355 -0.223882 -0.182853 -0.438098 0.57005 0.392141 -0.751658 -0.364017 0.435543 -0.339999 -0.266533 0.960018 0.331634 -0.560965 0.758557 0.934525 -0.410726 0.497759 0.612673 0.0775565 0.903467 0.903571 -0.954561 -0.107583 -0.272638 0.57256 0.0454474 -0.45509 0.13308 -0.778082 0.262073 -0.839623 0.869328 0.271852 -0.268301 0.664731 -0.821644 0.826902 -0.839859 -0.162355 -0.480665 -0.641992 0.25469 -0.902557 0.112052 0.27453 0.392551 0.050565 -0.485169 0.743065 -0.658572 0.90608 0.977096 0.264373 -0.716883 0.922099 -0.159322 0.719465 0.666721 0.823143 -0.304134 -0.154727 0.244561 0.956335 0.529 0.420499 0.109138 -0.690504 -0.0019896 0.897712 0.348742 -0.997856 0.387573 0.965477 0.341095 0.836061 -0.88384 0.330502 -0.193654 -0.803847 -0.981765 0.917257 0.634853 0.180068 0.567317 -0.504422 -0.987363 0.48318 -0.207611 0.33698 -0.235767 0.160173 0.159654 0.277274 -0.767851 0.0641239 -0.553407 -0.847914 -0.657073 0.762701 0.0845261 -0.122656 -0.717833 0.261344 0.108001 -0.487394 -0.775208 0.431869 -0.0854846 0.28616 0.807374 0.76906 0.357559 -0.311231 0.536075 0.152199 0.330276 -0.564453 0.876913 -0.0477275 -0.451546 0.231492 -0.182953 0.163566 0.370564 -0.216244 -0.813437 -0.45275 0.357645 -0.145525 0.819473 -0.458511 -0.561589 -0.236351 -0.885688 0.371414 0.812617 0.565593 0.264133 0.302067 -0.195666 -0.826724 -0.411981 -0.195745 -0.0462906 0.645423 0.639547 0.00199788 -0.110661 -0.602958 0.528452 0.364001 -0.562744 0.338457 -0.502624 -0.456323 -0.209183 0.903591 -0.576657 0.48851 0.26907 0.470751 0.0841507 -0.0311772 -0.722474 -0.176316 -0.576662 0.58462 0.454751 -0.987115 0.589005 -0.883654 0.744759 0.387143 0.630583 0.987881 0.708008 0.77868 0.939527 0.967422 0.366491 -0.909552 -0.694857 0.198729 -0.431596 0.159432 -0.654023 0.733607 0.671531 0.75336 0.953491 -0.220796 0.165482 0.36632 0.825736 0.746178 0.46166 0.251027 0.14543 -0.235862 -0.670028 0.566185 -0.437261 -0.751362 -0.491712 -0.471999 0.187755 0.0169885 0.702928 -0.462327 -0.730362 -0.777997 0.806983 -0.342534 0.444034 -0.567163 -0.985838 -0.448947 -0.485346 0.635462 0.637736 0.416152 0.747651 0.167864 -0.809894 -0.975217 0.886419 -0.729662 -0.694439 0.721332 0.666894 -0.263245 0.497826 -0.0723637 -0.927359 1.00186 -0.683119 -0.158206 -0.782724 0.839311 -0.229844 0.174323 -0.44779 0.822926 0.981661 0.156618 0.915331 -0.266964 -0.349243 -0.382001 -0.973842 0.787223 0.766213 0.0689545 -0.7629 -0.206533 -0.689554 -0.0794384 0.286161 0.218381 0.467409 -0.905947 -0.0503314 0.796481 0.500491 0.581118 0.535712 -0.153596 0.550852 -0.875485 -0.139083 0.301131 -0.458444 0.929645 -0.254741 -0.00861478 0.634687 0.388355 -0.0889187 -0.0405117 -0.123599 0.107114 0.993712 0.956214 -0.483833 -0.85743 0.882166 -0.426657 -0.542692 0.109713 -0.496995 0.748721 -0.0104518 0.815315 -0.702281 0.730193 0.47624 0.4846 -0.108374 0.0428491 -0.273915 -0.227924 0.0353415 -0.532228 -0.979957 0.401023 0.753639 -0.609269 0.748152 -0.923472 0.275975 0.310719 0.504433 -0.238302 -0.0699726 0.203369 -0.126264 0.633292 0.041433 -0.733998 -0.805644 -0.499937 -0.16607 -0.300404 -0.622774 -0.323921 0.936463 0.582624 -0.355404 0.0513359 0.0716194 -0.00761362 -0.663876 -0.365874 -1.03257 -0.72959 -0.227133 -0.159698 -0.345044 0.233141 -0.804111 0.716821 0.155888 0.164534 -0.119599 0.0238732 0.470395 0.399724 -0.702875 -0.841989 0.832009 0.101431 0.813564 0.411907 -0.675113 0.0513087 -0.209939 0.389634 -0.0537996 0.961397 0.66647 -0.369902 -0.991846 -0.27591 0.49165 -0.194306 0.697821 0.375717 -0.550703 -0.655389 0.434212 -0.896 -0.449158 0.0109673 -0.646915 -0.673787 -0.795923 -0.332068 -0.800318 -0.48676 -0.864087 0.616534 -1.03736 -0.0434084 0.757361 -0.859812 -0.390285 -0.896058 -0.931365 0.341023 0.731561 -0.828135 0.0717422 0.312086 -0.140616 0.168017 -0.49615 0.529815 -0.781297 -0.977212 0.269813 0.776025 -0.567134 -0.489528 -0.463318 -0.0811844 0.843393 0.747781 -0.346173 0.79403 -0.890841 -0.43563 -0.749654 -0.845536 0.63718 -0.0867794 -0.646884 0.473531 -0.495015 0.725148 0.784234 -0.168639 0.617245 0.561495 0.00241452 0.595537 -0.302979 0.276071 -0.00334546 0.597607 -0.945642 0.358973 -0.542513 0.822199 0.746058 0.990744 -0.379394 0.204817 -0.0944208 0.242794 0.130171 1.00451 0.904273 0.462456 -0.39967 -0.45835 0.878397 0.896313 0.684348 0.364434 0.332136 0.0407048 0.538579 -0.830434 1.01294 0.747912 0.943704 0.572523 -0.96782 0.778397 0.217216 0.705611 0.0086601 -0.373397 0.39968 0.136153 0.165898 -0.39799 0.379624 0.263443 0.232543 -0.522995 0.699812 0.150654 -0.149335 0.116879 -0.12127 -0.442274 0.440165 0.833516 -0.703644 0.553407 -0.224537 -0.33089 -0.186103 0.786632 0.370864 0.77662 -0.376518 0.054876 -0.745827 -0.834633 -0.89621 -0.28333 0.176933 0.134766 -0.132629 -0.413987 0.699721 -0.704368 0.277617 -0.418601 0.768519 -0.334895 -0.0733519 0.55859 -0.436559 -0.972506 -0.7424 0.640903 -0.434321 -0.638866 0.424749 0.734573 -0.712804 0.128877 0.960026 -0.859443 0.687871 -0.663182 -0.48348 -0.72935 -0.77108 -0.271306 -0.938638 0.334592 -0.696867 -0.78837 0.896585 -0.589014 -0.966412 0.599099 -0.172277 -0.664822 0.51796 -0.645381 -0.805946 1.09133 -0.135014 -0.153695 -0.0794267 0.380487 -0.589966 -0.0483004 -0.700605 0.097743 -0.23795 0.623496 0.0277583 0.326904 0.713427 -0.700004 0.429217 0.109514 0.860007 -0.621535 -0.863157 0.722004 -0.188086 0.954566 -0.34499 0.565027 -0.692738 -0.019838 0.434679 -0.399183 -0.356235 0.681401 -0.774834 0.345127 -0.0599619 0.574638 0.00944874 0.350112 0.0691932 -0.0861294 -0.358533 -0.99263 0.846625 0.804551 0.365542 -0.472484 -0.35931 0.518119 -0.950697 -0.732719 -0.853341 -0.920358 0.59098 -0.0594206 0.575448 0.157532 0.81619 0.944206 0.0496126 -0.947323 -1.00062 -0.17147 -0.581945 0.389964 -0.547957 -0.532673 0.39979 0.264697 0.731221 0.647428 -0.468099 -0.241701 -0.781371 -0.912142 -0.0358879 0.342841 -0.281327 0.337627 0.0840807 -0.311511 -0.80401 -0.113834 0.332715 0.222473 0.697664 0.430953 -0.649873 -0.273811 0.901787 0.243688 -0.205083 -0.984239 -0.0283568 0.346155 -0.0465444 -0.907683 -0.668241 -0.123733 -0.677182 0.185207 0.209777 0.286388 -0.270036 0.154563 0.0279 0.158812 0.934253 -0.801201 0.434502 0.164573 -0.776954 -0.324573 -0.117525 -0.570535 0.828263 -0.590791 0.392916 -0.842259 0.871485 0.895309 0.417899 1.16178 -0.103025 0.545551 -0.817733 0.0463415 0.753331 0.155964 0.902716 0.38353 0.493224 -0.75502 0.955063 0.463448 0.525067 0.190177 -0.334853 0.459275 0.902207 1.03012 0.487478 0.571233 0.481469 -0.0320629 -0.326524 -0.116411 -0.440668 -0.500244 -0.479013 -0.892792 0.0710522 -0.177153 0.246144 -0.0423201 0.488605 -0.912674 0.102322 -0.137467 0.801339 -0.977499 0.428381 0.621272 -0.930382 0.162094 0.119516 -0.473556 -0.0981154 -0.108466 -0.048053 -0.596587 -0.15497 0.338027 0.762279 -0.833163 -0.488585 -0.524223 -0.930514 -0.683983 0.249285 0.135984 -0.783524 -0.853844 -0.136197 -0.228294 0.036133 0.681012 0.107239 0.5334 0.359014 0.616807 0.00155811 -0.624495 0.309257 0.567492 -0.114484 0.139758 -0.324773 0.877166 0.942416 -0.645642 -0.166682 0.00300757 0.348507 -0.772474 0.901758 0.497065 0.638504 0.800667 -0.437305 0.513719 -0.180291 -0.44435 0.65542 -0.0291009 -0.649062 0.575243 -0.0139419 -0.395669 0.355865 -0.0534198 -0.609474 -0.208766 -0.685077 -0.218445 0.451647 -0.706962 -0.534853 -0.188767 -0.662972 -0.822683 0.894163 -0.137193 0.121021 0.271624 0.676194 0.721389 0.920241 0.536576 -0.944474 0.75736 0.593626 0.0801013 0.672906 0.342818 0.41824 0.643187 0.558948 0.249608 0.311002 0.123582 -0.907864 0.283349 -0.812541 -0.423664 0.580523 -0.136234 -0.583443 0.214664 -0.47229 -0.586079 -0.806668 -0.243716 0.00344715 -0.0207605 -0.0282946 -0.325475 -0.0256083 0.696916 -0.408016 -0.583786 -0.298936 0.10903 0.958249 -0.149769 -1.00597 0.325582 -0.970772 0.144162 0.393444 0.25078 -0.311619 0.944615 0.183485 -0.170806 0.782567 -0.55435 0.528724 -0.986736 0.0500291 0.873337 -0.848945 -0.855651 0.752548 0.729508 -0.164608 -0.821366 0.591547 0.874859 0.399067 -0.34985 -0.884864 -0.294679 0.590965 -0.860377 0.394736 -0.673207 0.950356 0.0486057 0.506822 -0.511626 -0.798088 -0.191609 -0.120324 -0.153924 -0.145949 -0.752913 0.428681 -0.383988 0.36332 0.640882 0.990889 1.01131 0.825446 -0.606905 -0.817636 -0.0143096 0.534886 0.996825 -0.280072 -0.196018 -0.644069 -0.429897 -0.999014 0.0717832 0.0619875 0.041527 0.0255957 -0.0203438 -0.0413714 0.185782 0.89967 -0.458497 -0.398655 -0.0723902 -0.609665 0.0968537 -0.278463 0.341809 0.33924 -0.543054 0.128452 -0.483461 -0.600186 -0.00808864 0.1781 -0.482538 -0.391477 0.478045 -0.424116 -0.468732 0.820885 -0.29373 -0.0968947 -0.256095 0.0424572 0.846352 0.394334 -0.334562 -0.796454 0.622136 -0.554433 -0.0371645 -0.0778774 -0.72561 0.0661584 -0.538948 0.753981 -0.932596 -0.46069 0.291319 -0.00344681 0.685831 -0.458915 -0.375775 -0.366094 -0.233582 0.12424 -0.644233 -0.789191 -0.713299 -0.741325 0.74302 0.0784141 0.35221 0.878797 0.0498895 -0.785194 -0.27095 0.740172 -0.503869 -0.664727 0.00997213 -0.00769486 0.976639 0.390304 0.668905 0.899262 0.647765 -0.100188 0.57416 -0.643473 -0.849704 -0.369883 0.669907 0.766282 0.212609 0.945054 0.170133 -0.0336755 -0.685192 -0.85289 -0.571782 -0.821431 0.860385 0.220518 -0.899571 -0.0176021 -0.29189 0.865484 -0.466056 -0.14147 -0.0404145 0.85151 0.980842 -0.381329 -0.312501 -0.138825 0.0244864 -0.104618 0.886205 -0.229836 0.191442 0.539316 0.660625 -0.44749 -0.0429614 0.735926 -0.645249 0.304422 0.434964 0.367278 -0.92096 -0.666951 0.471214 0.769249 0.147252 -0.138323 -0.37376 0.737772 0.0774091 0.945092 -0.805224 -0.231304 -0.250185 -0.0915965 -0.232937 -0.519918 0.968113 0.0930316 0.957814 -0.797692 -0.857285 -0.339374 0.61755 -0.97013 -0.315601 0.848355 -0.587476 -0.368291 -0.62593 -0.515603 -0.134254 -0.0950408 -0.300785 -0.556515 -0.972914 0.148125 -0.0569911 0.912169 -0.771815 0.614438 0.801424 0.232629 0.540757 0.253136 0.50194 -0.0318726 0.953683 0.684887 -0.165007 -0.517703 -0.635337 0.975811 0.498412 0.825602 -0.810538 -0.367553 0.901356 -0.0223207 0.334053 -0.606382 -0.114805 0.535123 -0.701217 0.32828 -0.584044 7.02997e-05 0.689565 0.145632 0.882046 -0.467192 0.407375 -0.31815 -0.41967 -0.745982 0.602322 0.745728 0.995043 0.808135 0.583367 0.544599 0.99018 -0.388208 0.506658 -0.860989 0.494749 0.0960748 0.139659 -0.192015 0.758413 -0.359549 0.542814 -0.0974888 0.420883 -0.984281 0.0421868 -0.169781 0.0763865 0.712764 0.0832036 -0.0100534 0.895658 0.488726 -0.517967 0.553252 -0.670587 0.647743 -0.0486784 -0.253995 -0.661368 0.478163 0.766442 -0.746873 0.217837 0.441383 -0.0444261 0.878349 0.552851 -0.947412 0.0483362 0.334652 -0.427419 0.642347 0.735258 -0.964977 0.149444 0.109291 -0.10432 -0.726411 0.306595 -0.618425 0.611429 0.240758 -0.854313 -0.215892 0.70731 -0.593344 0.533955 -0.62491 -0.121377 -0.655826 0.0345538 0.147107 0.599067 0.459163 0.0577767 -0.252348 0.559748 -0.839059 0.739598 0.303187 -0.593659 0.619216 -0.149791 0.394529 0.813496 0.522164 -0.822482 0.98726 -0.595554 0.331862 0.520848 -0.302089 0.0956944 -0.504775 -0.181295 -0.288559 0.749438 0.932673 0.0977317 -0.179842 -0.396697 0.75176 0.429111 0.627678 -0.201775 -0.565881 0.523254 -0.842244 -1.01374 -0.453615 -0.144051 -0.974984 -0.620797 -0.786819 -0.245809 0.610671 0.661222 -0.851387 -0.106519 -1.00075 -0.299262 0.00350611 -0.426403 0.555097 -0.116014 -0.609364 -0.767743 0.125874 -0.500843 -0.104964 0.874695 0.369538 0.091794 0.601196 1.10116 0.494923 0.123253 -0.0781765 0.284287 0.954294 0.67088 0.627234 -0.162067 -0.834942 -0.675131 0.401377 -0.666133 -0.0860176 0.996868 -0.963526 -0.259032 -0.831834 -0.927979 -0.972744 0.556447 -0.617342 -0.544987 0.989287 -0.937197 -0.362472 0.462436 0.215806 -0.531311 -0.875192 -0.983778 0.0527783 -0.260669 -0.711949 0.990078 0.393787 -0.592862 0.789461 0.220437 -0.82874 0.019025 -0.886189 -0.985829 0.12375 -0.401119 -0.0705387 -0.291239 0.698055 -0.39782 0.725821 0.951024 -0.980715 -0.11252 0.65427 0.240305 0.560776 0.775619 -0.73859 -0.558197 -0.174589 0.781407 0.374698 -0.578467 -0.618498 0.33314 0.347383 0.467092 0.811486 -0.0732452 -0.918884 -0.952289 0.566092 -0.925478 -0.33145 0.597284 -0.446603 0.742868 -0.452733 0.822718 -0.261339 0.417452 -0.434689 -0.922906 -0.460855 -0.703776 0.299642 0.869364 0.303563 0.199537 0.26847 -0.104287 -0.132253 0.531582 0.1373 -0.663762 -0.526306 -0.0279731 -0.962854 -0.181365 0.933896 -0.563782 0.553708 0.104005 -0.450333 -0.463043 -0.0140324 -0.433617 -0.404297 0.753607 0.306481 0.96226 -0.482156 -0.762047 -0.917758 -0.876634 0.820165 -0.077168 0.341119 -0.241701 -0.461918 -0.49782 0.256791 0.627975 1.11563 0.241187 -0.781971 -0.0270886 0.120364 -0.709082 0.734011 0.939146 -0.513439 0.964328 0.148288 -0.381199 0.899636 0.151467 -0.832072 0.816231 0.156905 -0.930683 0.182218 0.192386 0.50334 0.415404 0.485807 0.0826506 -0.362123 -0.337664 0.232076 -0.270794 -0.613034 0.29337 0.21288 -0.151045 -0.134478 0.322227 0.0310111 0.662787 0.416842 0.313003 -0.409158 0.6265 -0.395972 0.465293 0.674966 0.766256 0.105952 0.817567 -0.190287 -0.694896 0.939202 0.642353 0.487895 -0.80475 0.397607 -0.779609 0.423191 0.627383 -0.387556 -0.449851 -0.704742 -0.33516 0.301172 0.122288 0.946291 -0.757322 0.808102 -0.831559 -0.697977 0.180836 -0.724233 -0.920456 -0.390947 -0.984608 -0.590219 -0.853003 -0.6065 0.0942913 -0.286821 0.323308 -0.0243564 -0.267768 -0.519192 0.117045 0.585652 -0.271602 0.281295 0.425068 0.74187 -0.457187 -0.754385 0.618391 -0.507363 0.246861 0.929495 -0.0171459 -0.670615 0.784647 0.0948947 -0.333993 -0.216595 -0.00454216 -0.797221 0.175074 -0.700222 0.874757 0.921852 -0.91598 0.195633 0.232759 -0.749462 -0.0425293 0.34771 0.576274 -0.781093 0.161222 0.515395 0.497777 -0.597361 0.863048 0.297502 0.943709 -0.242049 -0.650656 0.00895204 0.581334 -0.0973654 -0.192403 0.477822 0.970248 -0.701551 -0.311323 0.304258 -0.547162 0.487323 -0.25437 -0.157551 -0.000772833 -0.110781 0.752202 -0.541763 0.912626 -0.970359 -0.165955 -0.88918 0.82113 0.287108 0.767058 -0.943824 -0.487494 0.636262 -0.204349 -0.0195435 -0.0780284 0.8773 0.270252 -0.141806 -0.0710256 0.292013 -0.621446 0.345373 0.73369 0.576841 0.164694 0.795686 1.04584 -0.395758 -0.180776 0.362512 0.530038 -0.173273 0.632551 -0.983377 0.320181 -0.918661 -0.440896 0.395165 0.868205 0.697795 0.525854 0.720549 -0.921792 0.504116 0.496654 -0.384733 -0.182049 -0.859567 0.680443 0.509821 0.0751223 -0.914142 0.677856 -0.720436 0.267261 -0.59842 0.939122 0.209875 0.320224 -0.952496 -0.667339 -0.855954 -0.745225 0.96439 -0.521457 0.340831 -0.659619 -0.301626 -0.56662 0.866019 0.31224 -0.612627 0.783678 -0.124765 0.607529 0.813864 0.307946 0.262658 0.368566 -0.429274 -0.170017 0.504334 0.0288091 0.246527 -0.502574 -0.45103 0.541976 0.0812992 0.868947 0.212026 0.162596 0.795938 -0.697832 0.54426 -0.123006 0.955864 -0.700933 0.299786 -0.125013 -0.409299 0.672838 -0.497093 0.924122 -0.426343 -0.703888 0.270186 -0.669637 0.379499 -0.209561 0.435995 -0.902635 0.712479 0.855121 0.457416 -0.591968 -0.621873 -0.756798 0.446143 0.715466 -0.493535 -0.520949 0.331929 -0.869263 -0.565473 0.629946 0.419583 -0.378468 -0.184314 -0.136096 0.222431 -0.561169 0.888713 -0.984044 -0.0052341 -0.281053 0.149363 0.268336 -0.980832 -0.198725 0.22982 0.548049 0.350589 -0.804774 0.193568 0.205332 -0.596724 -0.269541 0.0709217 -0.927613 0.970932 0.581373 -0.981111 0.620022 0.0241245 0.50611 -0.643728 0.877055 0.00629088 0.53471 0.519647 -0.612557 0.500118 0.661849 0.329597 -0.589726 -0.766483 -0.240973 -0.0928536 0.737061 -0.693597 -0.335528 0.305549 0.484414 0.849474 -0.504068 -0.601039 -0.481976 0.998968 0.6722 0.739227 0.262614 0.537396 0.292272 -0.364058 0.75698 0.278151 -0.359929 0.30508 0.901807 -0.554511 -0.510822 -0.526927 -0.247967 0.140189 -0.66864 -0.243573 0.41029 -0.50693 -0.465208 0.753216 -0.822115 0.314912 0.615139 -0.893856 -0.75515 0.923198 0.593249 0.271835 0.96701 0.749407 -0.304913 -0.551302 -0.806528 0.409745 -0.749233 0.491026 0.195395 -0.769371 -0.422537 -0.340926 0.103964 0.458852 -0.694796 -0.531215 -0.149544 -0.320521 -0.312282 -0.136268 0.828133 0.403683 0.715828 -0.140349 -0.696552 -0.731678 -0.579992 0.288604 0.344465 -0.367463 0.489681 0.747797 0.270199 -0.0449428 -0.960745 -0.683417 -0.782593 0.324063 0.953268 0.3941 -0.362056 -0.760304 0.189986 0.620358 -0.810743 -0.598257 0.90103 -0.943041 -0.397336 -0.639192 -0.240596 -0.103729 0.447074 0.505048 0.897417 -0.953252 0.020203 0.243022 -0.782634 -0.739614 -0.83332 -0.909064 -0.686129 0.849927 -0.835226 -0.435986 0.792484 -0.119427 -0.98894 0.454037 -0.522341 -0.154573 -0.134485 -0.858756 0.21861 0.432081 -0.839642 -0.792182 0.267012 -0.625486 0.13333 -0.243957 -0.60962 0.0694617 -0.990854 0.460539 -0.934822 -0.0560296 0.99663 0.974428 0.311102 0.278583 0.91656 0.681941 0.71172 -0.319332 0.373859 -0.771779 -0.929745 -0.567548 0.363705 -0.433857 0.644842 0.366878 0.300552 0.86225 -0.847426 -0.766061 0.211577 -0.94802 -0.755299 -0.771278 -0.83005 0.112218 -0.383798 0.680582 -0.7092 -0.0463965 0.604416 0.994952 -0.734041 0.517249 -0.998552 0.374366 0.730402 -0.134036 0.589836 0.61433 0.448573 -0.18039 0.407846 0.579838 -0.975437 0.46998 0.0388948 -0.485317 -0.322523 -0.413556 0.285593 -0.530684 -0.111045 0.502305 0.569941 0.121344 -0.845563 -0.851233 0.162653 0.369386 -0.0544139 0.718435 -0.3045 0.897376 0.205739 -0.947973 -0.0986682 0.508284 0.143137 -0.911058 -0.12864 0.731076 0.333878 -0.227117 0.0113084 -0.634765 -0.435721 -0.161291 0.557078 0.367078 0.369242 0.253724 0.794067 0.677377 -0.772116 0.649893 -0.620912 0.87486 -0.963517 0.451364 0.699592 0.0419148 0.439497 0.874101 -0.262601 0.758805 0.557222 -0.0997827 -0.774325 -0.288047 0.366109 0.447971 0.319627 -0.940647 -0.425124 -0.251437 -0.479401 0.257117 -0.503158 0.915337 -0.373988 0.398029 -0.686727 0.282192 0.275237 0.00787604 0.508392 0.62835 0.778932 0.110832 0.963183 0.327529 -0.667976 -0.361531 -0.717121 0.937217 -0.951046 0.0223981 -0.833337 0.0987994 -0.874809 0.749923 0.562553 0.210925 -0.948152 -0.545533 0.69018 -0.354075 0.458166 -0.529595 -0.992576 0.26631 0.802708 -0.581403 -0.592773 -0.74606 0.786936 -0.850231 -0.872608 -0.690297 0.382906 -0.732595 0.109579 -0.432754 0.803653 -0.743063 -0.427892 0.738517 -0.297806 -0.866619 0.000168195 -0.357813 -0.108423 -0.136596 0.269245 0.799634 0.0640747 0.725218 0.6189 0.741426 -0.117178 0.216141 0.493862 0.77567 -0.272555 -0.682225 -0.253517 0.0618448 -0.248173 0.337626 -0.0259075 -0.169547 -0.669685 0.263677 0.0512192 0.709548 0.489591 0.71351 0.880569 -0.775114 -0.1316 0.429284 0.497172 0.743983 -0.690001 -0.263018 0.219575 0.805329 0.327395 -0.177845 0.0747456 0.526579 -0.813589 -0.545845 0.74973 0.851203 0.772776 -0.267258 -0.770186 -0.0236488 -0.0933115 -0.176697 -0.718937 0.20147 -0.0523321 -0.424942 0.267456 0.69146 -0.232518 0.774717 -0.562114 0.863462 -0.903094 -0.61904 0.1402 0.134028 -0.929688 0.5455 0.294055 -0.694999 0.125407 -0.47332 0.16453 0.473361 -0.403736 -0.304502 -0.872041 -0.308543 -0.299872 0.442957 -0.573147 -0.672815 0.895038 0.150287 0.964219 0.533035 -0.965133 0.482449 -0.173454 -0.380845 -0.204437 -0.544723 -0.857243 -0.854282 -0.781186 0.597861 -0.884455 0.854784 0.488522 0.968562 -0.840574 0.543166 0.512819 0.872351 0.982484 0.264425 -0.941798 -0.263394 -0.660928 -0.957768 0.415886 0.797902 0.82628 -0.0800847 0.658379 -0.767683 0.552389 0.325479 -0.336854 0.75152 -0.446937 0.506202 -0.824722 0.188682 -0.884673 -0.927895 0.702066 -0.600847 0.372883 -0.843144 0.729241 0.533169 0.921497 -0.346946 0.0472587 -0.577749 0.114924 -0.884002 0.853498 -0.425297 -0.218162 0.00528922 0.0759283 0.450041 0.320243 0.476737 0.902543 0.329963 -0.863693 -0.082617 0.775907 -0.40554 0.744274 0.830607 0.3603 -0.335945 0.60896 0.498726 0.0142248 -0.133662 0.238983 0.383763 0.62042 0.965683 -0.391929 0.395327 0.708626 -0.0585625 0.0899317 0.0506343 -0.145777 0.0286969 0.877539 0.439214 -0.474385 -0.109958 -0.183245 -0.85515 0.20821 0.288149 0.869103 0.768117 0.485321 0.0306277 0.716553 0.0235257 -0.467925 -0.617328 -0.581284 -0.00427388 0.628475 -0.769781 0.608383 0.613378 -0.445797 0.416773 -0.587537 -0.892593 0.0119442 -0.648026 -0.00451129 0.590611 0.727595 -0.701659 0.262596 0.365261 -0.821001 0.702756 0.759976 -0.246017 -0.22177 0.515985 0.847683 -0.882173 0.339085 -0.588148 -0.202287 -0.813323 0.385625 0.240043 0.221404 0.539175 0.740631 0.471759 -0.560107 -0.708088 -0.380564 0.591211 0.640144 0.0873663 -0.00349146 -0.317681 0.854163 0.138241 0.645923 0.886266 -0.984272 0.909291 -0.674657 0.225509 0.0991646 0.0115521 0.158267 -0.707972 -0.0761181 0.775504 0.471666 0.285772 -0.223847 0.566133 -0.804108 0.737063 -0.88306 0.511812 0.0274538 0.782289 0.671475 -0.606969 0.396621 -0.628066 0.11415 -0.552292 -0.497156 -0.914041 0.261965 0.589641 0.933433 0.856172 0.974688 -0.364121 -0.106583 -0.128454 -0.943361 -0.607029 -0.0513947 0.812748 0.638727 -0.745031 0.204236 -0.874624 0.129102 -0.536527 -0.773345 -0.876322 0.76168 0.748595 -0.393076 0.646081 0.611678 -0.676462 0.489298 0.828248 0.854298 -0.264978 0.227301 -0.527004 0.564703 0.419161 0.456147 -0.085753 -0.538904 -0.086669 0.713752 0.263228 0.988469 -0.995705 0.433779 0.605891 -0.397568 0.347006 0.990311 -0.98233 0.937532 -0.892324 0.697029 0.611483 -0.796115 -0.168121 0.432929 0.855801 0.375434 -0.899165 -0.675681 0.104356 -0.37394 -0.698125 0.325366 -0.915067 -0.0819263 -0.657079 -0.783667 0.00811283 -0.967019 -0.123181 0.626253 -0.823213 -0.83043 0.816398 0.225168 -0.578584 -0.372981 -0.981374 -0.958247 0.974536 0.683759 0.818304 0.884554 0.0614102 0.0159826 -0.254498 -0.163496 -0.637026 -0.793762 -0.499419 0.375891 -0.615869 0.35367 -0.443702 0.435313 0.35046 -0.0263348 -0.529159 0.00376726 -0.771282 -0.853477 -0.652555 -0.0857966 0.00371322 -0.74379 -0.900391 -0.581629 -0.868335 0.145818 -0.247047 -0.730088 0.693726 0.769432 0.662226 -0.964322 -0.801656 0.439462 -0.838437 -0.72458 -0.420563 -0.343501 0.586848 -0.845898 0.862071 -0.776338 -0.639741 0.69816 -0.296453 -0.493817 -0.237378 -0.338549 -0.232151 -0.46064 0.369813 -0.942075 -0.647808 0.0673916 -0.161277 0.69048 -0.863636 0.302002 -0.966069 0.54731 -0.330904 -0.114147 -0.509001 -0.611507 0.244515 0.887357 -0.252284 0.307431 0.114902 -0.13383 -0.279141 0.401449 0.295276 -0.49831 0.47357 0.466807 0.114305 -0.432729 0.0451489 0.395733 -0.123371 0.858415 0.117928 0.27544 0.535353 -0.56643 0.238403 0.972595 -0.55473 -0.792174 0.524329 -0.899835 -0.845325 0.259532 -0.386145 -0.188196 -0.921357 0.838962 0.210189 -0.308609 -0.522856 -0.569425 -0.833921 -0.296775 -0.0021989 -0.396872 0.344464 0.169926 -0.532466 -0.0807801 0.0947674 0.287915 -0.314139 0.127066 0.464164 0.27355 -0.317756 0.560854 -0.376676 0.511625 0.9805 -0.903208 -0.140511 0.491605 -0.505448 -0.457039 -0.841816 -0.654399 0.0732332 -0.672163 -0.193493 0.163296 -0.870575 -0.624113 0.579241 0.552403 0.024083 0.849945 -0.539839 -0.866882 -0.911302 -0.661645 0.00353974 0.888412 -0.0551296 0.763854 -0.561615 -0.74207 -0.561116 -0.531744 0.597667 -0.810772 0.531324 -0.675607 1.11064 0.11608 -0.999958 -0.373466 0.0605408 -0.745903 -0.0835711 0.402564 0.415395 -0.0276712 0.48601 0.32867 -0.635765 -0.46733 -0.800323 0.258467 -0.690768 -0.703703 0.134066 0.987519 0.930561 -0.331451 0.19583 -0.790707 -0.852341 0.666184 0.401249 -0.296107 0.133471 0.200332 -0.913466 0.734882 -0.797039 -0.277726 0.79185 0.126525 0.969706 -0.823415 -0.175297 0.757315 -0.471715 -0.353299 -0.40952 0.889112 -0.412754 0.495836 -0.525816 0.934339 0.671839 0.2495 0.481398 0.213041 0.835329 0.611316 -0.648369 -0.030383 -0.794087 0.934819 -0.0280546 -0.776488 -0.856025 0.765759 -0.541553 -0.791539 0.917322 -0.652186 0.417182 0.851177 0.92096 0.257204 -0.830721 -0.609576 0.663225 0.840183 0.452202 -0.128865 0.891514 0.840038 0.494052 -0.572862 -0.655834 -0.919673 0.0897191 0.293698 0.233863 0.544515 -0.827577 -0.703337 -0.946459 -0.190242 0.103616 -0.644163 0.216556 -0.439005 -0.0624501 0.335104 -0.184125 0.804048 -0.0314317 -0.312913 -0.596953 0.326556 -0.0901417 1.07857 0.548833 0.118406 -0.427181 0.755583 -0.255112 -0.476162 0.197153 -0.110697 -0.0954189 0.753898 0.0122139 -0.389577 -0.926293 0.125938 0.741845 -0.853952 -0.226865 0.997402 -0.748636 0.358032 0.930154 -0.368526 -0.686927 -0.561024 0.391384 -0.908936 0.383019 0.0596465 0.0190419 -0.293583 0.262197 -0.0549849 0.124139 -0.197416 0.798369 -0.885331 -0.392138 0.85888 0.731932 -0.861042 0.738414 -0.538963 0.0671251 -0.429215 -0.778501 -0.854627 0.86827 0.544624 -0.962453 -0.873646 -0.269844 0.492177 0.00909208 0.740801 0.778297 0.866238 -0.371688 -0.638545 0.964248 -0.543255 0.785966 0.818564 0.299879 -0.648743 0.107334 0.0248497 0.277578 -0.0266511 -0.867495 0.0277798 -0.369368 -0.162021 0.290987 -0.183912 -0.939245 0.0480688 0.108219 -0.31156 -0.231431 -0.667779 -0.483872 0.69105 0.198931 -0.0551933 0.485605 0.714918 0.96759 0.595944 0.671143 0.536952 -0.498681 0.195829 -0.453655 -0.0140242 -0.469702 -0.0113668 -0.366657 0.712449 0.395532 0.641358 -0.834904 0.758815 0.233828 -0.0608423 -0.135075 0.462617 0.187198 -0.241433 -0.15461 -0.325933 0.937056 0.577518 -0.0398273 -0.879929 0.0522982 0.36342 0.877564 -0.689566 -0.481467 0.0206849 -0.350312 0.251752 -0.119199 -0.178367 -0.748629 0.897968 -0.844139 -0.99365 0.764621 0.341572 -0.394875 -0.706011 0.830737 -0.383407 -0.146054 0.931222 -0.87605 0.0310929 0.676218 -0.268781 -0.716396 -0.116409 -0.64893 -0.439527 0.977883 -0.229366 -0.48823 -0.647066 0.323567 -0.638391 -0.432713 0.976167 -0.748831 0.303878 -0.217724 -0.836449 -0.73936 -0.492439 -0.0587226 -0.790268 -0.717 0.416415 0.95187 0.522348 0.0894793 0.756627 -0.718932 -0.830952 -0.733918 0.896642 0.707585 0.885963 0.709176 0.828324 0.306803 0.814654 -0.636666 0.22551 -0.291475 0.86957 -0.908267 -0.903141 -0.358401 -0.099195 -0.86877 0.040245 -0.744166 0.0234405 -0.304423 -0.223478 0.470298 -0.638755 -0.267864 -0.695412 -0.612152 -0.940249 0.195913 -0.145908 -0.579673 0.634702 0.240559 -0.0229629 0.601065 -0.43357 -0.895755 -0.518954 0.69315 -0.475251 -0.0271181 0.520655 0.735761 -0.152482 0.30407 0.473275 -0.541193 0.3277 -0.782924 -0.765563 -0.397354 -0.289476 -0.855122 0.663699 -0.968974 0.509273 0.309661 -0.627885 0.480426 -0.974023 -0.0820618 0.678853 0.553811 0.401202 -0.355252 0.705453 0.365967 -0.0477817 -0.82007 0.767624 -0.850357 -0.781381 0.308499 0.19209 -0.199689 -0.592638 -0.623826 -0.888165 -0.272819 0.50994 -0.460751 -0.380896 -0.245249 -0.0414102 0.139622 0.854283 -0.0893533 -0.150021 -0.0447164 -0.196132 -0.533433 -0.501854 -0.0583896 0.335271 -0.675423 -0.956454 0.0842541 -0.95057 -0.766583 -0.394757 0.802727 -0.895904 -0.884732 0.289801 0.403726 -0.164316 0.270107 0.0918564 0.0544074 0.663018 0.276434 0.860425 0.951604 -0.690187 0.79983 -0.63246 -0.333416 0.497877 -0.575622 -0.14842 0.268167 -0.915353 0.979092 -0.880497 0.432086 0.763794 -0.164932 0.0692544 0.443241 0.851746 -0.849422 0.844272 -0.0144446 0.396103 -0.129285 0.56739 0.858683 0.954389 0.484702 -0.871391 -0.375537 -0.624975 -0.259503 -0.664954 -0.453903 -0.933382 -0.0016363 0.475378 0.119802 -0.606483 -0.419922 -0.652494 0.653719 0.110747 -0.43498 -0.0552172 0.623215 0.34983 -0.377477 -0.577689 0.529741 -0.125994 0.288639 0.550073 -0.478233 0.657935 0.330429 0.176615 -0.913934 -0.124639 -0.281184 0.158856 -0.858194 -0.79375 -0.525781 -0.0623011 0.874543 -0.588826 0.793447 0.570595 -0.295434 0.169268 0.541159 0.613891 -0.639159 -0.804017 0.91041 0.836528 -0.471547 0.00204437 -0.971238 -0.0504694 -0.253944 -0.0141822 -0.777711 -0.31876 -0.820249 0.699148 0.836804 0.816503 0.0417753 -0.393019 0.583378 0.721068 -0.831033 -0.0499374 -0.787954 0.657342 0.739076 0.088699 0.265474 -0.590242 0.893673 -0.447136 -0.599721 -0.204285 -0.883811 0.592493 -0.815387 -0.522348 0.0364378 -0.452811 0.672492 -0.865673 -0.786539 -0.928489 0.361336 -0.137522 0.810761 0.986367 -0.851077 -0.0469061 -0.784989 0.200188 -0.952814 -0.243808 -0.295062 0.814811 -0.805755 -0.379058 -0.63494 0.644308 0.82625 0.274902 0.366919 0.0409142 -0.425292 0.946178 0.727219 -0.810057 0.870923 0.669286 0.749016 0.130979 0.160711 0.147087 -0.821647 1.17306 -0.559099 -0.282223 -0.275353 -0.153324 -0.401034 -0.910294 0.246584 -0.984423 0.774215 0.301037 0.958249 0.0701048 0.943063 -0.921845 0.0204176 -0.404218 0.754914 -0.529461 -0.00912291 -0.718263 0.790588 0.549461 -0.356731 -0.178379 -0.851742 0.651337 -0.88668 -0.949657 0.962313 -0.558284 -0.579017 -0.581177 -0.64215 0.343627 0.761478 0.0738705 -0.690292 -0.602996 0.994608 0.619684 -0.211857 0.653132 0.53564 0.913869 -0.563649 0.459803 -0.454728 0.376714 0.090261 -0.748096 -0.78313 -0.424987 0.432806 -0.442756 0.809032 -0.246806 -0.514283 -0.133695 0.501202 -0.511513 0.520795 -0.0247713 -0.977523 0.0653478 0.127823 0.935305 -0.627096 -0.38264 -0.409815 -0.484802 0.581348 0.235464 -0.635035 -0.0792148 -0.416951 0.107733 0.970935 -0.916019 0.539838 0.613774 0.73923 0.57012 -0.912637 -0.513645 0.597077 -0.244953 -0.737393 -0.488659 -0.123684 0.508615 -0.187007 -0.48753 0.755633 0.288218 -0.391139 -0.975522 -0.476759 0.651845 -0.519215 -0.653548 0.209837 -0.751498 0.913003 -0.302199 -0.866232 -0.600204 0.432925 -0.752466 -0.49129 -0.482067 -0.94635 -0.0889972 -0.968757 -0.706958 -0.904239 -0.780233 0.66002 0.0374682 -0.775263 -0.412693 -0.139527 0.660778 -0.208032 0.762089 0.375225 -0.573235 -0.713728 0.674472 0.399459 -0.102767 -0.753496 -0.454859 -0.477029 0.725682 0.753686 0.754391 0.387972 -0.466617 -0.630955 -0.250988 0.488116 0.358331 -0.522063 -0.844038 -0.449235 -0.225771 -0.828835 0.45303 -0.266996 0.35802 -0.481167 0.730627 0.492128 0.651739 0.424176 0.183118 0.573402 -0.0951441 -0.611948 -0.0338805 -0.845679 -0.211715 -0.89565 0.804727 -0.893502 -0.768763 0.447928 0.240027 -0.659958 -0.0950268 0.424388 0.969636 0.828163 0.150007 -0.94737 -0.535859 0.424999 -0.351744 -0.409579 0.300693 0.574798 -0.705358 -0.529487 -0.989285 -0.642829 -0.256415 0.354851 -0.0748592 -0.259635 -0.809802 -0.3667 -0.0110449 -0.0756356 0.111224 -0.791445 -0.841282 0.162816 0.470366 -0.510871 0.303187 -0.545094 0.187681 -0.624866 -0.244944 -0.49891 -0.119283 -0.36869 -0.694908 0.591663 0.976688 0.118315 -0.805111 -0.333123 -0.491711 0.725215 -0.952181 -0.0163945 -0.21732 -0.411342 -0.529059 -0.514131 0.738733 0.774233 0.305906 0.046287 -0.744394 0.0773883 0.716938 -0.79725 0.231352 0.845718 -0.806527 0.321734 0.492708 0.487221 -0.580033 -0.658932 -0.884537 0.615865 -0.651685 0.50132 -0.837156 -0.0983167 -0.996052 0.771639 0.415495 0.413991 -0.498423 -0.243684 0.471339 0.0032882 -0.702082 -0.359836 0.115917 0.797233 -0.66534 0.475011 0.858772 0.0228201 -0.491801 -0.0842912 0.441326 0.107966 0.200284 -0.89181 -0.0359751 -0.786914 -0.571905 0.345999 0.12673 -0.623338 0.446082 0.210775 0.730138 0.168055 -0.0617976 -0.123983 0.875362 -0.3795 -0.559782 0.710588 -0.187753 0.356575 -0.649982 0.450154 -0.581324 -0.53199 -0.214638 0.620108 0.967462 0.168297 -0.040762 0.517455 -0.530889 -0.781988 -0.214691 -0.730714 0.99853 0.152869 -0.30151 -0.400332 -0.692049 0.91975 0.666198 0.847598 -0.33765 -0.672258 0.320919 -0.140484 0.0950573 0.916061 -0.437338 -0.68044 0.710551 0.0792826 0.422912 -0.084341 -0.402341 0.0210392 -0.538941 0.704174 -0.796369 -0.247566 -0.558858 0.0614039 0.330235 0.939396 -0.630992 0.184787 -0.467207 0.809656 -0.740879 -0.0338438 -0.889204 -0.207603 -0.930489 -0.275379 -0.259682 -0.04976 -0.897434 0.475211 -0.0718818 -0.995513 0.0302047 -0.051821 0.397188 0.394072 0.742844 -0.262759 0.499177 0.0356983 0.360458 0.307671 0.818985 0.432669 0.418912 0.959853 0.284356 -0.256351 -0.0734416 -0.831779 -0.139178 -0.582543 -0.726898 -0.516073 -0.295797 0.638389 -0.908632 -0.250776 0.261643 0.494184 -0.595447 -0.195275 0.352163 0.192899 0.729105 -0.394699 0.278719 -0.795942 0.294014 -0.14511 0.928682 0.192639 0.712371 -0.554666 0.177553 -0.642978 -0.497632 0.618366 -0.253775 -0.259943 -0.896201 -0.870829 0.598183 0.152703 0.968195 0.448638 -0.08968 -0.721902 0.199168 0.782031 0.309166 -0.965384 -0.210393 -0.642225 -0.406833 0.454095 -0.0292439 -0.464381 0.00267358 0.445366 -0.92102 0.895576 -0.548617 0.828404 0.866117 0.889174 -0.970117 0.958975 0.427022 -0.654983 -0.459018 -0.130211 0.437374 -0.0532888 -0.198755 -0.443462 0.418601 0.129694 -0.93456 -0.615124 -0.5313 -0.979268 0.353292 -0.685751 0.538441 -0.61797 0.449628 0.455528 0.425378 0.341361 0.0391713 0.643142 -0.121136 -0.397357 -0.713917 -0.855837 -0.522996 0.731997 0.768446 -0.657105 -0.765433 0.286255 0.0469468 0.101963 0.239633 -0.893765 0.214844 0.686265 0.281246 -0.378238 -0.122002 -0.24953 -0.0554452 -0.512497 0.422487 -0.122975 0.451625 0.398344 0.148334 0.806136 0.956722 -0.647777 -0.175821 0.515913 -0.447733 -0.458616 0.123551 0.212524 -0.6916 0.00252747 -0.923154 0.313624 -0.535336 -0.842097 -0.234141 -0.10211 -0.308945 0.380235 -0.0761598 0.937942 -0.787855 -0.0886916 -0.109308 0.0896165 -0.0576752 -0.95413 0.224551 0.313901 -0.974616 0.463883 -0.836059 0.396226 -0.256192 -0.621854 0.657634 -0.851165 -0.957834 -0.353554 -0.252722 0.87264 0.545086 -0.251508 0.0858006 -0.543943 0.806715 -0.254468 0.539627 0.76528 0.428029 0.127447 0.962047 0.550497 0.897554 0.0215454 0.391222 0.448135 0.733335 -0.711665 -0.328755 -0.843725 0.242433 -0.777595 -0.76895 0.58298 0.971024 0.314335 -0.68279 0.861017 0.783524 -0.742505 0.822272 -0.145394 -0.92071 -0.302508 0.106621 0.388731 0.264278 -0.170907 0.723896 -0.236869 -0.46364 0.639524 0.354109 0.756809 0.351412 -0.341916 -0.707711 0.634642 0.298122 -0.86234 0.0999615 -0.774743 0.356599 -0.387133 -0.705276 0.834634 0.135833 0.336725 -0.923642 0.705025 -0.613369 -0.417838 -0.53751 -0.955305 0.98531 0.562178 -0.0459264 -0.446702 -0.938228 -0.585323 -0.420858 0.794408 -0.856287 -0.105232 -0.246285 0.0645954 -0.881353 -0.161023 0.519849 0.205217 0.865925 0.601175 -0.439725 0.364349 0.873297 0.0330753 0.367971 0.892164 0.964532 0.00681135 -0.831945 0.0482192 -0.550804 0.0438978 -0.307928 -0.595236 0.659109 0.10244 -0.228825 -0.589699 -0.407337 -0.423124 -0.42884 -0.992714 -0.353712 0.606584 0.0596266 0.865266 0.867009 0.693439 -0.230565 -0.37393 -0.490101 -0.152533 0.926733 0.799966 0.321977 -0.0895455 0.589329 0.148965 -0.0719238 0.123185 0.399624 -0.746815 -0.913408 0.442805 -0.72286 -0.126546 0.271694 -0.915178 -0.947767 0.513734 -1.00489 0.0723988 -0.672161 -0.507854 0.961655 0.872019 -0.611103 -0.63175 0.0656749 0.699963 1.08765 -0.00137573 -0.0930241 -0.351775 0.66617 -0.407929 0.457046 -0.230999 -0.689761 -0.903972 -0.35401 -0.0125736 0.388094 0.511356 -0.727827 -0.245589 -0.0243885 0.762713 0.173897 -0.209081 0.952269 -0.498728 -0.0905974 -0.541941 -0.390617 -0.424532 0.196309 -0.776512 -0.0909628 0.021907 -0.480372 0.315132 -0.492448 -0.643012 -0.283572 -0.535195 -0.468092 -0.646248 0.754743 -0.304456 -0.620181 0.017355 -0.171864 0.135687 -0.066199 0.0743615 0.736027 -0.0555968 -0.689813 0.870771 0.567432 0.203026 -0.461273 0.559633 0.0308922 -0.422612 -0.56476 0.466044 0.229518 0.0197642 -0.268012 0.85514 0.587256 0.0110093 -0.650742 0.244484 0.591721 -0.234884 -0.324564 -0.148816 0.648191 0.0381672 0.00276255 0.00466199 -0.385974 -0.542795 0.128122 0.594587 0.294612 0.992889 -0.775484 0.192982 0.720953 -0.161323 0.230267 -0.408809 0.889946 0.151772 -0.944923 0.1186 -0.182381 -0.032842 0.0723182 0.973829 0.329103 -0.410145 -0.266702 -0.345714 0.00761965 0.965661 0.839486 0.13114 -0.833256 -0.583461 -0.413298 -0.175344 -0.339248 -0.869771 -0.763654 0.804151 -0.902011 -0.204237 -0.775266 0.98214 0.0621738 -0.0308277 0.319601 0.556536 0.417372 0.939429 0.787637 -0.412424 -0.277534 -0.406989 0.19297 -0.13474 0.540438 0.968922 0.89643 -0.113849 -0.861144 0.77277 -0.292397 0.294908 -0.496978 0.569251 -0.375177 -0.412366 0.226719 0.681974 -0.287403 0.271582 0.1441 0.120492 0.174558 -0.00652531 -0.381139 0.226514 0.227712 0.365358 -0.792331 0.0177776 0.89232 -0.812144 0.355316 0.458022 0.378846 -0.583951 0.965191 -0.504211 0.861682 0.183693 -0.355033 0.916553 0.924558 -0.309437 0.235291 0.903591 -0.743387 0.247449 0.190591 0.764917 -0.42919 0.945135 -0.878579 -0.54052 -0.951813 -0.971421 0.111192 -0.90525 -0.188279 0.757187 0.531387 0.591862 0.346545 0.403012 0.500491 0.0393374 -0.39622 -0.341408 -0.445781 0.955835 0.609471 0.748308 -0.839982 -0.774873 0.880193 -0.452731 -0.167328 0.685652 0.786624 0.106096 0.229902 0.248656 0.0736797 -0.88487 0.480441 -0.937927 0.838203 0.81285 0.316446 0.703086 0.110221 0.608174 -0.172812 0.775744 -0.372246 0.293387 -0.934709 0.219403 -0.0379419 0.532596 0.975812 -0.422112 0.149438 -0.479021 -0.108343 0.666474 -0.336881 0.484539 0.579521 0.48153 0.211635 -0.556138 0.319673 -0.080916 0.865805 -0.0797872 -0.0607154 0.653197 0.345303 -0.704204 -0.309502 0.578445 -0.586728 -0.147491 0.393491 -0.118719 -0.451105 0.573321 -0.406997 -0.20954 0.17147 -0.164617 0.0880593 -0.405324 0.978699 -0.680649 -0.520087 -0.84294 -0.366618 0.320489 0.629699 -0.379814 0.177373 -0.778172 0.611207 0.833358 0.207853 -0.236192 0.744506 -0.424756 -0.925965 -0.946149 -0.591109 -0.479269 0.774951 -0.846728 -0.216513 0.436573 -0.299235 -0.830988 -0.0905835 -0.782091 -0.493646 -0.482293 -0.778358 0.982557 -0.303035 -0.0961609 -0.626088 -0.890801 -0.481595 0.764394 0.00770289 -0.0162895 -0.40655 0.114923 0.41762 -0.593656 0.368183 0.274954 -0.0236438 0.492373 0.0928254 0.216957 -0.306201 0.106152 -0.826208 0.400105 -0.103136 0.24577 0.145752 0.0304839 -0.45302 -0.630991 -0.029367 -0.196355 -0.140569 -0.672189 -0.337976 -1.16815 -0.963045 -0.246086 0.998589 -0.619966 0.0760631 -0.537076 -0.218609 -1.00253 -0.349332 -0.269015 0.50757 0.637034 0.0246351 -0.84785 0.181077 0.82137 0.782287 0.96797 0.810947 -0.92796 -0.646505 -0.314367 -0.0112045 -0.930191 0.692511 0.832539 -0.795094 0.808703 -0.767322 0.373333 -0.532096 0.0691152 -0.365172 -0.216157 0.677368 -0.789103 -0.649727 -0.386675 -0.948966 0.178209 -0.60794 -0.877011 -0.38157 -0.355972 0.385256 0.194112 1.03797 -0.304162 -0.262618 0.342068 -0.695276 -0.264895 -0.0287519 0.0778026 0.00909552 -0.691372 -0.191124 0.965255 0.275313 0.849205 0.0182222 0.572851 -0.262132 0.26268 -0.233047 0.490826 0.684036 -0.500356 0.417213 -0.843013 0.693708 -0.0250988 -0.105052 -0.512837 0.265847 -0.0445472 0.386019 -0.20677 0.451491 0.214728 -0.263556 -1.0121 0.448326 -0.539416 0.88335 -0.290909 -0.780634 -0.465356 -0.275151 -0.189835 -0.329814 -0.820273 0.799773 0.354464 -0.598406 -0.109391 -0.260179 -0.505807 -0.495577 -0.623471 -0.354369 -0.999628 0.131841 1.07459 0.37953 0.919821 -0.332976 0.357306 0.933923 0.459234 0.404551 -0.22477 -0.677285 0.242878 -0.772802 0.481455 -0.699019 0.276213 0.943634 0.276607 -0.42549 0.967518 0.108647 -0.994254 0.05264 0.548708 0.000707775 0.855198 0.51504 -0.776571 0.93182 0.419195 0.69164 -0.427518 -0.926235 -0.901713 0.94806 0.163455 0.163487 -0.0671565 0.598125 -0.543998 0.373592 0.241394 -0.535958 -0.184152 0.256174 -0.070871 0.273187 -0.605077 -0.198585 -0.587231 0.312121 0.214024 0.903217 0.691723 0.855272 0.105145 0.655784 -0.140137 0.368024 0.671748 0.923813 0.59838 -0.132562 0.460059 0.692259 -0.590961 0.787954 0.341128 0.0502106 -0.198132 0.38767 -0.147433 0.646925 -0.238317 -0.607097 0.605885 0.59358 -0.76822 -0.381958 -0.301945 -0.27559 -0.0346697 0.670878 0.748571 0.657849 -0.616144 -0.254601 -0.0908539 0.0655129 0.890789 0.229772 0.203254 0.71334 -0.706298 0.192725 -0.133672 -0.860443 -0.521895 0.638557 -0.268144 -0.229782 -0.337161 0.671252 0.27673 0.761384 0.396223 -0.765664 -0.851925 -0.24538 -0.551539 -0.567794 0.219791 0.835373 -0.0110519 0.0171559 -0.784045 -0.166346 0.703692 0.531802 -0.585205 0.379635 -0.322657 0.579204 -0.590402 0.719876 0.898098 -0.82849 0.727785 -0.860469 0.157681 0.00372758 0.126404 -0.0661132 0.0499991 0.944914 -0.921549 0.665088 0.468815 0.374461 0.373281 0.235778 -0.400024 0.4006 -0.696119 -0.904638 0.131988 0.789934 -0.17879 -0.100346 0.484185 0.927591 0.383861 0.661573 0.809829 0.874343 0.128512 -0.456639 0.099338 -0.647694 0.116166 0.663406 0.507471 -0.347316 -0.326211 -0.823075 -0.669169 0.235174 0.437828 -0.880605 -0.909827 -0.47839 0.84008 0.517765 0.753081 -0.751315 0.733809 -0.122002 -0.886453 -1.01324 0.177801 -0.0488383 0.730729 -0.924936 0.142321 -0.436378 0.57377 0.0499445 0.789487 0.363974 -0.73867 -0.402897 0.525768 -0.718892 0.104259 -0.617554 -0.498697 -0.180586 -0.923412 0.399695 -0.850265 0.481648 -0.676022 -0.895088 0.715556 0.0645211 0.362443 -0.952828 -1.16244 -0.302441 -0.314263 -0.372567 0.572816 0.0247335 -0.659336 0.55833 -0.283957 0.0563715 0.798334 0.537256 -0.217197 0.000609668 -0.079112 0.48837 -0.628714 -0.105552 0.705989 -0.764538 0.0253003 -0.771466 0.239374 -0.273489 -0.991751 0.57656 -0.332878 -0.336343 0.691091 -0.0815104 -0.284779 -0.798253 -0.363544 0.877427 0.377402 -0.346672 0.446076 -0.106598 -0.456444 0.207543 -0.692636 -0.244353 -0.866351 0.440406 0.913876 -0.287381 0.106444 -0.138924 -0.988771 0.539062 0.649046 -0.789528 -0.0121897 0.785591 0.260911 0.928536 0.753743 1.02453 -0.740423 -0.132044 -0.92163 -0.859416 0.478203 0.493454 0.996091 -0.849958 -0.922087 0.748527 0.52529 0.600634 0.540363 0.745532 -0.510086 -0.875853 -0.0411562 -0.87883 0.393941 1.00217 -0.728104 -0.371562 0.527453 0.380591 -0.855333 -0.396614 -0.668651 0.167361 -0.119629 -0.440268 -0.580057 0.860314 0.293803 0.586403 0.518528 0.70675 -0.0721394 -0.902538 0.148764 -0.0563398 -0.394536 0.392039 -0.220695 0.22728 -0.486126 0.989261 -0.952153 0.657637 -0.541826 -0.919488 -0.838616 -0.158583 0.323856 -0.514597 -0.546647 -0.581514 -0.0163859 -0.755928 -0.525563 0.64148 0.626675 0.0783023 -0.458258 0.802325 -0.00796252 0.963451 0.276661 -0.636533 -0.170252 -0.226005 -0.828349 0.285473 -0.774189 0.12746 0.0193547 -0.302552 -0.441251 -0.248204 0.150749 -0.695398 0.818829 0.976264 0.980809 0.717016 0.00903834 -0.670719 0.755818 -0.721628 -0.932888 -0.827505 0.63533 -0.633262 0.55608 0.967299 -0.922421 0.871204 0.663998 -0.738993 0.595461 -0.774529 0.405588 -0.479876 -0.354906 0.729797 0.0237484 0.251991 0.721298 0.719625 0.726443 -0.997239 -0.418549 -0.398121 0.707583 -0.810939 -0.794728 0.901568 0.910256 -0.525327 0.541133 -0.536943 -0.793954 -0.260159 -0.748404 0.769489 0.633724 0.193415 -0.656734 -0.209167 0.935528 0.655829 -0.455372 -0.000198928 0.864579 0.638486 0.894289 -0.0866841 0.123731 -0.0697953 0.256953 0.407785 0.664874 -0.955904 -0.17511 0.707058 -0.154688 -0.913018 -0.895995 -0.953749 0.430564 0.287807 0.845013 -0.754264 0.67988 0.747121 -0.820677 -0.762821 0.63536 0.717819 -0.914199 0.94607 0.746707 -0.650692 -0.726579 0.496167 -0.216621 -0.412089 0.1925 0.978609 -0.0330761 0.770696 -0.832875 -0.156572 0.310105 -0.299737 -0.273654 0.309214 -0.0676454 -0.684384 0.574081 0.944345 0.992963 -0.843583 0.507807 0.0481891 -0.572129 -0.302388 0.388847 0.857931 -0.3336 0.913403 -0.406483 -0.642367 0.192444 0.238794 0.50315 -0.55738 0.538016 0.754579 -0.208733 0.574462 -0.557364 -0.160998 -0.416471 0.620656 -0.163325 0.278318 -0.77719 0.0413513 -0.245083 -0.729833 -0.480126 0.420807 -0.68403 -0.042328 -0.727344 0.668179 -0.490238 -0.165315 -0.820801 -0.480648 -0.326968 0.550331 0.68614 0.0649723 0.889631 0.677434 0.0695931 0.372143 -0.861965 -0.681588 0.0306625 0.782353 0.165139 0.342845 -0.720377 -0.809829 0.589706 -0.146061 -0.177158 -0.210996 0.00489365 -0.363253 0.818056 -0.842622 0.11385 -0.229167 -0.89871 -0.707503 0.92932 -0.048359 0.878544 0.708219 0.539051 0.747298 -0.108294 -0.65905 0.85427 0.165689 -0.763361 -0.364196 -0.586557 -0.100657 -0.594442 -0.549239 0.85447 0.193368 -0.614197 0.206189 0.72213 0.809982 -0.920579 -0.892125 -0.490758 0.442445 0.0945438 -0.17214 0.406867 -0.167361 0.0796388 0.535003 -0.313661 -0.668867 0.629689 -0.0805273 0.833281 -0.205102 0.359987 0.530355 0.155626 -0.108926 0.796689 0.931715 0.553014 -0.204908 0.814338 -0.568507 -0.468479 0.0559002 -0.112196 0.599592 0.0284577 -0.700415 -0.783816 -0.241712 0.211774 0.191762 0.624451 -0.211401 -0.221799 0.819066 -0.154976 0.164192 -0.624731 0.721579 0.353591 -0.682625 -0.893261 0.774061 0.612675 0.621357 -0.365956 -0.832682 0.935681 -0.18254 -0.458577 -0.193539 0.388299 -0.225489 0.577865 -0.75031 -0.162986 -0.320512 -0.81584 0.735194 -0.109945 0.254633 0.167733 0.472774 0.131911 0.260856 -0.656764 -0.201659 -0.812038 0.0634583 -0.391408 -0.324787 0.241122 0.616072 0.740201 -0.486269 -0.706941 -0.325865 -0.835572 0.978022 -0.454031 0.546633 0.693323 0.154505 0.185912 0.894889 0.0213699 0.143023 0.865877 -0.319717 0.109673 -0.456293 -0.547086 -0.691562 0.565176 0.333796 0.909367 -0.145271 0.632623 -0.119434 0.513189 -0.398572 -0.223584 0.796527 0.300674 -0.694896 0.923171 0.227758 0.933537 0.846455 -0.589024 -0.549816 0.060044 0.0994212 0.995338 0.504536 -0.207728 0.0433498 0.443949 -0.521259 0.957794 -0.156255 0.367337 0.351221 -0.303508 -0.75746 0.376253 0.390328 0.0639336 -0.125272 -0.696455 -0.564599 0.523162 -0.340114 0.448501 0.723779 -0.075631 0.287113 -0.264438 0.743835 0.832264 0.460954 -0.92481 -0.647897 0.339823 -0.0397573 0.402949 -0.943191 0.213488 -0.914161 -0.141012 0.0683423 -0.518054 -0.643511 -0.994157 0.350082 0.962814 0.0411314 -0.662674 0.873067 -0.462166 0.0411924 0.519887 0.801186 0.272788 0.39537 -0.353507 -0.623694 0.819356 0.658323 -0.679245 -0.64301 0.814837 0.53738 0.373184 -0.481171 -0.324683 -0.70041 0.49998 -0.577952 0.216854 0.179957 -0.437112 -0.440663 0.0871166 -0.0704322 -0.0968361 0.423309 -0.39692 0.389156 0.371194 -0.605377 -0.392763 -0.540477 -0.807932 0.671899 0.0917301 -0.593864 -0.656006 0.785115 0.127881 -0.516686 0.567694 -0.136331 0.901026 -0.735154 -0.395597 -0.967874 0.646176 0.6878 -0.626841 0.477898 0.212481 0.247315 0.10594 -0.611658 -0.887411 -0.458444 -0.0682911 -0.420316 0.120386 0.240653 0.495539 0.304419 0.717126 -0.59514 0.35236 -0.0627773 -0.145639 -0.433945 -0.342247 -0.485082 0.173037 0.685316 -0.538868 0.210479 -0.260239 -0.175248 0.660016 -0.898002 -0.472352 0.721363 0.566312 -0.389285 -0.0937133 0.962378 0.867158 -0.665623 -0.391188 -0.282035 -0.456509 -0.589358 0.943268 0.472309 0.244644 -0.98061 0.863942 -0.541055 -0.486003 -0.141427 -0.752761 0.0156311 0.551131 -0.66119 0.0318078 -0.872512 0.434842 0.2034 0.226707 -0.976319 -0.0461851 0.18809 0.664096 0.339947 -0.659274 -0.729872 -0.585458 0.0331665 0.419804 -0.0789216 0.636851 -0.946226 0.413018 -0.450384 -0.825166 -0.112363 -0.39467 -0.781503 0.0278362 -0.209264 -0.602788 -0.0991574 -0.685401 -0.324272 -0.827142 -0.571486 -0.354403 0.535439 0.6688 -0.407526 0.418028 -0.363187 0.816792 -0.871581 0.266437 0.531522 0.0205712 -0.0564825 -0.762923 0.817448 0.783819 0.0523233 -0.904471 -0.906102 0.572603 -0.0622902 -0.832107 0.804097 0.569374 -0.494393 0.755917 0.703724 -0.657209 -0.482052 0.141383 -0.00835477 0.687512 0.0635234 0.646642 0.161276 0.283806 -0.21227 0.649396 0.76606 -0.690915 -0.054475 -0.285198 0.223777 0.519873 -0.362599 -0.00570565 -0.587152 0.432063 -0.284449 -0.621326 -0.301648 -0.671941 0.0217221 0.52961 0.539239 -0.0477614 -0.667384 0.353598 0.27455 0.596274 -0.536346 0.00898043 -0.293712 0.773488 0.521043 0.0255112 0.300201 -0.336747 0.0166325 0.108167 -0.0865325 -0.151053 -0.486392 -0.644284 0.380821 0.397376 -0.841408 0.0351845 0.846377 0.713711 0.204675 -0.190473 -0.434257 -0.830313 -0.39254 0.0073741 0.0874159 0.232791 -0.662894 0.336224 -0.118726 -0.956967 -0.134519 0.0956232 0.798793 0.34941 -0.55337 0.50837 -0.0672037 0.414408 -0.269083 -0.925307 -0.59991 0.930042 -0.0545562 0.302773 -0.995941 0.126704 0.249535 -0.117028 -0.0341179 0.0529342 -0.0113106 0.565536 -0.895446 0.535634 0.420657 0.519888 -0.645665 -0.230631 -0.713528 -0.861119 0.870119 0.840261 0.211166 0.18037 0.42843 -0.822479 0.782963 0.513062 -0.338754 0.841854 0.520638 0.866199 0.81482 0.862228 -0.782585 0.232776 0.70972 0.764228 0.0358688 0.164531 0.162854 0.898978 -0.372565 0.622863 -0.460639 -0.718503 -0.835506 0.102993 -0.619105 -0.163386 -0.739204 -0.0136341 -0.476862 -0.322123 0.767955 0.970544 -0.520742 -0.828496 -0.286318 -0.653828 1.0856 -0.731372 0.669715 -0.401738 0.900573 -0.70051 -0.982846 0.080493 0.581688 0.96659 -0.986751 0.280471 -0.805819 -0.404571 -0.657051 0.837035 0.285152 0.419128 -0.442956 -0.26316 -0.444773 -0.970783 -0.721866 -0.893096 -0.499765 0.65311 0.796824 -1.0007 0.0903363 0.694527 0.458395 0.373556 0.0951424 -0.713926 0.643779 -0.874527 -0.946061 0.517907 -0.890758 0.973942 0.274983 0.877714 -0.562371 -0.67879 0.275929 0.392578 0.903748 -0.478027 0.561945 0.536375 0.169917 0.296183 -0.254164 0.78448 -0.236766 0.534696 0.379461 0.594094 -0.286098 0.585976 -0.628783 0.295424 0.764126 0.533466 0.964376 -0.524547 0.480685 0.25049 -0.628981 -0.87924 0.788493 0.378325 -0.824866 0.102386 0.212791 0.674258 -0.682274 0.37057 -0.744354 0.746641 0.971877 0.844367 -0.0914302 0.186346 0.120257 -0.627493 0.478866 -0.0955288 0.936029 0.419155 -0.885012 -0.980891 0.062387 0.998488 0.264714 -0.51835 0.00735374 -0.677055 0.454383 -0.828924 -0.919567 -0.500175 0.404145 -0.724292 -0.775742 0.490844 -0.242052 -0.220822 0.841498 0.118784 0.94488 -0.342835 1.08874 0.0497974 0.908841 -0.0351927 0.304565 0.275767 -0.120681 0.0523044 0.155596 0.55866 -0.0240213 0.708884 -0.989527 0.968215 -0.465098 -0.885121 0.343588 -0.917265 -0.810261 -0.114605 0.488576 -0.824918 -0.402843 0.507177 -0.417555 -0.942781 0.844375 0.304095 -0.479452 0.770481 0.5872 -0.408322 -0.589985 -0.186244 -0.278749 0.514079 -0.673433 -0.376567 -0.212626 0.604145 0.953692 -0.0703196 0.198532 -0.633001 0.658699 -0.622305 0.0577106 -0.18925 0.348118 -0.0496176 0.646944 -0.402142 -0.899196 -0.368666 0.666715 0.746949 0.532187 0.409892 -0.188561 -0.408667 0.446522 -0.0731433 0.0620616 0.0822016 0.596377 0.0536363 -0.768345 -0.56331 0.235177 -0.781268 0.929677 0.509686 -0.350227 0.192512 -0.963879 -0.368198 -0.632375 0.911019 -0.682264 0.112938 0.275953 -0.521939 0.622731 -0.713872 -0.0296494 -0.755935 0.0239857 0.399855 0.187912 -0.896051 0.213624 -0.561733 -0.703784 -0.537453 0.558689 0.664825 -0.821248 -0.872241 0.272039 -0.302104 -0.0808981 0.261058 0.324823 -0.471275 -0.297645 -0.664525 -0.630736 0.358085 0.704966 -0.720713 0.554459 0.0800144 0.572311 0.819184 -0.533784 -0.151024 -0.181413 -0.720674 0.0896047 -0.0192189 -0.558843 0.89593 0.887839 -0.524154 0.153978 0.867675 -0.631497 -0.0841484 -0.897864 0.0470104 0.0248063 0.0409111 0.600404 -0.709161 -0.959574 0.074831 0.407665 0.699896 -0.225724 -0.929039 0.475293 -0.0874123 0.744587 -0.308254 -0.0755068 -0.07379 0.547886 0.29948 0.884779 0.837429 0.741567 0.361344 -0.881206 0.467801 0.299092 0.488184 -0.190435 -0.878977 -0.747782 0.577575 -0.542507 -0.921686 0.772062 -0.261176 0.244374 -0.503651 0.990402 -0.134404 0.932621 -0.987012 -0.992822 0.00419946 -0.0488415 0.118356 -0.0704218 -0.616674 -0.347503 -0.710665 -0.769822 -0.7785 -0.0207494 -0.999877 -0.147158 0.885351 0.733392 0.313149 0.339426 0.904177 0.19808 0.180441 -0.725387 -0.880901 -0.337423 0.190883 0.53075 -0.121564 0.251509 -0.560913 -0.255386 -0.478588 0.314189 -0.715287 -0.104145 -0.0403637 0.650251 -0.570727 0.0179576 -0.447734 -0.0374288 -0.462696 -0.60849 0.115062 0.705674 -0.258176 -0.121044 0.945112 -0.52758 -0.0896678 -0.290541 0.93234 -0.350362 0.319142 -0.970492 0.723728 -0.406014 0.558533 -0.770821 -0.873515 0.349033 -0.437713 0.867719 -0.910195 -0.0537745 0.0221594 -0.125454 -0.287756 0.459846 -0.84838 0.374782 0.407751 0.754377 -0.794754 -0.639962 -0.999685 -0.795043 0.459278 0.825522 -0.0605456 0.358077 -0.224181 0.0494099 0.956565 -0.117281 0.919116 -0.365726 -0.273602 0.293213 -0.641805 -0.73864 0.922176 0.0791036 -0.206809 0.745487 -0.787264 0.353763 0.586735 0.519995 0.905056 -0.343107 -0.137766 0.151039 0.824962 0.474076 0.377359 -0.11047 -0.754775 0.680692 0.0887005 0.230522 -0.53033 0.885049 0.988441 -0.660673 0.0452768 -0.717285 -0.710196 -0.586887 -0.312941 0.00857161 -0.28102 0.988571 0.308806 0.996322 -0.0965318 0.280129 -0.814253 -0.74402 0.570478 -0.695889 0.408373 -0.747208 0.282568 0.66038 0.448128 -0.288342 -0.787993 0.764233 0.945998 0.498629 -0.987403 -0.669551 0.944908 -0.604342 0.81826 -0.134549 0.705786 0.347132 -0.313998 0.595882 -0.676598 -0.491146 -0.155323 0.561131 -0.0151584 0.142383 -0.858799 0.803805 -0.21219 -0.299356 -0.70875 -0.270723 -0.365668 0.420514 0.622538 0.440854 0.891218 -0.767092 0.185908 0.144727 -0.385804 -0.200384 -0.093931 -0.0100299 0.417087 -0.358238 0.820419 0.554075 0.261104 0.790494 0.982655 -0.177107 0.173555 0.918965 -0.2796 -0.549636 -0.347932 0.93921 -0.761306 -0.781528 0.214312 0.308066 -0.782359 0.0709227 -0.822889 0.911994 -0.100916 0.67937 -0.0553457 -0.603943 0.660353 0.00280929 0.90295 0.460634 -0.93792 0.837887 -0.429597 0.974868 0.00222107 -0.198841 -0.864834 -0.636468 -0.174399 0.255316 -0.908358 0.615963 0.0391393 -0.58536 -0.514162 0.70658 0.27976 0.32041 0.613831 -0.817814 -0.348515 -0.407436 -0.143746 -0.257596 0.349906 -0.645846 -0.372184 -0.828885 0.885995 0.30561 0.461486 0.715367 -0.326615 -0.406993 -0.338673 0.49664 0.253 -0.951165 0.950412 0.767367 0.720601 -0.563217 0.675125 -0.480777 0.806374 0.955797 0.675057 -0.0142702 0.686815 0.886585 0.650992 -0.724006 0.255956 0.306223 -0.841924 0.57338 0.488017 0.694278 -0.527223 -0.715184 -0.956466 -0.604218 -0.312833 0.632143 -0.035283 -0.0348478 -0.946387 0.593243 -0.430658 0.477211 -0.972829 -0.916292 -0.0147938 0.625968 0.78438 -0.103112 -0.000879022 0.373556 -0.290093 0.31877 -0.54654 -0.0450352 0.10857 0.9047 0.538524 -0.86223 0.412965 0.987906 -0.382253 -0.420454 -0.939178 -0.912563 0.206422 0.252108 0.279251 -0.913358 -0.912328 0.324251 -0.599483 -0.565439 -0.812375 0.623405 -0.334491 0.465499 -0.231154 0.736579 -0.28658 0.0832704 1.06562 0.194725 0.920399 0.0257521 0.0718124 0.855936 0.438882 1.15435 0.835038 -0.681156 0.0216204 -0.583468 -0.00187691 0.465774 0.983256 -0.0515707 -0.907061 0.0998829 0.354422 0.671169 0.466772 -0.0813403 0.958827 -0.739772 0.328807 -0.834948 0.518448 0.690078 -0.790694 -0.926102 -0.69773 -0.665396 -0.219755 0.432218 0.884496 0.994788 -0.62567 -0.247288 -0.961648 0.37816 -0.388573 0.688623 -0.653738 -0.405766 -0.55469 -0.19932 0.322301 -0.822893 -0.629337 0.0946284 -0.354089 0.860932 0.16879 -0.557818 0.106737 0.421287 -0.151263 0.388375 -0.485169 0.239894 0.121732 -0.262681 -0.303757 0.943714 -0.192544 0.446748 -0.128764 0.645264 0.420353 0.430075 0.158185 -0.0204505 -0.960081 0.096679 -0.202494 -0.387243 0.775788 -0.751501 -0.745888 -0.0074737 0.729767 0.725016 0.768771 -0.160108 -0.586603 0.716499 0.436558 -0.0055393 0.150468 0.844846 -0.439715 0.673211 0.774399 -0.308052 0.0355441 -0.798945 0.770348 -0.702454 -0.829155 0.718944 0.524025 -0.181921 -0.181848 0.280042 -0.216994 -0.679965 0.426793 -0.753153 0.766534 0.146938 -0.499014 0.740455 0.486722 -0.850087 -0.290987 -0.84755 -0.0299835 -0.616625 0.216914 0.550922 0.017307 -0.233575 -0.563576 0.86577 -0.415999 0.224268 0.994427 0.280736 -0.389908 0.853764 -0.722452 -0.41149 -0.746062 -0.962715 -0.923505 0.433027 -0.72925 -0.371435 -0.865427 -0.673309 -0.288774 0.284974 0.864553 0.730022 0.681357 -0.868392 -0.287659 -0.102868 0.324046 -0.984718 0.604497 -0.155645 0.100058 -0.626785 0.821813 0.405233 0.0742571 -0.368696 -0.0108051 -0.0753407 0.706548 -0.0826973 0.245394 -0.0368363 -0.310304 -0.734488 -0.450455 0.255065 -0.497229 -0.534404 -0.117555 -0.357663 0.33903 -0.129542 -0.847485 0.0649192 0.022231 -0.568407 0.452179 0.873845 -0.607489 0.739821 0.516509 0.612072 -0.96385 0.323074 0.0860181 -0.301687 -0.454579 0.722731 0.60241 -0.865863 0.0884329 0.0181818 0.000372312 0.34196 -0.5613 0.651607 -0.0997718 0.0743419 0.461959 0.0653262 0.148867 0.817017 -0.702569 -0.904775 0.424355 -1.0307 0.0498094 0.0472982 -1.02126 -0.799108 -0.456033 0.611958 -0.672319 0.687824 -0.17899 0.597002 -1.1055 0.993783 0.946036 -1.06538 -0.547887 0.928148 -0.0408081 -0.927904 0.381744 0.540122 -0.0321185 -0.41106 -0.79962 0.906125 -0.626259 0.433675 -0.850947 0.310996 -0.0595591 -0.23011 -0.279921 0.320273 -0.149191 0.280173 0.858722 -0.347627 -0.85028 0.63343 -0.701493 0.703934 0.990427 0.94766 -0.244597 -0.660862 -0.589009 -0.915175 -0.0709045 0.175487 -0.474601 0.720172 -0.179232 0.216039 0.80172 0.739918 0.382904 0.852074 -0.434779 -0.208074 -0.0739971 0.0135098 -0.809881 -0.522599 -0.210652 -0.0807403 0.0908017 -0.979743 -0.89125 -0.343614 0.0413952 0.216272 -0.497277 0.804457 -0.885293 0.62656 -0.892468 0.583256 -0.622376 -0.557917 -0.749897 0.535185 0.486513 0.11024 -0.716809 0.0783292 0.549511 0.227199 -0.365491 0.989571 0.0413028 0.183459 0.287198 0.612935 0.899271 0.717902 0.825463 0.527331 0.743312 0.693487 -0.156144 -0.271782 0.0504528 -0.74805 -0.543354 0.663071 0.374112 -0.511588 -0.625038 0.562321 -0.330639 -0.170512 0.493508 0.481881 0.370211 0.672353 0.975401 -0.224241 0.423549 -0.501081 0.707408 -0.531728 0.0244405 0.690695 0.175667 -0.161366 0.484323 -0.685771 -0.0136978 0.206154 0.366449 -0.929776 -0.853749 0.386586 -0.134333 -0.353193 -0.0364376 -0.890794 -0.883346 -0.714134 -0.824921 -0.568608 -0.211397 -0.297917 0.443964 0.681849 0.404475 -0.153596 0.750442 -0.54935 -0.414888 -0.726275 0.604443 0.510979 -0.198176 0.518853 0.092865 -0.337649 0.362637 0.560099 -0.146892 0.620497 -0.828905 -0.831068 -0.314988 0.455017 0.171911 -0.0185383 0.772092 0.256295 -0.908779 -0.984649 0.857852 -0.308131 0.959196 0.0138127 -0.100454 -0.664633 0.424077 0.496326 0.842578 -0.440585 0.130953 -0.834266 -0.344396 0.838611 0.781923 0.250417 0.140792 0.884347 0.423733 0.20837 0.552196 -0.455658 0.3571 -0.717135 0.865828 -0.204799 0.832287 -0.880319 0.0205722 -0.396289 0.537319 0.455981 0.232834 -0.785176 0.26911 -0.200212 -0.896219 -0.759052 -0.611888 -0.424318 -0.654582 0.720067 -0.655325 0.654486 0.0986265 -0.468204 -0.758541 -0.316909 -0.258084 0.641239 -0.0984321 -0.290907 -0.505102 -0.194962 -0.532486 -0.607736 0.264349 0.637517 0.461845 0.536446 0.351937 -0.232616 0.918529 0.0973834 0.655748 0.672713 0.546606 0.708239 0.994199 -0.186312 -0.536653 0.657642 1.14668 -0.669822 0.594154 0.223207 -0.192669 -0.0468575 0.770727 -0.316026 -0.917995 0.170128 0.921616 -0.577612 0.80088 0.416454 0.571213 -0.147148 0.343464 -0.915714 -0.98567 -0.945505 -0.134336 0.337749 -0.222734 0.460594 0.595676 -0.626193 -0.388479 0.430844 -1.03758 0.493465 0.846687 0.00813646 -0.484038 -0.387089 0.838484 0.546562 -0.275751 0.929217 -0.451569 -0.681065 -0.71504 -0.586164 -0.554869 -0.260353 0.841087 0.112924 -0.330167 -0.10098 -0.0686392 0.0476699 0.635615 0.890393 0.437303 0.391017 0.00978832 0.952456 0.353726 -0.795865 0.518877 -0.483031 0.807318 -0.116542 -0.705564 0.861022 0.541622 -0.676566 -0.497134 0.0150627 -0.400508 0.819803 -0.453582 -0.111896 -0.27181 0.769433 -0.998347 0.220113 -0.81831 0.959344 -0.604651 0.292583 -0.742309 0.318543 0.553607 0.0960476 0.700951 0.26291 -0.711271 -0.971662 0.330618 0.80208 -0.0256841 0.100096 0.520481 0.454566 -0.874328 -0.252102 -0.65458 0.810889 -0.856779 0.186274 -0.795451 -0.698537 0.918334 0.665942 -0.399182 -0.643318 0.433465 0.307753 -0.862543 0.978938 0.355681 0.385368 -0.69628 0.268816 -0.0267568 0.106696 0.884277 0.316619 -0.618552 0.224111 0.258022 0.687557 0.696289 1.36971 0.538851 0.32909 -0.900409 -0.908618 0.900753 -0.180135 -0.936822 0.74258 -0.553001 0.303008 -0.180357 0.958161 0.655836 -0.107474 0.322638 0.741716 -0.280278 0.704119 0.891822 0.572718 0.789824 -0.854993 0.15679 0.0270936 0.997295 0.321198 0.0495291 -0.505121 0.81311 -0.992613 0.280466 0.989665 -0.961373 -0.646176 -0.491013 -0.621922 0.928003 0.797175 0.20935 -0.594595 -0.140392 -0.202045 0.325795 -0.0943725 -0.481977 -0.328115 -0.910267 -0.275846 0.0413966 -0.565962 0.943416 -0.669142 0.669893 0.174799 -0.864549 0.0500756 0.801608 -0.400264 0.161039 -0.0776749 -0.748746 -0.267369 -0.874043 0.464203 0.162345 -0.322386 -0.205023 -0.184748 -0.180035 0.807847 0.0230207 0.0987857 -0.130094 0.935081 0.127026 -0.875996 -0.797161 0.543454 0.516346 -0.389476 0.0770101 -0.760779 0.823219 -0.109241 -0.297563 -0.0792495 -0.596582 -0.1739 -0.678979 -0.0465807 -0.278224 0.5947 -0.0766562 0.712323 -0.296956 -0.266491 -0.21677 0.697172 -0.149618 0.904839 0.478738 -0.821981 0.350888 -0.788394 -0.127236 0.9629 -1.11037 0.204456 -1.25375 0.0741943 0.424384 -0.592256 -0.736768 0.714503 0.819866 -0.453419 -0.922989 -0.36944 -0.22961 -0.349905 0.929284 -0.502377 -0.00414804 -0.535827 -0.961884 -0.287081 0.62956 -0.0393264 0.0540053 0.0267548 0.496407 0.156777 -0.815581 0.662514 -0.626827 0.180865 -0.314326 -0.219935 0.562124 -0.277883 -0.548205 -0.932634 0.49438 -0.873758 -0.699693 0.052828 -0.41767 -0.58383 -0.122628 -0.137555 -0.263461 -0.337262 1.00027 -0.891751 -0.407504 -0.120504 0.803597 0.822686 0.987679 -0.680043 0.716873 0.845511 -0.0170647 0.305749 -0.725151 -0.873968 0.724325 -0.554216 -0.847956 0.305244 0.564204 0.193379 -0.393736 0.79803 -0.771858 0.111731 -0.0857983 0.649668 0.445069 0.376051 0.41753 0.286607 0.234593 -0.821516 -0.120719 -0.395722 -0.514536 -0.264473 0.674275 -0.306115 0.736247 0.810188 0.412375 -0.908432 0.499995 0.0426431 -0.238356 -0.830397 0.91782 -0.00537461 -0.877862 -0.776926 -0.635472 -0.267312 -0.0699257 -0.575579 0.630755 0.452024 -0.140966 -0.476162 0.612006 0.50705 0.535922 0.45277 -0.268739 -0.440528 0.975433 0.482736 -0.22706 -0.8671 0.301508 -0.00346123 0.108664 -0.714239 0.252421 -0.874502 0.585306 -0.548859 -0.861663 -0.273991 0.795487 0.195341 -0.930205 0.38669 -0.441841 -0.409925 3.727 -0.0757724 0.0532509 0.0282369 -0.808784 -0.906424 -0.393388 -0.808364 -0.515856 -0.123177 -0.917471 -0.844681 -0.167541 -0.00670505 -0.473252 -0.380107 0.855796 -0.115355 0.242899 -0.111755 -0.407892 0.104286 -0.456663 -0.83461 -0.256076 0.785427 0.582429 -0.0247203 -0.883486 0.325347 0.451099 -0.627798 -0.147792 -0.271875 0.776015 -0.495282 0.332694 0.834511 0.648177 0.488876 0.766545 -0.0460233 0.942221 -0.0553146 0.183722 -0.204035 -0.265219 -0.956275 0.516261 -0.922292 0.490315 0.592591 1.04229 0.576403 1.00924 -0.510141 0.387133 -0.0183339 -0.738591 -0.214292 0.560215 0.548984 0.200417 0.583001 -0.605584 -0.111402 0.474946 0.925678 0.938654 -0.208471 0.530083 -0.651203 -0.364514 -0.347007 0.68143 -0.94759 -0.83773 -0.131885 -0.909789 0.743893 -0.550167 0.627635 0.486673 0.78466 0.0787987 0.398725 -0.84848 0.606944 -0.621922 0.195636 0.491793 -0.727696 0.667375 0.562768 -0.239252 0.0940704 -0.221621 0.0217424 0.192231 -0.141288 6.79026 -0.018093 0.574703 -0.93223 0.512896 -0.506567 0.442843 -0.398983 0.236314 0.849419 0.35539 -0.412336 0.575813 -0.24064 -0.3256 0.210718 -0.891596 0.0113188 -0.946518 0.670372 0.308173 -0.538321 0.690918 -0.848237 -0.992738 -0.357254 0.3506 -0.908553 0.0132267 -0.789909 -0.54407 0.522191 0.395428 0.925363 0.566696 0.907684 0.968946 0.722389 -0.420262 -0.563417 0.107186 0.911829 -0.603619 -0.373174 0.903736 0.99139 -0.251926 -0.909714 0.258043 -0.983237 0.44486 0.918568 -0.383505 -0.051493 0.170471 -0.390448 0.504102 -0.73604 -0.95152 0.769356 -0.267184 0.292155 0.33451 0.396729 0.00969193 0.619972 0.020723 -0.858569 -0.111835 0.282467 0.476779 0.500612 -0.852788 0.086905 -0.397757 0.640782 0.561562 -0.154505 -0.122112 -0.683083 0.366498 -0.593656 0.55307 0.848581 0.317314 -0.937987 0.772975 -0.820005 0.793093 0.403432 0.735286 0.862424 0.973078 -0.183211 -0.341093 0.230759 -0.779844 -0.198775 0.241545 -1.00342 4.76103 -0.373577 -0.340058 -0.56464 -0.16792 0.430291 -0.0109197 0.114766 -0.449464 0.0738047 0.00547406 0.456002 -0.116993 -0.131647 -0.729426 0.923224 0.0680745 -0.876774 -0.482384 0.739047 0.377112 0.390503 -0.507771 0.464443 -0.774868 -0.496421 0.754864 -0.62388 -0.632697 -0.241946 0.872187 -0.263202 0.464358 -0.369271 0.479376 0.505714 0.400329 0.396708 0.494064 0.658188 -0.233196 -0.0383481 0.110684 0.882564 -0.428667 -0.0893984 -0.285239 0.238567 0.487505 -0.684253 -0.930595 0.055931 -0.104369 -0.164014 -0.237009 0.716409 0.0273546 -0.470054 -0.442696 0.90124 0.47896 0.167455 0.317898 -0.500029 -0.125522 -0.795628 -0.396769 0.360623 0.3998 -0.000395156 0.369167 0.10926 -0.498954 0.545148 0.927872 -0.781652 0.400481 0.118388 0.382084 0.523771 -0.859912 0.540859 -0.398572 0.728005 -0.459883 -0.264409 -0.447265 -0.29018 -0.0892611 -0.850309 0.226287 0.413227 -0.588643 0.349195 0.212044 -0.469318 0.265253 0.297503 -0.950817 -0.388393 3.86667 -0.242428 0.295284 0.114886 0.114089 0.41301 -0.595196 0.126975 0.0776093 0.228595 0.270864 0.633756 -0.631186 -0.236585 0.897112 -0.986098 -0.390807 0.803096 -0.784545 0.0703689 -0.872217 -0.498197 -0.325823 0.90913 -0.076993 0.302074 -0.386196 -0.00722628 -0.854058 -0.600023 0.839212 0.352435 0.816267 0.942797 0.0562812 -0.534376 -0.495275 -0.406875 0.695334 0.530926 0.830203 -0.142941 0.752979 0.263526 0.405731 -0.267735 0.421681 0.473529 -0.85624 0.769367 -0.422762 0.863864 -0.318376 -0.714876 -0.321476 -0.727463 -0.0752338 -0.351546 -0.0367514 -0.431391 0.406938 0.690737 0.483031 -0.0223705 0.570297 -0.208524 0.120088 0.858707 -0.397252 -0.409634 0.7967 0.848946 -0.998838 0.759476 0.796703 -0.463133 -0.976324 0.117593 -0.311396 -0.759776 0.90922 0.838712 -0.173646 -0.468862 -0.315925 0.305218 -0.00222874 -0.165017 0.330316 0.0276048 -0.0278805 0.319934 -0.626775 -0.458438 -0.427001 -0.807796 0.240196 0.373247 0.381368 -0.929103 0.852133 -0.778408 -0.309636 -0.716522 -0.756332 -0.758261 0.211103 0.801009 0.139704 0.770499 0.449402 0.19312 0.229512 -0.104004 0.398366 0.283944 -0.215704 -0.838738 0.0437645 0.153185 -0.429311 -0.588772 0.992456 0.494675 0.638163 -0.280566 0.638814 -0.816512 -0.0238446 -0.527042 0.951621 -0.508037 -0.869148 0.711371 -0.897329 0.745348 -0.772306 -0.64871 0.730452 -0.203313 -0.0865008 0.504318 -0.93266 0.659138 0.258145 -0.344804 -0.94505 0.366508 -0.21517 0.792381 -0.954591 0.327865 0.890445 -0.496573 0.0344033 -0.977086 0.174965 -0.869106 -0.75596 0.0488662 -0.654634 0.190962 -0.245588 -0.440111 0.619498 0.612564 -0.820172 0.264177 -0.000273963 0.223816 0.478283 0.105915 -0.628633 -0.762343 0.451741 -0.348569 0.219826 0.847745 -0.0643488 0.854831 0.337617 0.232754 0.462542 -0.769439 0.294942 0.861593 0.144527 0.325333 -0.628236 -0.183698 0.0231735 0.24947 0.0238523 -0.580922 -0.137751 0.773708 0.0181239 -0.669933 0.465857 0.0752565 -0.390678 0.599251 0.300613 -0.285887 -0.30981 0.0964 -0.943667 -0.495386 -0.254786 0.287227 0.57516 0.874756 0.859426 0.147445 -0.96312 -0.2504 -0.834386 -0.728412 -0.953342 0.0411496 -0.650057 -0.561559 -0.373318 0.429991 -0.188958 0.00654223 0.305501 0.37884 -0.531135 -0.644018 -0.745983 0.691047 0.72768 0.697546 0.73852 0.835731 -0.841951 0.779673 0.57713 0.850394 -0.637605 0.571639 -0.89812 0.145637 -0.311379 -0.890722 -0.507386 -0.665085 -0.182858 -0.711368 -0.167314 -0.132851 1.03376 0.238448 0.055336 -0.22898 -0.9884 0.577991 -0.594704 0.279913 -0.467154 -0.944504 -0.851306 0.555287 -0.0356239 -0.0577328 0.220094 -0.193605 -0.0276029 -0.904513 0.485009 0.630263 -0.889897 -0.371261 -0.13679 0.367351 -0.659772 0.610246 0.000857676 0.532999 0.572129 -0.256465 -0.919986 -0.366781 -0.873913 0.00645865 0.338443 0.868078 -0.972479 -0.769177 -0.825708 0.578153 -0.410551 0.324446 0.820941 -0.496117 -0.806619 -0.337941 0.0175363 -0.685953 -0.640898 -0.507094 -0.273081 0.405214 -0.670239 0.541936 -0.143948 0.074077 0.0756942 0.904335 0.429264 -0.375909 -0.173217 0.946374 0.0461245 -0.514009 0.323641 0.0674419 -0.0984956 -0.00486516 -0.621939 0.0719918 -0.336108 0.213901 0.448882 -0.330783 0.602353 -0.0901449 0.0916905 -0.161379 -0.642489 -0.0867018 0.442686 -0.593221 0.59089 0.209583 -0.96646 0.799102 -0.305611 -0.734969 0.166318 -0.634173 -0.651785 0.56398 -0.754069 -0.902705 0.317174 0.32414 0.159777 -0.327215 0.518296 -0.903774 0.781619 0.813925 0.690403 0.840474 0.619414 -0.630774 -0.209273 0.0196924 -0.917876 -0.358724 -0.981691 -0.97509 0.631063 0.907518 -0.861864 0.666521 -0.483431 0.73899 -0.0520705 0.0275025 -0.0740351 0.933075 0.862117 0.234582 -0.904968 0.108772 0.282526 -0.0328253 -0.311829 -0.0783378 -0.745474 0.814526 -0.249964 0.427383 0.128889 -0.960882 -0.0930691 -0.45385 -0.826913 -0.730338 -0.296884 0.630411 0.727606 -0.484348 -0.601608 0.219128 0.319747 -0.564137 -0.560196 0.849862 -0.39091 -0.891201 0.617061 0.430471 0.0442158 -0.234416 -1.00023 0.906579 -0.505529 -0.644594 -0.953204 -0.453766 -0.878023 -0.827385 0.967642 0.135445 -0.628335 0.823869 -0.474487 -0.670394 0.418214 0.765209 0.792388 0.912531 -0.0785131 -0.394542 0.424922 0.266021 0.861612 0.58709 0.797239 0.223364 -0.94548 -0.427907 -0.268771 -0.684517 0.0307674 -0.00495854 -0.130474 -0.0374246 0.490924 0.196624 0.335745 -0.173579 -0.592667 0.0149542 0.838331 -0.619669 0.2204 0.00688813 0.153805 -0.172826 0.180633 -0.954951 0.130605 -0.500704 0.471143 0.563605 0.181291 0.988738 0.710363 0.574586 -0.193892 0.25995 0.773763 -0.912798 0.982314 -0.111544 -0.309456 0.442025 0.046468 -0.054732 -0.662393 0.333505 0.38638 0.579339 0.33224 -0.687839 -0.448342 -0.935674 -0.17036 0.204751 0.944168 0.301246 0.364564 0.687856 -0.719707 0.952625 0.337643 -0.202573 0.61256 0.782107 -0.487402 -0.436532 0.276335 0.252571 -0.230685 -0.593699 -0.727483 -0.402322 -0.62765 0.549538 0.803161 0.783195 -0.819938 0.866465 0.740825 -0.298524 -0.0147282 -0.193572 0.154396 -0.743316 -0.814899 -0.521333 0.240216 -0.621686 -0.072261 0.276641 0.743673 -0.97591 -0.993748 0.976655 0.477232 0.958427 -0.139277 0.801259 -0.545418 -0.620001 -0.881635 0.882702 0.0433039 0.00759417 0.755283 -0.879001 0.333714 -0.0646475 -0.708484 -0.0751454 0.36571 -0.698468 -0.15152 0.749395 0.060368 0.990347 -0.505386 -0.0467786 -0.432108 0.590919 -0.355012 0.703293 -0.326783 -0.975147 0.832792 -0.252116 -0.0483077 -0.692802 -0.458313 0.86941 -0.815926 0.431178 0.732386 -0.857602 -0.516057 0.440898 -0.904553 0.527946 0.871214 -0.278123 -0.57362 -0.922387 0.470702 0.821696 -0.0548509 0.450496 0.549888 -0.183263 0.361652 -0.462135 0.471346 -0.751782 0.899472 -0.626721 -0.807469 0.495827 -0.439193 -0.993271 0.0204634 -0.871533 -0.498282 0.943272 -0.208645 -0.324676 0.18672 -0.442524 0.595243 -0.0430708 0.460392 -0.287782 -0.564683 -0.599071 -0.179266 -0.961087 0.332401 -0.280395 0.153165 0.0020469 0.109333 -0.730954 -0.124311 0.208443 -0.545068 0.220053 0.95413 0.269836 -0.291143 0.628811 0.429733 -0.695728 0.393361 -0.887462 -0.194595 0.915322 -0.244715 0.0943187 -0.197443 0.103179 0.570838 -0.748511 0.855055 0.081157 -0.91847 -0.631077 0.229146 0.398811 -0.281511 0.175112 0.206607 0.0354148 -0.927076 0.822059 0.432373 -0.86381 -0.260875 -0.530858 0.630064 0.266029 -0.284487 -0.988768 0.215147 -0.136559 -0.688327 -0.980735 0.400982 0.339321 -0.146359 -0.447741 0.0832356 -0.581983 -0.92215 -0.461401 -0.724963 -0.10268 -0.624535 0.522973 0.478233 0.340876 0.971229 0.0582672 -0.337069 0.698154 -0.557856 -0.0622689 0.457127 -0.987645 -0.757102 -0.933582 -0.181899 0.491285 -0.125899 -0.640074 0.675155 0.770653 -0.3018 -0.0172077 -0.231993 -0.121731 -0.861311 0.426475 -0.8289 0.698727 -0.863376 0.0680229 -0.667293 -0.842524 0.573465 0.39737 0.462647 -0.892311 -0.996871 -0.403328 0.624866 0.00740323 -0.710266 0.804617 -0.848132 -0.117907 0.135556 -0.750053 -0.752286 0.596346 0.0734805 -0.573167 0.161774 -0.301325 -0.375081 -0.381796 -0.232073 0.486129 0.822985 -0.479939 0.794083 0.382672 0.798283 0.731944 -0.726578 -0.876793 0.322691 0.337449 -0.916565 0.643006 -0.343425 -0.290712 0.384709 -0.514486 -0.0661185 0.907983 0.599599 0.791305 0.423572 0.949194 -0.852983 0.951117 0.275737 -0.660071 0.927471 -0.482162 -0.327876 0.844703 -0.549678 0.978766 -0.353528 -0.478972 -0.177214 0.35116 -0.794248 0.752229 -0.126117 0.822878 0.99254 0.592731 -0.786061 0.190204 -0.847755 0.957457 -0.394366 0.0150362 0.721252 0.701125 0.76404 0.499994 0.352212 -0.205518 0.955713 -0.87906 -0.511333 -0.867565 -0.548684 -0.411254 0.092523 -0.791776 -0.101048 0.235589 -0.300531 -0.72117 0.986869 0.622817 -0.473415 0.81897 0.856747 0.377023 0.170008 0.665494 -0.302566 0.111304 0.343642 0.883639 0.710088 0.267842 -0.0558539 -0.0751798 -0.210187 0.385944 0.522354 0.112731 -0.903074 -0.74855 0.734305 -0.789805 0.493396 -0.432832 0.804196 -0.282091 0.435684 0.525129 0.538982 0.536244 0.298058 0.432767 0.127075 0.207874 -0.0352398 -0.103534 -0.376373 -0.807244 -0.79421 0.706086 0.555802 -0.113013 -0.538311 -0.482856 0.238454 -0.826321 0.937693 0.361523 0.805474 0.0984532 -0.525856 -0.61967 -0.0950414 0.773648 -0.655699 -0.487897 -0.467591 -0.202409 0.23828 0.0829287 -0.704361 0.0141709 -0.168319 0.713982 0.944494 -0.812759 -0.0140312 0.377225 -0.83663 0.997207 0.6296 -0.704263 -0.0842871 -0.103285 0.591908 0.799316 -0.0953256 -0.927391 -0.188079 -0.236622 -0.465427 0.605528 0.471661 0.590844 -0.141631 0.801337 -0.0724998 -0.860644 0.413873 -0.479886 0.149291 0.302084 0.0921071 -0.509458 -0.899711 0.412843 -0.796859 -0.849441 4.4977e-05 -0.577199 0.0297709 -0.897508 0.887327 -0.259219 -0.722238 -0.293599 -0.0181047 0.118139 -0.853181 0.390658 -0.374127 0.121291 0.821848 0.437456 -0.413524 0.957259 0.401869 0.545535 -0.613376 -0.581951 -0.543689 -0.207695 0.505768 0.672201 0.953588 0.105533 0.866394 -0.497822 0.198741 -0.511097 -0.949916 -0.0555451 0.323123 0.626758 0.4057 0.272435 0.100194 0.510541 -0.80552 0.952286 -0.246229 -0.0863859 -0.284551 0.80086 0.519363 0.0955244 0.77964 0.813358 -0.748752 -0.0393402 -0.642764 -0.111285 -0.790988 0.351703 0.801886 -0.353803 0.36133 0.16126 -0.0240136 0.128631 -0.274309 0.0134161 -0.375324 -0.157821 0.268285 0.285505 0.507976 0.670379 -0.0112456 -0.892299 0.322929 0.862901 0.686385 0.330976 -0.987091 -0.254315 0.68411 0.316154 0.0943555 -0.186896 -0.671498 -0.282859 0.865293 -0.477864 0.971248 -0.691378 -0.616665 0.98519 0.579219 -0.0122526 -0.779733 -0.826906 -0.536036 0.52033 -0.615503 0.99016 0.178894 0.467799 0.220584 -0.920279 -0.315606 -0.498852 0.166218 0.234584 0.799414 0.317278 -0.513045 -0.0394512 -0.280959 -0.673783 -0.263273 -0.185518 -0.935721 -0.486987 0.597878 0.360266 -0.0188384 0.845876 -0.342381 0.94 0.327816 0.717803 0.388954 -0.886732 -0.311408 -0.565625 -0.22492 0.0163662 -0.404765 0.322555 0.911607 -0.916172 0.540577 -0.123457 0.84255 0.0247973 0.303639 -0.0125677 0.496182 -0.358436 0.459074 -0.381244 -0.678607 0.829691 -0.899966 0.0847581 -0.861462 -0.74574 0.770839 0.273861 0.927373 0.775161 -0.0419893 0.92664 -0.685256 0.343928 0.214195 0.827639 -0.123826 -0.974647 0.840894 -0.833921 0.0612214 -0.0909912 0.448361 0.428527 0.695393 -0.608087 -0.990623 0.227947 -0.823149 -0.817347 -0.29091 0.931469 0.319281 0.441711 -0.963303 0.874894 -0.855103 0.84442 0.27901 -0.675665 0.479664 -0.619896 0.82204 -0.147553 -0.425097 0.683336 0.611281 -0.137407 -0.518303 -0.0892594 0.854574 0.503782 0.781269 0.00806968 -0.655524 -0.0719401 0.973759 -0.575821 0.564476 -0.451628 -0.656245 0.677655 -0.74427 -0.226331 0.423278 -0.742897 -0.253489 -0.887495 -0.598961 0.253168 0.681655 0.333307 -0.0238211 0.446625 -0.626334 -0.523549 0.0235436 -0.608419 -0.0162541 0.0304272 -0.151211 -0.658701 0.0174137 0.524844 -0.589638 0.836626 -0.113529 0.894964 -0.0725924 0.701501 0.231397 -0.00886067 -0.427779 0.0230938 -0.45879 0.853222 -0.824731 0.0126885 0.131643 -0.453241 -0.320249 -0.984268 -0.455598 -0.574342 -0.208199 0.222124 -0.503923 0.694697 0.85017 -0.380195 -0.774601 0.910764 0.740442 0.432073 -0.459324 0.595369 0.172676 0.213672 -0.439989 -0.157455 0.0654687 0.0877411 -0.613419 0.502827 -0.500083 -0.767604 0.107958 0.862662 0.601423 -0.718954 0.182904 -0.838287 0.894468 0.990746 -0.840928 0.982645 -0.529976 -0.476256 -0.852782 0.607241 0.852458 -0.623379 -0.0549585 0.807782 0.78352 0.715034 0.862894 0.325305 0.607713 -0.0918117 0.463882 -0.362016 0.145027 0.138234 -0.81005 -0.350625 0.116163 -0.626758 0.460978 0.825012 -0.977828 0.210872 -0.09615 -0.59751 -0.849211 0.153553 -0.766015 -0.312042 0.342306 0.905931 0.195677 -0.816354 -0.231334 0.488385 0.88071 0.936886 -0.855911 0.699443 -0.68399 -0.582135 -0.987237 0.853532 0.3193 0.6594 -0.61585 0.813365 0.824807 0.126249 -0.0720802 -0.748609 0.927221 0.811321 -0.833205 0.733854 -0.81219 0.0534843 0.19632 0.546791 0.072749 -0.17834 -0.775601 0.499768 0.621519 -0.655841 0.239522 0.644654 -0.0898571 -0.94917 0.968706 -0.447197 -0.0746456 -0.5713 0.399098 -0.787741 0.325421 -0.164764 0.957763 0.696766 0.287982 0.272868 -0.756948 0.694228 0.376872 -0.773213 0.326365 -0.118309 0.707522 -0.669127 0.807581 0.587259 -0.422441 -0.236226 0.406391 -0.959949 -0.291516 -0.221877 0.152019 -0.904775 0.559548 -0.873748 0.888341 -0.284496 -0.688568 0.700648 -0.410486 -0.63437 -0.0315731 -0.21404 0.803132 -0.132336 -0.408081 -0.151552 0.270981 0.0876978 0.727849 0.715831 -0.957174 -0.214424 -0.952938 0.143129 0.205173 -0.197754 0.648109 0.67473 -0.578508 -0.554396 -0.164205 0.55135 -0.756547 0.261477 0.600742 0.101139 -0.977595 0.204411 0.232266 0.295864 -0.123129 0.674186 0.905387 -0.22601 -0.150992 0.483687 -0.483298 -0.745892 0.674085 -0.724313 0.987552 0.832514 0.13969 -0.896613 0.380519 0.809398 -0.686073 -0.2747 -0.836866 -0.0833298 -0.28082 0.308707 -0.60123 0.00283858 0.0633301 0.54516 0.553226 0.017344 -0.433953 0.0635407 0.117062 0.302738 -0.357384 -0.385294 0.0767707 0.178735 -0.0353971 0.120897 -0.538703 -0.910023 -0.852801 0.653089 -0.84093 -0.0977399 -0.582714 0.0426495 -0.0369855 0.487514 0.997043 0.589427 -0.33562 0.371863 0.24608 0.0099442 0.626388 0.391332 0.373032 0.875038 0.720085 -0.439888 0.136495 0.993478 0.895067 0.572653 0.354508 -0.8464 0.918274 0.0542584 0.704659 -0.954697 0.977639 -0.798244 -0.392687 -0.566107 0.646214 0.415219 -0.686546 0.950408 0.862586 0.303964 -0.682724 0.948385 0.402471 0.762352 0.112489 -0.408392 -0.0670665 -0.399766 0.922194 -0.571974 0.00879843 -0.214625 -0.405626 0.0498782 0.816844 0.566802 -0.512111 0.0764841 0.518078 -0.96049 0.561186 0.642361 -0.575466 0.0890155 0.0161522 -0.981064 -0.642249 -0.598772 0.557894 0.350393 0.0274196 -0.823841 -0.42333 0.416093 0.736674 -0.529992 -0.746999 -0.926995 0.212683 -0.778534 -0.671603 -0.243453 0.0509766 0.360553 -0.512689 0.954271 0.622512 -0.0736113 -0.679963 -0.982755 0.869421 -0.714926 -0.684138 -0.940454 0.655673 -0.123717 0.47239 -0.64216 -0.216329 -0.136458 0.712975 0.264817 -0.878627 0.384861 -0.829106 -0.975209 0.873789 -0.298779 0.332137 -0.456584 0.978834 -0.31676 -0.948477 -0.966048 0.960174 -0.892233 -0.206055 -0.0100459 0.500338 0.643276 0.750849 -0.0259757 -0.308604 0.182781 -0.598011 0.629012 0.220398 0.007983 0.902721 -0.333953 -0.0986497 -0.537182 -0.385692 -0.38939 -0.937997 -0.213105 -0.651004 0.31203 -0.574185 0.600447 -0.136437 -0.733995 -0.174087 0.523311 0.735298 0.940155 0.0855314 0.139224 -0.0229689 0.351099 0.560224 -0.648392 0.789986 0.171159 -0.455047 -0.530329 -0.00139488 0.94567 0.0114242 0.25268 -0.332771 0.580701 -0.670125 -0.811262 -0.246379 0.655581 -0.793305 -0.0188738 -0.264395 0.946308 -0.963417 -0.309439 -0.740784 -0.140977 -0.724935 0.49894 -0.585958 -0.468138 0.795301 0.950623 0.585523 0.854625 0.910255 0.9658 0.0641963 -0.894228 -0.388745 -0.993929 -0.458481 0.881421 0.527626 0.237171 0.460471 0.360644 0.0545816 -0.305482 -0.927818 0.0285804 -0.0340901 0.00825001 -0.906517 0.128891 0.109453 0.427004 -0.257327 -0.751359 -0.687193 -0.891662 -0.69383 0.406649 -0.585247 0.398058 -0.872002 -0.349374 0.421752 -0.00585067 -0.269316 0.623158 0.259674 -0.946703 -0.354476 -0.299007 0.686574 -0.189013 -0.467555 0.132276 -0.308706 -0.571432 0.957607 -0.0859444 0.285052 -0.7069 -0.229354 0.933138 0.374116 -1.00063 0.578399 -0.774137 0.496181 -0.644812 0.559042 -0.0195333 0.307787 0.0463581 -0.508434 0.644364 0.224565 0.348045 0.685342 -0.935354 0.157022 0.79176 0.233176 0.00317228 0.529161 -0.692847 0.428587 0.95769 -0.297122 -0.998352 0.133198 -0.599041 0.99398 -0.786054 -0.227887 0.734571 0.680448 -0.127444 0.0922276 0.643425 0.778682 -0.709591 0.0464814 0.936341 0.66673 -0.149155 -0.578923 0.160891 -0.696983 -0.250205 0.716491 0.3132 0.503621 -0.310919 -0.570838 -0.252229 -0.290616 0.55232 0.595969 0.678381 0.424351 -0.0642508 -0.578055 -0.575329 0.190504 -0.195898 0.801884 -0.312953 0.94697 -0.911491 -0.583304 -0.868308 -0.0644337 0.204128 0.906733 0.923202 0.714642 -0.333281 0.213021 0.565011 -0.741417 0.318146 0.266697 0.846618 -0.255497 0.737455 0.893839 0.70094 0.0166538 -0.612444 -0.787797 0.25325 -0.523151 0.795151 0.495227 -0.144748 -0.163198 -0.756887 0.100977 0.609423 -0.352699 -0.188838 -0.946894 -0.192366 0.790674 0.874397 0.340519 0.0809666 0.721701 -0.59951 -0.247248 0.439674 0.211674 0.75197 -0.793133 -0.669421 0.70485 0.386378 0.748556 0.603053 0.372746 -0.115175 -0.619462 0.585389 -0.0713807 0.557465 -0.931712 -0.664463 0.192027 0.45609 -0.784073 0.131366 0.983556 0.159206 0.0956608 0.26614 -0.223794 -0.204227 0.577459 -0.184561 0.978261 0.958822 -0.739178 0.0504194 0.0492978 -0.916374 0.635011 0.321073 -0.579374 -0.348121 -0.200796 -0.139242 -0.995561 0.262203 0.132868 0.222691 -0.188789 0.0214036 0.809346 0.858716 -0.584085 0.691499 0.823268 0.821141 -0.482021 -0.0473531 0.80013 0.079726 -0.529206 -0.374633 -0.7998 -0.773834 0.772954 -0.903969 0.870122 0.44098 0.542535 -0.661612 -0.145095 0.752809 -0.691521 0.276876 0.987434 -0.292726 0.70366 0.179034 0.253018 0.474327 -0.745025 0.608271 -0.149171 -0.0718097 -0.18169 0.0573171 0.259395 0.940411 0.604365 -0.451368 0.576294 -0.1147 0.405158 -0.774235 0.235017 0.684145 0.627379 0.613608 -0.340782 -0.471455 0.429442 0.850417 0.338671 -0.64469 0.00802637 0.547326 0.83517 0.863935 0.955734 -0.898476 -0.875909 -0.197002 0.868291 -0.29675 0.494653 -0.740202 0.296818 0.612359 -0.38063 -0.580255 0.34478 -0.973541 -0.797693 0.420728 -0.475497 -0.952226 -0.901421 0.878922 -0.958608 -0.996435 -0.943878 0.378761 0.323946 -0.876186 0.244312 -0.0944228 0.593047 0.769041 0.901257 0.341232 -0.428429 0.734661 -0.273699 -0.181071 -0.828938 -0.651024 -0.918309 0.861199 0.0220789 0.947939 0.273596 -0.862628 0.106641 0.306608 -0.80083 0.387612 -0.257309 0.752985 0.750798 1.20279 -0.0933233 0.356905 -0.647398 -0.263324 0.132025 0.935953 0.205139 0.361084 -0.401896 0.347233 -0.100362 -0.583645 -0.857596 -0.393567 0.176159 -0.161651 0.964983 -0.275227 -0.7374 -0.109496 -0.711476 -0.282101 0.982726 0.267182 -0.414212 0.616623 -0.3559 -0.10686 -0.424004 -0.904945 -0.828828 -0.866289 -0.442797 0.543957 0.723534 0.00385792 0.858023 -0.378556 0.0500571 0.245043 0.245621 -0.864625 -0.0253005 -0.873059 0.453958 0.0223966 -0.562135 0.0654345 0.0817544 -0.194608 0.145933 0.218725 0.627857 -0.840972 -0.247639 -0.136092 1.0046 0.123417 -0.944296 -0.38455 -0.475085 0.6996 0.30638 -0.0640825 -0.249796 -0.190908 0.406512 -0.398242 0.0247295 0.850344 -0.39025 -0.764082 0.999719 0.332729 0.733288 -0.403489 -0.281785 0.260661 0.872709 0.847312 0.602644 0.45842 -0.460707 -0.261716 0.161922 -0.777697 -0.115956 -1.01992 0.407231 0.135374 0.97707 -0.303956 -0.562195 -0.515833 -0.87808 0.529526 -0.430704 -0.592623 -0.937196 -0.374912 0.016623 -0.61686 0.593179 0.211806 -0.725885 -0.041367 0.760278 0.83284 0.933732 0.780027 -0.731542 0.253016 0.311482 0.06326 0.739728 -0.305428 -0.557487 -0.837145 -0.446544 0.130686 -0.362009 -0.959303 -0.621752 0.465855 0.0931326 0.217872 0.55448 -0.0981425 0.233943 0.159011 0.612438 0.890407 0.508285 0.365348 0.825284 -0.12823 0.737496 -0.360641 -0.832143 -0.687111 0.0569667 -0.848851 0.321987 -0.582709 0.145167 0.787058 0.210853 -0.0151789 -0.456984 -0.488858 -0.918528 -0.501619 0.624701 -0.920982 -0.745718 0.437961 -0.0701413 0.3946 0.236071 0.486355 0.600863 -0.0825489 -0.0154993 -0.375928 0.611461 1.64038 0.513799 0.0879171 -0.06593 -0.643679 -0.571374 0.398221 -0.382455 -0.644692 -0.651372 -0.0134824 0.481221 0.00153391 -0.385304 -0.815174 -0.288961 0.47966 0.890184 0.962609 -0.670329 0.666132 0.694198 0.186887 0.985493 -0.653782 -0.00672052 0.85516 0.965095 0.94401 0.282713 -0.314131 -0.501196 0.370059 0.438455 -0.383263 0.928582 -0.258389 -0.237172 0.702677 -0.324982 0.776118 0.205807 -0.805009 -0.479727 -0.511985 0.589238 0.361252 0.627713 -0.488161 0.0464698 0.224908 -0.930368 -0.578189 -0.0526354 -0.322091 0.775494 0.718084 -0.81542 0.149556 0.209573 0.0557838 0.459028 0.911617 0.153843 -0.176634 -0.276528 0.21969 0.996864 0.372548 -0.103287 -0.400992 0.770544 0.860591 0.694583 -0.765596 0.653902 -0.835784 0.200435 -0.274937 0.163462 0.558552 -0.751538 -0.573157 -0.606235 -0.686684 0.577834 0.589525 0.213503 -0.833226 0.387322 -0.924555 0.302962 0.23448 -0.525433 0.938972 0.909458 0.14615 0.309326 -0.384164 0.448015 0.593869 0.18835 0.376052 0.676607 -0.331315 0.78654 -0.314191 -0.988057 -0.67459 -0.0367695 0.180536 -0.158102 0.679597 0.889391 -0.223863 -0.152167 -0.577241 -0.239207 -0.736271 -0.245631 -0.011831 0.305575 0.188288 0.832988 0.861767 -0.552183 0.846767 0.288286 0.173893 -0.550418 -0.605999 0.802252 -0.03938 -0.148705 0.984174 -0.817153 0.395607 0.890538 -0.475799 -0.515461 0.629664 0.298376 -0.8028 1.01711 -0.747721 0.479357 -0.381811 -0.500574 -0.74936 0.115937 -0.969372 0.975594 -0.0256162 -0.96487 1.16503 0.903172 -0.558318 -0.724589 -0.801063 -0.338126 0.263863 0.612596 -0.886487 -0.854184 -0.240084 -0.857747 0.945693 0.372895 0.815802 0.672956 0.805781 -0.587401 0.78977 -0.727075 0.00776083 -0.144029 -0.74411 0.78674 0.386237 0.0054324 -0.601986 0.648146 0.688238 -0.616324 0.136294 -0.727558 -0.884564 -0.377138 -0.607311 -0.257105 0.0978278 -0.87927 0.39494 -0.315473 -0.299914 -0.235892 0.195619 0.433063 -0.380218 -0.293878 0.36261 -0.551934 -0.33047 0.963218 0.0184783 -0.557488 0.553808 -0.950859 0.108838 -0.749669 -0.648024 0.180924 -0.616142 0.713738 -0.780974 0.615914 -0.0214239 0.440627 0.0733176 0.291042 0.528031 -0.216615 -0.288269 0.0429921 -0.436948 -0.809511 -0.763442 0.926741 -0.897848 -0.408356 -0.642268 -0.943803 0.193967 0.0079555 -0.56137 -0.290024 0.167022 -0.371407 0.715964 -0.851029 -0.185854 0.286271 -0.845649 -0.273638 0.853631 0.459778 -0.882189 -0.160355 0.775286 0.180344 0.496785 -0.799462 0.0632598 0.115881 1.22853 0.00540428 -0.649552 -0.71559 -0.509072 0.16131 -0.751094 -1.20793 -0.176752 0.44204 -0.0318223 0.314724 0.164392 0.357857 0.288484 0.0481726 -0.473798 0.588495 -0.350872 0.532305 0.334177 0.188663 0.308513 -0.602036 -0.0773367 0.120313 -0.688523 -0.653605 0.563596 -0.0927156 0.761752 -0.715902 -0.211708 0.27873 -0.665811 0.402663 -0.504216 0.0796841 -0.700238 -0.11622 -0.731 0.0395261 -0.68661 0.245015 0.349122 -0.0163607 -0.317071 0.237123 0.1673 0.275849 0.334231 0.82815 -0.325476 -0.647694 0.610192 -0.780794 -0.0611149 0.74113 0.811836 1.98817e-05 -0.185463 0.145185 0.904925 0.554688 0.923561 0.9832 -0.607494 -0.0916514 -0.693005 0.954862 0.501402 -0.681217 0.475958 -0.295246 -0.395447 0.394149 0.457159 -0.619609 -0.896765 -0.656224 0.319279 0.00280782 -0.354826 -0.576525 0.861471 0.492176 -0.0647788 -0.981219 0.526493 -0.775511 0.609803 -0.743066 0.67328 -0.49524 0.68999 -0.51868 0.647584 -0.537417 -0.537301 0.105654 0.14724 -0.963089 -0.747773 -0.0668127 0.213705 0.27805 -0.0820798 -1.26811 0.311157 -0.598901 -0.711806 -0.0448326 0.663281 -0.036429 -0.545995 -0.960897 -0.875738 -0.454841 -0.875449 -0.806555 0.453742 -0.964453 1.00213 -0.588018 -0.259825 0.712599 0.196051 -0.579332 -0.138468 0.281714 -0.307709 -0.668409 -0.160707 0.69276 0.707126 -0.00897946 0.443571 2.01634 0.844814 -0.857061 -0.522194 -0.895621 0.213485 -0.843559 -0.701266 0.568688 0.279442 -0.316744 0.663224 -0.47093 -0.469144 -0.811092 -0.751226 0.38201 0.222495 0.789038 0.606657 0.714667 0.509098 0.991335 -0.59367 -0.450401 0.409699 0.359091 0.775369 -0.72238 0.483611 0.176286 -0.205918 -0.753547 -0.772524 0.0261033 -0.244199 -0.178238 -0.344257 0.0224209 -0.0947775 1.01774 0.247134 0.637407 0.0668035 -0.170921 -0.0597554 0.832478 0.962028 -0.602976 -0.26681 0.157107 -0.686226 -0.168335 0.616676 0.012001 0.588335 0.26678 -0.235754 0.905625 -0.576288 -0.159486 -0.422035 0.89093 -0.119075 -0.264304 0.301382 0.479049 -0.870206 0.151495 0.158401 -0.183395 -1.10971 -0.676218 -0.722391 0.556773 -0.729568 -0.629115 -0.734777 -0.902625 -0.168567 0.602878 0.603256 -0.505102 -0.963703 -0.985107 -0.538334 -0.722186 0.547383 -0.517141 0.929322 0.16027 -0.024455 -0.0377577 0.43462 0.338912 -0.0472648 0.036813 0.0547595 0.0553565 -0.0343682 6.52715 -0.270514 0.134251 0.279352 -0.8626 -0.0536836 -0.778017 -0.660156 0.960916 0.979786 -0.836117 0.138731 0.423144 -0.389403 -0.298151 0.563478 0.0371677 0.977226 -0.628416 0.813104 -0.080315 -0.506169 -0.273497 -0.473541 -0.614969 -0.523667 -0.987086 0.343992 -1.00841 -0.848138 -0.17204 -0.535145 -0.280259 0.434671 0.229161 0.444317 -0.411069 0.251132 -0.338114 -0.899948 -0.0293648 0.44955 -0.151168 -0.159124 0.558039 0.462271 -0.705605 -0.894293 0.123356 0.875266 -0.541826 -0.0638914 0.329765 0.648088 0.0597139 -0.722142 -1.0412 -0.150852 -0.785231 0.0317982 0.602212 -0.826054 -0.926624 0.854008 -0.0333531 0.668077 -0.391641 0.515099 1.03001 0.408749 -1.0855 -0.0661839 0.591483 0.438601 -0.661675 -0.980899 0.91591 -0.586508 0.757995 -0.0576698 -0.931402 -0.445489 -0.397383 -0.961617 -0.140587 0.321041 0.164144 0.444564 0.749665 -0.795603 1.07343 -0.576589 0.752011 -0.592381 -0.971262 -0.380397 0.188567 -0.142393 -0.717315 -0.955167 7.5502 0.959523 -0.587609 -0.449588 0.245489 -0.497514 -0.281317 0.893072 0.128406 0.546504 -0.977413 -0.0791989 0.722579 0.880346 -0.328265 0.236029 0.0684086 0.259855 -0.000412826 -1.02754 -0.390425 0.295107 0.487452 0.645085 0.387853 -1.00797 -0.113206 0.634945 0.295547 -0.290263 0.333223 0.314436 -0.232818 -0.143684 -0.604138 0.570984 -0.445926 0.508022 0.996827 0.693282 0.238274 0.68045 0.619777 0.173392 -0.73351 0.558963 0.78719 -0.555895 -0.326081 -0.436851 0.703224 0.715899 -0.826357 -0.11081 0.28255 -0.118704 0.468515 -0.83326 -0.0200665 -0.0964681 -0.266485 -0.822368 0.457816 0.468664 0.148163 0.663292 0.448367 0.0059079 -0.598649 0.30647 0.806084 -0.348922 -0.141286 0.483674 -0.059096 0.920777 -0.164223 -0.317887 0.324747 0.645116 -0.00335812 0.303591 -0.858451 0.158232 0.443826 0.343472 0.873972 -0.821719 0.652434 0.0714276 0.0755512 -0.934118 0.905938 -0.159513 0.718283 0.680716 0.218531 -0.583955 0.158624 -0.524653 8.05148 -0.133828 -0.345779 -0.137287 0.39597 -0.489708 -0.363425 -0.746033 -0.844903 -0.284298 -0.763919 0.197985 -0.137851 0.0839609 -0.546501 0.157458 -0.349742 -0.718597 -0.37281 -0.733873 -0.200857 0.247401 -0.978773 1.10259 -0.904315 -0.326826 0.391657 0.680723 -0.482726 -0.114443 -0.349339 -0.731898 0.799467 -0.353918 0.270551 -0.938769 -0.521677 -0.283818 -0.0518599 0.284191 -0.452948 -0.693143 0.162251 -0.512481 -0.0844855 -0.64348 -0.943129 0.12579 0.851685 -0.839094 0.723804 -0.0470091 -0.8839 -0.797535 -0.467546 -0.038874 0.69692 0.842707 0.0977438 0.683275 -0.00974446 -0.674836 0.69074 -0.381176 -0.457934 -0.8469 0.20233 0.515585 -0.38033 0.217558 0.367529 -0.697997 0.980266 -0.066041 -0.94833 0.327624 0.123287 1.28514 -0.786782 -0.34143 0.990827 0.546669 0.0486383 0.425039 0.368748 0.695663 0.917072 -1.12695 -0.336809 -1.01434 -0.6465 0.17334 0.296916 0.547117 0.56576 -0.497036 -0.0600245 0.842772 0.0352843 0.518074 5.77913 0.356017 0.464312 -0.700255 0.149661 0.00462069 -0.0181073 -0.549101 0.30693 -0.521564 -0.923964 0.340509 0.0312224 -0.15225 0.397254 -0.681166 -0.331106 0.254124 -0.21477 0.567612 -1.01205 0.187042 0.87569 1.13406 0.77637 0.00817446 0.256082 0.650049 0.426394 0.504543 0.455675 0.393973 -0.0303867 -0.638553 0.249314 -0.605751 0.967458 0.470886 0.341709 0.072451 0.642724 -0.778174 -0.604551 0.401728 -0.27872 0.35127 0.0668211 0.289093 -0.305528 0.502569 -0.603828 0.187865 0.820333 -0.342126 -0.0821224 0.321758 -0.428455 -0.73144 -0.644617 0.371583 -0.00819789 -0.666828 0.0945025 0.575093 0.280311 1.02139 0.815671 -0.10938 -0.0906974 0.874211 -0.508511 0.720665 0.367272 -0.917713 0.714152 0.864978 -0.679751 2.23223 0.598033 -0.528636 0.780269 -0.51711 -0.546639 -0.394493 -0.837267 -0.0270563 0.514619 -0.387963 -0.0932344 0.799516 -0.165224 0.534373 0.0638172 -0.563498 0.492072 -0.493084 -0.00217093 -0.0297962 -0.627106 0.675502 -0.200778 -0.530836 -0.699977 0.840004 0.671217 -0.744119 0.228751 -0.765079 -0.957685 -0.905065 -0.47021 -0.460779 -0.363936 0.733623 0.950761 0.162461 -0.0173943 0.71445 -0.333563 0.762038 -1.69159 1.04847 -0.130368 -0.426017 0.251448 0.942329 -0.946687 -0.106681 0.655044 0.120128 -0.5455 -0.386051 1.06915 0.496184 0.642207 -0.388317 -0.0582028 0.14147 -0.250914 0.848901 0.209743 0.8503 -0.0514125 -0.257474 -1.01675 0.745807 -0.699349 -0.138874 0.108121 -0.019162 0.19009 -1.4363 -0.732186 0.0426861 -0.631337 -0.109334 0.76616 0.883 0.0845518 -0.576574 0.550559 0.510987 0.40579 -0.765299 0.269846 0.811557 0.380276 -0.486401 -0.394581 0.941462 -0.537507 -0.835864 0.00675775 -0.0995646 0.817409 -0.172479 0.124041 5.9194 0.459337 0.414371 -0.580488 -0.928072 -0.684788 0.00478656 0.591366 -0.422394 0.99866 -0.639018 0.181035 0.0614983 0.405107 -0.335488 -0.967289 -0.0446297 0.510273 0.0870556 -0.71023 0.875243 -0.321466 -0.0775141 -0.755134 -0.0845435 0.352581 0.580939 0.0913715 0.526531 -0.723098 -0.0959318 0.658806 0.140608 -0.940744 -0.190955 -0.321476 0.708869 0.947119 0.53838 0.69959 0.393018 -0.350655 0.463888 -6.09525 0.186127 0.861083 0.0798592 0.540848 -0.914278 -0.537299 -0.0348842 0.162317 0.393378 0.743921 -0.981383 0.652231 0.545875 -0.372415 -0.460926 0.193932 -0.263345 0.659717 -0.849628 0.569305 0.64176 0.946476 -0.862966 -0.618337 0.66275 -0.178345 -0.908826 0.667173 -0.723461 -0.842802 -1.52472 -0.737416 0.610728 0.580512 0.741991 -0.287073 0.211415 -0.19289 0.532106 0.337362 0.0995641 0.261725 -0.0791018 -0.218489 -0.0285867 0.222283 0.0162059 -0.368385 -0.433177 0.34632 -0.118641 0.668699 0.897789 -0.359967 0.659118 -0.318145 2.77486 -0.714546 -0.641441 0.476525 -0.585334 0.789671 0.717602 0.552768 0.148109 0.437414 -0.60999 0.526273 0.960959 -0.844523 -0.593354 0.352076 -0.677738 -0.263161 0.0685587 0.161768 -0.544062 -0.439779 0.179095 0.703131 1.19133 0.598667 0.913133 -0.145963 0.0283532 -0.384718 -0.0697937 -0.567757 -0.814424 0.191464 -0.489639 -0.651004 0.39531 0.373292 0.0861823 -0.0707666 -0.714779 0.617263 0.737251 -2.7884 0.626239 -0.430723 0.672441 -0.48624 0.50705 0.518359 -0.142146 0.0703995 0.230762 0.283008 0.348959 0.387816 -0.0302879 -0.688955 -0.672289 -0.648707 1.02771 -0.867485 -0.910206 -0.183467 0.209953 -0.448798 0.879772 